{"learner":{"attributes":{"scikit_learn":"{\"_estimator_type\": \"regressor\"}"},"feature_names":["Olsen_P_mg_kg","pH","TOC_g_kg","% Clay","% Silt","% Sand"],"feature_types":["float","float","float","float","float","float"],"gradient_booster":{"model":{"gbtree_model_param":{"num_parallel_tree":"1","num_trees":"100"},"iteration_indptr":[0,1,2,3,4,5,6,7,8,9,10,11,12,13,14,15,16,17,18,19,20,21,22,23,24,25,26,27,28,29,30,31,32,33,34,35,36,37,38,39,40,41,42,43,44,45,46,47,48,49,50,51,52,53,54,55,56,57,58,59,60,61,62,63,64,65,66,67,68,69,70,71,72,73,74,75,76,77,78,79,80,81,82,83,84,85,86,87,88,89,90,91,92,93,94,95,96,97,98,99,100],"tree_info":[0,0,0,0,0,0,0,0,0,0,0,0,0,0,0,0,0,0,0,0,0,0,0,0,0,0,0,0,0,0,0,0,0,0,0,0,0,0,0,0,0,0,0,0,0,0,0,0,0,0,0,0,0,0,0,0,0,0,0,0,0,0,0,0,0,0,0,0,0,0,0,0,0,0,0,0,0,0,0,0,0,0,0,0,0,0,0,0,0,0,0,0,0,0,0,0,0,0,0,0],"trees":[{"base_weights":[-9.142E-1,-3.670105E1,1.1425777E2,-7.231457E1,-1.5993896E1,6.1357697E1,2.1190762E2,-1.5145635E1,-8.05873E0,7.004833E0,-7.766183E0,2.3271078E1,3.7695882E-1,2.9718775E1,5.8098366E1],"categories":[],"categories_nodes":[],"categories_segments":[],"categories_sizes":[],"default_left":[0,0,0,0,0,0,0,0,0,0,0,0,0,0,0],"id":0,"left_children":[1,3,5,7,9,11,13,-1,-1,-1,-1,-1,-1,-1,-1],"loss_changes":[1.3560919E6,1.8394456E5,3.899212E5,7.0048438E3,1.877761E5,1.6986608E5,9.1172125E4,0E0,0E0,0E0,0E0,0E0,0E0,0E0,0E0],"parents":[2147483647,0,0,1,1,2,2,3,3,4,4,5,5,6,6],"right_children":[2,4,6,8,10,12,14,-1,-1,-1,-1,-1,-1,-1,-1],"split_conditions":[4.366E1,1.94E1,6.374E1,8.25E0,2.4137333E1,3.2128E1,4.5303665E1,-1.5145635E1,-8.05873E0,7.004833E0,-7.766183E0,2.3271078E1,3.7695882E-1,2.9718775E1,5.8098366E1],"split_indices":[0,0,0,1,3,3,3,0,0,0,0,0,0,0,0],"split_type":[0,0,0,0,0,0,0,0,0,0,0,0,0,0,0],"sum_hessian":[3.27E2,2.5E2,7.7E1,9.1E1,1.59E2,5.1E1,2.6E1,8.1E1,1E1,4.9E1,1.1E2,2.6E1,2.5E1,1.6E1,1E1],"tree_param":{"num_deleted":"0","num_feature":"6","num_nodes":"15","size_leaf_vector":"1"}},{"base_weights":[-6.4699754E-2,-3.2917435E1,8.080428E1,-4.8784042E1,-3.1776626E0,4.8613052E1,1.5149838E2,-5.3634543E0,-1.136408E1,-7.128406E0,4.9661384E0,1.8181807E1,-3.3401296E0,2.643832E0,3.3512627E1],"categories":[],"categories_nodes":[],"categories_segments":[],"categories_sizes":[],"default_left":[0,0,0,0,0,0,0,0,0,0,0,0,0,0,0],"id":1,"left_children":[1,3,5,7,9,11,13,-1,-1,-1,-1,-1,-1,-1,-1],"loss_changes":[8.368848E5,1.0554372E5,1.9972669E5,2.4250031E4,7.271761E4,1.7831867E5,5.9984625E4,0E0,0E0,0E0,0E0,0E0,0E0,0E0,0E0],"parents":[2147483647,0,0,1,1,2,2,3,3,4,4,5,5,6,6],"right_children":[2,4,6,8,10,12,14,-1,-1,-1,-1,-1,-1,-1,-1],"split_conditions":[4.06E1,2.832E1,6.374E1,2.115E1,6.69E0,3.7449E1,2.0272167E1,-5.3634543E0,-1.136408E1,-7.128406E0,4.9661384E0,1.8181807E1,-3.3401296E0,2.643832E0,3.3512627E1],"split_indices":[0,0,0,3,1,3,3,0,0,0,0,0,0,0,0],"split_type":[0,0,0,0,0,0,0,0,0,0,0,0,0,0,0],"sum_hessian":[3.13E2,2.23E2,9E1,1.45E2,7.8E1,6.3E1,2.7E1,4E1,1.05E2,3.6E1,4.2E1,3.8E1,2.5E1,3E0,2.4E1],"tree_param":{"num_deleted":"0","num_feature":"6","num_nodes":"15","size_leaf_vector":"1"}},{"base_weights":[2.1320171E0,-1.4486576E1,1.1609372E2,-3.6464897E1,2.023136E1,8.074722E1,1.6540323E2,-1.1419576E1,-5.448446E0,-1.8713391E0,1.329303E1,2.654576E0,2.5261255E1,1.3021004E1,4.2838543E1],"categories":[],"categories_nodes":[],"categories_segments":[],"categories_sizes":[],"default_left":[0,0,0,0,0,0,0,0,0,0,0,0,0,0,0],"id":2,"left_children":[1,3,5,7,9,11,13,-1,-1,-1,-1,-1,-1,-1,-1],"loss_changes":[6.3992044E5,2.258351E5,6.1589625E4,3.288725E4,1.5793822E5,8.132336E4,6.924444E4,0E0,0E0,0E0,0E0,0E0,0E0,0E0,0E0],"parents":[2147483647,0,0,1,1,2,2,3,3,4,4,5,5,6,6],"right_children":[2,4,6,8,10,12,14,-1,-1,-1,-1,-1,-1,-1,-1],"split_conditions":[5.61E1,3.156E1,7.92E1,1.412E1,2.889914E1,6.87E0,4.5303665E1,-1.1419576E1,-5.448446E0,-1.8713391E0,1.329303E1,2.654576E0,2.5261255E1,1.3021004E1,4.2838543E1],"split_indices":[0,0,0,0,5,1,3,0,0,0,0,0,0,0,0],"split_type":[0,0,0,0,0,0,0,0,0,0,0,0,0,0,0],"sum_hessian":[3.36E2,2.94E2,4.2E1,1.8E2,1.14E2,2.6E1,1.6E1,5.4E1,1.26E2,7E1,4.4E1,1.1E1,1.5E1,6E0,1E1],"tree_param":{"num_deleted":"0","num_feature":"6","num_nodes":"15","size_leaf_vector":"1"}},{"base_weights":[-3.4087107E-1,-1.016833E1,1.0845069E2,-2.6535406E1,2.0193504E1,1.21768425E2,2.0171864E1,-8.388392E0,-3.4461014E0,9.058988E0,-2.0246933E0,2.6273941E1,1.5138204E0,-2.267858E0,8.991813E0],"categories":[],"categories_nodes":[],"categories_segments":[],"categories_sizes":[],"default_left":[0,0,0,0,0,0,0,0,0,0,0,0,0,0,0],"id":3,"left_children":[1,3,5,7,9,11,13,-1,-1,-1,-1,-1,-1,-1,-1],"loss_changes":[3.7423422E5,1.6005178E5,3.163825E4,2.9238812E4,8.645148E4,2.6417156E4,4.415169E3,0E0,0E0,0E0,0E0,0E0,0E0,0E0,0E0],"parents":[2147483647,0,0,1,1,2,2,3,3,4,4,5,5,6,6],"right_children":[2,4,6,8,10,12,14,-1,-1,-1,-1,-1,-1,-1,-1],"split_conditions":[6.374E1,3.402E1,4.7254295E1,1.76E1,3.6784668E1,1.79E1,7.92E1,-8.388392E0,-3.4461014E0,9.058988E0,-2.0246933E0,2.6273941E1,1.5138204E0,-2.267858E0,8.991813E0],"split_indices":[0,0,4,0,3,2,0,0,0,0,0,0,0,0,0],"split_type":[0,0,0,0,0,0,0,0,0,0,0,0,0,0,0],"sum_hessian":[3.48E2,3.2E2,2.8E1,2.08E2,1.12E2,2.4E1,4E0,7.7E1,1.31E2,6.1E1,5.1E1,2.2E1,2E0,2E0,2E0],"tree_param":{"num_deleted":"0","num_feature":"6","num_nodes":"15","size_leaf_vector":"1"}},{"base_weights":[4.098223E0,-1.4913618E1,5.5774544E1,-2.4734516E1,7.030313E0,3.6759453E1,1.2334165E2,-6.795289E0,-3.2054756E0,5.6429796E0,-3.8114488E0,2.8748765E0,1.5506576E1,8.037376E0,3.7544804E1],"categories":[],"categories_nodes":[],"categories_segments":[],"categories_sizes":[],"default_left":[0,0,0,0,0,0,0,0,0,0,0,0,0,0,0],"id":4,"left_children":[1,3,5,7,9,11,13,-1,-1,-1,-1,-1,-1,-1,-1],"loss_changes":[3.397812E5,5.469769E4,1.1495194E5,1.3537828E4,4.4197367E4,6.6426484E4,9.952997E4,0E0,0E0,0E0,0E0,0E0,0E0,0E0,0E0],"parents":[2147483647,0,0,1,1,2,2,3,3,4,4,5,5,6,6],"right_children":[2,4,6,8,10,12,14,-1,-1,-1,-1,-1,-1,-1,-1],"split_conditions":[4.196E1,3.028E1,6.944E1,1.802E1,3.7766666E1,2.889914E1,3.4988033E1,-6.795289E0,-3.2054756E0,5.6429796E0,-3.8114488E0,2.8748765E0,1.5506576E1,8.037376E0,3.7544804E1],"split_indices":[0,0,0,0,3,5,4,0,0,0,0,0,0,0,0],"split_type":[0,0,0,0,0,0,0,0,0,0,0,0,0,0,0],"sum_hessian":[3.44E2,2.52E2,9.2E1,1.74E2,7.8E1,7.3E1,1.9E1,8.3E1,9.1E1,4.3E1,3.5E1,4.8E1,2.5E1,9E0,1E1],"tree_param":{"num_deleted":"0","num_feature":"6","num_nodes":"15","size_leaf_vector":"1"}},{"base_weights":[-2.5679284E-1,-1.481821E1,3.3768986E1,-2.5642756E1,-5.6727743E0,2.305084E1,1.0102486E2,-5.5565805E0,-1.4744394E0,4.1067424E0,-2.9760785E0,-2.1665754E0,7.2099433E0,2.2512735E1,-4.897977E0],"categories":[],"categories_nodes":[],"categories_segments":[],"categories_sizes":[],"default_left":[0,0,0,0,0,0,0,0,0,0,0,0,0,0,0],"id":5,"left_children":[1,3,5,7,9,11,13,-1,-1,-1,-1,-1,-1,-1,-1],"loss_changes":[1.7193078E5,2.3910371E4,7.2640555E4,4.135461E3,3.2398355E4,4.0471492E4,2.3032766E4,0E0,0E0,0E0,0E0,0E0,0E0,0E0,0E0],"parents":[2147483647,0,0,1,1,2,2,3,3,4,4,5,5,6,6],"right_children":[2,4,6,8,10,12,14,-1,-1,-1,-1,-1,-1,-1,-1],"split_conditions":[4.06E1,2.232E1,7.92E1,8.25E0,2.3101444E1,6.24E0,2.038E1,-5.5565805E0,-1.4744394E0,4.1067424E0,-2.9760785E0,-2.1665754E0,7.2099433E0,2.2512735E1,-4.897977E0],"split_indices":[0,0,0,1,3,1,2,0,0,0,0,0,0,0,0],"split_type":[0,0,0,0,0,0,0,0,0,0,0,0,0,0,0],"sum_hessian":[3.45E2,2.42E2,1.03E2,1.1E2,1.32E2,9E1,1.3E1,9.8E1,1.2E1,3.4E1,9.8E1,2.5E1,6.5E1,1.2E1,1E0],"tree_param":{"num_deleted":"0","num_feature":"6","num_nodes":"15","size_leaf_vector":"1"}},{"base_weights":[1.5243583E0,-1.4896013E1,2.5898458E1,-2.2524952E1,-8.126039E0,1.7087856E1,8.172858E1,-5.1914988E0,1.0845704E0,-4.8378158E0,1.4199673E-1,-9.052836E-1,1.0610155E1,-8.384216E0,1.9960972E1],"categories":[],"categories_nodes":[],"categories_segments":[],"categories_sizes":[],"default_left":[0,0,0,0,0,0,0,0,0,0,0,0,0,0,0],"id":6,"left_children":[1,3,5,7,9,11,13,-1,-1,-1,-1,-1,-1,-1,-1],"loss_changes":[1.3326273E5,1.0094855E4,6.451764E4,9.0624375E3,1.5204043E4,9.118567E4,4.441618E4,0E0,0E0,0E0,0E0,0E0,0E0,0E0,0E0],"parents":[2147483647,0,0,1,1,2,2,3,3,4,4,5,5,6,6],"right_children":[2,4,6,8,10,12,14,-1,-1,-1,-1,-1,-1,-1,-1],"split_conditions":[3.402E1,6.69E0,7.466E1,5.8946E1,1.546E1,2.8462366E1,2.0272167E1,-5.1914988E0,1.0845704E0,-4.8378158E0,1.4199673E-1,-9.052836E-1,1.0610155E1,-8.384216E0,1.9960972E1],"split_indices":[0,1,0,3,0,5,3,0,0,0,0,0,0,0,0],"split_type":[0,0,0,0,0,0,0,0,0,0,0,0,0,0,0],"sum_hessian":[3.31E2,1.98E2,1.33E2,9.2E1,1.06E2,1.16E2,1.7E1,8.2E1,1E1,3.7E1,6.9E1,7.3E1,4.3E1,2E0,1.5E1],"tree_param":{"num_deleted":"0","num_feature":"6","num_nodes":"15","size_leaf_vector":"1"}},{"base_weights":[-2.3444335E0,-1.2686915E1,9.887924E0,-2.4565003E0,-1.8092123E1,1.732306E1,-2.5952255E1,-4.029162E0,1.5552529E0,-2.3056257E0,-5.110649E0,-3.108855E0,5.32639E0,-8.638331E0,-3.72417E0],"categories":[],"categories_nodes":[],"categories_segments":[],"categories_sizes":[],"default_left":[0,0,0,0,0,0,0,0,0,0,0,0,0,0,0],"id":7,"left_children":[1,3,5,7,9,11,13,-1,-1,-1,-1,-1,-1,-1,-1],"loss_changes":[4.1115637E4,9.68792E3,4.0154582E4,1.1379312E4,5.3375195E3,3.8352805E4,2.4818496E3,0E0,0E0,0E0,0E0,0E0,0E0,0E0,0E0],"parents":[2147483647,0,0,1,1,2,2,3,3,4,4,5,5,6,6],"right_children":[2,4,6,8,10,12,14,-1,-1,-1,-1,-1,-1,-1,-1],"split_conditions":[3.156E1,2.6006332E1,1.79E1,7.01E0,2.0815054E1,5.93E0,3.7609333E1,-4.029162E0,1.5552529E0,-2.3056257E0,-5.110649E0,-3.108855E0,5.32639E0,-8.638331E0,-3.72417E0],"split_indices":[0,3,2,1,5,1,3,0,0,0,0,0,0,0,0],"split_type":[0,0,0,0,0,0,0,0,0,0,0,0,0,0,0],"sum_hessian":[3.23E2,1.75E2,1.48E2,6.1E1,1.14E2,1.23E2,2.5E1,2.2E1,3.9E1,6.2E1,5.2E1,2.7E1,9.6E1,6E0,1.9E1],"tree_param":{"num_deleted":"0","num_feature":"6","num_nodes":"15","size_leaf_vector":"1"}},{"base_weights":[2.4613373E0,-7.4526286E-1,6.360629E1,-7.692392E0,1.1038115E1,1.655693E1,1.2034837E2,-1.1453139E0,-8.1595955E0,-1.047145E0,8.665818E0,9.980791E0,-4.3723947E-1,3.1531546E1,8.724915E0],"categories":[],"categories_nodes":[],"categories_segments":[],"categories_sizes":[],"default_left":[0,0,0,0,0,0,0,0,0,0,0,0,0,0,0],"id":8,"left_children":[1,3,5,7,9,11,13,-1,-1,-1,-1,-1,-1,-1,-1],"loss_changes":[7.082774E4,2.824497E4,4.6061617E4,1.3888664E4,6.7490625E4,6.9844023E3,1.6022375E4,0E0,0E0,0E0,0E0,0E0,0E0,0E0,0E0],"parents":[2147483647,0,0,1,1,2,2,3,3,4,4,5,5,6,6],"right_children":[2,4,6,8,10,12,14,-1,-1,-1,-1,-1,-1,-1,-1],"split_conditions":[7.524E1,3.408E1,3.2095356E1,3.298E1,2.8398172E1,5.19E0,6.88E0,-1.1453139E0,-8.1595955E0,-1.047145E0,8.665818E0,9.980791E0,-4.3723947E-1,3.1531546E1,8.724915E0],"split_indices":[0,0,4,0,5,1,1,0,0,0,0,0,0,0,0],"split_type":[0,0,0,0,0,0,0,0,0,0,0,0,0,0,0],"sum_hessian":[3.6E2,3.43E2,1.7E1,2.16E2,1.27E2,1E1,7E0,2.05E2,1.1E1,8.5E1,4.2E1,3E0,7E0,4E0,3E0],"tree_param":{"num_deleted":"0","num_feature":"6","num_nodes":"15","size_leaf_vector":"1"}},{"base_weights":[-1.1281923E-1,-9.347119E0,1.1276903E1,-4.2037177E0,-1.9992477E1,1.5338184E1,-2.6297173E1,-2.2811906E0,8.873872E-1,-3.2243912E0,-4.495622E0,5.6141967E-1,6.232822E0,-7.474563E0,-6.9098204E-1],"categories":[],"categories_nodes":[],"categories_segments":[],"categories_sizes":[],"default_left":[0,0,0,0,0,0,0,0,0,0,0,0,0,0,0],"id":9,"left_children":[1,3,5,7,9,11,13,-1,-1,-1,-1,-1,-1,-1,-1],"loss_changes":[3.523423E4,1.0045325E4,2.3293184E4,7.8918413E3,2.1485156E2,2.6883498E4,3.6657705E3,0E0,0E0,0E0,0E0,0E0,0E0,0E0,0E0],"parents":[2147483647,0,0,1,1,2,2,3,3,4,4,5,5,6,6],"right_children":[2,4,6,8,10,12,14,-1,-1,-1,-1,-1,-1,-1,-1],"split_conditions":[3.156E1,3.8395E1,2.069E1,1.846E1,4.6377E1,6.84E0,4.47E1,-2.2811906E0,8.873872E-1,-3.2243912E0,-4.495622E0,5.6141967E-1,6.232822E0,-7.474563E0,-6.9098204E-1],"split_indices":[0,3,2,0,3,1,3,0,0,0,0,0,0,0,0],"split_type":[0,0,0,0,0,0,0,0,0,0,0,0,0,0,0],"sum_hessian":[3.33E2,1.84E2,1.49E2,1.25E2,5.9E1,1.35E2,1.4E1,6.8E1,5.7E1,2.6E1,3.3E1,7.6E1,5.9E1,9E0,5E0],"tree_param":{"num_deleted":"0","num_feature":"6","num_nodes":"15","size_leaf_vector":"1"}},{"base_weights":[1.9746716E0,-1.5136663E0,2.6515038E1,-3.2886524E1,6.914924E-1,3.939012E1,-3.1518454E1,-3.870752E0,-8.626128E0,5.031666E0,-3.1425473E-1,9.947391E0,-6.11378E0,1.5896271E0,-7.658397E0],"categories":[],"categories_nodes":[],"categories_segments":[],"categories_sizes":[],"default_left":[0,0,0,0,0,0,0,0,0,0,0,0,0,0,0],"id":10,"left_children":[1,3,5,7,9,11,13,-1,-1,-1,-1,-1,-1,-1,-1],"loss_changes":[2.8204209E4,2.0016377E4,3.187615E4,1.799252E3,1.504283E4,2.6131453E4,2.442975E3,0E0,0E0,0E0,0E0,0E0,0E0,0E0,0E0],"parents":[2147483647,0,0,1,1,2,2,3,3,4,4,5,5,6,6],"right_children":[2,4,6,8,10,12,14,-1,-1,-1,-1,-1,-1,-1,-1],"split_conditions":[5.516E1,1.9447495E1,4.7254295E1,2.686E1,1.3946E1,1.79E1,5.96E1,-3.870752E0,-8.626128E0,5.031666E0,-3.1425473E-1,9.947391E0,-6.11378E0,1.5896271E0,-7.658397E0],"split_indices":[0,4,4,0,3,2,0,0,0,0,0,0,0,0,0],"split_type":[0,0,0,0,0,0,0,0,0,0,0,0,0,0,0],"sum_hessian":[3.28E2,2.88E2,4E1,1.8E1,2.7E2,3.3E1,7E0,9E0,9E0,2.2E1,2.48E2,2.9E1,4E0,1E0,6E0],"tree_param":{"num_deleted":"0","num_feature":"6","num_nodes":"15","size_leaf_vector":"1"}},{"base_weights":[3.5382405E-1,-5.8963943E0,1.6479614E1,-2.5195192E1,-4.123216E0,-2.2771494E1,2.3142565E1,-5.746326E0,-2.9046E0,-1.2110392E0,4.9749994E0,1.1098737E1,-6.612128E0,9.223536E0,1.205975E0],"categories":[],"categories_nodes":[],"categories_segments":[],"categories_sizes":[],"default_left":[0,0,0,0,0,0,0,0,0,0,0,0,0,0,0],"id":11,"left_children":[1,3,5,7,9,11,13,-1,-1,-1,-1,-1,-1,-1,-1],"loss_changes":[3.3559355E4,8.108963E3,2.484911E4,3.375625E2,1.2531918E4,1.3108599E4,3.1175191E4,0E0,0E0,0E0,0E0,0E0,0E0,0E0,0E0],"parents":[2147483647,0,0,1,1,2,2,3,3,4,4,5,5,6,6],"right_children":[2,4,6,8,10,12,14,-1,-1,-1,-1,-1,-1,-1,-1],"split_conditions":[4.018E1,1.8958559E1,1.2891183E1,1.5490355E1,5.4494E1,4.22E1,6.71E0,-5.746326E0,-2.9046E0,-1.2110392E0,4.9749994E0,1.1098737E1,-6.612128E0,9.223536E0,1.205975E0],"split_indices":[0,4,5,4,3,0,1,0,0,0,0,0,0,0,0],"split_type":[0,0,0,0,0,0,0,0,0,0,0,0,0,0,0],"sum_hessian":[3.31E2,2.39E2,9.2E1,1.9E1,2.2E2,1.3E1,7.9E1,1.3E1,6E0,2.07E2,1.3E1,1E0,1.2E1,3.3E1,4.6E1],"tree_param":{"num_deleted":"0","num_feature":"6","num_nodes":"15","size_leaf_vector":"1"}},{"base_weights":[-2.0007768E-1,2.7220347E0,-2.0078796E1,-1.1238287E1,9.137615E0,-1.605034E1,-9.980415E0,-1.3949592E0,-4.5881195E0,-4.3659735E0,2.6654356E0,-3.4251487E0,2.8041208E0],"categories":[],"categories_nodes":[],"categories_segments":[],"categories_sizes":[],"default_left":[0,0,0,0,0,0,0,0,0,0,0,0,0],"id":12,"left_children":[1,3,5,7,9,11,-1,-1,-1,-1,-1,-1,-1],"loss_changes":[2.0850105E4,2.813609E4,4.725578E3,4.779371E3,2.818508E4,1.5983262E3,0E0,0E0,0E0,0E0,0E0,0E0,0E0],"parents":[2147483647,0,0,1,1,2,2,3,3,4,4,5,5],"right_children":[2,4,6,8,10,12,-1,-1,-1,-1,-1,-1,-1],"split_conditions":[1.886E1,1.7865524E1,5.408E1,3.112E1,2.2649477E1,5.38E1,-9.980415E0,-1.3949592E0,-4.5881195E0,-4.3659735E0,2.6654356E0,-3.4251487E0,2.8041208E0],"split_indices":[2,2,0,0,4,0,0,0,0,0,0,0,0],"split_type":[0,0,0,0,0,0,0,0,0,0,0,0,0],"sum_hessian":[3.57E2,3.12E2,4.5E1,9.8E1,2.14E2,4.1E1,4E0,7.3E1,2.5E1,2.5E1,1.89E2,4E1,1E0],"tree_param":{"num_deleted":"0","num_feature":"6","num_nodes":"13","size_leaf_vector":"1"}},{"base_weights":[2.3734481E0,-3.646284E0,1.9402985E1,8.057557E-1,-1.0906367E1,7.4108505E1,1.1638438E1,-1.5274458E0,1.7257394E0,-3.192478E0,4.2464024E-1,2.1578278E1,-2.3968809E0,8.673054E-1,8.598191E0],"categories":[],"categories_nodes":[],"categories_segments":[],"categories_sizes":[],"default_left":[0,0,0,0,0,0,0,0,0,0,0,0,0,0,0],"id":13,"left_children":[1,3,5,7,9,11,13,-1,-1,-1,-1,-1,-1,-1,-1],"loss_changes":[3.5335305E4,8.250944E3,3.7366203E4,1.0567685E4,6.424035E3,3.3286156E4,1.8128232E4,0E0,0E0,0E0,0E0,0E0,0E0,0E0,0E0],"parents":[2147483647,0,0,1,1,2,2,3,3,4,4,5,5,6,6],"right_children":[2,4,6,8,10,12,14,-1,-1,-1,-1,-1,-1,-1,-1],"split_conditions":[4.196E1,3.8270332E1,4.45E1,2.15E1,5.4802666E1,3.7865517E1,7.92E1,-1.5274458E0,1.7257394E0,-3.192478E0,4.2464024E-1,2.1578278E1,-2.3968809E0,8.673054E-1,8.598191E0],"split_indices":[0,3,0,0,3,4,0,0,0,0,0,0,0,0,0],"split_type":[0,0,0,0,0,0,0,0,0,0,0,0,0,0,0],"sum_hessian":[3.43E2,2.54E2,8.9E1,1.58E2,9.6E1,1E1,7.9E1,7.6E1,8.2E1,6.9E1,2.7E1,7E0,3E0,6.5E1,1.4E1],"tree_param":{"num_deleted":"0","num_feature":"6","num_nodes":"15","size_leaf_vector":"1"}},{"base_weights":[-3.2581544E0,-2.2787046E1,-1.143061E0,-8.389085E0,-1.9771645E1,2.3814701E1,-3.0310392E0,-2.6491182E0,4.8122697E0,5.837702E-1,1.8019531E1,-2.4413776E0,5.111276E-1],"categories":[],"categories_nodes":[],"categories_segments":[],"categories_sizes":[],"default_left":[0,0,0,0,0,0,0,0,0,0,0,0,0],"id":14,"left_children":[1,3,5,7,-1,9,11,-1,-1,-1,-1,-1,-1],"loss_changes":[1.3522133E4,3.4219305E4,1.4066737E4,4.7313867E3,0E0,2.882283E4,1.4230909E4,0E0,0E0,0E0,0E0,0E0,0E0],"parents":[2147483647,0,0,1,1,2,2,3,3,5,5,6,6],"right_children":[2,4,6,8,-1,10,12,-1,-1,-1,-1,-1,-1],"split_conditions":[5.93E0,3.5066666E1,6.12E0,9.114E1,-1.9771645E1,6.09E0,6.7E0,-2.6491182E0,4.8122697E0,5.837702E-1,1.8019531E1,-2.4413776E0,5.111276E-1],"split_indices":[1,5,1,0,0,1,1,0,0,0,0,0,0],"split_type":[0,0,0,0,0,0,0,0,0,0,0,0,0],"sum_hessian":[3.27E2,3.1E1,2.96E2,2.7E1,4E0,2E1,2.76E2,2.4E1,3E0,1.6E1,4E0,1.04E2,1.72E2],"tree_param":{"num_deleted":"0","num_feature":"6","num_nodes":"13","size_leaf_vector":"1"}},{"base_weights":[-1.1416272E0,-8.551922E0,6.9985843E0,-2.7753103E1,-4.526665E0,-7.137441E-2,2.5696283E1,-9.5887613E-1,-8.813609E0,5.587805E0,-1.889741E0,4.6890917E0,-7.308424E-1,1.23464985E1,2.1443055E0],"categories":[],"categories_nodes":[],"categories_segments":[],"categories_sizes":[],"default_left":[0,0,0,0,0,0,0,0,0,0,0,0,0,0,0],"id":15,"left_children":[1,3,5,7,9,11,13,-1,-1,-1,-1,-1,-1,-1,-1],"loss_changes":[2.075008E4,1.3786515E4,2.1681316E4,1.14004E4,2.4233596E4,1.0196514E4,2.3621635E4,0E0,0E0,0E0,0E0,0E0,0E0,0E0,0E0],"parents":[2147483647,0,0,1,1,2,2,3,3,4,4,5,5,6,6],"right_children":[2,4,6,8,10,12,14,-1,-1,-1,-1,-1,-1,-1,-1],"split_conditions":[6.9E0,2.7456E1,4.106E1,1.898E1,3.1684668E1,7.04E0,2.0574E1,-9.5887613E-1,-8.813609E0,5.587805E0,-1.889741E0,4.6890917E0,-7.308424E-1,1.23464985E1,2.1443055E0],"split_indices":[1,3,0,0,3,1,3,0,0,0,0,0,0,0,0],"split_type":[0,0,0,0,0,0,0,0,0,0,0,0,0,0,0],"sum_hessian":[3.42E2,1.79E2,1.63E2,3E1,1.49E2,1.19E2,4.4E1,1.3E1,1.7E1,1.9E1,1.3E2,1.5E1,1.04E2,1.2E1,3.2E1],"tree_param":{"num_deleted":"0","num_feature":"6","num_nodes":"15","size_leaf_vector":"1"}},{"base_weights":[2.7762422E-1,3.0802243E0,-1.562708E1,-8.48508E0,8.44685E0,-1.3019908E1,-3.7530518E1,-2.701198E0,4.3087658E-1,1.7075884E-1,3.6947668E0,-4.814249E0,-1.8956413E0,-8.5245905E0,-1.7160782E0],"categories":[],"categories_nodes":[],"categories_segments":[],"categories_sizes":[],"default_left":[0,0,0,0,0,0,0,0,0,0,0,0,0,0,0],"id":16,"left_children":[1,3,5,7,9,11,13,-1,-1,-1,-1,-1,-1,-1,-1],"loss_changes":[1.547092E4,1.8381336E4,2.48087E3,5.0505576E3,1.5363588E4,1.6505933E3,3.7141162E2,0E0,0E0,0E0,0E0,0E0,0E0,0E0,0E0],"parents":[2147483647,0,0,1,1,2,2,3,3,4,4,5,5,6,6],"right_children":[2,4,6,8,10,12,14,-1,-1,-1,-1,-1,-1,-1,-1],"split_conditions":[1.79E1,1.7865524E1,5.982E1,5.4975334E1,6.7E0,2.9904667E1,8.468E1,-2.701198E0,4.3087658E-1,1.7075884E-1,3.6947668E0,-4.814249E0,-1.8956413E0,-8.5245905E0,-1.7160782E0],"split_indices":[2,2,0,4,1,3,0,0,0,0,0,0,0,0,0],"split_type":[0,0,0,0,0,0,0,0,0,0,0,0,0,0,0],"sum_hessian":[3.45E2,2.94E2,5.1E1,9.3E1,2.01E2,4.7E1,4E0,6.3E1,3E1,1.15E2,8.6E1,1E1,3.7E1,3E0,1E0],"tree_param":{"num_deleted":"0","num_feature":"6","num_nodes":"15","size_leaf_vector":"1"}},{"base_weights":[-6.1631805E-1,-2.554606E0,2.6222345E1,-9.106224E-1,-1.9073687E1,8.35608E1,2.4672623E0,6.627931E-1,-1.5691445E0,-5.5869865E-1,-9.388014E0,-2.7725484E0,2.5060553E1,-6.054161E0,9.43474E0],"categories":[],"categories_nodes":[],"categories_segments":[],"categories_sizes":[],"default_left":[0,0,0,0,0,0,0,0,0,0,0,0,0,0,0],"id":17,"left_children":[1,3,5,7,9,11,13,-1,-1,-1,-1,-1,-1,-1,-1],"loss_changes":[1.8534465E4,8.998789E3,3.2483744E4,8.903275E3,1.3478976E4,3.0203586E4,2.777283E4,0E0,0E0,0E0,0E0,0E0,0E0,0E0,0E0],"parents":[2147483647,0,0,1,1,2,2,3,3,4,4,5,5,6,6],"right_children":[2,4,6,8,10,12,14,-1,-1,-1,-1,-1,-1,-1,-1],"split_conditions":[6.818E1,5.024E1,1.6413548E1,3.834133E1,2.535E1,5.19E0,4.1743504E1,6.627931E-1,-1.5691445E0,-5.5869865E-1,-9.388014E0,-2.7725484E0,2.5060553E1,-6.054161E0,9.43474E0],"split_indices":[0,0,5,3,5,1,4,0,0,0,0,0,0,0,0],"split_type":[0,0,0,0,0,0,0,0,0,0,0,0,0,0,0],"sum_hessian":[3.54E2,3.31E2,2.3E1,3.02E2,2.9E1,6E0,1.7E1,1.88E2,1.14E2,1.9E1,1E1,2E0,4E0,1E1,7E0],"tree_param":{"num_deleted":"0","num_feature":"6","num_nodes":"15","size_leaf_vector":"1"}},{"base_weights":[1.0623503E0,-3.7493348E-1,3.1268742E1,5.601726E0,-8.82496E0,-8.955744E0,4.5331142E1,-4.43778E-1,3.3384194E0,-5.2610713E-1,-3.6700668E0,1.5614334E1,5.860897E0],"categories":[],"categories_nodes":[],"categories_segments":[],"categories_sizes":[],"default_left":[0,0,0,0,0,0,0,0,0,0,0,0,0],"id":18,"left_children":[1,3,5,7,9,-1,11,-1,-1,-1,-1,-1,-1],"loss_changes":[1.5293858E4,1.7068924E4,1.9140434E4,1.7210277E4,8.212317E3,0E0,5.058246E3,0E0,0E0,0E0,0E0,0E0,0E0],"parents":[2147483647,0,0,1,1,2,2,3,3,4,4,6,6],"right_children":[2,4,6,8,10,-1,12,-1,-1,-1,-1,-1,-1],"split_conditions":[8.234E1,3.7449E1,1.6463E1,3.128E1,2.0669731E1,-8.955744E0,1.5027419E1,-4.43778E-1,3.3384194E0,-5.2610713E-1,-3.6700668E0,1.5614334E1,5.860897E0],"split_indices":[0,3,3,0,5,0,5,0,0,0,0,0,0],"split_type":[0,0,0,0,0,0,0,0,0,0,0,0,0],"sum_hessian":[3.51E2,3.36E2,1.5E1,1.97E2,1.39E2,2E0,1.3E1,1.16E2,8.1E1,8.5E1,5.4E1,3E0,1E1],"tree_param":{"num_deleted":"0","num_feature":"6","num_nodes":"13","size_leaf_vector":"1"}},{"base_weights":[-9.27141E-1,-3.4532906E1,3.8757998E-1,-1.660533E1,-1.8167988E1,-1.4887231E1,2.1174333E0,-2.0691297E0,-4.592466E0,-1.7413634E0,-4.840245E0,9.303471E-2,6.695872E0],"categories":[],"categories_nodes":[],"categories_segments":[],"categories_sizes":[],"default_left":[0,0,0,0,0,0,0,0,0,0,0,0,0],"id":19,"left_children":[1,3,5,-1,7,9,11,-1,-1,-1,-1,-1,-1],"loss_changes":[1.5256245E4,8.80832E3,8.830442E3,0E0,1.7497266E2,1.7464717E3,1.5529842E4,0E0,0E0,0E0,0E0,0E0,0E0],"parents":[2147483647,0,0,1,1,2,2,4,4,5,5,6,6],"right_children":[2,4,6,-1,8,10,12,-1,-1,-1,-1,-1,-1],"split_conditions":[1.1407666E1,5.93E0,1.094215E1,-1.660533E1,7.42E0,3.362E1,5.8946E1,-2.0691297E0,-4.592466E0,-1.7413634E0,-4.840245E0,9.303471E-2,6.695872E0],"split_indices":[3,1,5,0,1,0,3,0,0,0,0,0,0],"split_type":[0,0,0,0,0,0,0,0,0,0,0,0,0],"sum_hessian":[3.44E2,1.2E1,3.32E2,2E0,1E1,3.3E1,2.99E2,5E0,5E0,2.1E1,1.2E1,2.85E2,1.4E1],"tree_param":{"num_deleted":"0","num_feature":"6","num_nodes":"13","size_leaf_vector":"1"}},{"base_weights":[1.3613603E0,3.7260737E0,-1.3062142E1,-2.974548E0,7.9507346E0,-3.0517756E1,-6.704156E0,9.8077583E-1,-5.6627045E0,1.2547756E0,9.316075E0,-1.7152998E0,-6.346547E0,-7.750886E-1,-5.531564E0],"categories":[],"categories_nodes":[],"categories_segments":[],"categories_sizes":[],"default_left":[0,0,0,0,0,0,0,0,0,0,0,0,0,0,0],"id":20,"left_children":[1,3,5,7,9,11,13,-1,-1,-1,-1,-1,-1,-1,-1],"loss_changes":[1.1133591E4,7.9498496E3,4.900601E3,2.1898652E4,1.0849297E4,4.7742188E1,1.9673304E3,0E0,0E0,0E0,0E0,0E0,0E0,0E0,0E0],"parents":[2147483647,0,0,1,1,2,2,3,3,4,4,5,5,6,6],"right_children":[2,4,6,8,10,12,14,-1,-1,-1,-1,-1,-1,-1,-1],"split_conditions":[1.79E1,3.4642517E1,2.9904667E1,3.1118366E1,6.818E1,2.002E1,5.38E1,9.8077583E-1,-5.6627045E0,1.2547756E0,9.316075E0,-1.7152998E0,-6.346547E0,-7.750886E-1,-5.531564E0],"split_indices":[2,4,3,4,0,0,0,0,0,0,0,0,0,0,0],"split_type":[0,0,0,0,0,0,0,0,0,0,0,0,0,0,0],"sum_hessian":[3.24E2,2.79E2,4.5E1,1.08E2,1.71E2,1.1E1,3.4E1,8.3E1,2.5E1,1.65E2,6E0,1E0,1E1,3.1E1,3E0],"tree_param":{"num_deleted":"0","num_feature":"6","num_nodes":"15","size_leaf_vector":"1"}},{"base_weights":[-5.277251E-1,-1.095493E0,9.402564E0,-7.6405563E0,3.2193038E0,-6.465503E-1,-4.179916E0,-9.58533E-1,3.049394E0],"categories":[],"categories_nodes":[],"categories_segments":[],"categories_sizes":[],"default_left":[0,0,0,0,0,0,0,0,0],"id":21,"left_children":[1,3,-1,5,7,-1,-1,-1,-1],"loss_changes":[9.147803E3,9.456964E3,0E0,7.7053794E3,1.9538857E4,0E0,0E0,0E0,0E0],"parents":[2147483647,0,0,1,1,3,3,4,4],"right_children":[2,4,-1,6,8,-1,-1,-1,-1],"split_conditions":[1.0532E2,3.5093052E1,9.402564E0,4.424E1,2.5920538E1,-6.465503E-1,-4.179916E0,-9.58533E-1,3.049394E0],"split_indices":[0,4,0,0,5,0,0,0,0],"split_type":[0,0,0,0,0,0,0,0,0],"sum_hessian":[3.36E2,3.33E2,3E0,1.32E2,2.01E2,1E2,3.2E1,1.21E2,8E1],"tree_param":{"num_deleted":"0","num_feature":"6","num_nodes":"9","size_leaf_vector":"1"}},{"base_weights":[-1.2776625E0,9.332558E-2,-2.7160896E1,3.9216604E0,-1.1392907E1,-1.2520407E1,3.6398926E-1,1.8480501E0,-1.6430321E0,-2.741286E0,9.894326E0,-9.809906E0,2.2608657E0],"categories":[],"categories_nodes":[],"categories_segments":[],"categories_sizes":[],"default_left":[0,0,0,0,0,0,0,0,0,0,0,0,0],"id":22,"left_children":[1,3,5,7,9,-1,11,-1,-1,-1,-1,-1,-1],"loss_changes":[1.1286957E4,1.3368543E4,1.5630999E4,1.4793488E4,1.1379754E4,0E0,5.9604785E3,0E0,0E0,0E0,0E0,0E0,0E0],"parents":[2147483647,0,0,1,1,2,2,3,3,4,4,6,6],"right_children":[2,4,6,8,10,-1,12,-1,-1,-1,-1,-1,-1],"split_conditions":[7.204E1,4.3219E1,3.7748E1,4.837501E1,5.982E1,-1.2520407E1,8.002E1,1.8480501E0,-1.6430321E0,-2.741286E0,9.894326E0,-9.809906E0,2.2608657E0],"split_indices":[0,3,3,4,0,0,0,0,0,0,0,0,0],"split_type":[0,0,0,0,0,0,0,0,0,0,0,0,0],"sum_hessian":[3.17E2,3.02E2,1.5E1,2.27E2,7.5E1,6E0,9E0,1.58E2,6.9E1,7.3E1,2E0,1E0,8E0],"tree_param":{"num_deleted":"0","num_feature":"6","num_nodes":"13","size_leaf_vector":"1"}},{"base_weights":[1.0663954E0,-2.9101469E1,2.1770046E0,-1.35609E1,-1.4580413E1,3.693367E1,1.0702208E0,-3.770375E0,-1.7181584E0,-3.089619E0,1.0392024E1,-3.3598099E0,5.3262204E-1],"categories":[],"categories_nodes":[],"categories_segments":[],"categories_sizes":[],"default_left":[0,0,0,0,0,0,0,0,0,0,0,0,0],"id":23,"left_children":[1,3,5,-1,7,9,11,-1,-1,-1,-1,-1,-1],"loss_changes":[1.1320935E4,5.7554873E3,1.2462608E4,0E0,9.389209E1,8.673807E3,9.039291E3,0E0,0E0,0E0,0E0,0E0,0E0],"parents":[2147483647,0,0,1,1,2,2,4,4,5,5,6,6],"right_children":[2,4,6,-1,8,10,12,-1,-1,-1,-1,-1,-1],"split_conditions":[1.1969334E1,5.93E0,1.3132334E1,-1.35609E1,9.22E0,1.402E1,2.138443E1,-3.770375E0,-1.7181584E0,-3.089619E0,1.0392024E1,-3.3598099E0,5.3262204E-1],"split_indices":[3,1,3,0,3,0,4,0,0,0,0,0,0],"split_type":[0,0,0,0,0,0,0,0,0,0,0,0,0],"sum_hessian":[3.35E2,1.1E1,3.24E2,2E0,9E0,9E0,3.15E2,4E0,5E0,2E0,7E0,2.5E1,2.9E2],"tree_param":{"num_deleted":"0","num_feature":"6","num_nodes":"13","size_leaf_vector":"1"}},{"base_weights":[-9.221372E-1,1.7484934E0,-8.769945E0,-6.827824E0,5.976624E0,-5.455987E0,-4.0813286E1,-3.412812E-1,-2.4061105E0,-3.4368641E0,1.6597815E0,-6.1102146E-1,-4.0476623E0,-3.857502E0,-9.97425E0],"categories":[],"categories_nodes":[],"categories_segments":[],"categories_sizes":[],"default_left":[0,0,0,0,0,0,0,0,0,0,0,0,0,0,0],"id":24,"left_children":[1,3,5,7,9,11,13,-1,-1,-1,-1,-1,-1,-1,-1],"loss_changes":[7.1831743E3,9.323825E3,9.015878E3,2.244325E3,9.393852E3,2.7774165E3,5.979463E2,0E0,0E0,0E0,0E0,0E0,0E0,0E0,0E0],"parents":[2147483647,0,0,1,1,2,2,3,3,4,4,5,5,6,6],"right_children":[2,4,6,8,10,12,14,-1,-1,-1,-1,-1,-1,-1,-1],"split_conditions":[4.6825687E1,2.538E1,6.242E1,2.7543764E1,5.56E0,2.9486452E1,6.818E1,-3.412812E-1,-2.4061105E0,-3.4368641E0,1.6597815E0,-6.1102146E-1,-4.0476623E0,-3.857502E0,-9.97425E0],"split_indices":[4,0,0,5,1,5,0,0,0,0,0,0,0,0,0],"split_type":[0,0,0,0,0,0,0,0,0,0,0,0,0,0,0],"sum_hessian":[3.41E2,2.55E2,8.6E1,8.4E1,1.71E2,7.9E1,7E0,4.3E1,4.1E1,1.5E1,1.56E2,6.9E1,1E1,3E0,4E0],"tree_param":{"num_deleted":"0","num_feature":"6","num_nodes":"15","size_leaf_vector":"1"}},{"base_weights":[1.9133505E0,4.9926633E-1,2.614978E1,1.0990393E0,-3.834592E1,5.5169815E-1,5.4530796E1,7.483609E-1,-1.5688146E0,-1.1938663E1,4.7043643E0,3.7095323E0,-7.1156306E0,2.2723572E1,4.2835307E0],"categories":[],"categories_nodes":[],"categories_segments":[],"categories_sizes":[],"default_left":[0,0,0,0,0,0,0,0,0,0,0,0,0,0,0],"id":25,"left_children":[1,3,5,7,9,11,13,-1,-1,-1,-1,-1,-1,-1,-1],"loss_changes":[1.1810907E4,7.660685E3,1.3773406E4,7.663309E3,8.007669E3,7.8119976E3,1.5175598E4,0E0,0E0,0E0,0E0,0E0,0E0,0E0,0E0],"parents":[2147483647,0,0,1,1,2,2,3,3,4,4,5,5,6,6],"right_children":[2,4,6,8,10,12,14,-1,-1,-1,-1,-1,-1,-1,-1],"split_conditions":[7.92E1,7.466E1,3.396872E1,3.7902473E1,2.9718817E1,3.1118366E1,6.14E0,7.483609E-1,-1.5688146E0,-1.1938663E1,4.7043643E0,3.7095323E0,-7.1156306E0,2.2723572E1,4.2835307E0],"split_indices":[0,0,4,5,5,4,1,0,0,0,0,0,0,0,0],"split_type":[0,0,0,0,0,0,0,0,0,0,0,0,0,0,0],"sum_hessian":[3.44E2,3.26E2,1.8E1,3.22E2,4E0,1E1,8E0,2.49E2,7.3E1,3E0,1E0,7E0,3E0,2E0,6E0],"tree_param":{"num_deleted":"0","num_feature":"6","num_nodes":"15","size_leaf_vector":"1"}},{"base_weights":[-1.4708707E0,-2.9324222E0,2.213365E1,-3.783639E1,-2.0366628E0,-8.916145E0,6.107408E1,-9.4744724E-1,-8.37762E0,-5.850973E-1,4.1299853E0,2.3178692E-1,-2.209411E0,-1.5966836E-1,1.3781586E1],"categories":[],"categories_nodes":[],"categories_segments":[],"categories_sizes":[],"default_left":[0,0,0,0,0,0,0,0,0,0,0,0,0,0,0],"id":26,"left_children":[1,3,5,7,9,11,13,-1,-1,-1,-1,-1,-1,-1,-1],"loss_changes":[1.1829139E4,9.990449E3,2.4726395E4,8.744297E2,6.412191E3,2.704319E2,4.417301E3,0E0,0E0,0E0,0E0,0E0,0E0,0E0,0E0],"parents":[2147483647,0,0,1,1,2,2,3,3,4,4,5,5,6,6],"right_children":[2,4,6,8,10,12,14,-1,-1,-1,-1,-1,-1,-1,-1],"split_conditions":[5.8946E1,5.56E0,1.5078774E1,4.96E0,7.92E1,6.4052153E0,1.866E1,-9.4744724E-1,-8.37762E0,-5.850973E-1,4.1299853E0,2.3178692E-1,-2.209411E0,-1.5966836E-1,1.3781586E1],"split_indices":[3,1,4,1,0,4,0,0,0,0,0,0,0,0,0],"split_type":[0,0,0,0,0,0,0,0,0,0,0,0,0,0,0],"sum_hessian":[3.4E2,3.21E2,1.9E1,7E0,3.14E2,1.1E1,8E0,1E0,6E0,3.03E2,1.1E1,2E0,9E0,1E0,7E0],"tree_param":{"num_deleted":"0","num_feature":"6","num_nodes":"15","size_leaf_vector":"1"}},{"base_weights":[-2.283061E0,-3.4268248E0,2.1306787E1,-4.6131073E1,-2.757232E0,3.9174943E0,4.963603E1,-1.1686894E1,-3.6901307E0,-9.0165627E-1,1.8878472E0,2.5267022E0,-4.7072773E0,3.671772E0,1.213698E1],"categories":[],"categories_nodes":[],"categories_segments":[],"categories_sizes":[],"default_left":[0,0,0,0,0,0,0,0,0,0,0,0,0,0,0],"id":27,"left_children":[1,3,5,7,9,11,13,-1,-1,-1,-1,-1,-1,-1,-1],"loss_changes":[9.327572E3,9.251789E3,7.68756E3,6.246621E2,6.9620977E3,2.9295205E3,9.593584E2,0E0,0E0,0E0,0E0,0E0,0E0,0E0,0E0],"parents":[2147483647,0,0,1,1,2,2,3,3,4,4,5,5,6,6],"right_children":[2,4,6,8,10,12,14,-1,-1,-1,-1,-1,-1,-1,-1],"split_conditions":[5.6670967E1,1.1407666E1,7.33E0,4.45E1,5.4494E1,3.662E1,4.132E1,-1.1686894E1,-3.6901307E0,-9.0165627E-1,1.8878472E0,2.5267022E0,-4.7072773E0,3.671772E0,1.213698E1],"split_indices":[5,3,1,0,3,0,0,0,0,0,0,0,0,0,0],"split_type":[0,0,0,0,0,0,0,0,0,0,0,0,0,0,0],"sum_hessian":[3.42E2,3.27E2,1.5E1,4E0,3.23E2,1E1,5E0,2E0,2E0,2.83E2,4E1,8E0,2E0,2E0,3E0],"tree_param":{"num_deleted":"0","num_feature":"6","num_nodes":"15","size_leaf_vector":"1"}},{"base_weights":[2.4953806E0,3.8742454E0,-1.057499E1,-4.400198E0,7.1076236E0,-2.7474503E1,-3.0929031E0,-2.9053557E-1,-5.4491177E0,2.4895487E-2,3.4251137E0,-1.1144065E0,-6.450723E0,1.3534462E0,-1.3511144E0],"categories":[],"categories_nodes":[],"categories_segments":[],"categories_sizes":[],"default_left":[0,0,0,0,0,0,0,0,0,0,0,0,0,0,0],"id":28,"left_children":[1,3,5,7,9,11,13,-1,-1,-1,-1,-1,-1,-1,-1],"loss_changes":[6.2226094E3,8.351895E3,4.0876638E3,5.886098E3,1.5668183E4,8.670249E2,9.1246216E2,0E0,0E0,0E0,0E0,0E0,0E0,0E0,0E0],"parents":[2147483647,0,0,1,1,2,2,3,3,4,4,5,5,6,6],"right_children":[2,4,6,8,10,12,14,-1,-1,-1,-1,-1,-1,-1,-1],"split_conditions":[2.074E1,1.7865524E1,2.9904667E1,5.132E1,6.84E0,2.818E1,1.9141829E1,-2.9053557E-1,-5.4491177E0,2.4895487E-2,3.4251137E0,-1.1144065E0,-6.450723E0,1.3534462E0,-1.3511144E0],"split_indices":[2,2,3,0,1,0,5,0,0,0,0,0,0,0,0],"split_type":[0,0,0,0,0,0,0,0,0,0,0,0,0,0,0],"sum_hessian":[3.42E2,3.1E2,3.2E1,8.7E1,2.23E2,9E0,2.3E1,7.8E1,9E0,1.32E2,9.1E1,2E0,7E0,6E0,1.7E1],"tree_param":{"num_deleted":"0","num_feature":"6","num_nodes":"15","size_leaf_vector":"1"}},{"base_weights":[-6.1219513E-1,-4.38041E0,3.0962858E0,-6.033254E-1,-1.8081316E1,1.0237038E1,-1.4759772E0,-4.9582395E-1,6.084539E0,-4.5359282E0,5.3348694E0,-1.5077503E0,3.2161891E0,-5.3658266E0,1.0150595E-1],"categories":[],"categories_nodes":[],"categories_segments":[],"categories_sizes":[],"default_left":[0,0,0,0,0,0,0,0,0,0,0,0,0,0,0],"id":29,"left_children":[1,3,5,7,9,11,13,-1,-1,-1,-1,-1,-1,-1,-1],"loss_changes":[4.960484E3,9.097001E3,5.859351E3,8.1650034E3,8.425403E3,7.3928364E3,5.545314E3,0E0,0E0,0E0,0E0,0E0,0E0,0E0,0E0],"parents":[2147483647,0,0,1,1,2,2,3,3,4,4,5,5,6,6],"right_children":[2,4,6,8,10,12,14,-1,-1,-1,-1,-1,-1,-1,-1],"split_conditions":[6.86E0,4.4E1,7.3E0,4.164E1,9.686E1,1.734E1,7.35E0,-4.9582395E-1,6.084539E0,-4.5359282E0,5.3348694E0,-1.5077503E0,3.2161891E0,-5.3658266E0,1.0150595E-1],"split_indices":[1,0,1,0,0,0,1,0,0,0,0,0,0,0,0],"split_type":[0,0,0,0,0,0,0,0,0,0,0,0,0,0,0],"sum_hessian":[3.53E2,1.75E2,1.78E2,1.38E2,3.7E1,6.9E1,1.09E2,1.31E2,7E0,3.4E1,3E0,1.7E1,5.2E1,7E0,1.02E2],"tree_param":{"num_deleted":"0","num_feature":"6","num_nodes":"15","size_leaf_vector":"1"}},{"base_weights":[1.8075327E0,-4.606E0,4.240992E0,-4.9603674E-1,-1.9788061E1,-5.510062E0,7.827068E0,-6.757331E-1,1.233622E0,-5.442952E0,-1.5374246E0,-2.9773643E0,-6.8047255E-1,4.5043513E-1,3.5013542E0],"categories":[],"categories_nodes":[],"categories_segments":[],"categories_sizes":[],"default_left":[0,0,0,0,0,0,0,0,0,0,0,0,0,0,0],"id":30,"left_children":[1,3,5,7,9,11,13,-1,-1,-1,-1,-1,-1,-1,-1],"loss_changes":[5.3259385E3,5.85557E3,8.680228E3,1.4616095E3,1.5881973E3,1.2734968E3,9.727931E3,0E0,0E0,0E0,0E0,0E0,0E0,0E0,0E0],"parents":[2147483647,0,0,1,1,2,2,3,3,4,4,5,5,6,6],"right_children":[2,4,6,8,10,12,14,-1,-1,-1,-1,-1,-1,-1,-1],"split_conditions":[1.7865524E1,3.574E1,2.528E1,5.255127E1,5.4663857E1,9.4E0,6.9E0,-6.757331E-1,1.233622E0,-5.442952E0,-1.5374246E0,-2.9773643E0,-6.8047255E-1,4.5043513E-1,3.5013542E0],"split_indices":[2,0,0,4,4,0,1,0,0,0,0,0,0,0,0],"split_type":[0,0,0,0,0,0,0,0,0,0,0,0,0,0,0],"sum_hessian":[3.39E2,9.3E1,2.46E2,7.4E1,1.9E1,6.6E1,1.8E2,5.2E1,2.2E1,1.1E1,8E0,1.1E1,5.5E1,1.15E2,6.5E1],"tree_param":{"num_deleted":"0","num_feature":"6","num_nodes":"15","size_leaf_vector":"1"}},{"base_weights":[2.3514955E-1,1.4003927E0,-1.7088232E1,-9.360929E0,3.0630314E0,-1.2228264E1,-6.038895E0,-5.728026E0,4.8209667E-1,4.2519803E0,1.589128E-1,-1.9149827E0,-4.2837863E0],"categories":[],"categories_nodes":[],"categories_segments":[],"categories_sizes":[],"default_left":[0,0,0,0,0,0,0,0,0,0,0,0,0],"id":31,"left_children":[1,3,5,7,9,11,-1,-1,-1,-1,-1,-1,-1],"loss_changes":[6.725666E3,5.6110356E3,9.683887E2,9.60066E3,1.1169719E4,2.0947876E2,0E0,0E0,0E0,0E0,0E0,0E0,0E0],"parents":[2147483647,0,0,1,1,2,2,3,3,4,4,5,5],"right_children":[2,4,6,8,10,12,-1,-1,-1,-1,-1,-1,-1],"split_conditions":[2.57E1,1.6463E1,4.096956E1,6.98E0,1.978E1,4.1576775E1,-6.038895E0,-5.728026E0,4.8209667E-1,4.2519803E0,1.589128E-1,-1.9149827E0,-4.2837863E0],"split_indices":[2,3,4,1,3,5,0,0,0,0,0,0,0],"split_type":[0,0,0,0,0,0,0,0,0,0,0,0,0],"sum_hessian":[3.31E2,3.11E2,2E1,4.1E1,2.7E2,1.6E1,4E0,1.5E1,2.6E1,2.9E1,2.41E2,1.4E1,2E0],"tree_param":{"num_deleted":"0","num_feature":"6","num_nodes":"13","size_leaf_vector":"1"}},{"base_weights":[-1.0298043E0,-4.7981095E0,3.2765427E0,-1.1869704E-1,-1.9037218E1,-5.2446276E-1,1.7192347E1,-2.76722E-1,1.1705701E1,2.2111478E0,-8.522174E0,5.351461E-1,-2.061733E0,7.269727E0,-2.1545234E0],"categories":[],"categories_nodes":[],"categories_segments":[],"categories_sizes":[],"default_left":[0,0,0,0,0,0,0,0,0,0,0,0,0,0,0],"id":32,"left_children":[1,3,5,7,9,11,13,-1,-1,-1,-1,-1,-1,-1,-1],"loss_changes":[5.6629365E3,1.2391045E4,8.630746E3,1.0540869E4,3.310353E4,4.066746E3,1.9141242E4,0E0,0E0,0E0,0E0,0E0,0E0,0E0,0E0],"parents":[2147483647,0,0,1,1,2,2,3,3,4,4,5,5,6,6],"right_children":[2,4,6,8,10,12,14,-1,-1,-1,-1,-1,-1,-1,-1],"split_conditions":[3.8608765E1,4.424E1,4.604E1,4.236E1,2.8805925E1,3.486E1,4.7923485E1,-2.76722E-1,1.1705701E1,2.2111478E0,-8.522174E0,5.351461E-1,-2.061733E0,7.269727E0,-2.1545234E0],"split_indices":[4,0,0,0,4,0,4,0,0,0,0,0,0,0,0],"split_type":[0,0,0,0,0,0,0,0,0,0,0,0,0,0,0],"sum_hessian":[3.47E2,1.85E2,1.62E2,1.4E2,4.5E1,1.28E2,3.4E1,1.38E2,2E0,2E1,2.5E1,9.7E1,3.1E1,2E1,1.4E1],"tree_param":{"num_deleted":"0","num_feature":"6","num_nodes":"15","size_leaf_vector":"1"}},{"base_weights":[1.85906E-1,-7.931941E-1,3.375045E1,-2.8459013E0,1.4396158E1,8.960009E0,6.8696106E1,-2.2141857E0,4.0998224E-2,-2.2478642E0,6.989475E0,3.7800567E0,-5.0681643E0,3.79386E0,1.57897215E1],"categories":[],"categories_nodes":[],"categories_segments":[],"categories_sizes":[],"default_left":[0,0,0,0,0,0,0,0,0,0,0,0,0,0,0],"id":33,"left_children":[1,3,5,7,9,11,13,-1,-1,-1,-1,-1,-1,-1,-1],"loss_changes":[1.1594563E4,1.0735468E4,8.047664E3,7.6056514E3,2.1993238E4,2.8656665E3,5.4169727E2,0E0,0E0,0E0,0E0,0E0,0E0,0E0,0E0],"parents":[2147483647,0,0,1,1,2,2,3,3,4,4,5,5,6,6],"right_children":[2,4,6,8,10,12,14,-1,-1,-1,-1,-1,-1,-1,-1],"split_conditions":[8.468E1,5.4494E1,3.5503765E1,3.4642517E1,2.2813E1,5.288E1,1.938E1,-2.2141857E0,4.0998224E-2,-2.2478642E0,6.989475E0,3.7800567E0,-5.0681643E0,3.79386E0,1.57897215E1],"split_indices":[0,3,4,4,4,3,3,0,0,0,0,0,0,0,0],"split_type":[0,0,0,0,0,0,0,0,0,0,0,0,0,0,0],"sum_hessian":[3.51E2,3.42E2,9E0,3.02E2,4E1,6E0,3E0,8.1E1,2.21E2,1.8E1,2.2E1,5E0,1E0,1E0,2E0],"tree_param":{"num_deleted":"0","num_feature":"6","num_nodes":"15","size_leaf_vector":"1"}},{"base_weights":[-4.4027853E-1,3.0709028E1,-1.1310877E0,-1.3846848E0,3.8135006E1,2.394656E0,-3.7207499E0,9.42527E0,2.6869762E0,-1.00629985E-1,9.619598E0,-4.0011544E0,-2.7130467E-1],"categories":[],"categories_nodes":[],"categories_segments":[],"categories_sizes":[],"default_left":[0,0,0,0,0,0,0,0,0,0,0,0,0],"id":34,"left_children":[1,3,5,-1,7,9,11,-1,-1,-1,-1,-1,-1],"loss_changes":[6.942085E3,2.220229E3,2.885013E3,0E0,6.993867E2,1.7771078E4,6.980132E3,0E0,0E0,0E0,0E0,0E0,0E0],"parents":[2147483647,0,0,1,1,2,2,4,4,5,5,6,6],"right_children":[2,4,6,-1,8,10,12,-1,-1,-1,-1,-1,-1],"split_conditions":[5.29E0,1.6463E1,6.74E0,-1.3846848E0,5.576E1,6.7E0,6.9E0,9.42527E0,2.6869762E0,-1.00629985E-1,9.619598E0,-4.0011544E0,-2.7130467E-1],"split_indices":[1,3,1,0,3,1,1,0,0,0,0,0,0],"split_type":[0,0,0,0,0,0,0,0,0,0,0,0,0],"sum_hessian":[3.2E2,6E0,3.14E2,1E0,5E0,1.33E2,1.81E2,3E0,2E0,1.26E2,7E0,2.2E1,1.59E2],"tree_param":{"num_deleted":"0","num_feature":"6","num_nodes":"13","size_leaf_vector":"1"}},{"base_weights":[-1.3664095E-1,8.360796E0,-2.147919E0,-3.094731E-2,3.3044216E1,-1.3863268E0,-2.8154354E1,4.8121276E0,-8.821065E-1,1.6573476E0,1.5410361E1,-8.689966E-1,8.776717E-1,-8.305985E0,1.5963155E0],"categories":[],"categories_nodes":[],"categories_segments":[],"categories_sizes":[],"default_left":[0,0,0,0,0,0,0,0,0,0,0,0,0,0,0],"id":35,"left_children":[1,3,5,7,9,11,13,-1,-1,-1,-1,-1,-1,-1,-1],"loss_changes":[5.9826147E3,1.3879195E4,5.56615E3,5.4871885E3,1.7883277E4,4.734613E3,4.198185E3,0E0,0E0,0E0,0E0,0E0,0E0,0E0,0E0],"parents":[2147483647,0,0,1,1,2,2,3,3,4,4,5,5,6,6],"right_children":[2,4,6,8,10,12,14,-1,-1,-1,-1,-1,-1,-1,-1],"split_conditions":[6.19E0,6.04E0,7.92E1,5.29E0,3.67E1,4.203315E1,2.2132717E1,4.8121276E0,-8.821065E-1,1.6573476E0,1.5410361E1,-8.689966E-1,8.776717E-1,-8.305985E0,1.5963155E0],"split_indices":[1,1,0,1,0,4,5,0,0,0,0,0,0,0,0],"split_type":[0,0,0,0,0,0,0,0,0,0,0,0,0,0,0],"sum_hessian":[3.48E2,6.6E1,2.82E2,5E1,1.6E1,2.75E2,7E0,7E0,4.3E1,1.1E1,5E0,1.82E2,9.3E1,5E0,2E0],"tree_param":{"num_deleted":"0","num_feature":"6","num_nodes":"15","size_leaf_vector":"1"}},{"base_weights":[3.95874E-1,2.4302685E0,-7.938614E0,6.308023E-1,2.2032137E1,-1.6747335E1,-1.8625793E0,4.6399593E-1,-3.0961063E0,7.807429E0,2.9565927E-1,-6.178737E0,-8.6275303E-1,-7.924424E0,2.4986899E-1],"categories":[],"categories_nodes":[],"categories_segments":[],"categories_sizes":[],"default_left":[0,0,0,0,0,0,0,0,0,0,0,0,0,0,0],"id":36,"left_children":[1,3,5,7,9,11,13,-1,-1,-1,-1,-1,-1,-1,-1],"loss_changes":[5.529875E3,9.227602E3,3.3942207E3,6.594706E3,7.6316914E3,4.4398633E3,4.63219E3,0E0,0E0,0E0,0E0,0E0,0E0,0E0,0E0],"parents":[2147483647,0,0,1,1,2,2,3,3,4,4,5,5,6,6],"right_children":[2,4,6,8,10,12,14,-1,-1,-1,-1,-1,-1,-1,-1],"split_conditions":[4.9393185E1,7.204E1,6.8E0,5.024E1,5.0734E1,3.4870335E1,1.6063494E1,4.6399593E-1,-3.0961063E0,7.807429E0,2.9565927E-1,-6.178737E0,-8.6275303E-1,-7.924424E0,2.4986899E-1],"split_indices":[4,0,1,0,3,3,5,0,0,0,0,0,0,0,0],"split_type":[0,0,0,0,0,0,0,0,0,0,0,0,0,0,0],"sum_hessian":[3.24E2,2.61E2,6.3E1,2.4E2,2.1E1,2.5E1,3.8E1,2.18E2,2.2E1,1.1E1,1E1,1.1E1,1.4E1,2E0,3.6E1],"tree_param":{"num_deleted":"0","num_feature":"6","num_nodes":"15","size_leaf_vector":"1"}},{"base_weights":[1.8146275E0,8.2437315E0,-2.363725E0,2.1560284E1,3.5395834E0,1.794791E0,-1.0584842E1,6.568142E0,-1.7593622E0,-1.979643E-1,3.8463223E0,-2.3892938E-1,4.82068E0,-8.4165585E-1,-7.447779E0],"categories":[],"categories_nodes":[],"categories_segments":[],"categories_sizes":[],"default_left":[0,0,0,0,0,0,0,0,0,0,0,0,0,0,0],"id":37,"left_children":[1,3,5,7,9,11,13,-1,-1,-1,-1,-1,-1,-1,-1],"loss_changes":[8.938023E3,8.129923E3,6.924902E3,1.1931887E4,6.9844395E3,9.031973E3,1.1400653E4,0E0,0E0,0E0,0E0,0E0,0E0,0E0,0E0],"parents":[2147483647,0,0,1,1,2,2,3,3,4,4,5,5,6,6],"right_children":[2,4,6,8,10,12,14,-1,-1,-1,-1,-1,-1,-1,-1],"split_conditions":[2.007957E1,3.1118366E1,3.4502666E1,6.604E1,1.8502043E1,3.1400667E1,4.164E1,6.568142E0,-1.7593622E0,-1.979643E-1,3.8463223E0,-2.3892938E-1,4.82068E0,-8.4165585E-1,-7.447779E0],"split_indices":[5,4,3,3,5,3,0,0,0,0,0,0,0,0,0],"split_type":[0,0,0,0,0,0,0,0,0,0,0,0,0,0,0],"sum_hessian":[3.31E2,1.3E2,2.01E2,3.3E1,9.7E1,1.34E2,6.7E1,2.4E1,9E0,7.6E1,2.1E1,1.19E2,1.5E1,5.5E1,1.2E1],"tree_param":{"num_deleted":"0","num_feature":"6","num_nodes":"15","size_leaf_vector":"1"}},{"base_weights":[-4.655909E-1,5.2473414E-1,-8.830622E0,-2.644525E0,3.311299E0,-1.0438421E1,4.9050164E0,-2.748803E0,1.6335455E-1,1.6891724E1,2.6238108E-1,-1.1486444E0,-4.4143233E0],"categories":[],"categories_nodes":[],"categories_segments":[],"categories_sizes":[],"default_left":[0,0,0,0,0,0,0,0,0,0,0,0,0],"id":38,"left_children":[1,3,5,7,9,11,-1,-1,-1,-1,-1,-1,-1],"loss_changes":[2.8957844E3,2.7729683E3,2.2402869E3,5.658765E3,2.6984188E4,1.8395642E3,0E0,0E0,0E0,0E0,0E0,0E0,0E0],"parents":[2147483647,0,0,1,1,2,2,3,3,4,4,5,5],"right_children":[2,4,6,8,10,12,-1,-1,-1,-1,-1,-1,-1],"split_conditions":[2.074E1,6.7E0,6.004E1,2.9846666E1,6.72E0,4.3360703E1,4.9050164E0,-2.748803E0,1.6335455E-1,1.6891724E1,2.6238108E-1,-1.1486444E0,-4.4143233E0],"split_indices":[2,1,2,3,1,3,0,0,0,0,0,0,0],"split_type":[0,0,0,0,0,0,0,0,0,0,0,0,0],"sum_hessian":[3.48E2,3.12E2,3.6E1,1.46E2,1.66E2,3.5E1,1E0,3.4E1,1.12E2,3E0,1.63E2,2.6E1,9E0],"tree_param":{"num_deleted":"0","num_feature":"6","num_nodes":"13","size_leaf_vector":"1"}},{"base_weights":[3.7031248E-1,4.6159286E0,-2.49678E0,2.2391694E0,3.8169933E1,-3.5807521E0,5.2326027E1,-1.4488358E0,1.1976074E0,5.1712483E-1,1.3224051E1,-4.6523497E-1,-1.2894699E1,2.8718688E0,1.2039028E1],"categories":[],"categories_nodes":[],"categories_segments":[],"categories_sizes":[],"default_left":[0,0,0,0,0,0,0,0,0,0,0,0,0,0,0],"id":39,"left_children":[1,3,5,7,9,11,13,-1,-1,-1,-1,-1,-1,-1,-1],"loss_changes":[4.1380273E3,1.0840253E4,1.2250927E4,4.6295635E3,8.780375E3,1.5128951E4,3.3069336E2,0E0,0E0,0E0,0E0,0E0,0E0,0E0,0E0],"parents":[2147483647,0,0,1,1,2,2,3,3,4,4,5,5,6,6],"right_children":[2,4,6,8,10,12,14,-1,-1,-1,-1,-1,-1,-1,-1],"split_conditions":[3.593671E1,3.5192345E1,8.234E1,6.26E0,2.894E1,7.466E1,1.938E1,-1.4488358E0,1.1976074E0,5.1712483E-1,1.3224051E1,-4.6523497E-1,-1.2894699E1,2.8718688E0,1.2039028E1],"split_indices":[4,4,0,1,0,0,3,0,0,0,0,0,0,0,0],"split_type":[0,0,0,0,0,0,0,0,0,0,0,0,0,0,0],"sum_hessian":[3.38E2,1.36E2,2.02E2,1.28E2,8E0,1.99E2,3E0,3.6E1,9.2E1,4E0,4E0,1.96E2,3E0,1E0,2E0],"tree_param":{"num_deleted":"0","num_feature":"6","num_nodes":"15","size_leaf_vector":"1"}},{"base_weights":[-1.9677854E0,-1.0189464E0,-1.8038109E1,-2.5610626E0,9.275115E0,1.3355614E1,-2.5719309E1,-2.1048276E-1,-5.285626E0,-3.7715747E0,3.2472088E0,3.8517377E0,-4.3536073E-1,-1.253744E1,-3.6107063E0],"categories":[],"categories_nodes":[],"categories_segments":[],"categories_sizes":[],"default_left":[0,0,0,0,0,0,0,0,0,0,0,0,0,0,0],"id":40,"left_children":[1,3,5,7,9,11,13,-1,-1,-1,-1,-1,-1,-1,-1],"loss_changes":[4.6475537E3,4.6274E3,4.4429014E3,9.081962E3,7.7477837E3,4.0867828E2,2.8357012E3,0E0,0E0,0E0,0E0,0E0,0E0,0E0,0E0],"parents":[2147483647,0,0,1,1,2,2,3,3,4,4,5,5,6,6],"right_children":[2,4,6,8,10,12,14,-1,-1,-1,-1,-1,-1,-1,-1],"split_conditions":[6.944E1,4.774E1,2.6678516E1,4.424E1,1.2805699E1,5.29E0,7.524E1,-2.1048276E-1,-5.285626E0,-3.7715747E0,3.2472088E0,3.8517377E0,-4.3536073E-1,-1.253744E1,-3.6107063E0],"split_indices":[0,0,4,0,5,1,0,0,0,0,0,0,0,0,0],"split_type":[0,0,0,0,0,0,0,0,0,0,0,0,0,0,0],"sum_hessian":[3.05E2,2.89E2,1.6E1,2.52E2,3.7E1,3E0,1.3E1,2.38E2,1.4E1,7E0,3E1,2E0,1E0,1E0,1.2E1],"tree_param":{"num_deleted":"0","num_feature":"6","num_nodes":"15","size_leaf_vector":"1"}},{"base_weights":[-1.4408472E0,2.6893697E0,-3.676979E0,-5.634447E0,9.137501E0,-4.7332644E0,1.1144887E1,-2.3687549E-1,-5.4517493E0,3.416247E0,-4.2689154E-1,-6.8310815E-1,-5.58044E0,-3.6185014E0,7.797834E0],"categories":[],"categories_nodes":[],"categories_segments":[],"categories_sizes":[],"default_left":[0,0,0,0,0,0,0,0,0,0,0,0,0,0,0],"id":41,"left_children":[1,3,5,7,9,11,13,-1,-1,-1,-1,-1,-1,-1,-1],"loss_changes":[3.15003E3,6.4922524E3,3.5127532E3,5.067886E3,6.1252754E3,6.2244614E3,1.2916825E4,0E0,0E0,0E0,0E0,0E0,0E0,0E0,0E0],"parents":[2147483647,0,0,1,1,2,2,3,3,4,4,5,5,6,6],"right_children":[2,4,6,8,10,12,14,-1,-1,-1,-1,-1,-1,-1,-1],"split_conditions":[2.0050753E1,1.3928817E1,6.944E1,4.872E1,4.6671925E1,5.96E1,6.74E0,-2.3687549E-1,-5.4517493E0,3.416247E0,-4.2689154E-1,-6.8310815E-1,-5.58044E0,-3.6185014E0,7.797834E0],"split_indices":[5,5,0,0,4,0,1,0,0,0,0,0,0,0,0],"split_type":[0,0,0,0,0,0,0,0,0,0,0,0,0,0,0],"sum_hessian":[3.39E2,1.19E2,2.2E2,5.2E1,6.7E1,2.06E2,1.4E1,4.4E1,8E0,3.9E1,2.8E1,1.96E2,1E1,7E0,7E0],"tree_param":{"num_deleted":"0","num_feature":"6","num_nodes":"15","size_leaf_vector":"1"}},{"base_weights":[-1.6984999E-1,3.4236135E0,-5.0618725E0,2.7647705E0,8.801826E0,-2.8501036E0,-4.147626E1,1.6431836E0,-2.9002735E-1,4.6349844E-1,-1.9743098E0,-2.9141908E0,-9.603241E0],"categories":[],"categories_nodes":[],"categories_segments":[],"categories_sizes":[],"default_left":[0,0,0,0,0,0,0,0,0,0,0,0,0],"id":42,"left_children":[1,3,5,7,-1,9,11,-1,-1,-1,-1,-1,-1],"loss_changes":[5.8536587E3,5.0123057E3,1.1237957E4,4.377369E3,0E0,4.884932E3,7.080322E2,0E0,0E0,0E0,0E0,0E0,0E0],"parents":[2147483647,0,0,1,1,2,2,3,3,5,5,6,6],"right_children":[2,4,6,8,-1,10,12,-1,-1,-1,-1,-1,-1],"split_conditions":[3.9370697E1,3.9157364E1,7.204E1,3.4502666E1,8.801826E0,3.044E1,2.4671333E1,1.6431836E0,-2.9002735E-1,4.6349844E-1,-1.9743098E0,-2.9141908E0,-9.603241E0],"split_indices":[4,4,0,3,0,0,3,0,0,0,0,0,0],"split_type":[0,0,0,0,0,0,0,0,0,0,0,0,0],"sum_hessian":[3.31E2,1.91E2,1.4E2,1.89E2,2E0,1.33E2,7E0,8.2E1,1.07E2,7.7E1,5.6E1,2E0,5E0],"tree_param":{"num_deleted":"0","num_feature":"6","num_nodes":"13","size_leaf_vector":"1"}},{"base_weights":[7.562613E-1,-9.784541E-1,9.294836E0,1.6518025E0,-7.607621E0,-2.0486379E0,1.957225E1,-4.513998E-1,1.3082333E0,-1.0951388E0,-5.811668E0,2.5925322E0,-1.5339348E0,-2.62059E0,6.0173144E0],"categories":[],"categories_nodes":[],"categories_segments":[],"categories_sizes":[],"default_left":[0,0,0,0,0,0,0,0,0,0,0,0,0,0,0],"id":43,"left_children":[1,3,5,7,9,11,13,-1,-1,-1,-1,-1,-1,-1,-1],"loss_changes":[5.0007373E3,4.912198E3,6.6852466E3,3.875297E3,3.4993945E3,2.4620327E3,1.0700949E4,0E0,0E0,0E0,0E0,0E0,0E0,0E0,0E0],"parents":[2147483647,0,0,1,1,2,2,3,3,4,4,5,5,6,6],"right_children":[2,4,6,8,10,12,14,-1,-1,-1,-1,-1,-1,-1,-1],"split_conditions":[4.974E1,4.2376E1,3.7066334E1,2.946E1,4.684E1,5.38E1,5.82E0,-4.513998E-1,1.3082333E0,-1.0951388E0,-5.811668E0,2.5925322E0,-1.5339348E0,-2.62059E0,6.0173144E0],"split_indices":[0,3,3,3,0,0,1,0,0,0,0,0,0,0,0],"split_type":[0,0,0,0,0,0,0,0,0,0,0,0,0,0,0],"sum_hessian":[3.36E2,2.8E2,5.6E1,2.01E2,7.9E1,2.7E1,2.9E1,1.12E2,8.9E1,7.3E1,6E0,7E0,2E1,7E0,2.2E1],"tree_param":{"num_deleted":"0","num_feature":"6","num_nodes":"15","size_leaf_vector":"1"}},{"base_weights":[-2.9498827E-1,-9.086114E-1,1.7805819E1,-1.1338601E-1,-3.6904762E1,-4.6717834E0,2.4258184E1,-1.1347816E-1,7.1335673E0,-9.284793E0,-3.6318748E0,6.656952E0,-1.5797485E0],"categories":[],"categories_nodes":[],"categories_segments":[],"categories_sizes":[],"default_left":[0,0,0,0,0,0,0,0,0,0,0,0,0],"id":44,"left_children":[1,3,5,7,9,-1,11,-1,-1,-1,-1,-1,-1],"loss_changes":[3.7259414E3,9.270333E3,3.4883538E3,5.186098E3,4.0605762E2,0E0,3.1655767E3,0E0,0E0,0E0,0E0,0E0,0E0],"parents":[2147483647,0,0,1,1,2,2,3,3,4,4,6,6],"right_children":[2,4,6,8,10,-1,12,-1,-1,-1,-1,-1,-1],"split_conditions":[8.234E1,7.466E1,5.17E0,7.204E1,8.002E1,-4.6717834E0,2.2714409E1,-1.1347816E-1,7.1335673E0,-9.284793E0,-3.6318748E0,6.656952E0,-1.5797485E0],"split_indices":[0,0,1,0,0,0,5,0,0,0,0,0,0],"split_type":[0,0,0,0,0,0,0,0,0,0,0,0,0],"sum_hessian":[3.33E2,3.23E2,1E1,3.17E2,6E0,1E0,9E0,3.14E2,3E0,3E0,3E0,7E0,2E0],"tree_param":{"num_deleted":"0","num_feature":"6","num_nodes":"13","size_leaf_vector":"1"}},{"base_weights":[-4.658161E-1,2.7346685E0,-4.828864E0,-4.358646E-2,9.266769E0,-6.654411E-2,-1.3955258E1,2.3419304E-1,-5.270322E0,-5.6480736E-1,3.3894784E0,-4.1000906E-1,5.80718E0,-7.066213E0,-1.7593641E0],"categories":[],"categories_nodes":[],"categories_segments":[],"categories_sizes":[],"default_left":[0,0,0,0,0,0,0,0,0,0,0,0,0,0,0],"id":45,"left_children":[1,3,5,7,9,11,13,-1,-1,-1,-1,-1,-1,-1,-1],"loss_changes":[4.6212817E3,3.466642E3,6.0838657E3,4.3444385E3,5.3411606E3,5.427925E3,4.981956E3,0E0,0E0,0E0,0E0,0E0,0E0,0E0,0E0],"parents":[2147483647,0,0,1,1,2,2,3,3,4,4,5,5,6,6],"right_children":[2,4,6,8,10,12,14,-1,-1,-1,-1,-1,-1,-1,-1],"split_conditions":[4.054459E1,3.5664883E1,3.406E1,3.5093052E1,3.028E1,3.272E1,4.203315E1,2.3419304E-1,-5.270322E0,-5.6480736E-1,3.3894784E0,-4.1000906E-1,5.80718E0,-7.066213E0,-1.7593641E0],"split_indices":[4,4,0,4,0,0,4,0,0,0,0,0,0,0,0],"split_type":[0,0,0,0,0,0,0,0,0,0,0,0,0,0,0],"sum_hessian":[3.29E2,1.9E2,1.39E2,1.34E2,5.6E1,9.2E1,4.7E1,1.29E2,5E0,2.2E1,3.4E1,8.7E1,5E0,8E0,3.9E1],"tree_param":{"num_deleted":"0","num_feature":"6","num_nodes":"15","size_leaf_vector":"1"}},{"base_weights":[1.027678E-2,1.793439E0,-8.210578E0,8.656726E0,-1.7625563E0,-1.0503193E1,5.693194E0,-3.1995738E-1,3.285535E0,1.5942596E-1,-4.4559803E0,-3.463681E-1,-3.0470173E0,-1.7559865E0,5.1959167E0],"categories":[],"categories_nodes":[],"categories_segments":[],"categories_sizes":[],"default_left":[0,0,0,0,0,0,0,0,0,0,0,0,0,0,0],"id":46,"left_children":[1,3,5,7,9,11,13,-1,-1,-1,-1,-1,-1,-1,-1],"loss_changes":[4.852234E3,6.65364E3,1.9404805E3,7.4386455E3,9.470994E3,2.090376E3,2.8705662E3,0E0,0E0,0E0,0E0,0E0,0E0,0E0,0E0],"parents":[2147483647,0,0,1,1,2,2,3,3,4,4,5,5,6,6],"right_children":[2,4,6,8,10,12,14,-1,-1,-1,-1,-1,-1,-1,-1],"split_conditions":[1.79E1,2.0050753E1,7.53E0,1.3928817E1,5.896E1,2.946E1,3.148E1,-3.1995738E-1,3.285535E0,1.5942596E-1,-4.4559803E0,-3.463681E-1,-3.0470173E0,-1.7559865E0,5.1959167E0],"split_indices":[2,5,1,5,0,0,0,0,0,0,0,0,0,0,0],"split_type":[0,0,0,0,0,0,0,0,0,0,0,0,0,0,0],"sum_hessian":[3.29E2,2.71E2,5.8E1,9.2E1,1.79E2,5E1,8E0,4E1,5.2E1,1.6E2,1.9E1,1.8E1,3.2E1,5E0,3E0],"tree_param":{"num_deleted":"0","num_feature":"6","num_nodes":"15","size_leaf_vector":"1"}},{"base_weights":[1.6945031E0,-1.5561705E0,8.264718E0,-5.233516E-1,-1.578927E1,-2.7189665E1,9.760357E0,-2.7460736E-1,4.4754715E0,-4.2355723E0,6.503961E0,-7.7277656E0,-1.3354564E0,7.5570244E-1,5.556916E0],"categories":[],"categories_nodes":[],"categories_segments":[],"categories_sizes":[],"default_left":[0,0,0,0,0,0,0,0,0,0,0,0,0,0,0],"id":47,"left_children":[1,3,5,7,9,11,13,-1,-1,-1,-1,-1,-1,-1,-1],"loss_changes":[7.552102E3,3.4756875E3,6.4695356E3,4.350488E3,4.853786E3,9.1624585E2,1.2078461E4,0E0,0E0,0E0,0E0,0E0,0E0,0E0,0E0],"parents":[2147483647,0,0,1,1,2,2,3,3,4,4,5,5,6,6],"right_children":[2,4,6,8,10,12,14,-1,-1,-1,-1,-1,-1,-1,-1],"split_conditions":[3.716E1,3.522E1,1.239E1,3.408E1,6.0098106E1,5.93E0,3.077129E1,-2.7460736E-1,4.4754715E0,-4.2355723E0,6.503961E0,-7.7277656E0,-1.3354564E0,7.5570244E-1,5.556916E0],"split_indices":[0,0,3,0,5,1,5,0,0,0,0,0,0,0,0],"split_type":[0,0,0,0,0,0,0,0,0,0,0,0,0,0,0],"sum_hessian":[3.52E2,2.36E2,1.16E2,2.21E2,1.5E1,4E0,1.12E2,2.14E2,7E0,1.4E1,1E0,2E0,2E0,8.5E1,2.7E1],"tree_param":{"num_deleted":"0","num_feature":"6","num_nodes":"15","size_leaf_vector":"1"}},{"base_weights":[-8.547705E-1,5.2251596E0,-2.7727604E0,1.98121E0,3.6200523E1,5.3281474E0,-5.486072E0,-8.874554E-1,1.517684E0,-1.8409699E0,1.0573957E1,-4.6823684E-2,3.2442043E0,-7.5881433E-1,-4.7351675E0],"categories":[],"categories_nodes":[],"categories_segments":[],"categories_sizes":[],"default_left":[0,0,0,0,0,0,0,0,0,0,0,0,0,0,0],"id":48,"left_children":[1,3,5,7,9,11,13,-1,-1,-1,-1,-1,-1,-1,-1],"loss_changes":[4.130907E3,8.469293E3,5.9419287E3,2.8408765E3,6.5416523E3,4.123854E3,6.1271445E3,0E0,0E0,0E0,0E0,0E0,0E0,0E0,0E0],"parents":[2147483647,0,0,1,1,2,2,3,3,4,4,5,5,6,6],"right_children":[2,4,6,8,10,12,14,-1,-1,-1,-1,-1,-1,-1,-1],"split_conditions":[2.0710667E1,5.81E1,6.19E0,4.787914E1,5.87E0,4.474E1,6.126E1,-8.874554E-1,1.517684E0,-1.8409699E0,1.0573957E1,-4.6823684E-2,3.2442043E0,-7.5881433E-1,-4.7351675E0],"split_indices":[3,0,1,5,1,0,0,0,0,0,0,0,0,0,0],"split_type":[0,0,0,0,0,0,0,0,0,0,0,0,0,0,0],"sum_hessian":[3.52E2,8.4E1,2.68E2,7.7E1,7E0,6.7E1,2.01E2,3.6E1,4.1E1,2E0,5E0,4.5E1,2.2E1,1.85E2,1.6E1],"tree_param":{"num_deleted":"0","num_feature":"6","num_nodes":"15","size_leaf_vector":"1"}},{"base_weights":[7.2244734E-1,-1.69872E1,1.2336763E0,-6.598531E0,5.6167846E0,2.9275744E0,-4.2348943E0,3.7022064E0,-4.5960207E0,1.956231E-1,3.130932E0,4.387992E-1,-3.6332238E0],"categories":[],"categories_nodes":[],"categories_segments":[],"categories_sizes":[],"default_left":[0,0,0,0,0,0,0,0,0,0,0,0,0],"id":49,"left_children":[1,3,5,-1,7,9,11,-1,-1,-1,-1,-1,-1],"loss_changes":[3.2259614E3,3.8031821E3,3.2082026E3,0E0,2.2690618E3,6.5347734E3,7.3839653E3,0E0,0E0,0E0,0E0,0E0,0E0],"parents":[2147483647,0,0,1,1,2,2,4,4,5,5,6,6],"right_children":[2,4,6,-1,8,10,12,-1,-1,-1,-1,-1,-1],"split_conditions":[5.56E0,8.804E1,3.73643E1,-6.598531E0,5.576E1,2.9718817E1,3.248E1,3.7022064E0,-4.5960207E0,1.956231E-1,3.130932E0,4.387992E-1,-3.6332238E0],"split_indices":[1,0,5,0,3,5,0,0,0,0,0,0,0],"split_type":[0,0,0,0,0,0,0,0,0,0,0,0,0],"sum_hessian":[3.53E2,9E0,3.44E2,5E0,4E0,2.63E2,8.1E1,3E0,1E0,2.29E2,3.4E1,5.6E1,2.5E1],"tree_param":{"num_deleted":"0","num_feature":"6","num_nodes":"13","size_leaf_vector":"1"}},{"base_weights":[-6.5484583E-1,-1.8138018E1,2.1862952E-1,-2.5715603E1,1.1023641E1,-9.7169137E-1,2.2969852E1,-1.0759944E0,-6.255659E0,3.8844892E-1,2.6806715E0,5.285363E0,-2.844183E-1,9.794793E0,1.3395247E0],"categories":[],"categories_nodes":[],"categories_segments":[],"categories_sizes":[],"default_left":[0,0,0,0,0,0,0,0,0,0,0,0,0,0,0],"id":50,"left_children":[1,3,5,7,9,11,13,-1,-1,-1,-1,-1,-1,-1,-1],"loss_changes":[5.1350615E3,3.819079E3,8.715402E3,1.3022949E3,6.041205E1,3.8137104E3,6.4423076E3,0E0,0E0,0E0,0E0,0E0,0E0,0E0,0E0],"parents":[2147483647,0,0,1,1,2,2,3,3,4,4,5,5,6,6],"right_children":[2,4,6,8,10,12,14,-1,-1,-1,-1,-1,-1,-1,-1],"split_conditions":[5.56E0,6.0066334E1,6.944E1,3.408E1,3.772E1,5.64E0,8.002E1,-1.0759944E0,-6.255659E0,3.8844892E-1,2.6806715E0,5.285363E0,-2.844183E-1,9.794793E0,1.3395247E0],"split_indices":[1,3,0,0,0,1,0,0,0,0,0,0,0,0,0],"split_type":[0,0,0,0,0,0,0,0,0,0,0,0,0,0,0],"sum_hessian":[3.35E2,1.5E1,3.2E2,1.2E1,3E0,3.05E2,1.5E1,3E0,9E0,1E0,2E0,4E0,3.01E2,5E0,1E1],"tree_param":{"num_deleted":"0","num_feature":"6","num_nodes":"15","size_leaf_vector":"1"}},{"base_weights":[-4.4045977E-2,1.9769881E0,-6.5557227E0,-9.172556E0,3.9770095E0,-2.3355227E0,-3.0627247E1,-4.015378E-1,-4.779799E0,8.835509E0,4.535497E-1,-1.217353E0,2.1410687E0,-7.0836067E0,-8.8977665E-1],"categories":[],"categories_nodes":[],"categories_segments":[],"categories_sizes":[],"default_left":[0,0,0,0,0,0,0,0,0,0,0,0,0,0,0],"id":51,"left_children":[1,3,5,7,9,11,13,-1,-1,-1,-1,-1,-1,-1,-1],"loss_changes":[4.50063E3,5.856603E3,8.1569883E3,4.172537E3,1.5154147E4,3.4895222E3,1.3474082E3,0E0,0E0,0E0,0E0,0E0,0E0,0E0,0E0],"parents":[2147483647,0,0,1,1,2,2,3,3,4,4,5,5,6,6],"right_children":[2,4,6,8,10,12,14,-1,-1,-1,-1,-1,-1,-1,-1],"split_conditions":[3.73643E1,2.7861849E1,4.59E1,6.67E0,2.9311193E1,6.0098106E1,6.944E1,-4.015378E-1,-4.779799E0,8.835509E0,4.535497E-1,-1.217353E0,2.1410687E0,-7.0836067E0,-8.8977665E-1],"split_indices":[5,4,0,1,4,5,0,0,0,0,0,0,0,0,0],"split_type":[0,0,0,0,0,0,0,0,0,0,0,0,0,0,0],"sum_hessian":[3.4E2,2.6E2,8E1,3.9E1,2.21E2,6.9E1,1.1E1,2.7E1,1.2E1,8E0,2.13E2,5.4E1,1.5E1,9E0,2E0],"tree_param":{"num_deleted":"0","num_feature":"6","num_nodes":"15","size_leaf_vector":"1"}},{"base_weights":[1.6070622E0,4.008762E0,-1.2819756E0,5.2217007E-1,1.48283415E1,2.8569696E0,-7.9370165E0,-1.2393762E0,6.719649E-1,4.4321677E-1,6.348817E0,-4.3036113E0,8.1934845E-1,-1.2501459E0,-1.1080052E1],"categories":[],"categories_nodes":[],"categories_segments":[],"categories_sizes":[],"default_left":[0,0,0,0,0,0,0,0,0,0,0,0,0,0,0],"id":52,"left_children":[1,3,5,7,9,11,13,-1,-1,-1,-1,-1,-1,-1,-1],"loss_changes":[2.454465E3,7.272884E3,4.4573965E3,2.823573E3,9.9569E3,3.110103E3,4.6159805E3,0E0,0E0,0E0,0E0,0E0,0E0,0E0,0E0],"parents":[2147483647,0,0,1,1,2,2,3,3,4,4,5,5,6,6],"right_children":[2,4,6,8,10,12,14,-1,-1,-1,-1,-1,-1,-1,-1],"split_conditions":[3.5869E1,2.9846666E1,2.1018496E1,6.98E0,2.889914E1,5.31E0,6.944E1,-1.2393762E0,6.719649E-1,4.4321677E-1,6.348817E0,-4.3036113E0,8.1934845E-1,-1.2501459E0,-1.1080052E1],"split_indices":[3,3,5,1,5,1,0,0,0,0,0,0,0,0,0],"split_type":[0,0,0,0,0,0,0,0,0,0,0,0,0,0,0],"sum_hessian":[3.52E2,1.92E2,1.6E2,1.46E2,4.6E1,9.9E1,6.1E1,4.3E1,1.03E2,2.7E1,1.9E1,4E0,9.5E1,6E1,1E0],"tree_param":{"num_deleted":"0","num_feature":"6","num_nodes":"15","size_leaf_vector":"1"}},{"base_weights":[1.1610743E0,-1.6132286E0,7.452587E0,4.2966437E-1,-1.1838711E1,-1.0485525E1,1.0392128E1,-1.9693686E0,3.3067945E-1,-9.909253E0,-1.4640259E0,-3.0798933E-1,-5.6137385E0,1.6958011E0,9.785245E0],"categories":[],"categories_nodes":[],"categories_segments":[],"categories_sizes":[],"default_left":[0,0,0,0,0,0,0,0,0,0,0,0,0,0,0],"id":53,"left_children":[1,3,5,7,9,11,13,-1,-1,-1,-1,-1,-1,-1,-1],"loss_changes":[5.876756E3,4.8932456E3,5.540136E3,2.481118E3,6.2823164E3,2.31615E3,6.1462725E3,0E0,0E0,0E0,0E0,0E0,0E0,0E0,0E0],"parents":[2147483647,0,0,1,1,2,2,3,3,4,4,5,5,6,6],"right_children":[2,4,6,8,10,12,14,-1,-1,-1,-1,-1,-1,-1,-1],"split_conditions":[3.716E1,3.248E1,1.2891183E1,8.58E0,1.4632667E1,1.2210645E1,5.7238365E1,-1.9693686E0,3.3067945E-1,-9.909253E0,-1.4640259E0,-3.0798933E-1,-5.6137385E0,1.6958011E0,9.785245E0],"split_indices":[0,0,5,0,3,5,3,0,0,0,0,0,0,0,0],"split_type":[0,0,0,0,0,0,0,0,0,0,0,0,0,0,0],"sum_hessian":[3.35E2,2.33E2,1.02E2,1.95E2,3.8E1,1.4E1,8.8E1,2E1,1.75E2,3E0,3.5E1,1E1,4E0,8.5E1,3E0],"tree_param":{"num_deleted":"0","num_feature":"6","num_nodes":"15","size_leaf_vector":"1"}},{"base_weights":[7.311389E-1,1.1616001E0,-2.0650394E1,6.1548576E0,7.252696E-1,2.243164E0,-2.7830734E1,-4.552837E0,2.141202E-1,-8.45282E-1,-6.341264E0],"categories":[],"categories_nodes":[],"categories_segments":[],"categories_sizes":[],"default_left":[0,0,0,0,0,0,0,0,0,0,0],"id":54,"left_children":[1,3,5,-1,7,-1,9,-1,-1,-1,-1],"loss_changes":[3.2637683E3,4.448319E3,1.9138159E3,0E0,2.7985537E3,0E0,4.148794E2,0E0,0E0,0E0,0E0],"parents":[2147483647,0,0,1,1,2,2,4,4,6,6],"right_children":[2,4,6,-1,8,-1,10,-1,-1,-1,-1],"split_conditions":[9.114E1,5.29E0,2.7083603E1,6.1548576E0,5.38E0,2.243164E0,1.6463E1,-4.552837E0,2.141202E-1,-8.45282E-1,-6.341264E0],"split_indices":[0,1,4,0,1,0,3,0,0,0,0],"split_type":[0,0,0,0,0,0,0,0,0,0,0],"sum_hessian":[3.51E2,3.45E2,6E0,4E0,3.41E2,1E0,5E0,4E0,3.37E2,1E0,4E0],"tree_param":{"num_deleted":"0","num_feature":"6","num_nodes":"11","size_leaf_vector":"1"}},{"base_weights":[2.846908E-1,-6.531399E0,6.8072104E-1,5.2524137E0,-2.8489394E0,5.610029E-1,6.962237E0,-3.2817445E0,-2.633352E-1],"categories":[],"categories_nodes":[],"categories_segments":[],"categories_sizes":[],"default_left":[0,0,0,0,0,0,0,0,0],"id":55,"left_children":[1,-1,3,5,7,-1,-1,-1,-1],"loss_changes":[4.3926084E3,0E0,5.372289E3,1.039196E4,3.8845017E3,0E0,0E0,0E0,0E0],"parents":[2147483647,0,0,2,2,3,3,4,4],"right_children":[2,-1,4,6,8,-1,-1,-1,-1],"split_conditions":[5.19E0,-6.531399E0,3.593671E1,3.4988033E1,3.698596E1,5.610029E-1,6.962237E0,-3.2817445E0,-2.633352E-1],"split_indices":[1,0,4,4,4,0,0,0,0],"split_type":[0,0,0,0,0,0,0,0,0],"sum_hessian":[3.34E2,3E0,3.31E2,1.44E2,1.87E2,1.34E2,1E1,1.8E1,1.69E2],"tree_param":{"num_deleted":"0","num_feature":"6","num_nodes":"9","size_leaf_vector":"1"}},{"base_weights":[4.1567856E-3,5.4837704E-1,-1.347608E1,-5.122755E-1,8.48884E0,-2.5001205E1,4.136767E0,2.3414202E-1,-1.2684256E0,-5.218931E-1,3.7215576E0,-5.589905E-1,-6.3874927E0,3.2257142E0,-2.9746157E-1],"categories":[],"categories_nodes":[],"categories_segments":[],"categories_sizes":[],"default_left":[0,0,0,0,0,0,0,0,0,0,0,0,0,0,0],"id":56,"left_children":[1,3,5,7,9,11,13,-1,-1,-1,-1,-1,-1,-1,-1],"loss_changes":[2.4576868E3,2.716256E3,2.742298E3,2.8037188E3,4.316077E3,1.1429624E3,4.2864496E2,0E0,0E0,0E0,0E0,0E0,0E0,0E0,0E0],"parents":[2147483647,0,0,1,1,2,2,3,3,4,4,5,5,6,6],"right_children":[2,4,6,8,10,12,14,-1,-1,-1,-1,-1,-1,-1,-1],"split_conditions":[7.92E1,5.246E1,2.0669731E1,3.480312E1,3.8452023E1,2.8079355E1,5.03E0,2.3414202E-1,-1.2684256E0,-5.218931E-1,3.7215576E0,-5.589905E-1,-6.3874927E0,3.2257142E0,-2.9746157E-1],"split_indices":[0,0,5,5,4,4,1,0,0,0,0,0,0,0,0],"split_type":[0,0,0,0,0,0,0,0,0,0,0,0,0,0,0],"sum_hessian":[3.33E2,3.21E2,1.2E1,2.84E2,3.7E1,7E0,5E0,2.21E2,6.3E1,1.8E1,1.9E1,2E0,5E0,1E0,4E0],"tree_param":{"num_deleted":"0","num_feature":"6","num_nodes":"15","size_leaf_vector":"1"}},{"base_weights":[-1.0036789E0,3.572941E-1,-6.3950973E0,1.1489758E0,-8.201159E0,-1.0540938E1,8.515041E0,-5.806781E-1,6.7225796E-1,-3.2281598E-1,-3.1678307E0,-3.644571E0,1.6308428E0,5.863011E0,-3.1898706E0],"categories":[],"categories_nodes":[],"categories_segments":[],"categories_sizes":[],"default_left":[0,0,0,0,0,0,0,0,0,0,0,0,0,0,0],"id":57,"left_children":[1,3,5,7,9,11,13,-1,-1,-1,-1,-1,-1,-1,-1],"loss_changes":[2.585111E3,1.9201338E3,4.4786265E3,2.3317217E3,1.1819242E3,8.191011E3,8.609312E3,0E0,0E0,0E0,0E0,0E0,0E0,0E0,0E0],"parents":[2147483647,0,0,1,1,2,2,3,3,4,4,5,5,6,6],"right_children":[2,4,6,8,10,12,14,-1,-1,-1,-1,-1,-1,-1,-1],"split_conditions":[4.684E1,2.132E1,4.334878E1,1.898E1,2.5920538E1,7.524E1,7.47E0,-5.806781E-1,6.7225796E-1,-3.2281598E-1,-3.1678307E0,-3.644571E0,1.6308428E0,5.863011E0,-3.1898706E0],"split_indices":[0,2,4,0,5,0,1,0,0,0,0,0,0,0,0],"split_type":[0,0,0,0,0,0,0,0,0,0,0,0,0,0,0],"sum_hessian":[3.51E2,2.81E2,7E1,2.58E2,2.3E1,5.5E1,1.5E1,9.1E1,1.67E2,1.3E1,1E1,3.9E1,1.6E1,8E0,7E0],"tree_param":{"num_deleted":"0","num_feature":"6","num_nodes":"15","size_leaf_vector":"1"}},{"base_weights":[-4.0326577E-1,6.54047E0,-8.947087E-1,-1.9444662E0,4.2776914E0,-1.9861312E-1,-3.9900289E0,1.8059005E0,-3.2828758E0],"categories":[],"categories_nodes":[],"categories_segments":[],"categories_sizes":[],"default_left":[0,0,0,0,0,0,0,0,0],"id":58,"left_children":[1,-1,3,5,7,-1,-1,-1,-1],"loss_changes":[5.5608955E3,0E0,1.8327192E3,4.7767593E3,5.7527266E3,0E0,0E0,0E0,0E0],"parents":[2147483647,0,0,2,2,3,3,4,4],"right_children":[2,-1,4,6,8,-1,-1,-1,-1],"split_conditions":[5.19E0,6.54047E0,4.774E1,4.45E1,5.3432224E1,-1.9861312E-1,-3.9900289E0,1.8059005E0,-3.2828758E0],"split_indices":[1,0,0,0,4,0,0,0,0],"split_type":[0,0,0,0,0,0,0,0,0],"sum_hessian":[3.39E2,4E0,3.35E2,2.79E2,5.6E1,2.66E2,1.3E1,4.6E1,1E1],"tree_param":{"num_deleted":"0","num_feature":"6","num_nodes":"9","size_leaf_vector":"1"}},{"base_weights":[-1.9617845E-1,2.2413907E0,-4.6139164E0,9.8475987E-1,2.0930754E1,-6.8772078E0,4.0944104E0,-6.496712E-1,8.4982914E-1,7.363176E0,-4.2756762E-2,-3.7407353E0,-9.0290976E-1,-1.331242E0,1.8484505E0],"categories":[],"categories_nodes":[],"categories_segments":[],"categories_sizes":[],"default_left":[0,0,0,0,0,0,0,0,0,0,0,0,0,0,0],"id":59,"left_children":[1,3,5,7,9,11,13,-1,-1,-1,-1,-1,-1,-1,-1],"loss_changes":[3.7254885E3,5.2166836E3,2.4524246E3,2.9156924E3,4.7102417E3,2.6538687E3,1.5004233E3,0E0,0E0,0E0,0E0,0E0,0E0,0E0,0E0],"parents":[2147483647,0,0,1,1,2,2,3,3,4,4,5,5,6,6],"right_children":[2,4,6,8,10,12,14,-1,-1,-1,-1,-1,-1,-1,-1],"split_conditions":[7.1E0,7.03E0,5.4142647E1,3.5503765E1,3.2743E1,1.8502043E1,1.8737333E1,-6.496712E-1,8.4982914E-1,7.363176E0,-4.2756762E-2,-3.7407353E0,-9.0290976E-1,-1.331242E0,1.8484505E0],"split_indices":[1,1,4,4,3,5,3,0,0,0,0,0,0,0,0],"split_type":[0,0,0,0,0,0,0,0,0,0,0,0,0,0,0],"sum_hessian":[3.44E2,2.22E2,1.22E2,2.09E2,1.3E1,9.7E1,2.5E1,9.1E1,1.18E2,7E0,6E0,1.5E1,8.2E1,8E0,1.7E1],"tree_param":{"num_deleted":"0","num_feature":"6","num_nodes":"15","size_leaf_vector":"1"}},{"base_weights":[-8.422638E-1,-4.4231605E-2,-1.2593091E1,-1.3139955E0,1.4018866E1,-3.7465675E1,-4.984423E0,1.5087934E-1,-1.1527073E0,-5.888725E0,3.734722E0,-1.0939752E1,3.1466644E0,4.599385E0,-2.9243464E0],"categories":[],"categories_nodes":[],"categories_segments":[],"categories_sizes":[],"default_left":[0,0,0,0,0,0,0,0,0,0,0,0,0,0,0],"id":60,"left_children":[1,3,5,7,9,11,13,-1,-1,-1,-1,-1,-1,-1,-1],"loss_changes":[3.244071E3,5.821885E3,3.9766943E3,2.756163E3,6.012102E3,5.4445073E3,5.190222E3,0E0,0E0,0E0,0E0,0E0,0E0,0E0,0E0],"parents":[2147483647,0,0,1,1,2,2,3,3,4,4,5,5,6,6],"right_children":[2,4,6,8,10,12,14,-1,-1,-1,-1,-1,-1,-1,-1],"split_conditions":[6.944E1,5.306E1,7.524E1,4.0905334E1,2.442656E1,6.74E0,8.002E1,1.5087934E-1,-1.1527073E0,-5.888725E0,3.734722E0,-1.0939752E1,3.1466644E0,4.599385E0,-2.9243464E0],"split_indices":[0,0,0,3,4,1,0,0,0,0,0,0,0,0,0],"split_type":[0,0,0,0,0,0,0,0,0,0,0,0,0,0,0],"sum_hessian":[3.45E2,3.24E2,2.1E1,2.98E2,2.6E1,4E0,1.7E1,2.04E2,9.4E1,2E0,2.4E1,3E0,1E0,4E0,1.3E1],"tree_param":{"num_deleted":"0","num_feature":"6","num_nodes":"15","size_leaf_vector":"1"}},{"base_weights":[-2.1991195E-2,1.151804E0,-7.087798E0,-1.621321E0,5.016234E0,-1.9569407E0,-1.6100603E1,-1.3624075E-1,-1.1121535E1,1.2554038E1,8.1040823E-1,2.6256981E-1,-1.1936424E0,6.999111E-1,-4.050788E0],"categories":[],"categories_nodes":[],"categories_segments":[],"categories_sizes":[],"default_left":[0,0,0,0,0,0,0,0,0,0,0,0,0,0,0],"id":61,"left_children":[1,3,5,7,9,11,13,-1,-1,-1,-1,-1,-1,-1,-1],"loss_changes":[2.9109973E3,3.2338137E3,2.2806636E3,8.894736E3,6.762084E3,4.4066373E2,1.5361885E3,0E0,0E0,0E0,0E0,0E0,0E0,0E0,0E0],"parents":[2147483647,0,0,1,1,2,2,3,3,4,4,5,5,6,6],"right_children":[2,4,6,8,10,12,14,-1,-1,-1,-1,-1,-1,-1,-1],"split_conditions":[1.79E1,3.378E1,4.008E1,3.362E1,3.406E1,2.535E1,1.4556882E1,-1.3624075E-1,-1.1121535E1,1.2554038E1,8.1040823E-1,2.6256981E-1,-1.1936424E0,6.999111E-1,-4.050788E0],"split_indices":[2,0,0,0,0,5,5,0,0,0,0,0,0,0,0],"split_type":[0,0,0,0,0,0,0,0,0,0,0,0,0,0,0],"sum_hessian":[3.49E2,3E2,4.9E1,1.75E2,1.25E2,3.2E1,1.7E1,1.73E2,2E0,1E0,1.24E2,1.8E1,1.4E1,3E0,1.4E1],"tree_param":{"num_deleted":"0","num_feature":"6","num_nodes":"15","size_leaf_vector":"1"}},{"base_weights":[2.0603936E0,1.3422159E0,1.8790398E1,6.243955E0,-1.392442E0,3.630359E1,-3.9090228E0,-2.2676487E-1,2.2287614E0,-3.9475396E0,-3.8607623E-2,1.1827769E1,2.1549337E0,-4.2829976E0,1.4752722E0],"categories":[],"categories_nodes":[],"categories_segments":[],"categories_sizes":[],"default_left":[0,0,0,0,0,0,0,0,0,0,0,0,0,0,0],"id":62,"left_children":[1,3,5,7,9,11,13,-1,-1,-1,-1,-1,-1,-1,-1],"loss_changes":[4.0839487E3,4.418801E3,5.707462E3,4.2783374E3,4.6609043E3,4.0264746E3,1.5408954E3,0E0,0E0,0E0,0E0,0E0,0E0,0E0,0E0],"parents":[2147483647,0,0,1,1,2,2,3,3,4,4,5,5,6,6],"right_children":[2,4,6,8,10,12,14,-1,-1,-1,-1,-1,-1,-1,-1],"split_conditions":[7.92E1,3.4824547E1,5.0179333E1,2.538E1,3.5442883E1,6.14E0,1.5786667E1,-2.2676487E-1,2.2287614E0,-3.9475396E0,-3.8607623E-2,1.1827769E1,2.1549337E0,-4.2829976E0,1.4752722E0],"split_indices":[0,4,3,0,4,1,5,0,0,0,0,0,0,0,0],"split_type":[0,0,0,0,0,0,0,0,0,0,0,0,0,0,0],"sum_hessian":[3.41E2,3.28E2,1.3E1,1.17E2,2.11E2,7E0,6E0,4.7E1,7E1,1.2E1,1.99E2,3E0,4E0,2E0,4E0],"tree_param":{"num_deleted":"0","num_feature":"6","num_nodes":"15","size_leaf_vector":"1"}},{"base_weights":[1.600697E0,3.2686582E0,-6.3825393E0,1.9396088E0,1.1559953E1,-2.330601E-1,-1.3160134E1,6.719001E-1,-1.7359145E0,-4.553828E-1,4.1758804E0,1.3567206E0,-1.1520529E0,-3.234558E0,3.6680965E0],"categories":[],"categories_nodes":[],"categories_segments":[],"categories_sizes":[],"default_left":[0,0,0,0,0,0,0,0,0,0,0,0,0,0,0],"id":63,"left_children":[1,3,5,7,9,11,13,-1,-1,-1,-1,-1,-1,-1,-1],"loss_changes":[4.6946826E3,3.1842644E3,2.5393328E3,3.8288362E3,5.2056196E3,1.3188989E3,3.0487324E3,0E0,0E0,0E0,0E0,0E0,0E0,0E0,0E0],"parents":[2147483647,0,0,1,1,2,2,3,3,4,4,5,5,6,6],"right_children":[2,4,6,8,10,12,14,-1,-1,-1,-1,-1,-1,-1,-1],"split_conditions":[4.9393185E1,4.365001E1,3.002E1,4.161012E1,2.678E1,2.6415276E1,1.842E1,6.719001E-1,-1.7359145E0,-4.553828E-1,4.1758804E0,1.3567206E0,-1.1520529E0,-3.234558E0,3.6680965E0],"split_indices":[4,4,0,4,0,3,2,0,0,0,0,0,0,0,0],"split_type":[0,0,0,0,0,0,0,0,0,0,0,0,0,0,0],"sum_hessian":[3.5E2,2.9E2,6E1,2.51E2,3.9E1,3.2E1,2.8E1,2.22E2,2.9E1,1.6E1,2.3E1,1.4E1,1.8E1,2.6E1,2E0],"tree_param":{"num_deleted":"0","num_feature":"6","num_nodes":"15","size_leaf_vector":"1"}},{"base_weights":[-3.7584698E-1,-1.6749399E0,9.650734E0,2.9363358E-2,-1.186088E1,-1.3644839E1,1.3593846E1,-1.754131E0,1.08944535E-1,2.129194E0,-3.1815488E0,2.807434E0,-4.397735E0,1.3793777E0,6.1372156E0],"categories":[],"categories_nodes":[],"categories_segments":[],"categories_sizes":[],"default_left":[0,0,0,0,0,0,0,0,0,0,0,0,0,0,0],"id":64,"left_children":[1,3,5,7,9,11,13,-1,-1,-1,-1,-1,-1,-1,-1],"loss_changes":[4.3145664E3,5.086808E3,3.6760537E3,1.1476407E3,3.9948027E3,1.6945038E3,3.5657373E3,0E0,0E0,0E0,0E0,0E0,0E0,0E0,0E0],"parents":[2147483647,0,0,1,1,2,2,3,3,4,4,5,5,6,6],"right_children":[2,4,6,8,10,12,14,-1,-1,-1,-1,-1,-1,-1,-1],"split_conditions":[5.516E1,4.236E1,1.6463E1,1.2290667E1,5.85E0,5.61E1,2.6006775E1,-1.754131E0,1.08944535E-1,2.129194E0,-3.1815488E0,2.807434E0,-4.397735E0,1.3793777E0,6.1372156E0],"split_indices":[0,0,3,3,1,0,5,0,0,0,0,0,0,0,0],"split_type":[0,0,0,0,0,0,0,0,0,0,0,0,0,0,0],"sum_hessian":[3.29E2,2.92E2,3.7E1,2.51E2,4.1E1,5E0,3.2E1,1.3E1,2.38E2,6E0,3.5E1,1E0,4E0,2.4E1,8E0],"tree_param":{"num_deleted":"0","num_feature":"6","num_nodes":"15","size_leaf_vector":"1"}},{"base_weights":[1.0552537E0,1.4674215E-1,2.1551176E1,4.910325E0,-1.6461541E-1,7.523271E-1,3.7056274E1,5.9534755E-2,-3.1728313E0,1.4076602E0,-6.339445E-1,8.594567E0,-4.359665E-1],"categories":[],"categories_nodes":[],"categories_segments":[],"categories_sizes":[],"default_left":[0,0,0,0,0,0,0,0,0,0,0,0,0],"id":65,"left_children":[1,3,5,-1,7,9,11,-1,-1,-1,-1,-1,-1],"loss_changes":[6.141696E3,2.4128118E3,4.486956E3,0E0,2.2836487E3,1.9488676E2,1.9508154E3,0E0,0E0,0E0,0E0,0E0,0E0],"parents":[2147483647,0,0,1,1,2,2,4,4,5,5,6,6],"right_children":[2,4,6,-1,8,10,12,-1,-1,-1,-1,-1,-1],"split_conditions":[5.777226E1,5.18E0,1.1407666E1,4.910325E0,3.876E1,8.931666E0,5.61E1,5.9534755E-2,-3.1728313E0,1.4076602E0,-6.339445E-1,8.594567E0,-4.359665E-1],"split_indices":[5,1,3,0,2,3,0,0,0,0,0,0,0],"split_type":[0,0,0,0,0,0,0,0,0,0,0,0,0],"sum_hessian":[3.29E2,3.16E2,1.3E1,3E0,3.13E2,6E0,7E0,3.05E2,8E0,2E0,4E0,6E0,1E0],"tree_param":{"num_deleted":"0","num_feature":"6","num_nodes":"13","size_leaf_vector":"1"}},{"base_weights":[-4.7298847E-3,-8.59268E-1,7.295603E0,-4.241344E-1,-5.27206E0,-1.7325562E0,2.0961596E1,4.021552E0,-1.5509172E-1,6.2622803E-1,-3.044854E0,-2.341151E0,7.0398226E0],"categories":[],"categories_nodes":[],"categories_segments":[],"categories_sizes":[],"default_left":[0,0,0,0,0,0,0,0,0,0,0,0,0],"id":66,"left_children":[1,3,5,7,-1,9,11,-1,-1,-1,-1,-1,-1],"loss_changes":[2.0836602E3,3.3066304E3,4.354573E3,2.1435312E3,0E0,1.4913003E3,6.923458E3,0E0,0E0,0E0,0E0,0E0,0E0],"parents":[2147483647,0,0,1,1,2,2,3,3,5,5,6,6],"right_children":[2,4,6,8,-1,10,12,-1,-1,-1,-1,-1,-1],"split_conditions":[5.6432335E1,5.576E1,3.67E1,5.25E0,-5.27206E0,2.48357E1,5.36E0,4.021552E0,-1.5509172E-1,6.2622803E-1,-3.044854E0,-2.341151E0,7.0398226E0],"split_indices":[3,3,0,1,0,4,1,0,0,0,0,0,0],"split_type":[0,0,0,0,0,0,0,0,0,0,0,0,0],"sum_hessian":[3.32E2,2.98E2,3.4E1,2.94E2,4E0,2.1E1,1.3E1,4E0,2.9E2,1.6E1,5E0,4E0,9E0],"tree_param":{"num_deleted":"0","num_feature":"6","num_nodes":"13","size_leaf_vector":"1"}},{"base_weights":[9.214433E-2,-1.372292E0,5.474197E0,4.254631E-2,-7.198931E0,7.545496E0,-1.4541319E1,-1.2576368E-1,9.360022E0,1.0288986E0,-3.2021623E0,-5.501827E0,1.9370766E0,4.264891E0,-4.8146048E0],"categories":[],"categories_nodes":[],"categories_segments":[],"categories_sizes":[],"default_left":[0,0,0,0,0,0,0,0,0,0,0,0,0,0,0],"id":67,"left_children":[1,3,5,7,9,11,13,-1,-1,-1,-1,-1,-1,-1,-1],"loss_changes":[2.6163464E3,2.1519255E3,3.0532473E3,6.653009E3,5.6295747E3,5.1422783E3,2.9063777E3,0E0,0E0,0E0,0E0,0E0,0E0,0E0,0E0],"parents":[2147483647,0,0,1,1,2,2,3,3,4,4,5,5,6,6],"right_children":[2,4,6,8,10,12,14,-1,-1,-1,-1,-1,-1,-1,-1],"split_conditions":[4.366E1,3.428E1,5.4726665E1,3.402E1,3.6712364E1,2.5667343E1,4.872E1,-1.2576368E-1,9.360022E0,1.0288986E0,-3.2021623E0,-5.501827E0,1.9370766E0,4.264891E0,-4.8146048E0],"split_indices":[0,0,3,0,4,4,0,0,0,0,0,0,0,0,0],"split_type":[0,0,0,0,0,0,0,0,0,0,0,0,0,0,0],"sum_hessian":[3.3E2,2.6E2,7E1,2.1E2,5E1,6.4E1,6E0,2.08E2,2E0,2.1E1,2.9E1,3E0,6.1E1,1E0,5E0],"tree_param":{"num_deleted":"0","num_feature":"6","num_nodes":"15","size_leaf_vector":"1"}},{"base_weights":[-1.414622E0,6.6678673E-1,-3.5120087E0,-5.3572394E-2,2.5025639E1,-4.278804E0,2.9763084E1,-8.80962E-1,3.5923E-1,6.71082E0,-9.088215E-1,-3.2432187E-1,-2.9563468E0,1.2298584E-1,7.8548317E0],"categories":[],"categories_nodes":[],"categories_segments":[],"categories_sizes":[],"default_left":[0,0,0,0,0,0,0,0,0,0,0,0,0,0,0],"id":68,"left_children":[1,3,5,7,9,11,13,-1,-1,-1,-1,-1,-1,-1,-1],"loss_changes":[1.5084456E3,3.0545396E3,4.515961E3,1.3761708E3,1.4133962E3,4.692537E3,1.0847705E3,0E0,0E0,0E0,0E0,0E0,0E0,0E0,0E0],"parents":[2147483647,0,0,1,1,2,2,3,3,4,4,5,5,6,6],"right_children":[2,4,6,8,10,12,14,-1,-1,-1,-1,-1,-1,-1,-1],"split_conditions":[3.122E1,3.066E1,6.037344E1,1.402E1,6.6E0,3.7902473E1,7.21E0,-8.80962E-1,3.5923E-1,6.71082E0,-9.088215E-1,-3.2432187E-1,-2.9563468E0,1.2298584E-1,7.8548317E0],"split_indices":[0,0,5,0,1,5,1,0,0,0,0,0,0,0,0],"split_type":[0,0,0,0,0,0,0,0,0,0,0,0,0,0,0],"sum_hessian":[3.44E2,1.73E2,1.71E2,1.69E2,4E0,1.68E2,3E0,5E1,1.19E2,3E0,1E0,1.35E2,3.3E1,1E0,2E0],"tree_param":{"num_deleted":"0","num_feature":"6","num_nodes":"15","size_leaf_vector":"1"}},{"base_weights":[-1.6742357E0,-7.075076E-1,-1.2183842E1,-1.0364712E0,6.8139033E0,-6.7130623E0,-3.203632E1,-3.3721972E-1,1.8345559E0,6.812726E0,-2.3936763E0,-9.021939E0,-2.8444412E0],"categories":[],"categories_nodes":[],"categories_segments":[],"categories_sizes":[],"default_left":[0,0,0,0,0,0,0,0,0,0,0,0,0],"id":69,"left_children":[1,3,5,7,-1,9,11,-1,-1,-1,-1,-1,-1],"loss_changes":[3.4965557E3,3.6619116E3,2.934586E3,2.1046116E3,0E0,5.5507544E3,7.557837E2,0E0,0E0,0E0,0E0,0E0,0E0],"parents":[2147483647,0,0,1,1,2,2,3,3,5,5,6,6],"right_children":[2,4,6,8,-1,10,12,-1,-1,-1,-1,-1,-1],"split_conditions":[6.126E1,5.982E1,3.7902473E1,5.7317665E1,6.8139033E0,1.9607666E1,3.1219301E1,-3.3721972E-1,1.8345559E0,6.812726E0,-2.3936763E0,-9.021939E0,-2.8444412E0],"split_indices":[0,0,5,3,0,3,4,0,0,0,0,0,0],"split_type":[0,0,0,0,0,0,0,0,0,0,0,0,0],"sum_hessian":[3.44E2,3.16E2,2.8E1,3.14E2,2E0,2.3E1,5E0,2.96E2,1.8E1,2E0,2.1E1,2E0,3E0],"tree_param":{"num_deleted":"0","num_feature":"6","num_nodes":"13","size_leaf_vector":"1"}},{"base_weights":[-1.3169736E-1,-3.1509926E0,2.152206E0,-4.792977E0,1.6404905E1,4.126129E0,-9.236692E0,-3.181192E0,-5.4313105E-1,7.4935417E0,-7.984968E-1,2.5090897E0,1.3401912E-1,-2.5177104E0,5.025246E0],"categories":[],"categories_nodes":[],"categories_segments":[],"categories_sizes":[],"default_left":[0,0,0,0,0,0,0,0,0,0,0,0,0,0,0],"id":70,"left_children":[1,3,5,7,9,11,13,-1,-1,-1,-1,-1,-1,-1,-1],"loss_changes":[2.4340955E3,4.959421E3,4.556754E3,3.211824E3,5.3051025E3,4.9963545E3,3.7716936E3,0E0,0E0,0E0,0E0,0E0,0E0,0E0,0E0],"parents":[2147483647,0,0,1,1,2,2,3,3,4,4,5,5,6,6],"right_children":[2,4,6,8,10,12,14,-1,-1,-1,-1,-1,-1,-1,-1],"split_conditions":[6.62E0,7.92E1,5.61E1,2.6470333E1,1.9553118E1,7.05E0,4.1135483E1,-3.181192E0,-5.4313105E-1,7.4935417E0,-7.984968E-1,2.5090897E0,1.3401912E-1,-2.5177104E0,5.025246E0],"split_indices":[1,0,0,3,5,1,5,0,0,0,0,0,0,0,0],"split_type":[0,0,0,0,0,0,0,0,0,0,0,0,0,0,0],"sum_hessian":[3.51E2,1.51E2,2E2,1.4E2,1.1E1,1.71E2,2.9E1,2.1E1,1.19E2,5E0,6E0,4.9E1,1.22E2,2.7E1,2E0],"tree_param":{"num_deleted":"0","num_feature":"6","num_nodes":"15","size_leaf_vector":"1"}},{"base_weights":[-1.6304191E0,-5.1344385E0,8.965867E-1,-7.8536153E0,2.5004385E0,2.6039103E-1,2.4638226E1,-7.567108E-1,-4.047612E0,-6.048402E-1,3.5438771E0,2.7299342E-1,-4.372012E0,-1.0455933E0,6.6823535E0],"categories":[],"categories_nodes":[],"categories_segments":[],"categories_sizes":[],"default_left":[0,0,0,0,0,0,0,0,0,0,0,0,0,0,0],"id":71,"left_children":[1,3,5,7,9,11,13,-1,-1,-1,-1,-1,-1,-1,-1],"loss_changes":[2.9177925E3,2.8845972E3,2.8936155E3,5.0647837E3,3.1645173E3,4.623377E3,1.4848364E3,0E0,0E0,0E0,0E0,0E0,0E0,0E0,0E0],"parents":[2147483647,0,0,1,1,2,2,3,3,4,4,5,5,6,6],"right_children":[2,4,6,8,10,12,14,-1,-1,-1,-1,-1,-1,-1,-1],"split_conditions":[3.5503765E1,7.17E0,8.468E1,6.79E0,3.716E1,7.204E1,1.648E1,-7.567108E-1,-4.047612E0,-6.048402E-1,3.5438771E0,2.7299342E-1,-4.372012E0,-1.0455933E0,6.6823535E0],"split_indices":[4,1,0,1,0,0,2,0,0,0,0,0,0,0,0],"split_type":[0,0,0,0,0,0,0,0,0,0,0,0,0,0,0],"sum_hessian":[3.28E2,1.37E2,1.91E2,1.01E2,3.6E1,1.87E2,4E0,7.7E1,2.4E1,2.7E1,9E0,1.79E2,8E0,1E0,3E0],"tree_param":{"num_deleted":"0","num_feature":"6","num_nodes":"15","size_leaf_vector":"1"}},{"base_weights":[-8.9473057E-1,-3.4728992E0,2.1079824E0,1.1866745E-1,-1.2730372E1,8.301533E0,1.3465456E0,-1.1461484E0,8.675251E-1,-1.5961038E0,-6.376341E0,-7.736902E-1,1.0659497E0],"categories":[],"categories_nodes":[],"categories_segments":[],"categories_sizes":[],"default_left":[0,0,0,0,0,0,0,0,0,0,0,0,0],"id":72,"left_children":[1,3,5,7,9,-1,11,-1,-1,-1,-1,-1,-1],"loss_changes":[2.6781384E3,6.185793E3,4.7441675E3,3.3564434E3,4.475801E3,0E0,3.3026553E3,0E0,0E0,0E0,0E0,0E0,0E0],"parents":[2147483647,0,0,1,1,2,2,3,3,4,4,6,6],"right_children":[2,4,6,8,10,-1,12,-1,-1,-1,-1,-1,-1],"split_conditions":[6.9E0,4.098E1,6.92E0,1.7473333E1,3.1287205E1,8.301533E0,1.7865524E1,-1.1461484E0,8.675251E-1,-1.5961038E0,-6.376341E0,-7.736902E-1,1.0659497E0],"split_indices":[1,0,1,5,5,0,2,0,0,0,0,0,0],"split_type":[0,0,0,0,0,0,0,0,0,0,0,0,0],"sum_hessian":[3.44E2,1.85E2,1.59E2,1.34E2,5.1E1,2E0,1.57E2,5.6E1,7.8E1,4.2E1,9E0,6.8E1,8.9E1],"tree_param":{"num_deleted":"0","num_feature":"6","num_nodes":"13","size_leaf_vector":"1"}},{"base_weights":[2.3018682E0,9.7716406E-2,7.746462E0,7.3521817E-1,-1.0066326E1,1.3800348E1,1.1744125E0,4.9231806E-1,-7.8480357E-1,-4.357364E-1,-5.081176E0,-1.4597995E0,3.4339585E0,-5.442999E0,7.1310896E-1],"categories":[],"categories_nodes":[],"categories_segments":[],"categories_sizes":[],"default_left":[0,0,0,0,0,0,0,0,0,0,0,0,0,0,0],"id":73,"left_children":[1,3,5,7,9,11,13,-1,-1,-1,-1,-1,-1,-1,-1],"loss_changes":[4.2474946E3,1.6467384E3,4.0420093E3,1.932074E3,1.7595428E3,3.893255E3,3.4911777E3,0E0,0E0,0E0,0E0,0E0,0E0,0E0,0E0],"parents":[2147483647,0,0,1,1,2,2,3,3,4,4,5,5,6,6],"right_children":[2,4,6,8,10,12,14,-1,-1,-1,-1,-1,-1,-1,-1],"split_conditions":[4.076E1,5.7028923E1,5.408E1,4.3114E1,1.2760333E1,1.2710789E1,1.551E1,4.9231806E-1,-7.8480357E-1,-4.357364E-1,-5.081176E0,-1.4597995E0,3.4339585E0,-5.442999E0,7.1310896E-1],"split_indices":[0,5,0,3,3,5,2,0,0,0,0,0,0,0,0],"split_type":[0,0,0,0,0,0,0,0,0,0,0,0,0,0,0],"sum_hessian":[3.53E2,2.52E2,1.01E2,2.38E2,1.4E1,5.2E1,4.9E1,1.74E2,6.4E1,1E1,4E0,7E0,4.5E1,3E0,4.6E1],"tree_param":{"num_deleted":"0","num_feature":"6","num_nodes":"15","size_leaf_vector":"1"}},{"base_weights":[-1.3361864E0,6.5351695E-1,-6.77172E0,-3.698339E0,1.8872755E0,-1.1617044E1,2.6762962E0,-2.4322844E0,6.0505666E-2,2.2956882E0,1.1070194E-1,-4.4215837E0,-5.2716464E-1,7.8816237E0,-4.9648973E-1],"categories":[],"categories_nodes":[],"categories_segments":[],"categories_sizes":[],"default_left":[0,0,0,0,0,0,0,0,0,0,0,0,0,0,0],"id":74,"left_children":[1,3,5,7,9,11,13,-1,-1,-1,-1,-1,-1,-1,-1],"loss_changes":[3.714005E3,1.3600029E3,4.2427314E3,1.8998207E3,2.5137427E3,5.6892E3,6.1615117E3,0E0,0E0,0E0,0E0,0E0,0E0,0E0,0E0],"parents":[2147483647,0,0,1,1,2,2,3,3,4,4,5,5,6,6],"right_children":[2,4,6,8,10,12,14,-1,-1,-1,-1,-1,-1,-1,-1],"split_conditions":[4.106E1,1.402E1,4.714633E1,2.7861849E1,1.7224E1,6.97E0,4.8666725E1,-2.4322844E0,6.0505666E-2,2.2956882E0,1.1070194E-1,-4.4215837E0,-5.2716464E-1,7.8816237E0,-4.9648973E-1],"split_indices":[0,0,3,4,3,1,3,0,0,0,0,0,0,0,0],"split_type":[0,0,0,0,0,0,0,0,0,0,0,0,0,0,0],"sum_hessian":[3.42E2,2.51E2,9.1E1,5.5E1,1.96E2,6E1,3.1E1,1.7E1,3.8E1,2.3E1,1.73E2,2.7E1,3.3E1,3E0,2.8E1],"tree_param":{"num_deleted":"0","num_feature":"6","num_nodes":"15","size_leaf_vector":"1"}},{"base_weights":[-4.1142398E-1,5.511502E-1,-8.210271E0,1.6955918E-1,7.247398E0,-1.5359566E1,5.0700397E0,-1.0565245E0,1.9778271E-1,-1.2583523E0,-8.000609E0,1.7579069E0,-3.9563904E0],"categories":[],"categories_nodes":[],"categories_segments":[],"categories_sizes":[],"default_left":[0,0,0,0,0,0,0,0,0,0,0,0,0],"id":75,"left_children":[1,3,5,7,-1,9,11,-1,-1,-1,-1,-1,-1],"loss_changes":[2.3917412E3,3.861196E3,3.4009434E3,1.2649939E3,0E0,4.887943E3,1.3755533E3,0E0,0E0,0E0,0E0,0E0,0E0],"parents":[2147483647,0,0,1,1,2,2,3,3,5,5,6,6],"right_children":[2,4,6,8,-1,10,12,-1,-1,-1,-1,-1,-1],"split_conditions":[5.896E1,5.81E1,8.002E1,1.1514946E1,7.247398E0,6.944E1,5.4726665E1,-1.0565245E0,1.9778271E-1,-1.2583523E0,-8.000609E0,1.7579069E0,-3.9563904E0],"split_indices":[0,0,0,5,0,0,3,0,0,0,0,0,0],"split_type":[0,0,0,0,0,0,0,0,0,0,0,0,0],"sum_hessian":[3.17E2,2.83E2,3.4E1,2.81E2,2E0,2.2E1,1.2E1,3.6E1,2.45E2,1.7E1,5E0,1.1E1,1E0],"tree_param":{"num_deleted":"0","num_feature":"6","num_nodes":"13","size_leaf_vector":"1"}},{"base_weights":[-3.5059753E-1,7.693417E-1,-5.884036E0,-8.4057313E-1,7.58937E0,-1.3673292E1,-4.4177395E-1,-1.0276803E0,7.703533E-2,3.3821866E-1,4.7798986E0,-1.9943067E-1,-6.6561866E0,4.2815957E0,-6.4936924E-1],"categories":[],"categories_nodes":[],"categories_segments":[],"categories_sizes":[],"default_left":[0,0,0,0,0,0,0,0,0,0,0,0,0,0,0],"id":76,"left_children":[1,3,5,7,9,11,13,-1,-1,-1,-1,-1,-1,-1,-1],"loss_changes":[2.0619688E3,3.0477463E3,2.3678657E3,1.1872932E3,5.05827E3,5.683445E3,2.153373E3,0E0,0E0,0E0,0E0,0E0,0E0,0E0,0E0],"parents":[2147483647,0,0,1,1,2,2,3,3,4,4,5,5,6,6],"right_children":[2,4,6,8,10,12,14,-1,-1,-1,-1,-1,-1,-1,-1],"split_conditions":[4.2152367E1,3.077129E1,5.2108925E1,3.0680408E1,4.106E1,3.292E1,5.3038387E1,-1.0276803E0,7.703533E-2,3.3821866E-1,4.7798986E0,-1.9943067E-1,-6.6561866E0,4.2815957E0,-6.4936924E-1],"split_indices":[5,5,5,4,0,0,5,0,0,0,0,0,0,0,0],"split_type":[0,0,0,0,0,0,0,0,0,0,0,0,0,0,0],"sum_hessian":[3.31E2,2.76E2,5.5E1,2.24E2,5.2E1,2.2E1,3.3E1,4.9E1,1.75E2,3.9E1,1.3E1,1.4E1,8E0,3E0,3E1],"tree_param":{"num_deleted":"0","num_feature":"6","num_nodes":"15","size_leaf_vector":"1"}},{"base_weights":[6.284769E-2,-1.1867012E0,6.2218018E0,-8.7707466E-1,-1.8102667E1,7.2087975E0,4.482013E0,7.253399E-2,-8.8238806E-1,-4.5032197E-1,-4.300506E0,-4.8177233E0,1.2029305E0],"categories":[],"categories_nodes":[],"categories_segments":[],"categories_sizes":[],"default_left":[0,0,0,0,0,0,0,0,0,0,0,0,0],"id":77,"left_children":[1,3,5,7,9,-1,11,-1,-1,-1,-1,-1,-1],"loss_changes":[2.6009062E3,1.4558969E3,2.7958547E3,1.2155057E3,2.2104175E2,0E0,2.5532505E3,0E0,0E0,0E0,0E0,0E0,0E0],"parents":[2147483647,0,0,1,1,2,2,3,3,4,4,6,6],"right_children":[2,4,6,8,10,-1,12,-1,-1,-1,-1,-1,-1],"split_conditions":[4.796E1,4.684E1,4.886E1,4.535183E1,3.1599E1,7.2087975E0,2.442656E1,7.253399E-2,-8.8238806E-1,-4.5032197E-1,-4.300506E0,-4.8177233E0,1.2029305E0],"split_indices":[0,0,0,4,3,0,4,0,0,0,0,0,0],"split_type":[0,0,0,0,0,0,0,0,0,0,0,0,0],"sum_hessian":[3.36E2,2.8E2,5.6E1,2.76E2,4E0,2E0,5.4E1,2.05E2,7.1E1,1E0,3E0,2E0,5.2E1],"tree_param":{"num_deleted":"0","num_feature":"6","num_nodes":"13","size_leaf_vector":"1"}},{"base_weights":[-9.015772E-1,3.5081697E0,-1.1654805E0,8.0933696E-1,-3.2870474E0,1.9909882E-4,3.637711E0,-9.759775E0,-4.3139195E-1],"categories":[],"categories_nodes":[],"categories_segments":[],"categories_sizes":[],"default_left":[0,0,0,0,0,0,0,0,0],"id":78,"left_children":[1,-1,3,5,7,-1,-1,-1,-1],"loss_changes":[1.7238995E3,0E0,1.4522991E3,2.5286833E3,8.483944E3,0E0,0E0,0E0,0E0],"parents":[2147483647,0,0,2,2,3,3,4,4],"right_children":[2,-1,4,6,8,-1,-1,-1,-1],"split_conditions":[5.25E0,3.5081697E0,3.4502666E1,3.418833E1,3.4870335E1,1.9909882E-4,3.637711E0,-9.759775E0,-4.3139195E-1],"split_indices":[1,0,3,3,3,0,0,0,0],"split_type":[0,0,0,0,0,0,0,0,0],"sum_hessian":[3.49E2,4E0,3.45E2,1.79E2,1.66E2,1.72E2,7E0,3E0,1.63E2],"tree_param":{"num_deleted":"0","num_feature":"6","num_nodes":"9","size_leaf_vector":"1"}},{"base_weights":[3.8417956E-1,1.308264E0,-9.695461E0,-9.398334E-1,5.359337E0,-1.843029E1,3.4868343E0,-2.20348E-2,-6.5553436E0,-1.2820247E0,1.862564E0,6.1706197E-2,-7.910006E0,-2.3489406E0,2.514138E0],"categories":[],"categories_nodes":[],"categories_segments":[],"categories_sizes":[],"default_left":[0,0,0,0,0,0,0,0,0,0,0,0,0,0,0],"id":79,"left_children":[1,3,5,7,9,11,13,-1,-1,-1,-1,-1,-1,-1,-1],"loss_changes":[3.1050781E3,2.7827349E3,3.2883257E3,5.1999023E3,5.1315054E3,6.740106E3,1.807972E3,0E0,0E0,0E0,0E0,0E0,0E0,0E0,0E0],"parents":[2147483647,0,0,1,1,2,2,3,3,4,4,5,5,6,6],"right_children":[2,4,6,8,10,12,14,-1,-1,-1,-1,-1,-1,-1,-1],"split_conditions":[6.126E1,3.402E1,4.1763763E1,3.362E1,1.4687097E1,6.27E0,6.76E0,-2.20348E-2,-6.5553436E0,-1.2820247E0,1.862564E0,6.1706197E-2,-7.910006E0,-2.3489406E0,2.514138E0],"split_indices":[0,0,4,0,5,1,1,0,0,0,0,0,0,0,0],"split_type":[0,0,0,0,0,0,0,0,0,0,0,0,0,0,0],"sum_hessian":[3.31E2,3.04E2,2.7E1,1.96E2,1.08E2,1.6E1,1.1E1,1.92E2,4E0,2.7E1,8.1E1,9E0,7E0,4E0,7E0],"tree_param":{"num_deleted":"0","num_feature":"6","num_nodes":"15","size_leaf_vector":"1"}},{"base_weights":[-1.0234377E0,1.4672976E0,-3.406228E0,1.0257421E-1,3.7387917E1,8.088493E-1,-6.9501514E0,-2.8763807E-1,2.611418E0,-4.607714E0,1.0816186E1,-1.0316347E0,7.333764E-1,-1.9056593E0,3.080256E0],"categories":[],"categories_nodes":[],"categories_segments":[],"categories_sizes":[],"default_left":[0,0,0,0,0,0,0,0,0,0,0,0,0,0,0],"id":80,"left_children":[1,3,5,7,9,11,13,-1,-1,-1,-1,-1,-1,-1,-1],"loss_changes":[1.9872544E3,8.0357256E3,2.5600042E3,3.192396E3,7.2981475E3,1.3661761E3,5.5058936E3,0E0,0E0,0E0,0E0,0E0,0E0,0E0,0E0],"parents":[2147483647,0,0,1,1,2,2,3,3,4,4,5,5,6,6],"right_children":[2,4,6,8,10,12,14,-1,-1,-1,-1,-1,-1,-1,-1],"split_conditions":[6.74E0,6.7E0,2.644E1,5.96E1,3.028E1,2.9710978E1,4.9719482E1,-2.8763807E-1,2.611418E0,-4.607714E0,1.0816186E1,-1.0316347E0,7.333764E-1,-1.9056593E0,3.080256E0],"split_indices":[1,1,0,0,0,4,5,0,0,0,0,0,0,0,0],"split_type":[0,0,0,0,0,0,0,0,0,0,0,0,0,0,0],"sum_hessian":[3.33E2,1.63E2,1.7E2,1.58E2,5E0,7.8E1,9.2E1,1.42E2,1.6E1,1E0,4E0,2.5E1,5.3E1,8.3E1,9E0],"tree_param":{"num_deleted":"0","num_feature":"6","num_nodes":"15","size_leaf_vector":"1"}},{"base_weights":[-6.165811E-1,-1.3313959E0,6.814218E0,-1.37693615E1,-7.425941E-1,-2.6929247E0,2.1299343E1,-5.452437E-1,-5.6078367E0,-1.7394084E0,2.9455898E-2,-3.4236242E-3,-2.036352E0,6.262627E0,-1.3113054E0],"categories":[],"categories_nodes":[],"categories_segments":[],"categories_sizes":[],"default_left":[0,0,0,0,0,0,0,0,0,0,0,0,0,0,0],"id":81,"left_children":[1,3,5,7,9,11,13,-1,-1,-1,-1,-1,-1,-1,-1],"loss_changes":[1.8150317E3,2.2673818E3,4.1887217E3,2.1297307E3,2.1106597E3,3.805605E2,3.5526206E3,0E0,0E0,0E0,0E0,0E0,0E0,0E0,0E0],"parents":[2147483647,0,0,1,1,2,2,3,3,4,4,5,5,6,6],"right_children":[2,4,6,8,10,12,14,-1,-1,-1,-1,-1,-1,-1,-1],"split_conditions":[5.6432335E1,5.63E0,3.772E1,3.6944668E1,2.7861849E1,2.442656E1,6.604E1,-5.452437E-1,-5.6078367E0,-1.7394084E0,2.9455898E-2,-3.4236242E-3,-2.036352E0,6.262627E0,-1.3113054E0],"split_indices":[3,1,0,3,4,4,3,0,0,0,0,0,0,0,0],"split_type":[0,0,0,0,0,0,0,0,0,0,0,0,0,0,0],"sum_hessian":[3.39E2,3.1E2,2.9E1,1.3E1,2.97E2,1.8E1,1.1E1,8E0,5E0,2.9E1,2.68E2,1.4E1,4E0,8E0,3E0],"tree_param":{"num_deleted":"0","num_feature":"6","num_nodes":"15","size_leaf_vector":"1"}},{"base_weights":[-2.7325365E-1,-8.6500084E-1,1.0742355E1,-1.2948282E0,9.252886E0,-9.126313E-2,2.2941586E1,-2.6156914E0,-1.1025474E-1,-9.407311E-2,4.135015E0,3.3864865E-1,-1.6151819E0,-1.5627699E0,5.6902966E0],"categories":[],"categories_nodes":[],"categories_segments":[],"categories_sizes":[],"default_left":[0,0,0,0,0,0,0,0,0,0,0,0,0,0,0],"id":82,"left_children":[1,3,5,7,9,11,13,-1,-1,-1,-1,-1,-1,-1,-1],"loss_changes":[2.1734194E3,1.3862474E3,2.2488442E3,2.6563684E3,1.4535155E3,1.56161E2,1.5779897E3,0E0,0E0,0E0,0E0,0E0,0E0,0E0,0E0],"parents":[2147483647,0,0,1,1,2,2,3,3,4,4,5,5,6,6],"right_children":[2,4,6,8,10,12,14,-1,-1,-1,-1,-1,-1,-1,-1],"split_conditions":[5.8946E1,6.037344E1,1.5490355E1,1.4632667E1,1.239E1,1.5078774E1,1.248E1,-2.6156914E0,-1.1025474E-1,-9.407311E-2,4.135015E0,3.3864865E-1,-1.6151819E0,-1.5627699E0,5.6902966E0],"split_indices":[3,5,4,3,3,4,0,0,0,0,0,0,0,0,0],"split_type":[0,0,0,0,0,0,0,0,0,0,0,0,0,0,0],"sum_hessian":[3.31E2,3.15E2,1.6E1,3.03E2,1.2E1,9E0,7E0,1.7E1,2.86E2,7E0,5E0,8E0,1E0,1E0,6E0],"tree_param":{"num_deleted":"0","num_feature":"6","num_nodes":"15","size_leaf_vector":"1"}},{"base_weights":[1.3483932E0,2.2434988E0,-7.2000556E0,-1.2001367E1,2.6453528E0,2.2691727E1,-1.267155E1,2.3100297E0,-4.355379E0,2.3948123E0,3.751572E-1,6.54506E0,1.0188488E0,-3.27421E0,2.3536928E0],"categories":[],"categories_nodes":[],"categories_segments":[],"categories_sizes":[],"default_left":[0,0,0,0,0,0,0,0,0,0,0,0,0,0,0],"id":83,"left_children":[1,3,5,7,9,11,13,-1,-1,-1,-1,-1,-1,-1,-1],"loss_changes":[2.4188074E3,1.6631896E3,5.194121E3,2.0933545E3,1.9733195E3,7.161177E2,2.5434731E3,0E0,0E0,0E0,0E0,0E0,0E0,0E0,0E0],"parents":[2147483647,0,0,1,1,2,2,3,3,4,4,5,5,6,6],"right_children":[2,4,6,8,10,12,14,-1,-1,-1,-1,-1,-1,-1,-1],"split_conditions":[6.126E1,5.56E0,1.9607666E1,5.27E0,5.88E0,7.37E1,1.1288E2,2.3100297E0,-4.355379E0,2.3948123E0,3.751572E-1,6.54506E0,1.0188488E0,-3.27421E0,2.3536928E0],"split_indices":[0,1,3,1,1,0,0,0,0,0,0,0,0,0,0],"split_type":[0,0,0,0,0,0,0,0,0,0,0,0,0,0,0],"sum_hessian":[3.13E2,2.84E2,2.9E1,7E0,2.77E2,4E0,2.5E1,2E0,5E0,2E1,2.57E2,2E0,2E0,2.2E1,3E0],"tree_param":{"num_deleted":"0","num_feature":"6","num_nodes":"15","size_leaf_vector":"1"}},{"base_weights":[-4.4733322E-1,-2.6023345E0,2.208808E0,2.2537923E0,-4.956063E0,8.3386123E-1,1.1269937E1,3.740039E0,-7.650967E-2,-5.1403956E0,-8.227078E-1,4.114338E0,2.0414894E-2,-8.053913E-1,4.198635E0],"categories":[],"categories_nodes":[],"categories_segments":[],"categories_sizes":[],"default_left":[0,0,0,0,0,0,0,0,0,0,0,0,0,0,0],"id":84,"left_children":[1,3,5,7,9,11,13,-1,-1,-1,-1,-1,-1,-1,-1],"loss_changes":[2.0434875E3,2.2628809E3,1.9839733E3,2.8254446E3,2.2189724E3,2.0200437E3,3.2079807E3,0E0,0E0,0E0,0E0,0E0,0E0,0E0,0E0],"parents":[2147483647,0,0,1,1,2,2,3,3,4,4,5,5,6,6],"right_children":[2,4,6,8,10,12,14,-1,-1,-1,-1,-1,-1,-1,-1],"split_conditions":[3.7636333E1,3.64484E1,5.982E1,3.480312E1,1.4632667E1,3.7774666E1,5.82E0,3.740039E0,-7.650967E-2,-5.1403956E0,-8.227078E-1,4.114338E0,2.0414894E-2,-8.053913E-1,4.198635E0],"split_indices":[3,4,0,5,3,3,1,0,0,0,0,0,0,0,0],"split_type":[0,0,0,0,0,0,0,0,0,0,0,0,0,0,0],"sum_hessian":[3.55E2,1.96E2,1.59E2,6.4E1,1.32E2,1.39E2,2E1,8E0,5.6E1,4E0,1.28E2,4E0,1.35E2,8E0,1.2E1],"tree_param":{"num_deleted":"0","num_feature":"6","num_nodes":"15","size_leaf_vector":"1"}},{"base_weights":[2.0492491E-1,-2.1089177E0,3.8844857E0,1.2418755E0,-5.5360904E0,2.365463E0,1.47495575E1,-1.23850994E-1,2.3731518E0,-3.4954224E0,-6.6543734E-1,4.369163E0,2.6015052E-1,7.4042406E0,8.4811527E-1],"categories":[],"categories_nodes":[],"categories_segments":[],"categories_sizes":[],"default_left":[0,0,0,0,0,0,0,0,0,0,0,0,0,0,0],"id":85,"left_children":[1,3,5,7,9,11,13,-1,-1,-1,-1,-1,-1,-1,-1],"loss_changes":[2.9114402E3,2.418462E3,2.1436768E3,2.1229983E3,2.6850132E3,2.3982732E3,3.5878455E3,0E0,0E0,0E0,0E0,0E0,0E0,0E0,0E0],"parents":[2147483647,0,0,1,1,2,2,3,3,4,4,5,5,6,6],"right_children":[2,4,6,8,10,12,14,-1,-1,-1,-1,-1,-1,-1,-1],"split_conditions":[4.1117226E1,6.79E0,4.004067E1,6.59E0,6.98E0,4.1743504E1,4.0905334E1,-1.23850994E-1,2.3731518E0,-3.4954224E0,-6.6543734E-1,4.369163E0,2.6015052E-1,7.4042406E0,8.4811527E-1],"split_indices":[4,1,3,1,1,4,3,0,0,0,0,0,0,0,0],"split_type":[0,0,0,0,0,0,0,0,0,0,0,0,0,0,0],"sum_hessian":[3.4E2,2.09E2,1.31E2,1.06E2,1.03E2,1.16E2,1.5E1,9.1E1,1.5E1,1.5E1,8.8E1,5E0,1.11E2,4E0,1.1E1],"tree_param":{"num_deleted":"0","num_feature":"6","num_nodes":"15","size_leaf_vector":"1"}},{"base_weights":[9.445499E-1,1.5633799E0,-4.7437053E0,-4.7288213E0,2.2519736E0,-7.8813844E0,6.4389243E0,1.184637E0,-1.7382793E0,3.1828612E-1,4.9188166E0,-6.191182E-1,-3.4218032E0,3.0439157E0,-2.6537387E0],"categories":[],"categories_nodes":[],"categories_segments":[],"categories_sizes":[],"default_left":[0,0,0,0,0,0,0,0,0,0,0,0,0,0,0],"id":86,"left_children":[1,3,5,7,9,11,13,-1,-1,-1,-1,-1,-1,-1,-1],"loss_changes":[1.218318E3,1.3581406E3,1.2437227E3,1.3599713E3,4.107838E3,1.139399E3,1.58631E3,0E0,0E0,0E0,0E0,0E0,0E0,0E0,0E0],"parents":[2147483647,0,0,1,1,2,2,3,3,4,4,5,5,6,6],"right_children":[2,4,6,8,10,12,14,-1,-1,-1,-1,-1,-1,-1,-1],"split_conditions":[2.134E1,5.82E0,4.47E1,5.29E0,7.524E1,3.588E1,4.9627666E1,1.184637E0,-1.7382793E0,3.1828612E-1,4.9188166E0,-6.191182E-1,-3.4218032E0,3.0439157E0,-2.6537387E0],"split_indices":[2,1,3,1,0,0,3,0,0,0,0,0,0,0,0],"split_type":[0,0,0,0,0,0,0,0,0,0,0,0,0,0,0],"sum_hessian":[3.43E2,3.1E2,3.3E1,3E1,2.8E2,2.6E1,7E0,8E0,2.2E1,2.73E2,7E0,1.8E1,8E0,5E0,2E0],"tree_param":{"num_deleted":"0","num_feature":"6","num_nodes":"15","size_leaf_vector":"1"}},{"base_weights":[5.157393E-1,1.0766084E0,-1.2300902E1,-1.2209344E0,3.807402E0,1.0365517E1,-1.9424973E1,-1.2355279E0,5.017607E-1,3.7587473E-1,3.172002E0,2.5656168E0,2.9778138E-1,-2.8995973E-1,-4.651674E0],"categories":[],"categories_nodes":[],"categories_segments":[],"categories_sizes":[],"default_left":[0,0,0,0,0,0,0,0,0,0,0,0,0,0,0],"id":87,"left_children":[1,3,5,7,9,11,13,-1,-1,-1,-1,-1,-1,-1,-1],"loss_changes":[2.3998113E3,2.0060911E3,2.4620303E3,3.2322734E3,3.3629077E3,6.833716E1,7.242451E2,0E0,0E0,0E0,0E0,0E0,0E0,0E0,0E0],"parents":[2147483647,0,0,1,1,2,2,3,3,4,4,5,5,6,6],"right_children":[2,4,6,8,10,12,14,-1,-1,-1,-1,-1,-1,-1,-1],"split_conditions":[7.92E1,6.98E0,2.7083603E1,3.5386333E1,5.246E1,5.29E0,2.2486666E1,-1.2355279E0,5.017607E-1,3.7587473E-1,3.172002E0,2.5656168E0,2.9778138E-1,-2.8995973E-1,-4.651674E0],"split_indices":[0,1,4,3,0,1,3,0,0,0,0,0,0,0,0],"split_type":[0,0,0,0,0,0,0,0,0,0,0,0,0,0,0],"sum_hessian":[3.31E2,3.18E2,1.3E1,1.73E2,1.45E2,3E0,1E1,7.4E1,9.9E1,1.26E2,1.9E1,2E0,1E0,2E0,8E0],"tree_param":{"num_deleted":"0","num_feature":"6","num_nodes":"15","size_leaf_vector":"1"}},{"base_weights":[1.5739071E0,4.5749655E0,-1.453596E0,-8.124041E0,5.481794E0,-1.621723E1,5.0655473E-2,-4.1215167E0,-3.3462563E-1,2.3118935E0,3.845469E-1,-5.3324027E0,2.0412754E-1,1.2862649E0,-2.5097302E-1],"categories":[],"categories_nodes":[],"categories_segments":[],"categories_sizes":[],"default_left":[0,0,0,0,0,0,0,0,0,0,0,0,0,0,0],"id":88,"left_children":[1,3,5,7,9,11,13,-1,-1,-1,-1,-1,-1,-1,-1],"loss_changes":[3.150307E3,2.048288E3,3.842843E3,9.318837E2,3.5035947E3,2.9079453E3,1.3242253E3,0E0,0E0,0E0,0E0,0E0,0E0,0E0,0E0],"parents":[2147483647,0,0,1,1,2,2,3,3,4,4,5,5,6,6],"right_children":[2,4,6,8,10,12,14,-1,-1,-1,-1,-1,-1,-1,-1],"split_conditions":[3.764214E1,1.1407666E1,3.8608765E1,6.75E0,3.9543E1,6.84E0,1.978E1,-4.1215167E0,-3.3462563E-1,2.3118935E0,3.845469E-1,-5.3324027E0,2.0412754E-1,1.2862649E0,-2.5097302E-1],"split_indices":[4,3,4,1,3,1,3,0,0,0,0,0,0,0,0],"split_type":[0,0,0,0,0,0,0,0,0,0,0,0,0,0,0],"sum_hessian":[3.45E2,1.73E2,1.72E2,1.1E1,1.62E2,1.5E1,1.57E2,3E0,8E0,5.9E1,1.03E2,9E0,6E0,2.6E1,1.31E2],"tree_param":{"num_deleted":"0","num_feature":"6","num_nodes":"15","size_leaf_vector":"1"}},{"base_weights":[-4.9778074E-1,8.2639895E-2,-8.602027E0,3.3297968E0,-1.1527431E0,-1.8515308E1,6.1367693E0,1.7944487E0,-2.5015125E-1,-4.2797518E-1,1.2989061E0,-1.5332359E0,-8.744317E0,2.21039E0,-1.8031943E0],"categories":[],"categories_nodes":[],"categories_segments":[],"categories_sizes":[],"default_left":[0,0,0,0,0,0,0,0,0,0,0,0,0,0,0],"id":89,"left_children":[1,3,5,7,9,11,13,-1,-1,-1,-1,-1,-1,-1,-1],"loss_changes":[1.6188428E3,1.2955356E3,3.47415E3,2.3114736E3,1.7803342E3,3.4933486E3,8.444287E2,0E0,0E0,0E0,0E0,0E0,0E0,0E0,0E0],"parents":[2147483647,0,0,1,1,2,2,3,3,4,4,5,5,6,6],"right_children":[2,4,6,8,10,12,14,-1,-1,-1,-1,-1,-1,-1,-1],"split_conditions":[6.398E1,6.34E0,4.1763763E1,3.8270332E1,4.9719482E1,3.8222324E1,2.4671333E1,1.7944487E0,-2.5015125E-1,-4.2797518E-1,1.2989061E0,-1.5332359E0,-8.744317E0,2.21039E0,-1.8031943E0],"split_indices":[0,1,4,3,5,4,3,0,0,0,0,0,0,0,0],"split_type":[0,0,0,0,0,0,0,0,0,0,0,0,0,0,0],"sum_hessian":[3.43E2,3.21E2,2.2E1,8.8E1,2.33E2,1.3E1,9E0,3.9E1,4.9E1,2.07E2,2.6E1,1E1,3E0,7E0,2E0],"tree_param":{"num_deleted":"0","num_feature":"6","num_nodes":"15","size_leaf_vector":"1"}},{"base_weights":[-4.842001E-1,2.573528E0,-3.0045977E0,1.5604337E0,3.9414642E1,-1.5334496E1,-4.8674527E-1,-1.7656192E0,5.596898E-1,-4.712761E-1,1.0824756E1,-1.4505657E0,-6.3161426E0,-5.430465E-1,1.4208037E0],"categories":[],"categories_nodes":[],"categories_segments":[],"categories_sizes":[],"default_left":[0,0,0,0,0,0,0,0,0,0,0,0,0,0,0],"id":90,"left_children":[1,3,5,7,9,11,13,-1,-1,-1,-1,-1,-1,-1,-1],"loss_changes":[2.5740605E3,5.5743486E3,5.6737456E3,1.9281562E3,2.5851992E3,3.8411426E3,2.6074246E3,0E0,0E0,0E0,0E0,0E0,0E0,0E0,0E0],"parents":[2147483647,0,0,1,1,2,2,3,3,4,4,5,5,6,6],"right_children":[2,4,6,8,10,12,14,-1,-1,-1,-1,-1,-1,-1,-1],"split_conditions":[3.2743E1,3.1648666E1,3.6351E1,6.23E0,3.148E1,6.72E0,4.2170258E1,-1.7656192E0,5.596898E-1,-4.712761E-1,1.0824756E1,-1.4505657E0,-6.3161426E0,-5.430465E-1,1.4208037E0],"split_indices":[3,3,3,1,0,1,4,0,0,0,0,0,0,0,0],"split_type":[0,0,0,0,0,0,0,0,0,0,0,0,0,0,0],"sum_hessian":[3.32E2,1.5E2,1.82E2,1.47E2,3E0,3E1,1.52E2,1.5E1,1.32E2,1E0,2E0,2.1E1,9E0,1.18E2,3.4E1],"tree_param":{"num_deleted":"0","num_feature":"6","num_nodes":"15","size_leaf_vector":"1"}},{"base_weights":[-3.374031E-1,-2.712575E0,1.3221842E0,-5.155817E-1,-1.0491726E1,2.8019753E1,3.6195382E-1,7.25679E-2,-4.820812E0,-3.6569014E-1,-4.8112416E0,-5.428177E-1,6.718881E0,-1.8404572E0,2.761645E-1],"categories":[],"categories_nodes":[],"categories_segments":[],"categories_sizes":[],"default_left":[0,0,0,0,0,0,0,0,0,0,0,0,0,0,0],"id":91,"left_children":[1,3,5,7,9,11,13,-1,-1,-1,-1,-1,-1,-1,-1],"loss_changes":[1.3516838E3,2.4043853E3,5.168294E3,2.3087349E3,3.5989126E3,1.2904917E3,1.9226686E3,0E0,0E0,0E0,0E0,0E0,0E0,0E0,0E0],"parents":[2147483647,0,0,1,1,2,2,3,3,4,4,5,5,6,6],"right_children":[2,4,6,8,10,12,14,-1,-1,-1,-1,-1,-1,-1,-1],"split_conditions":[3.5503765E1,4.424E1,3.5908257E1,3.535831E1,2.4006021E1,1.719E1,6.02E0,7.25679E-2,-4.820812E0,-3.6569014E-1,-4.8112416E0,-5.428177E-1,6.718881E0,-1.8404572E0,2.761645E-1],"split_indices":[4,0,4,4,5,2,1,0,0,0,0,0,0,0,0],"split_type":[0,0,0,0,0,0,0,0,0,0,0,0,0,0,0],"sum_hessian":[3.41E2,1.4E2,2.01E2,1.1E2,3E1,6E0,1.95E2,1.07E2,3E0,1.9E1,1.1E1,1E0,5E0,1.8E1,1.77E2],