{"learner":{"attributes":{"scikit_learn":"{\"_estimator_type\": \"regressor\"}"},"feature_names":["Olsen_P_mg_kg","pH","TOC_g_kg","% Clay","% Silt","% Sand"],"feature_types":["float","float","float","float","float","float"],"gradient_booster":{"model":{"gbtree_model_param":{"num_parallel_tree":"1","num_trees":"50"},"iteration_indptr":[0,1,2,3,4,5,6,7,8,9,10,11,12,13,14,15,16,17,18,19,20,21,22,23,24,25,26,27,28,29,30,31,32,33,34,35,36,37,38,39,40,41,42,43,44,45,46,47,48,49,50],"tree_info":[0,0,0,0,0,0,0,0,0,0,0,0,0,0,0,0,0,0,0,0,0,0,0,0,0,0,0,0,0,0,0,0,0,0,0,0,0,0,0,0,0,0,0,0,0,0,0,0,0,0],"trees":[{"base_weights":[-6.4391506E-1,-2.7178402E1,2.005786E1,-3.5199863E1,-1.1086827E1,-6.5498223E0,3.771915E1,-5.194376E0,-8.326392E0,-4.337627E0,-5.5291474E-1,-5.5367403E0,1.1654209E0,4.7483907E0,1.58759E1],"categories":[],"categories_nodes":[],"categories_segments":[],"categories_sizes":[],"default_left":[0,0,0,0,0,0,0,0,0,0,0,0,0,0,0],"id":0,"left_children":[1,3,5,7,9,11,13,-1,-1,-1,-1,-1,-1,-1,-1],"loss_changes":[2.3565023E5,2.387639E4,1.1349922E5,6.3381562E3,5.5865537E3,2.5533846E4,8.2548125E4,0E0,0E0,0E0,0E0,0E0,0E0,0E0,0E0],"parents":[2147483647,0,0,1,1,2,2,3,3,4,4,5,5,6,6],"right_children":[2,4,6,8,10,12,14,-1,-1,-1,-1,-1,-1,-1,-1],"split_conditions":[2.73E1,2.002E1,6.43E0,2.9846666E1,3.798503E1,3.1219301E1,5.246E1,-5.194376E0,-8.326392E0,-4.337627E0,-5.5291474E-1,-5.5367403E0,1.1654209E0,4.7483907E0,1.58759E1],"split_indices":[0,0,1,3,4,4,0,0,0,0,0,0,0,0,0],"split_type":[0,0,0,0,0,0,0,0,0,0,0,0,0,0,0],"sum_hessian":[4.27E2,1.87E2,2.4E2,1.24E2,6.3E1,9.6E1,1.44E2,5.3E1,7.1E1,2.7E1,3.6E1,3.5E1,6.1E1,1.09E2,3.5E1],"tree_param":{"num_deleted":"0","num_feature":"6","num_nodes":"15","size_leaf_vector":"1"}},{"base_weights":[-2.1791005E0,-2.3445826E1,1.4934049E1,-3.167524E1,-1.5962027E1,4.315045E1,2.7019353E0,-5.279199E0,-7.2949114E0,-6.415165E0,-2.3674347E0,5.3338695E0,1.4862946E1,-3.5185544E0,2.7734447E0],"categories":[],"categories_nodes":[],"categories_segments":[],"categories_sizes":[],"default_left":[0,0,0,0,0,0,0,0,0,0,0,0,0,0,0],"id":1,"left_children":[1,3,5,7,9,11,13,-1,-1,-1,-1,-1,-1,-1,-1],"loss_changes":[1.5429702E5,1.1134391E4,8.099278E4,1.2921953E3,6.3334863E3,3.4485234E4,3.763234E4,0E0,0E0,0E0,0E0,0E0,0E0,0E0,0E0],"parents":[2147483647,0,0,1,1,2,2,3,3,4,4,5,5,6,6],"right_children":[2,4,6,8,10,12,14,-1,-1,-1,-1,-1,-1,-1,-1],"split_conditions":[2.73E1,1.702E1,2.8281334E1,3.0509666E1,6.27E0,5.472E1,3.321817E1,-5.279199E0,-7.2949114E0,-6.415165E0,-2.3674347E0,5.3338695E0,1.4862946E1,-3.5185544E0,2.7734447E0],"split_indices":[0,0,3,3,1,0,4,0,0,0,0,0,0,0,0],"split_type":[0,0,0,0,0,0,0,0,0,0,0,0,0,0,0],"sum_hessian":[4.22E2,1.88E2,2.34E2,8.8E1,1E2,7E1,1.64E2,4.5E1,4.3E1,1.9E1,8.1E1,4.7E1,2.3E1,5.8E1,1.06E2],"tree_param":{"num_deleted":"0","num_feature":"6","num_nodes":"15","size_leaf_vector":"1"}},{"base_weights":[5.9461653E-1,-9.805591E0,2.7196857E1,-2.2358173E1,-4.5986128E-1,-5.4455447E0,4.9034092E1,-6.158548E0,-3.319246E0,-3.5287068E0,1.1776834E0,8.2729304E-1,-4.4355397E0,5.7466507E0,1.5628906E1],"categories":[],"categories_nodes":[],"categories_segments":[],"categories_sizes":[],"default_left":[0,0,0,0,0,0,0,0,0,0,0,0,0,0,0],"id":2,"left_children":[1,3,5,7,9,11,13,-1,-1,-1,-1,-1,-1,-1,-1],"loss_changes":[1.1812759E5,3.600482E4,8.580539E4,5.8554844E3,1.9412244E4,7.947793E3,4.030422E4,0E0,0E0,0E0,0E0,0E0,0E0,0E0,0E0],"parents":[2147483647,0,0,1,1,2,2,3,3,4,4,5,5,6,6],"right_children":[2,4,6,8,10,12,14,-1,-1,-1,-1,-1,-1,-1,-1],"split_conditions":[4.062E1,2.012E1,6.43E0,1.11E1,3.2206783E1,5.472E1,5.472E1,-6.158548E0,-3.319246E0,-3.5287068E0,1.1776834E0,8.2729304E-1,-4.4355397E0,5.7466507E0,1.5628906E1],"split_indices":[0,0,1,0,4,0,0,0,0,0,0,0,0,0,0],"split_type":[0,0,0,0,0,0,0,0,0,0,0,0,0,0,0],"sum_hessian":[4.25E2,3.06E2,1.19E2,1.3E2,1.76E2,4.8E1,7.1E1,5.1E1,7.9E1,4.7E1,1.29E2,3.1E1,1.7E1,4.3E1,2.8E1],"tree_param":{"num_deleted":"0","num_feature":"6","num_nodes":"15","size_leaf_vector":"1"}},{"base_weights":[5.097023E-1,-7.906E0,2.505726E1,-1.9886326E1,-7.381762E-1,-9.703587E0,4.233252E1,-4.763907E0,-3.0677993E0,2.593344E0,-1.486576E0,-2.7268233E0,5.226363E0,6.5969567E0,1.742029E1],"categories":[],"categories_nodes":[],"categories_segments":[],"categories_sizes":[],"default_left":[0,0,0,0,0,0,0,0,0,0,0,0,0,0,0],"id":3,"left_children":[1,3,5,7,9,11,13,-1,-1,-1,-1,-1,-1,-1,-1],"loss_changes":[8.820329E4,2.7292895E4,6.586556E4,1.7630195E3,1.8446424E4,5.5678135E3,2.7676602E4,0E0,0E0,0E0,0E0,0E0,0E0,0E0,0E0],"parents":[2147483647,0,0,1,1,2,2,3,3,4,4,5,5,6,6],"right_children":[2,4,6,8,10,12,14,-1,-1,-1,-1,-1,-1,-1,-1],"split_conditions":[4.236E1,2.002E1,6.19E0,1.292E1,1.807699E1,3.9367226E1,7.368E1,-4.763907E0,-3.0677993E0,2.593344E0,-1.486576E0,-2.7268233E0,5.226363E0,6.5969567E0,1.742029E1],"split_indices":[0,0,1,0,5,4,0,0,0,0,0,0,0,0,0],"split_type":[0,0,0,0,0,0,0,0,0,0,0,0,0,0,0],"sum_hessian":[4.25E2,3.17E2,1.08E2,1.18E2,1.99E2,3.6E1,7.2E1,6.1E1,5.7E1,6.5E1,1.34E2,3.3E1,3E0,6.1E1,1.1E1],"tree_param":{"num_deleted":"0","num_feature":"6","num_nodes":"15","size_leaf_vector":"1"}},{"base_weights":[2.2401509E-1,-8.608134E0,1.4906766E1,-1.3641842E1,-5.2015954E-1,-6.4389462E0,3.1450075E1,-1.3510808E0,-4.20928E0,4.493676E0,-1.5969867E0,-2.3656356E0,2.3385162E0,7.6266503E0,-3.256438E0],"categories":[],"categories_nodes":[],"categories_segments":[],"categories_sizes":[],"default_left":[0,0,0,0,0,0,0,0,0,0,0,0,0,0,0],"id":4,"left_children":[1,3,5,7,9,11,13,-1,-1,-1,-1,-1,-1,-1,-1],"loss_changes":[5.6279863E4,1.1025992E4,5.776249E4,8.373326E3,1.8197854E4,7.173783E3,2.996918E4,0E0,0E0,0E0,0E0,0E0,0E0,0E0,0E0],"parents":[2147483647,0,0,1,1,2,2,3,3,4,4,5,5,6,6],"right_children":[2,4,6,8,10,12,14,-1,-1,-1,-1,-1,-1,-1,-1],"split_conditions":[3.588E1,2.644E1,6.54E0,3.315867E1,1.4004517E1,3.8252193E1,7.91E0,-1.3510808E0,-4.20928E0,4.493676E0,-1.5969867E0,-2.3656356E0,2.3385162E0,7.6266503E0,-3.256438E0],"split_indices":[0,0,1,3,5,4,1,0,0,0,0,0,0,0,0],"split_type":[0,0,0,0,0,0,0,0,0,0,0,0,0,0,0],"sum_hessian":[4.32E2,2.7E2,1.62E2,1.66E2,1.04E2,7.1E1,9.1E1,8.7E1,7.9E1,2.5E1,7.9E1,5.5E1,1.6E1,8E1,1.1E1],"tree_param":{"num_deleted":"0","num_feature":"6","num_nodes":"15","size_leaf_vector":"1"}},{"base_weights":[1.7497243E0,-4.0797024E0,1.8533165E1,-9.927775E0,2.7509103E0,-3.2640479E0,3.3114098E1,-8.6883634E-1,-2.891071E0,-3.997074E-1,4.429033E0,1.3304113E0,-3.4367127E0,1.3352379E1,4.5542383E0],"categories":[],"categories_nodes":[],"categories_segments":[],"categories_sizes":[],"default_left":[0,0,0,0,0,0,0,0,0,0,0,0,0,0,0],"id":5,"left_children":[1,3,5,7,9,11,13,-1,-1,-1,-1,-1,-1,-1,-1],"loss_changes":[4.175453E4,1.2690167E4,3.506869E4,4.2601133E3,1.358472E4,6.325537E3,2.1448812E4,0E0,0E0,0E0,0E0,0E0,0E0,0E0,0E0],"parents":[2147483647,0,0,1,1,2,2,3,3,4,4,5,5,6,6],"right_children":[2,4,6,8,10,12,14,-1,-1,-1,-1,-1,-1,-1,-1],"split_conditions":[4.322E1,2.644E1,6.43E0,2.9846666E1,4.001387E1,5.472E1,6.88E0,-8.6883634E-1,-2.891071E0,-3.997074E-1,4.429033E0,1.3304113E0,-3.4367127E0,1.3352379E1,4.5542383E0],"split_indices":[0,0,1,3,5,0,1,0,0,0,0,0,0,0,0],"split_type":[0,0,0,0,0,0,0,0,0,0,0,0,0,0,0],"sum_hessian":[4.25E2,3.16E2,1.09E2,1.7E2,1.46E2,4.4E1,6.5E1,7.7E1,9.3E1,1.18E2,2.8E1,2.6E1,1.8E1,1.4E1,5.1E1],"tree_param":{"num_deleted":"0","num_feature":"6","num_nodes":"15","size_leaf_vector":"1"}},{"base_weights":[-9.536713E-1,-1.2291046E1,3.7702641E0,-1.8886963E1,-1.4059765E0,3.7058908E-1,3.738953E1,-3.9148452E0,-9.601227E-1,-1.3387566E0,3.0911815E0,-9.049553E-1,4.7843633E0,-1.9570535E0,1.0140034E1],"categories":[],"categories_nodes":[],"categories_segments":[],"categories_sizes":[],"default_left":[0,0,0,0,0,0,0,0,0,0,0,0,0,0,0],"id":6,"left_children":[1,3,5,7,9,11,13,-1,-1,-1,-1,-1,-1,-1,-1],"loss_changes":[2.312942E4,9.091664E3,3.484599E4,6.7083594E2,4.4724146E3,3.2159379E4,1.8078062E4,0E0,0E0,0E0,0E0,0E0,0E0,0E0,0E0],"parents":[2147483647,0,0,1,1,2,2,3,3,4,4,5,5,6,6],"right_children":[2,4,6,8,10,12,14,-1,-1,-1,-1,-1,-1,-1,-1],"split_conditions":[3.1219301E1,2.872043E1,5.516E1,2.219E1,2.7515333E1,4.3033E1,6.35E0,-3.9148452E0,-9.601227E-1,-1.3387566E0,3.0911815E0,-9.049553E-1,4.7843633E0,-1.9570535E0,1.0140034E1],"split_indices":[4,5,0,2,3,3,1,0,0,0,0,0,0,0,0],"split_type":[0,0,0,0,0,0,0,0,0,0,0,0,0,0,0],"sum_hessian":[4.3E2,1.26E2,3.04E2,7.8E1,4.8E1,2.77E2,2.7E1,7.4E1,4E0,3.7E1,1.1E1,2.3E2,4.7E1,6E0,2.1E1],"tree_param":{"num_deleted":"0","num_feature":"6","num_nodes":"15","size_leaf_vector":"1"}},{"base_weights":[-3.0353522E-1,-3.8502858E0,9.981572E0,-1.3117938E1,-4.382135E-1,2.4190145E0,2.893191E1,-4.141505E0,-1.3672452E0,-1.1267647E0,1.5348076E0,5.265228E0,-8.1410235E-1,4.7092864E-1,9.118725E0],"categories":[],"categories_nodes":[],"categories_segments":[],"categories_sizes":[],"default_left":[0,0,0,0,0,0,0,0,0,0,0,0,0,0,0],"id":7,"left_children":[1,3,5,7,9,11,13,-1,-1,-1,-1,-1,-1,-1,-1],"loss_changes":[1.5505404E4,9.986771E3,1.5551133E4,3.9108643E3,9.821592E3,1.23636875E4,1.362015E4,0E0,0E0,0E0,0E0,0E0,0E0,0E0,0E0],"parents":[2147483647,0,0,1,1,2,2,3,3,4,4,5,5,6,6],"right_children":[2,4,6,8,10,12,14,-1,-1,-1,-1,-1,-1,-1,-1],"split_conditions":[4.236E1,6.31E0,3.134301E1,3.7748E1,2.73E1,1.3564838E1,7.04E0,-4.141505E0,-1.3672452E0,-1.1267647E0,1.5348076E0,5.265228E0,-8.1410235E-1,4.7092864E-1,9.118725E0],"split_indices":[0,1,5,3,0,5,1,0,0,0,0,0,0,0,0],"split_type":[0,0,0,0,0,0,0,0,0,0,0,0,0,0,0],"sum_hessian":[4.23E2,3.15E2,1.08E2,8.4E1,2.31E2,7.8E1,3E1,3.7E1,4.7E1,1.41E2,9E1,1.6E1,6.2E1,1.2E1,1.8E1],"tree_param":{"num_deleted":"0","num_feature":"6","num_nodes":"15","size_leaf_vector":"1"}},{"base_weights":[-9.842454E-2,-5.108251E0,7.1072717E0,-4.0919604E0,-3.254512E1,1.7180415E0,2.3986994E1,-1.4621481E0,3.897328E-1,-6.983949E0,-1.3548117E0,-1.3524402E0,1.7828982E0,-1.433215E0,6.728894E0],"categories":[],"categories_nodes":[],"categories_segments":[],"categories_sizes":[],"default_left":[0,0,0,0,0,0,0,0,0,0,0,0,0,0,0],"id":8,"left_children":[1,3,5,7,9,11,13,-1,-1,-1,-1,-1,-1,-1,-1],"loss_changes":[1.5667298E4,7.005087E3,1.6151218E4,4.836219E3,3.142207E2,8.36004E3,1.3178084E4,0E0,0E0,0E0,0E0,0E0,0E0,0E0,0E0],"parents":[2147483647,0,0,1,1,2,2,3,3,4,4,5,5,6,6],"right_children":[2,4,6,8,10,12,14,-1,-1,-1,-1,-1,-1,-1,-1],"split_conditions":[3.438E1,3.376E1,3.3037205E1,2.644E1,3.829E1,3.738029E1,6.97E0,-1.4621481E0,3.897328E-1,-6.983949E0,-1.3548117E0,-1.3524402E0,1.7828982E0,-1.433215E0,6.728894E0],"split_indices":[0,0,5,0,3,4,1,0,0,0,0,0,0,0,0],"split_type":[0,0,0,0,0,0,0,0,0,0,0,0,0,0,0],"sum_hessian":[4.32E2,2.55E2,1.77E2,2.47E2,8E0,1.35E2,4.2E1,1.61E2,8.6E1,7E0,1E0,6.2E1,7.3E1,1E1,3.2E1],"tree_param":{"num_deleted":"0","num_feature":"6","num_nodes":"15","size_leaf_vector":"1"}},{"base_weights":[-1.5113385E-1,6.774598E0,-4.36735E0,1.0905782E1,-1.21792555E1,2.696979E0,-8.71451E0,1.0715561E-2,4.416227E0,-1.3397474E0,-6.5969744E0,-3.285153E0,1.4891117E0,-2.1718547E0,3.130709E0],"categories":[],"categories_nodes":[],"categories_segments":[],"categories_sizes":[],"default_left":[0,0,0,0,0,0,0,0,0,0,0,0,0,0,0],"id":9,"left_children":[1,3,5,7,9,11,13,-1,-1,-1,-1,-1,-1,-1,-1],"loss_changes":[1.2731755E4,1.3052631E4,8.345852E3,1.6492514E4,3.19981E3,9.566107E3,8.950286E3,0E0,0E0,0E0,0E0,0E0,0E0,0E0,0E0],"parents":[2147483647,0,0,1,1,2,2,3,3,4,4,5,5,6,6],"right_children":[2,4,6,8,10,12,14,-1,-1,-1,-1,-1,-1,-1,-1],"split_conditions":[2.9277666E1,8E0,1.5779463E1,2.73E1,5.132E1,2.86053E1,6.964E1,1.0715561E-2,4.416227E0,-1.3397474E0,-6.5969744E0,-3.285153E0,1.4891117E0,-2.1718547E0,3.130709E0],"split_indices":[3,1,5,0,0,4,0,0,0,0,0,0,0,0,0],"split_type":[0,0,0,0,0,0,0,0,0,0,0,0,0,0,0],"sum_hessian":[4.34E2,1.64E2,2.7E2,1.35E2,2.9E1,1.03E2,1.67E2,6.9E1,6.6E1,2.4E1,5E0,2E1,8.3E1,1.54E2,1.3E1],"tree_param":{"num_deleted":"0","num_feature":"6","num_nodes":"15","size_leaf_vector":"1"}},{"base_weights":[-2.111578E-1,1.4912843E0,-1.3444203E1,-8.331229E0,4.29742E0,-1.4766538E1,1.0247372E0,-1.3438911E0,-6.5551414E0,3.3519208E-1,4.9051776E0,-1.801281E0,-3.7702014E0],"categories":[],"categories_nodes":[],"categories_segments":[],"categories_sizes":[],"default_left":[0,0,0,0,0,0,0,0,0,0,0,0,0],"id":10,"left_children":[1,3,5,7,9,11,-1,-1,-1,-1,-1,-1,-1],"loss_changes":[9.684772E3,1.0537422E4,1.2787539E3,3.1286758E3,1.5708244E4,9.124658E2,0E0,0E0,0E0,0E0,0E0,0E0,0E0],"parents":[2147483647,0,0,1,1,2,2,3,3,4,4,5,5],"right_children":[2,4,6,8,10,12,-1,-1,-1,-1,-1,-1,-1],"split_conditions":[5.4716E1,1.714E1,2.9311193E1,5.074E1,7.44E0,2.644E1,1.0247372E0,-1.3438911E0,-6.5551414E0,3.3519208E-1,4.9051776E0,-1.801281E0,-3.7702014E0],"split_indices":[3,2,4,0,1,0,0,0,0,0,0,0,0],"split_type":[0,0,0,0,0,0,0,0,0,0,0,0,0],"sum_hessian":[4.28E2,3.8E2,4.8E1,8.4E1,2.96E2,4.5E1,3E0,8E1,4E0,2.63E2,3.3E1,2E1,2.5E1],"tree_param":{"num_deleted":"0","num_feature":"6","num_nodes":"13","size_leaf_vector":"1"}},{"base_weights":[6.332824E-2,-2.224369E0,7.1396313E0,-1.715232E0,-5.90335E0,-2.0070372E1,9.843309E0,-1.494882E0,1.0254718E-1,-1.8156633E0,-5.8493533E0,8.3436185E-1,6.641048E0],"categories":[],"categories_nodes":[],"categories_segments":[],"categories_sizes":[],"default_left":[0,0,0,0,0,0,0,0,0,0,0,0,0],"id":11,"left_children":[1,3,5,7,-1,9,11,-1,-1,-1,-1,-1,-1],"loss_changes":[7.090229E3,4.5488022E3,8.0692363E3,4.186824E3,0E0,7.4316284E2,1.28462E4,0E0,0E0,0E0,0E0,0E0,0E0],"parents":[2147483647,0,0,1,1,2,2,3,3,5,5,6,6],"right_children":[2,4,6,8,-1,10,12,-1,-1,-1,-1,-1,-1],"split_conditions":[4.236E1,3.874E1,1.713E1,6.31E0,-5.90335E0,5.132E1,7.39E0,-1.494882E0,1.0254718E-1,-1.8156633E0,-5.8493533E0,8.3436185E-1,6.641048E0],"split_indices":[0,2,2,1,0,0,1,0,0,0,0,0,0],"split_type":[0,0,0,0,0,0,0,0,0,0,0,0,0],"sum_hessian":[4.36E2,3.3E2,1.06E2,3.25E2,5E0,9E0,9.7E1,9E1,2.35E2,5E0,4E0,7.9E1,1.8E1],"tree_param":{"num_deleted":"0","num_feature":"6","num_nodes":"13","size_leaf_vector":"1"}},{"base_weights":[1.3874042E-1,-7.4635034E0,2.130956E0,-4.926517E0,-1.4860266E1,5.970649E-1,1.6893995E1,-2.4097974E0,-1.4036672E-1,-1.3827243E0,-3.5809643E0,-8.524155E-2,4.584047E0,-6.122077E-1,6.3517623E0],"categories":[],"categories_nodes":[],"categories_segments":[],"categories_sizes":[],"default_left":[0,0,0,0,0,0,0,0,0,0,0,0,0,0,0],"id":12,"left_children":[1,3,5,7,9,11,13,-1,-1,-1,-1,-1,-1,-1,-1],"loss_changes":[6.7101313E3,1.6532153E3,7.9382705E3,2.0978564E3,4.326748E2,7.296587E3,9.885936E3,0E0,0E0,0E0,0E0,0E0,0E0,0E0,0E0],"parents":[2147483647,0,0,1,1,2,2,3,3,4,4,5,5,6,6],"right_children":[2,4,6,8,10,12,14,-1,-1,-1,-1,-1,-1,-1,-1],"split_conditions":[1.714E1,5.277825E1,5.0416107E1,6.79E0,2.3283833E1,7.56E0,1.2746129E1,-2.4097974E0,-1.4036672E-1,-1.3827243E0,-3.5809643E0,-8.524155E-2,4.584047E0,-6.122077E-1,6.3517623E0],"split_indices":[2,4,4,1,3,1,5,0,0,0,0,0,0,0,0],"split_type":[0,0,0,0,0,0,0,0,0,0,0,0,0,0,0],"sum_hessian":[4.41E2,9.1E1,3.5E2,6.9E1,2.2E1,3.18E2,3.2E1,2.5E1,4.4E1,7E0,1.5E1,3.05E2,1.3E1,1.4E1,1.8E1],"tree_param":{"num_deleted":"0","num_feature":"6","num_nodes":"15","size_leaf_vector":"1"}},{"base_weights":[-6.479146E-1,4.298604E0,-3.5668807E0,2.6105306E0,2.9865076E1,-2.1331346E0,-1.7270859E1,1.4294547E-1,5.9677253E0,-3.7451158E0,1.3075955E1,-1.83316E0,2.6668006E-1,7.078141E-1,-6.553482E0],"categories":[],"categories_nodes":[],"categories_segments":[],"categories_sizes":[],"default_left":[0,0,0,0,0,0,0,0,0,0,0,0,0,0,0],"id":13,"left_children":[1,3,5,7,9,11,13,-1,-1,-1,-1,-1,-1,-1,-1],"loss_changes":[6.3394927E3,6.9568047E3,5.3860137E3,7.9280166E3,1.84811E4,6.1313447E3,8.500502E3,0E0,0E0,0E0,0E0,0E0,0E0,0E0,0E0],"parents":[2147483647,0,0,1,1,2,2,3,3,4,4,5,5,6,6],"right_children":[2,4,6,8,10,12,14,-1,-1,-1,-1,-1,-1,-1,-1],"split_conditions":[2.9846666E1,2.073E1,2.889914E1,7.368E1,3.798503E1,3.1219301E1,3.4830097E1,1.4294547E-1,5.9677253E0,-3.7451158E0,1.3075955E1,-1.83316E0,2.6668006E-1,7.078141E-1,-6.553482E0],"split_indices":[3,2,5,0,4,4,4,0,0,0,0,0,0,0,0],"split_type":[0,0,0,0,0,0,0,0,0,0,0,0,0,0,0],"sum_hessian":[4.37E2,1.62E2,2.75E2,1.53E2,9E0,2.5E2,2.5E1,1.44E2,9E0,4E0,5E0,8.2E1,1.68E2,1.1E1,1.4E1],"tree_param":{"num_deleted":"0","num_feature":"6","num_nodes":"15","size_leaf_vector":"1"}},{"base_weights":[3.199249E-2,-1.4947376E0,1.3808152E1,2.1407106E0,-4.399458E0,1.0302103E0,4.2233547E1,-6.1324435E-1,2.2352645E0,9.932112E-2,-2.0539415E0,-1.0332373E0,8.519668E0,3.1278932E0,1.4130679E1],"categories":[],"categories_nodes":[],"categories_segments":[],"categories_sizes":[],"default_left":[0,0,0,0,0,0,0,0,0,0,0,0,0,0,0],"id":14,"left_children":[1,3,5,7,9,11,13,-1,-1,-1,-1,-1,-1,-1,-1],"loss_changes":[8.85428E3,4.0116426E3,1.5211646E4,7.985351E3,6.069475E3,7.947248E3,8.720416E3,0E0,0E0,0E0,0E0,0E0,0E0,0E0,0E0],"parents":[2147483647,0,0,1,1,2,2,3,3,4,4,5,5,6,6],"right_children":[2,4,6,8,10,12,14,-1,-1,-1,-1,-1,-1,-1,-1],"split_conditions":[5.516E1,2.201387E1,2.9494194E1,3.422E1,2.9846666E1,2.049E1,4.232282E1,-6.1324435E-1,2.2352645E0,9.932112E-2,-2.0539415E0,-1.0332373E0,8.519668E0,3.1278932E0,1.4130679E1],"split_indices":[0,5,5,0,3,2,4,0,0,0,0,0,0,0,0],"split_type":[0,0,0,0,0,0,0,0,0,0,0,0,0,0,0],"sum_hessian":[4.19E2,3.78E2,4.1E1,1.68E2,2.1E2,2.9E1,1.2E1,1.07E2,6.1E1,1.15E2,9.5E1,2.6E1,3E0,7E0,5E0],"tree_param":{"num_deleted":"0","num_feature":"6","num_nodes":"15","size_leaf_vector":"1"}},{"base_weights":[4.5122147E-1,9.082935E-1,-2.7886408E1,-3.8723478E-1,1.1556403E1,-7.69931E0,-2.0609334E0,-4.4050914E-1,1.0431284E0,7.030439E0,8.458204E-1],"categories":[],"categories_nodes":[],"categories_segments":[],"categories_sizes":[],"default_left":[0,0,0,0,0,0,0,0,0,0,0],"id":15,"left_children":[1,3,5,7,9,-1,-1,-1,-1,-1,-1],"loss_changes":[5.711405E3,5.977678E3,9.0911914E2,3.9476501E3,7.977331E3,0E0,0E0,0E0,0E0,0E0,0E0],"parents":[2147483647,0,0,1,1,2,2,3,3,4,4],"right_children":[2,4,6,8,10,-1,-1,-1,-1,-1,-1],"split_conditions":[4.685E1,1.936E1,6.125E1,3.8105698E1,3.0881332E1,-7.69931E0,-2.0609334E0,-4.4050914E-1,1.0431284E0,7.030439E0,8.458204E-1],"split_indices":[2,2,2,5,3,0,0,0,0,0,0],"split_type":[0,0,0,0,0,0,0,0,0,0,0],"sum_hessian":[4.38E2,4.32E2,6E0,3.86E2,4.6E1,3E0,3E0,2.92E2,9.4E1,1E1,3.6E1],"tree_param":{"num_deleted":"0","num_feature":"6","num_nodes":"11","size_leaf_vector":"1"}},{"base_weights":[4.6042773E-1,-1.0198181E1,1.4769269E0,-2.8425446E0,-2.5898514E1,3.8309187E-2,1.196605E1,1.3015734E-1,-3.0355337E0,-5.3806458E0,-1.4846649E0,-1.6539748E0,2.3276208E-1,6.4109497E0,1.8399802E-1],"categories":[],"categories_nodes":[],"categories_segments":[],"categories_sizes":[],"default_left":[0,0,0,0,0,0,0,0,0,0,0,0,0,0,0],"id":16,"left_children":[1,3,5,7,9,11,13,-1,-1,-1,-1,-1,-1,-1,-1],"loss_changes":[4.7280557E3,4.3148477E3,6.005298E3,1.1733254E3,2.3036133E1,3.2917798E3,1.0621756E4,0E0,0E0,0E0,0E0,0E0,0E0,0E0,0E0],"parents":[2147483647,0,0,1,1,2,2,3,3,4,4,5,5,6,6],"right_children":[2,4,6,8,10,12,14,-1,-1,-1,-1,-1,-1,-1,-1],"split_conditions":[5.74E0,3.38491E1,5.246E1,6.1488E1,5.382E1,1.016E1,6.88E0,1.3015734E-1,-3.0355337E0,-5.3806458E0,-1.4846649E0,-1.6539748E0,2.3276208E-1,6.4109497E0,1.8399802E-1],"split_indices":[1,4,0,3,0,0,1,0,0,0,0,0,0,0,0],"split_type":[0,0,0,0,0,0,0,0,0,0,0,0,0,0,0],"sum_hessian":[4.34E2,3.7E1,3.97E2,2.6E1,1.1E1,3.5E2,4.7E1,2.1E1,5E0,1E1,1E0,4.1E1,3.09E2,1.6E1,3.1E1],"tree_param":{"num_deleted":"0","num_feature":"6","num_nodes":"15","size_leaf_vector":"1"}},{"base_weights":[-4.5766097E-1,7.76464E0,-1.9634799E0,-6.5446687E0,1.6778608E1,-6.940566E0,2.155712E-1,-4.7032484E-1,-7.86103E0,4.014994E0,-3.9111154E0,5.812293E-1,-1.8978478E0,-2.2648206E-1,5.6111784E0],"categories":[],"categories_nodes":[],"categories_segments":[],"categories_sizes":[],"default_left":[0,0,0,0,0,0,0,0,0,0,0,0,0,0,0],"id":17,"left_children":[1,3,5,7,9,11,13,-1,-1,-1,-1,-1,-1,-1,-1],"loss_changes":[5.438253E3,8.880699E3,4.0251118E3,3.616455E3,5.4229443E3,2.8634302E3,9.751584E3,0E0,0E0,0E0,0E0,0E0,0E0,0E0,0E0],"parents":[2147483647,0,0,1,1,2,2,3,3,4,4,5,5,6,6],"right_children":[2,4,6,8,10,12,14,-1,-1,-1,-1,-1,-1,-1,-1],"split_conditions":[1.3715806E1,2.868E1,6.43E0,2.688E1,1.983E1,2.7083603E1,6.964E1,-4.7032484E-1,-7.86103E0,4.014994E0,-3.9111154E0,5.812293E-1,-1.8978478E0,-2.2648206E-1,5.6111784E0],"split_indices":[5,0,1,0,2,4,0,0,0,0,0,0,0,0,0],"split_type":[0,0,0,0,0,0,0,0,0,0,0,0,0,0,0],"sum_hessian":[4.37E2,6.7E1,3.7E2,2.6E1,4.1E1,1.12E2,2.58E2,2.4E1,2E0,3.8E1,3E0,2.3E1,8.9E1,2.47E2,1.1E1],"tree_param":{"num_deleted":"0","num_feature":"6","num_nodes":"15","size_leaf_vector":"1"}},{"base_weights":[8.3363414E-1,1.2111578E0,-2.7053297E1,9.9202585E-1,9.762925E0,-6.542917E0,-2.09743E0,3.446832E-1,-2.051873E0],"categories":[],"categories_nodes":[],"categories_segments":[],"categories_sizes":[],"default_left":[0,0,0,0,0,0,0,0,0],"id":18,"left_children":[1,3,5,7,-1,-1,-1,-1,-1],"loss_changes":[4.728244E3,4.551842E3,2.1963135E2,3.6385095E3,0E0,0E0,0E0,0E0,0E0],"parents":[2147483647,0,0,1,1,2,2,3,3],"right_children":[2,4,6,8,-1,-1,-1,-1,-1],"split_conditions":[5.183E1,4.685E1,6.125E1,5.940333E1,9.762925E0,-6.542917E0,-2.09743E0,3.446832E-1,-2.051873E0],"split_indices":[2,2,2,3,0,0,0,0,0],"split_type":[0,0,0,0,0,0,0,0,0],"sum_hessian":[4.45E2,4.4E2,5E0,4.39E2,1E0,3E0,2E0,4.13E2,2.6E1],"tree_param":{"num_deleted":"0","num_feature":"6","num_nodes":"9","size_leaf_vector":"1"}},{"base_weights":[-4.72624E-1,9.537262E-3,-2.276025E1,-2.2934186E0,4.255058E0,-5.0735903E0,-1.8177729E0,-9.3313676E-1,9.170047E-1,2.2743669E-1,3.1770518E0],"categories":[],"categories_nodes":[],"categories_segments":[],"categories_sizes":[],"default_left":[0,0,0,0,0,0,0,0,0,0,0],"id":19,"left_children":[1,3,5,7,9,-1,-1,-1,-1,-1,-1],"loss_changes":[4.5673647E3,4.0868704E3,9.029199E1,4.443431E3,5.3123765E3,0E0,0E0,0E0,0E0,0E0,0E0],"parents":[2147483647,0,0,1,1,2,2,3,3,4,4],"right_children":[2,4,6,8,10,-1,-1,-1,-1,-1,-1],"split_conditions":[3.65E1,3.588E1,6.125E1,4.3033E1,3.8072044E1,-5.0735903E0,-1.8177729E0,-9.3313676E-1,9.170047E-1,2.2743669E-1,3.1770518E0],"split_indices":[2,0,2,3,5,0,0,0,0,0,0],"split_type":[0,0,0,0,0,0,0,0,0,0,0],"sum_hessian":[4.24E2,4.16E2,8E0,2.7E2,1.46E2,6E0,2E0,2.01E2,6.9E1,1.16E2,3E1],"tree_param":{"num_deleted":"0","num_feature":"6","num_nodes":"11","size_leaf_vector":"1"}},{"base_weights":[5.1884335E-1,1.2992702E0,-9.852114E0,-7.256414E0,2.4933536E0,-3.8378682E0,-1.4225485E1,8.158838E-1,-1.7274582E0,3.7431738E-1,5.168691E0,-9.493476E-2,-1.2601861E0,-2.9296477E0,-7.4614334E-1],"categories":[],"categories_nodes":[],"categories_segments":[],"categories_sizes":[],"default_left":[0,0,0,0,0,0,0,0,0,0,0,0,0,0,0],"id":20,"left_children":[1,3,5,7,9,11,13,-1,-1,-1,-1,-1,-1,-1,-1],"loss_changes":[3.4688416E3,4.0841409E3,7.3448E2,8.0225146E2,5.033044E3,1.1298169E2,2.077539E1,0E0,0E0,0E0,0E0,0E0,0E0,0E0,0E0],"parents":[2147483647,0,0,1,1,2,2,3,3,4,4,5,5,6,6],"right_children":[2,4,6,8,10,12,14,-1,-1,-1,-1,-1,-1,-1,-1],"split_conditions":[5.940333E1,1.152E1,1.93E1,6.07E0,5.9834194E1,6.4264E1,1.6063494E1,8.158838E-1,-1.7274582E0,3.7431738E-1,5.168691E0,-9.493476E-2,-1.2601861E0,-2.9296477E0,-7.4614334E-1],"split_indices":[3,0,0,1,5,3,5,0,0,0,0,0,0,0,0],"split_type":[0,0,0,0,0,0,0,0,0,0,0,0,0,0,0],"sum_hessian":[4.26E2,3.97E2,2.9E1,4.8E1,3.49E2,1.3E1,1.6E1,5E0,4.3E1,3.41E2,8E0,6E0,7E0,1.5E1,1E0],"tree_param":{"num_deleted":"0","num_feature":"6","num_nodes":"15","size_leaf_vector":"1"}},{"base_weights":[7.4307823E-1,2.5686335E-2,1.2421191E1,-4.7376924E0,3.2795758E0,3.4647722E0,4.0205723E1,-5.408895E-1,-3.1163833E0,2.3617752E-1,3.1436083E0,6.082435E0,-2.4378984E-1,-1.971281E0,1.0437886E1],"categories":[],"categories_nodes":[],"categories_segments":[],"categories_sizes":[],"default_left":[0,0,0,0,0,0,0,0,0,0,0,0,0,0,0],"id":21,"left_children":[1,3,5,7,9,11,13,-1,-1,-1,-1,-1,-1,-1,-1],"loss_changes":[3.6188835E3,6.3393374E3,6.0819443E3,3.6179875E3,6.3248223E3,2.5613535E3,4.1139795E3,0E0,0E0,0E0,0E0,0E0,0E0,0E0,0E0],"parents":[2147483647,0,0,1,1,2,2,3,3,4,4,5,5,6,6],"right_children":[2,4,6,8,10,12,14,-1,-1,-1,-1,-1,-1,-1,-1],"split_conditions":[5.6377205E1,3.535831E1,1.39016E1,4.5133224E1,4.2671665E1,8.91386E0,8.58E0,-5.408895E-1,-3.1163833E0,2.3617752E-1,3.1436083E0,6.082435E0,-2.4378984E-1,-1.971281E0,1.0437886E1],"split_indices":[5,4,3,5,3,4,0,0,0,0,0,0,0,0,0],"split_type":[0,0,0,0,0,0,0,0,0,0,0,0,0,0,0],"sum_hessian":[4.31E2,4.07E2,2.4E1,1.65E2,2.42E2,1.9E1,5E0,1.4E2,2.5E1,2.08E2,3.4E1,2E0,1.7E1,1E0,4E0],"tree_param":{"num_deleted":"0","num_feature":"6","num_nodes":"15","size_leaf_vector":"1"}},{"base_weights":[-6.384345E-1,-5.9890714E-2,-1.3170223E1,-1.3375609E0,9.320026E0,-6.466808E0,-5.8611484E0,-3.9908993E-1,2.01109E0,-9.029689E-1,4.133599E0,-3.898992E-1,-2.4329948E0],"categories":[],"categories_nodes":[],"categories_segments":[],"categories_sizes":[],"default_left":[0,0,0,0,0,0,0,0,0,0,0,0,0],"id":22,"left_children":[1,3,5,7,9,11,-1,-1,-1,-1,-1,-1,-1],"loss_changes":[2.9572883E3,4.6983823E3,1.7574209E3,2.6059553E3,7.472202E3,3.3664996E2,0E0,0E0,0E0,0E0,0E0,0E0,0E0],"parents":[2147483647,0,0,1,1,2,2,3,3,4,4,5,5],"right_children":[2,4,6,8,10,12,-1,-1,-1,-1,-1,-1,-1],"split_conditions":[8.25E0,4.972149E1,1.343E1,7.68E0,1.2746129E1,2.3349333E1,-5.8611484E0,-3.9908993E-1,2.01109E0,-9.029689E-1,4.133599E0,-3.898992E-1,-2.4329948E0],"split_indices":[1,4,2,1,5,3,0,0,0,0,0,0,0],"split_type":[0,0,0,0,0,0,0,0,0,0,0,0,0],"sum_hessian":[4.07E2,3.9E2,1.7E1,3.44E2,4.6E1,1.3E1,4E0,3.26E2,1.8E1,2.1E1,2.5E1,8E0,5E0],"tree_param":{"num_deleted":"0","num_feature":"6","num_nodes":"13","size_leaf_vector":"1"}},{"base_weights":[-4.9393806E-1,-5.5561633E0,1.3287567E0,-3.0147429E0,-1.9132397E1,-7.798221E-1,1.044262E1,-7.1604985E-1,4.9011855E0,-8.294616E0,-1.2735385E0,-4.7517285E-1,2.829813E0,2.4459171E0,-5.159858E0],"categories":[],"categories_nodes":[],"categories_segments":[],"categories_sizes":[],"default_left":[0,0,0,0,0,0,0,0,0,0,0,0,0,0,0],"id":23,"left_children":[1,3,5,7,9,11,13,-1,-1,-1,-1,-1,-1,-1,-1],"loss_changes":[3.7996353E3,3.703139E3,5.830985E3,1.5351072E3,4.583839E3,5.9189185E3,4.0070088E3,0E0,0E0,0E0,0E0,0E0,0E0,0E0,0E0],"parents":[2147483647,0,0,1,1,2,2,3,3,4,4,5,5,6,6],"right_children":[2,4,6,8,10,12,14,-1,-1,-1,-1,-1,-1,-1,-1],"split_conditions":[3.055198E1,5.306E1,4.3033E1,5.024E1,4.9439667E1,5.666E1,3.876E1,-7.1604985E-1,4.9011855E0,-8.294616E0,-1.2735385E0,-4.7517285E-1,2.829813E0,2.4459171E0,-5.159858E0],"split_indices":[4,0,3,0,3,0,2,0,0,0,0,0,0,0,0],"split_type":[0,0,0,0,0,0,0,0,0,0,0,0,0,0,0],"sum_hessian":[4.1E2,1.08E2,3.02E2,9.2E1,1.6E1,2.46E2,5.6E1,9.1E1,1E0,5E0,1.1E1,2.23E2,2.3E1,5.4E1,2E0],"tree_param":{"num_deleted":"0","num_feature":"6","num_nodes":"15","size_leaf_vector":"1"}},{"base_weights":[-8.733721E-1,4.6106666E-1,-1.3204378E1,-7.821872E-2,3.5707417E1,-1.5261406E0,-2.3293013E1,-3.4467527E-1,7.54088E-1,9.851594E0,-3.204535E0,6.7238054E0,-2.3546364E0,-5.360637E0,5.3930755E0],"categories":[],"categories_nodes":[],"categories_segments":[],"categories_sizes":[],"default_left":[0,0,0,0,0,0,0,0,0,0,0,0,0,0,0],"id":24,"left_children":[1,3,5,7,9,11,13,-1,-1,-1,-1,-1,-1,-1,-1],"loss_changes":[7.246276E3,7.5679136E3,5.030603E3,2.4948362E3,4.9950723E3,7.958617E3,4.7803164E3,0E0,0E0,0E0,0E0,0E0,0E0,0E0,0E0],"parents":[2147483647,0,0,1,1,2,2,3,3,4,4,5,5,6,6],"right_children":[2,4,6,8,10,12,14,-1,-1,-1,-1,-1,-1,-1,-1],"split_conditions":[5.81E1,5.516E1,2.0296667E1,4.2271E1,7.91E0,4.5279667E1,2.049E1,-3.4467527E-1,7.54088E-1,9.851594E0,-3.204535E0,6.7238054E0,-2.3546364E0,-5.360637E0,5.3930755E0],"split_indices":[0,0,5,3,1,3,2,0,0,0,0,0,0,0,0],"split_type":[0,0,0,0,0,0,0,0,0,0,0,0,0,0,0],"sum_hessian":[4.39E2,3.97E2,4.2E1,3.92E2,5E0,2E1,2.2E1,2.75E2,1.17E2,4E0,1E0,4E0,1.6E1,2.1E1,1E0],"tree_param":{"num_deleted":"0","num_feature":"6","num_nodes":"15","size_leaf_vector":"1"}},{"base_weights":[8.621576E-1,-3.601804E0,1.9915891E0,-1.9147254E0,-5.324121E0,-2.7243166E0,4.422266E0,2.417856E-1,-1.5761166E0,-8.2368183E-1,3.4615562E0,6.8537426E-1,6.372993E0],"categories":[],"categories_nodes":[],"categories_segments":[],"categories_sizes":[],"default_left":[0,0,0,0,0,0,0,0,0,0,0,0,0],"id":25,"left_children":[1,3,5,7,-1,9,11,-1,-1,-1,-1,-1,-1],"loss_changes":[2.2204966E3,3.4053015E3,4.0355059E3,1.5748899E3,0E0,3.422473E3,6.2281895E3,0E0,0E0,0E0,0E0,0E0,0E0],"parents":[2147483647,0,0,1,1,2,2,3,3,5,5,6,6],"right_children":[2,4,6,8,-1,10,12,-1,-1,-1,-1,-1,-1],"split_conditions":[1.713E1,5.074E1,3.2206783E1,2.018E1,-5.324121E0,7.54E0,5.2358E1,2.417856E-1,-1.5761166E0,-8.2368183E-1,3.4615562E0,6.8537426E-1,6.372993E0],"split_indices":[2,0,4,0,0,1,3,0,0,0,0,0,0],"split_type":[0,0,0,0,0,0,0,0,0,0,0,0,0],"sum_hessian":[4.38E2,8.8E1,3.5E2,8.3E1,5E0,1.19E2,2.31E2,5.5E1,2.8E1,1.12E2,7E0,2.24E2,7E0],"tree_param":{"num_deleted":"0","num_feature":"6","num_nodes":"13","size_leaf_vector":"1"}},{"base_weights":[1.0840789E0,1.8110877E-1,6.789617E0,4.3198175E0,-1.7198591E0,3.2351074E1,1.5415337E0,-3.971099E-1,2.1317677E0,-2.4095316E0,-6.037567E-2,-2.260229E0,8.935354E0,-2.1239634E-1,8.536787E0],"categories":[],"categories_nodes":[],"categories_segments":[],"categories_sizes":[],"default_left":[0,0,0,0,0,0,0,0,0,0,0,0,0,0,0],"id":26,"left_children":[1,3,5,7,9,11,13,-1,-1,-1,-1,-1,-1,-1,-1],"loss_changes":[2.2244043E3,2.9498943E3,7.8649004E3,4.7376055E3,3.7600303E3,5.885339E3,5.4010728E3,0E0,0E0,0E0,0E0,0E0,0E0,0E0,0E0],"parents":[2147483647,0,0,1,1,2,2,3,3,4,4,5,5,6,6],"right_children":[2,4,6,8,10,12,14,-1,-1,-1,-1,-1,-1,-1,-1],"split_conditions":[1.886E1,1.7540215E1,2.8281334E1,3.044E1,2.0146774E1,3.38491E1,7.972E1,-3.971099E-1,2.1317677E0,-2.4095316E0,-6.037567E-2,-2.260229E0,8.935354E0,-2.1239634E-1,8.536787E0],"split_indices":[2,5,3,0,5,4,0,0,0,0,0,0,0,0,0],"split_type":[0,0,0,0,0,0,0,0,0,0,0,0,0,0,0],"sum_hessian":[4.31E2,3.73E2,5.8E1,1.17E2,2.56E2,9E0,4.9E1,5.9E1,5.8E1,3E1,2.26E2,2E0,7E0,4.7E1,2E0],"tree_param":{"num_deleted":"0","num_feature":"6","num_nodes":"15","size_leaf_vector":"1"}},{"base_weights":[-1.4632777E-2,-3.0374718E0,1.6245638E0,-1.4409815E0,-1.5019788E1,1.1163859E0,3.6917915E1,-4.1113135E-1,8.215484E0,1.326574E0,-3.9585023E0,2.0797555E0,-1.875612E-1,1.2141349E1,-3.4448578E0],"categories":[],"categories_nodes":[],"categories_segments":[],"categories_sizes":[],"default_left":[0,0,0,0,0,0,0,0,0,0,0,0,0,0,0],"id":27,"left_children":[1,3,5,7,9,11,13,-1,-1,-1,-1,-1,-1,-1,-1],"loss_changes":[2.1702815E3,2.924323E3,5.05241E3,3.6649365E3,1.9914395E3,5.3678076E3,6.1975493E3,0E0,0E0,0E0,0E0,0E0,0E0,0E0,0E0],"parents":[2147483647,0,0,1,1,2,2,3,3,4,4,5,5,6,6],"right_children":[2,4,6,8,10,12,14,-1,-1,-1,-1,-1,-1,-1,-1],"split_conditions":[6.43E0,1.801E1,8.392E1,1.79E1,6.08E0,6.67E0,9.686E1,-4.1113135E-1,8.215484E0,1.326574E0,-3.9585023E0,2.0797555E0,-1.875612E-1,1.2141349E1,-3.4448578E0],"split_indices":[1,2,0,2,1,1,0,0,0,0,0,0,0,0,0],"split_type":[0,0,0,0,0,0,0,0,0,0,0,0,0,0,0],"sum_hessian":[4.36E2,1.53E2,2.83E2,1.36E2,1.7E1,2.8E2,3E0,1.35E2,1E0,3E0,1.4E1,5E1,2.3E2,2E0,1E0],"tree_param":{"num_deleted":"0","num_feature":"6","num_nodes":"15","size_leaf_vector":"1"}},{"base_weights":[-6.894613E-1,-2.4263194E0,3.3198564E0,1.4432614E-1,-8.02914E0,-4.5268837E-1,1.3680342E1,-2.0445538E0,3.2329163E-1,1.7518191E-1,-3.2813718E0,-4.8049185E-1,5.903849E0,1.0578215E0,4.662873E0],"categories":[],"categories_nodes":[],"categories_segments":[],"categories_sizes":[],"default_left":[0,0,0,0,0,0,0,0,0,0,0,0,0,0,0],"id":28,"left_children":[1,3,5,7,9,11,13,-1,-1,-1,-1,-1,-1,-1,-1],"loss_changes":[3.0163372E3,4.350824E3,5.12638E3,3.1909648E3,7.1017515E3,5.7394434E3,2.7061348E3,0E0,0E0,0E0,0E0,0E0,0E0,0E0,0E0],"parents":[2147483647,0,0,1,1,2,2,3,3,4,4,5,5,6,6],"right_children":[2,4,6,8,10,12,14,-1,-1,-1,-1,-1,-1,-1,-1],"split_conditions":[3.3049786E1,2.4006021E1,7.49E0,8.979463E0,3.024E1,7.368E1,3.066E1,-2.0445538E0,3.2329163E-1,1.7518191E-1,-3.2813718E0,-4.8049185E-1,5.903849E0,1.0578215E0,4.662873E0],"split_indices":[5,5,1,5,0,0,0,0,0,0,0,0,0,0,0],"split_type":[0,0,0,0,0,0,0,0,0,0,0,0,0,0,0],"sum_hessian":[4.31E2,3.01E2,1.3E2,2.07E2,9.4E1,9.6E1,3.4E1,2.5E1,1.82E2,4.6E1,4.8E1,9.1E1,5E0,1.9E1,1.5E1],"tree_param":{"num_deleted":"0","num_feature":"6","num_nodes":"15","size_leaf_vector":"1"}},{"base_weights":[-8.676531E-1,1.493965E1,-1.0856953E0,-1.1040447E0,3.7239597E1,-8.818352E0,-5.2655685E-1,9.221999E0,1.9498802E0,1.0114875E0,-3.2775161E0,6.0367364E-1,-4.647019E-1],"categories":[],"categories_nodes":[],"categories_segments":[],"categories_sizes":[],"default_left":[0,0,0,0,0,0,0,0,0,0,0,0,0],"id":29,"left_children":[1,3,5,-1,7,9,11,-1,-1,-1,-1,-1,-1],"loss_changes":[1.5189628E3,2.9430957E3,1.8588389E3,0E0,2.8200146E2,3.1287207E3,2.5741482E3,0E0,0E0,0E0,0E0,0E0,0E0],"parents":[2147483647,0,0,1,1,2,2,4,4,5,5,6,6],"right_children":[2,4,6,-1,8,10,12,-1,-1,-1,-1,-1,-1],"split_conditions":[9.22E0,7.6E0,1.4259666E1,-1.1040447E0,2.734E1,1.688E1,2.9951334E1,9.221999E0,1.9498802E0,1.0114875E0,-3.2775161E0,6.0367364E-1,-4.647019E-1],"split_indices":[3,0,3,0,0,0,3,0,0,0,0,0,0],"split_type":[0,0,0,0,0,0,0,0,0,0,0,0,0],"sum_hessian":[4.35E2,5E0,4.3E2,3E0,2E0,2.8E1,4.02E2,1E0,1E0,1E1,1.8E1,1.35E2,2.67E2],"tree_param":{"num_deleted":"0","num_feature":"6","num_nodes":"13","size_leaf_vector":"1"}},{"base_weights":[9.6133345E-1,1.2284278E0,-1.3348217E1,9.5855826E-1,2.9392551E1,-2.0084455E1,-5.289583E0,-7.50414E-2,8.7957585E-1,-2.86755E-1,8.029183E0,-1.1506027E0,-4.5887866E0,-1.1852076E0,-2.743767E-1],"categories":[],"categories_nodes":[],"categories_segments":[],"categories_sizes":[],"default_left":[0,0,0,0,0,0,0,0,0,0,0,0,0,0,0],"id":30,"left_children":[1,3,5,7,9,11,13,-1,-1,-1,-1,-1,-1,-1,-1],"loss_changes":[1.6675009E3,3.2020962E3,3.2804065E2,1.9374681E3,1.3835073E3,3.1924927E1,4.3373413E0,0E0,0E0,0E0,0E0,0E0,0E0,0E0,0E0],"parents":[2147483647,0,0,1,1,2,2,3,3,4,4,5,5,6,6],"right_children":[2,4,6,8,10,12,14,-1,-1,-1,-1,-1,-1,-1,-1],"split_conditions":[5.183E1,4.21E1,6.125E1,3.3049786E1,1.292E1,5.747E1,3.4491E1,-7.50414E-2,8.7957585E-1,-2.86755E-1,8.029183E0,-1.1506027E0,-4.5887866E0,-1.1852076E0,-2.743767E-1],"split_indices":[2,2,2,5,0,2,3,0,0,0,0,0,0,0,0],"split_type":[0,0,0,0,0,0,0,0,0,0,0,0,0,0,0],"sum_hessian":[4.31E2,4.24E2,7E0,4.21E2,3E0,3E0,4E0,3.04E2,1.17E2,1E0,2E0,1E0,2E0,3E0,1E0],"tree_param":{"num_deleted":"0","num_feature":"6","num_nodes":"15","size_leaf_vector":"1"}},{"base_weights":[-7.893872E-1,-2.9598987E-1,-7.739243E0,-1.3787379E0,6.3024573E0,-3.0676942E0,-4.8713946E0,-3.1974766E-1,3.5111947E0,-5.873868E-1,3.0011847E0,1.1421082E0,-1.3003618E0],"categories":[],"categories_nodes":[],"categories_segments":[],"categories_sizes":[],"default_left":[0,0,0,0,0,0,0,0,0,0,0,0,0],"id":31,"left_children":[1,3,5,7,9,11,-1,-1,-1,-1,-1,-1,-1],"loss_changes":[1.4481934E3,2.837894E3,2.0989355E3,1.4485515E3,4.547296E3,7.304746E2,0E0,0E0,0E0,0E0,0E0,0E0,0E0],"parents":[2147483647,0,0,1,1,2,2,3,3,4,4,5,5],"right_children":[2,4,6,8,10,12,-1,-1,-1,-1,-1,-1,-1],"split_conditions":[8E0,4.894758E1,5.132E1,7.625118E1,1.2746129E1,1.2945666E1,-4.8713946E0,-3.1974766E-1,3.5111947E0,-5.873868E-1,3.0011847E0,1.1421082E0,-1.3003618E0],"split_indices":[1,4,0,5,5,3,0,0,0,0,0,0,0],"split_type":[0,0,0,0,0,0,0,0,0,0,0,0,0],"sum_hessian":[4.22E2,3.95E2,2.7E1,3.4E2,5.5E1,2.2E1,5E0,3.37E2,3E0,2.7E1,2.8E1,6E0,1.6E1],"tree_param":{"num_deleted":"0","num_feature":"6","num_nodes":"13","size_leaf_vector":"1"}},{"base_weights":[1.4752965E-1,3.2742124E0,-2.4041467E0,-7.353749E0,4.8088603E0,-9.934611E-1,-1.299919E1,4.6203017E-1,-1.8608998E0,-4.0598318E-1,1.6673985E0,-3.96284E-1,4.8894343E0,-1.5340649E0,-6.2519956E0],"categories":[],"categories_nodes":[],"categories_segments":[],"categories_sizes":[],"default_left":[0,0,0,0,0,0,0,0,0,0,0,0,0,0,0],"id":32,"left_children":[1,3,5,7,9,11,13,-1,-1,-1,-1,-1,-1,-1,-1],"loss_changes":[3.4624678E3,3.215848E3,3.559245E3,4.9279114E2,4.142829E3,5.376912E3,2.4848857E3,0E0,0E0,0E0,0E0,0E0,0E0,0E0,0E0],"parents":[2147483647,0,0,1,1,2,2,3,3,4,4,5,5,6,6],"right_children":[2,4,6,8,10,12,14,-1,-1,-1,-1,-1,-1,-1,-1],"split_conditions":[2.201387E1,1.311E1,4.5986614E1,2.3349333E1,3.1812902E1,7.368E1,5.666E1,4.6203017E-1,-1.8608998E0,-4.0598318E-1,1.6673985E0,-3.96284E-1,4.8894343E0,-1.5340649E0,-6.2519956E0],"split_indices":[5,2,4,3,4,0,0,0,0,0,0,0,0,0,0],"split_type":[0,0,0,0,0,0,0,0,0,0,0,0,0,0,0],"sum_hessian":[4.32E2,1.94E2,2.38E2,2.4E1,1.7E2,2.11E2,2.7E1,4E0,2E1,5.8E1,1.12E2,2.04E2,7E0,2.2E1,5E0],"tree_param":{"num_deleted":"0","num_feature":"6","num_nodes":"15","size_leaf_vector":"1"}},{"base_weights":[-2.961526E-1,4.279379E-1,-6.9407945E0,3.71376E-2,3.0902935E1,4.372419E0,-2.0169611E1,-1.6784226E0,8.854484E-2,8.431262E0,-1.4110558E0,-1.2306857E0,9.120265E0,-5.568851E0,-2.2718122E0],"categories":[],"categories_nodes":[],"categories_segments":[],"categories_sizes":[],"default_left":[0,0,0,0,0,0,0,0,0,0,0,0,0,0,0],"id":33,"left_children":[1,3,5,7,9,11,13,-1,-1,-1,-1,-1,-1,-1,-1],"loss_changes":[2.1055178E3,4.7031587E3,6.523588E3,1.3404626E3,2.4332144E3,1.0695865E4,1.0360718E3,0E0,0E0,0E0,0E0,0E0,0E0,0E0,0E0],"parents":[2147483647,0,0,1,1,2,2,3,3,4,4,5,5,6,6],"right_children":[2,4,6,8,10,12,14,-1,-1,-1,-1,-1,-1,-1,-1],"split_conditions":[5.81E1,5.516E1,6.88E0,6.8E0,7.69E0,6.74E0,7.16E0,-1.6784226E0,8.854484E-2,8.431262E0,-1.4110558E0,-1.2306857E0,9.120265E0,-5.568851E0,-2.2718122E0],"split_indices":[0,0,1,0,1,1,1,0,0,0,0,0,0,0,0],"split_type":[0,0,0,0,0,0,0,0,0,0,0,0,0,0,0],"sum_hessian":[4.36E2,3.94E2,4.2E1,3.9E2,4E0,2.3E1,1.9E1,1.7E1,3.73E2,3E0,1E0,1.9E1,4E0,9E0,1E1],"tree_param":{"num_deleted":"0","num_feature":"6","num_nodes":"15","size_leaf_vector":"1"}},{"base_weights":[2.7242717E-1,1.6027815E0,-3.1731324E0,1.7504185E-1,6.9376388E0,-2.0394835E1,-1.4060512E0,-3.8298336E-1,8.6546737E-1,2.7766562E0,-1.1012605E0,-4.7621646E0,-6.697187E-1,-2.930365E-2,-5.5150065E0],"categories":[],"categories_nodes":[],"categories_segments":[],"categories_sizes":[],"default_left":[0,0,0,0,0,0,0,0,0,0,0,0,0,0,0],"id":34,"left_children":[1,3,5,7,9,11,13,-1,-1,-1,-1,-1,-1,-1,-1],"loss_changes":[1.9577911E3,2.344756E3,3.592749E3,2.125749E3,5.6944707E3,5.6079395E2,3.5886755E3,0E0,0E0,0E0,0E0,0E0,0E0,0E0,0E0],"parents":[2147483647,0,0,1,1,2,2,3,3,4,4,5,5,6,6],"right_children":[2,4,6,8,10,12,14,-1,-1,-1,-1,-1,-1,-1,-1],"split_conditions":[4.359156E1,3.8252193E1,5.87E0,7.06E0,6.9E0,4.9354763E1,7.854E1,-3.8298336E-1,8.6546737E-1,2.7766562E0,-1.1012605E0,-4.7621646E0,-6.697187E-1,-2.930365E-2,-5.5150065E0],"split_indices":[4,4,1,1,1,4,0,0,0,0,0,0,0,0,0],"split_type":[0,0,0,0,0,0,0,0,0,0,0,0,0,0,0],"sum_hessian":[4.25E2,3.07E2,1.18E2,2.43E2,6.4E1,1E1,1.08E2,1.62E2,8.1E1,4.1E1,2.3E1,8E0,2E0,1.04E2,4E0],"tree_param":{"num_deleted":"0","num_feature":"6","num_nodes":"15","size_leaf_vector":"1"}},{"base_weights":[5.4089683E-1,3.47842E0,-1.321245E0,-5.7510406E-1,1.2471035E1,-1.6460443E0,5.3887286E0,3.2892466E-1,-2.35206E0,3.5729291E0,-6.119105E-1,-1.2721486E0,1.0416589E-1],"categories":[],"categories_nodes":[],"categories_segments":[],"categories_sizes":[],"default_left":[0,0,0,0,0,0,0,0,0,0,0,0,0],"id":35,"left_children":[1,3,5,7,9,11,-1,-1,-1,-1,-1,-1,-1],"loss_changes":[2.3129714E3,5.9852646E3,2.422078E3,2.849743E3,4.3267197E3,2.628865E3,0E0,0E0,0E0,0E0,0E0,0E0,0E0],"parents":[2147483647,0,0,1,1,2,2,3,3,4,4,5,5],"right_children":[2,4,6,8,10,12,-1,-1,-1,-1,-1,-1,-1],"split_conditions":[2.9846666E1,2.2486666E1,3.975075E1,4.7403397E1,7.69E0,3.7906E1,5.3887286E0,3.2892466E-1,-2.35206E0,3.5729291E0,-6.119105E-1,-1.2721486E0,1.0416589E-1],"split_indices":[3,3,5,4,1,3,0,0,0,0,0,0,0],"split_type":[0,0,0,0,0,0,0,0,0,0,0,0,0],"sum_hessian":[4.21E2,1.63E2,2.58E2,1.13E2,5E1,2.56E2,2E0,9.5E1,1.8E1,3.7E1,1.3E1,8E1,1.76E2],"tree_param":{"num_deleted":"0","num_feature":"6","num_nodes":"13","size_leaf_vector":"1"}},{"base_weights":[2.2007221E-1,-4.8918624E0,1.1013222E0,2.3064749E1,-6.1657004E0,1.2950341E1,3.8926888E-1,-9.7747654E-1,7.896901E0,-2.2801166E0,4.0758952E-1,9.3242687E-1,7.7080355E0,-1.4513191E0,2.5722376E-1],"categories":[],"categories_nodes":[],"categories_segments":[],"categories_sizes":[],"default_left":[0,0,0,0,0,0,0,0,0,0,0,0,0,0,0],"id":36,"left_children":[1,3,5,7,9,11,13,-1,-1,-1,-1,-1,-1,-1,-1],"loss_changes":[1.9605109E3,2.421391E3,3.1251355E3,1.5698774E3,2.6858318E3,4.274291E3,2.4162073E3,0E0,0E0,0E0,0E0,0E0,0E0,0E0,0E0],"parents":[2147483647,0,0,1,1,2,2,3,3,4,4,5,5,6,6],"right_children":[2,4,6,8,10,12,14,-1,-1,-1,-1,-1,-1,-1,-1],"split_conditions":[1.7278334E1,8.91386E0,1.9543E1,4.6E0,7.24E0,5.666E1,2.2486666E1,-9.7747654E-1,7.896901E0,-2.2801166E0,4.0758952E-1,9.3242687E-1,7.7080355E0,-1.4513191E0,2.5722376E-1],"split_indices":[3,4,3,0,1,0,3,0,0,0,0,0,0,0,0],"split_type":[0,0,0,0,0,0,0,0,0,0,0,0,0,0,0],"sum_hessian":[4.33E2,6.3E1,3.7E2,2E0,6.1E1,2E1,3.5E2,1E0,1E0,3.7E1,2.4E1,1.6E1,4E0,3.6E1,3.14E2],"tree_param":{"num_deleted":"0","num_feature":"6","num_nodes":"15","size_leaf_vector":"1"}},{"base_weights":[-3.9982352E-1,-5.463371E-1,2.0147676E1,1.1700159E0,-2.3874373E0,-1.0629076E0,7.1072106E0,-2.6118734E-1,1.5046738E0,-6.1105746E-1,2.1481626E0],"categories":[],"categories_nodes":[],"categories_segments":[],"categories_sizes":[],"default_left":[0,0,0,0,0,0,0,0,0,0,0],"id":37,"left_children":[1,3,5,7,9,-1,-1,-1,-1,-1,-1],"loss_changes":[1.2754122E3,1.3236642E3,1.364324E3,3.4233655E3,1.8038922E3,0E0,0E0,0E0,0E0,0E0,0E0],"parents":[2147483647,0,0,1,1,2,2,3,3,4,4],"right_children":[2,4,6,8,10,-1,-1,-1,-1,-1,-1],"split_conditions":[7.625118E1,2.4191399E1,7.6E0,1.9735699E1,7.368E1,-1.0629076E0,7.1072106E0,-2.6118734E-1,1.5046738E0,-6.1105746E-1,2.1481626E0],"split_indices":[5,5,0,5,0,0,0,0,0,0,0],"split_type":[0,0,0,0,0,0,0,0,0,0,0],"sum_hessian":[4.19E2,4.17E2,2E0,2.16E2,2.01E2,1E0,1E0,1.56E2,6E1,1.92E2,9E0],"tree_param":{"num_deleted":"0","num_feature":"6","num_nodes":"11","size_leaf_vector":"1"}},{"base_weights":[5.056234E-1,-6.5722027E0,1.1835319E0,-2.1311872E0,-1.494868E1,6.0860677E0,9.5783657E-1,3.707387E-2,-1.689093E0,-3.4283237E0,-3.850014E-1,3.3292267E-1,-7.656445E-1],"categories":[],"categories_nodes":[],"categories_segments":[],"categories_sizes":[],"default_left":[0,0,0,0,0,0,0,0,0,0,0,0,0],"id":38,"left_children":[1,3,5,7,9,-1,11,-1,-1,-1,-1,-1,-1],"loss_changes":[2.0853635E3,1.3817441E3,2.5847961E3,3.8187747E2,3.3828418E2,0E0,1.3391464E3,0E0,0E0,0E0,0E0,0E0,0E0],"parents":[2147483647,0,0,1,1,2,2,3,3,4,4,6,6],"right_children":[2,4,6,8,10,-1,12,-1,-1,-1,-1,-1,-1],"split_conditions":[5.76E0,3.6279278E1,5.78E0,6.108433E1,4.9354763E1,6.0860677E0,7.57E0,3.707387E-2,-1.689093E0,-3.4283237E0,-3.850014E-1,3.3292267E-1,-7.656445E-1],"split_indices":[1,4,1,3,4,0,1,0,0,0,0,0,0],"split_type":[0,0,0,0,0,0,0,0,0,0,0,0,0],"sum_hessian":[4.32E2,3.7E1,3.95E2,2.5E1,1.2E1,2E0,3.93E2,1.9E1,6E0,1E1,2E0,3.43E2,5E1],"tree_param":{"num_deleted":"0","num_feature":"6","num_nodes":"13","size_leaf_vector":"1"}},{"base_weights":[-2.5160156E-2,-4.7258362E-1,6.1779222E0,-4.1128726E0,5.0193566E-1,-5.7654183E-2,3.0090574E1,-4.8520818E-1,-5.1836963E0,1.042995E0,-7.9364315E-2,9.73952E-1,-2.1042404E0,-1.422151E0,7.7905984E0],"categories":[],"categories_nodes":[],"categories_segments":[],"categories_sizes":[],"default_left":[0,0,0,0,0,0,0,0,0,0,0,0,0,0,0],"id":39,"left_children":[1,3,5,7,9,11,13,-1,-1,-1,-1,-1,-1,-1,-1],"loss_changes":[1.1963435E3,1.4281721E3,4.325901E3,3.0636243E3,1.3490787E3,1.2886333E3,2.2551465E3,0E0,0E0,0E0,0E0,0E0,0E0,0E0,0E0],"parents":[2147483647,0,0,1,1,2,2,3,3,4,4,5,5,6,6],"right_children":[2,4,6,8,10,12,14,-1,-1,-1,-1,-1,-1,-1,-1],"split_conditions":[5.5320324E1,2.2486666E1,1.5229667E1,2.2302668E1,2.90355E1,3.538E1,8.58E0,-4.8520818E-1,-5.1836963E0,1.042995E0,-7.9364315E-2,9.73952E-1,-2.1042404E0,-1.422151E0,7.7905984E0],"split_indices":[5,3,3,3,3,0,0,0,0,0,0,0,0,0,0],"split_type":[0,0,0,0,0,0,0,0,0,0,0,0,0,0,0],"sum_hessian":[4.29E2,4.01E2,2.8E1,8.4E1,3.17E2,2.3E1,5E0,7.9E1,5E0,5E1,2.67E2,1.6E1,7E0,1E0,4E0],"tree_param":{"num_deleted":"0","num_feature":"6","num_nodes":"15","size_leaf_vector":"1"}},{"base_weights":[-2.2859992E-1,5.1161635E-1,-7.4494324E0,1.5057258E-1,2.2450016E1,-2.8107991E0,-2.4492958E1,8.467996E-2,-3.9264467E0,5.76355E0,-9.388649E-1,-1.6189591E0,4.110997E0,-5.413547E0,-6.469513E-1],"categories":[],"categories_nodes":[],"categories_segments":[],"categories_sizes":[],"default_left":[0,0,0,0,0,0,0,0,0,0,0,0,0,0,0],"id":40,"left_children":[1,3,5,7,9,11,13,-1,-1,-1,-1,-1,-1,-1,-1],"loss_changes":[2.184562E3,2.9352078E3,2.9353845E3,1.9837196E3,1.1723674E3,3.9937944E3,3.5032373E2,0E0,0E0,0E0,0E0,0E0,0E0,0E0,0E0],"parents":[2147483647,0,0,1,1,2,2,3,3,4,4,5,5,6,6],"right_children":[2,4,6,8,10,12,14,-1,-1,-1,-1,-1,-1,-1,-1],"split_conditions":[5.81E1,5.516E1,3.70843E1,5.472E1,7.91E0,3.1163334E1,9.686E1,8.467996E-2,-3.9264467E0,5.76355E0,-9.388649E-1,-1.6189591E0,4.110997E0,-5.413547E0,-6.469513E-1],"split_indices":[0,0,5,0,1,5,0,0,0,0,0,0,0,0,0],"split_type":[0,0,0,0,0,0,0,0,0,0,0,0,0,0,0],"sum_hessian":[4.07E2,3.7E2,3.7E1,3.65E2,5E0,3E1,7E0,3.61E2,4E0,4E0,1E0,2.5E1,5E0,6E0,1E0],"tree_param":{"num_deleted":"0","num_feature":"6","num_nodes":"15","size_leaf_vector":"1"}},{"base_weights":[8.0319375E-1,2.868473E-1,4.9279895E0,1.7571902E0,-1.7918049E0,3.0881311E1,4.8510283E-1,1.3827604E-1,2.5400932E0,-3.5747764E0,4.9008515E-2,-1.0338008E-1,8.708796E0,5.1185746E0,-5.662634E-1],"categories":[],"categories_nodes":[],"categories_segments":[],"categories_sizes":[],"default_left":[0,0,0,0,0,0,0,0,0,0,0,0,0,0,0],"id":41,"left_children":[1,3,5,7,9,11,13,-1,-1,-1,-1,-1,-1,-1,-1],"loss_changes":[9.1867035E2,1.1798362E3,5.519787E3,2.6271594E3,5.2454575E3,2.805603E3,3.5697139E3,0E0,0E0,0E0,0E0,0E0,0E0,0E0,0E0],"parents":[2147483647,0,0,1,1,2,2,3,3,4,4,5,5,6,6],"right_children":[2,4,6,8,10,12,14,-1,-1,-1,-1,-1,-1,-1,-1],"split_conditions":[1.978E1,6.89E0,2.8281334E1,6.74E0,7E0,6.76E0,2.074E1,1.3827604E-1,2.5400932E0,-3.5747764E0,4.9008515E-2,-1.0338008E-1,8.708796E0,5.1185746E0,-5.662634E-1],"split_indices":[2,1,3,1,1,1,2,0,0,0,0,0,0,0,0],"split_type":[0,0,0,0,0,0,0,0,0,0,0,0,0,0,0],"sum_hessian":[4.31E2,3.84E2,4.7E1,2.25E2,1.59E2,6E0,4.1E1,2.06E2,1.9E1,1.7E1,1.42E2,2E0,4E0,4E0,3.7E1],"tree_param":{"num_deleted":"0","num_feature":"6","num_nodes":"15","size_leaf_vector":"1"}},{"base_weights":[-7.724689E-1,-1.5129106E0,3.9804022E0,6.710064E-1,-3.6759415E0,9.323539E0,1.4918689E0,3.217317E-1,-2.2418902E0,-3.0130737E0,-3.0508178E-1,-1.04283E0,1.5331211E0],"categories":[],"categories_nodes":[],"categories_segments":[],"categories_sizes":[],"default_left":[0,0,0,0,0,0,0,0,0,0,0,0,0],"id":42,"left_children":[1,3,5,7,9,-1,11,-1,-1,-1,-1,-1,-1],"loss_changes":[1.4348268E3,1.6652722E3,5.76619E3,1.9786255E3,4.312339E3,0E0,2.234233E3,0E0,0E0,0E0,0E0,0E0,0E0],"parents":[2147483647,0,0,1,1,2,2,3,3,4,4,6,6],"right_children":[2,4,6,8,10,-1,12,-1,-1,-1,-1,-1,-1],"split_conditions":[4.495817E1,6.64E0,4.5133224E1,2.069E1,6.8E0,9.323539E0,7.24E0,3.217317E-1,-2.2418902E0,-3.0130737E0,-3.0508178E-1,-1.04283E0,1.5331211E0],"split_indices":[5,1,5,2,1,0,1,0,0,0,0,0,0],"split_type":[0,0,0,0,0,0,0,0,0,0,0,0,0],"sum_hessian":[4.05E2,3.51E2,5.4E1,1.75E2,1.76E2,2E0,5.2E1,1.63E2,1.2E1,2.7E1,1.49E2,2.5E1,2.7E1],"tree_param":{"num_deleted":"0","num_feature":"6","num_nodes":"13","size_leaf_vector":"1"}},{"base_weights":[2.8026125E-1,-3.1463685E0,1.2278693E0,1.2019051E0,-1.1088742E1,2.157049E0,-4.5314918E0,1.2766743E0,-9.4713825E-1,5.400918E0,-2.6246104E0,2.8851882E-1,4.860726E0,-1.5186675E0,1.8480009E0],"categories":[],"categories_nodes":[],"categories_segments":[],"categories_sizes":[],"default_left":[0,0,0,0,0,0,0,0,0,0,0,0,0,0,0],"id":43,"left_children":[1,3,5,7,9,11,13,-1,-1,-1,-1,-1,-1,-1,-1],"loss_changes":[1.3936229E3,3.2251396E3,1.8078723E3,1.9069225E3,2.9116729E3,4.553532E3,2.0519736E3,0E0,0E0,0E0,0E0,0E0,0E0,0E0,0E0],"parents":[2147483647,0,0,1,1,2,2,3,3,4,4,5,5,6,6],"right_children":[2,4,6,8,10,12,14,-1,-1,-1,-1,-1,-1,-1,-1],"split_conditions":[6.18E0,3.7754967E1,5.277825E1,5.4716E1,1.3946E1,5.079428E1,5.8919926E1,1.2766743E0,-9.4713825E-1,5.400918E0,-2.6246104E0,2.8851882E-1,4.860726E0,-1.5186675E0,1.8480009E0],"split_indices":[1,4,4,3,3,4,4,0,0,0,0,0,0,0,0],"split_type":[0,0,0,0,0,0,0,0,0,0,0,0,0,0,0],"sum_hessian":[4.27E2,9.2E1,3.35E2,6E1,3.2E1,2.89E2,4.6E1,3.2E1,2.8E1,1E0,3.1E1,2.81E2,8E0,3.8E1,8E0],"tree_param":{"num_deleted":"0","num_feature":"6","num_nodes":"15","size_leaf_vector":"1"}},{"base_weights":[7.9112333E-1,2.3405044E0,-1.2282418E0,9.268204E-1,1.3353857E1,1.5440109E0,-5.1515975E0,3.9295533E-1,-1.9440079E0,5.035443E0,7.303447E-1,4.8072854E-1,-3.329027E0,1.9288632E0,-1.5079058E0],"categories":[],"categories_nodes":[],"categories_segments":[],"categories_sizes":[],"default_left":[0,0,0,0,0,0,0,0,0,0,0,0,0,0,0],"id":44,"left_children":[1,3,5,7,9,11,13,-1,-1,-1,-1,-1,-1,-1,-1],"loss_changes":[1.3169565E3,3.6931406E3,1.9983599E3,2.3619045E3,3.0052778E3,1.7286936E3,2.7579165E3,0E0,0E0,0E0,0E0,0E0,0E0,0E0,0E0],"parents":[2147483647,0,0,1,1,2,2,3,3,4,4,5,5,6,6],"right_children":[2,4,6,8,10,12,14,-1,-1,-1,-1,-1,-1,-1,-1],"split_conditions":[6.9E0,6.74E0,3.9827087E1,6.63E0,2.895E1,3.876E1,1.464E1,3.9295533E-1,-1.9440079E0,5.035443E0,7.303447E-1,4.8072854E-1,-3.329027E0,1.9288632E0,-1.5079058E0],"split_indices":[1,1,4,1,3,2,0,0,0,0,0,0,0,0,0],"split_type":[0,0,0,0,0,0,0,0,0,0,0,0,0,0,0],"sum_hessian":[4.19E2,2.37E2,1.82E2,2.11E2,2.6E1,1.07E2,7.5E1,1.93E2,1.8E1,1.1E1,1.5E1,1.03E2,4E0,1E1,6.5E1],"tree_param":{"num_deleted":"0","num_feature":"6","num_nodes":"15","size_leaf_vector":"1"}},{"base_weights":[-6.8188983E-1,8.598755E-1,-2.722699E0,-4.1747203E-1,1.1141427E1,-1.5774097E1,-1.4709529E0,-1.8998067E-1,3.7106836E0,4.9770924E-1,8.202351E0,1.3590456E0,-3.896732E0,1.7461296E-2,-1.5321454E0],"categories":[],"categories_nodes":[],"categories_segments":[],"categories_sizes":[],"default_left":[0,0,0,0,0,0,0,0,0,0,0,0,0,0,0],"id":45,"left_children":[1,3,5,7,9,11,13,-1,-1,-1,-1,-1,-1,-1,-1],"loss_changes":[1.3458748E3,3.2091313E3,2.9828115E3,2.2195754E3,6.8764785E3,1.4719531E3,1.63072E3,0E0,0E0,0E0,0E0,0E0,0E0,0E0,0E0],"parents":[2147483647,0,0,1,1,2,2,3,3,4,4,5,5,6,6],"right_children":[2,4,6,8,10,12,14,-1,-1,-1,-1,-1,-1,-1,-1],"split_conditions":[6.88E0,5.132E1,6.99E0,5.8111614E1,6.52E0,1.176E1,4.938E1,-1.8998067E-1,3.7106836E0,4.9770924E-1,8.202351E0,1.3590456E0,-3.896732E0,1.7461296E-2,-1.5321454E0],"split_indices":[1,0,1,5,1,2,0,0,0,0,0,0,0,0,0],"split_type":[0,0,0,0,0,0,0,0,0,0,0,0,0,0,0],"sum_hessian":[4.26E2,2.43E2,1.83E2,2.17E2,2.6E1,1.5E1,1.68E2,2.12E2,5E0,2.1E1,5E0,2E0,1.3E1,1.35E2,3.3E1],"tree_param":{"num_deleted":"0","num_feature":"6","num_nodes":"15","size_leaf_vector":"1"}},{"base_weights":[2.6519486E-1,5.319159E-1,-1.2122346E1,1.5128583E-1,1.234909E1,-1.5394816E1,-4.4580135E-1,9.007649E-2,-3.383767E0,4.499557E0,8.724757E-2,-3.7778003E0,-1.6103853E0,2.0340788E-1,-3.3714828E-1],"categories":[],"categories_nodes":[],"categories_segments":[],"categories_sizes":[],"default_left":[0,0,0,0,0,0,0,0,0,0,0,0,0,0,0],"id":46,"left_children":[1,3,5,7,9,11,13,-1,-1,-1,-1,-1,-1,-1,-1],"loss_changes":[1.4106556E3,1.873786E3,3.3703723E2,2.075394E3,1.5618845E3,2.7509033E1,7.15597E0,0E0,0E0,0E0,0E0,0E0,0E0,0E0,0E0],"parents":[2147483647,0,0,1,1,2,2,3,3,4,4,5,5,6,6],"right_children":[2,4,6,8,10,12,14,-1,-1,-1,-1,-1,-1,-1,-1],"split_conditions":[3.876E1,2.823E1,3.738029E1,2.608E1,3.097E1,6.125E1,1.292E1,9.007649E-2,-3.383767E0,4.499557E0,8.724757E-2,-3.7778003E0,-1.6103853E0,2.0340788E-1,-3.3714828E-1],"split_indices":[2,2,4,2,2,2,0,0,0,0,0,0,0,0,0],"split_type":[0,0,0,0,0,0,0,0,0,0,0,0,0,0,0],"sum_hessian":[4.24E2,4.16E2,8E0,4.04E2,1.2E1,6E0,2E0,3.98E2,6E0,6E0,6E0,3E0,3E0,1E0,1E0],"tree_param":{"num_deleted":"0","num_feature":"6","num_nodes":"15","size_leaf_vector":"1"}},{"base_weights":[1.22065194E-1,2.9430556E0,-1.135322E0,1.185249E0,1.7548637E1,1.428507E0,-6.1997175E0,5.212509E-1,-3.262858E0,5.1442947E0,-4.6135274E-1,4.534487E-2,3.9673898E0,-1.7220774E0,3.2232559E0],"categories":[],"categories_nodes":[],"categories_segments":[],"categories_sizes":[],"default_left":[0,0,0,0,0,0,0,0,0,0,0,0,0,0,0],"id":47,"left_children":[1,3,5,7,9,11,13,-1,-1,-1,-1,-1,-1,-1,-1],"loss_changes":[1.5073021E3,3.3424668E3,3.826224E3,2.9768179E3,2.331183E3,4.3316E3,5.464621E3,0E0,0E0,0E0,0E0,0E0,0E0,0E0,0E0],"parents":[2147483647,0,0,1,1,2,2,3,3,4,4,5,5,6,6],"right_children":[2,4,6,8,10,12,14,-1,-1,-1,-1,-1,-1,-1,-1],"split_conditions":[1.807699E1,1.7045162E1,3.9827087E1,2.066E1,5.2135E1,3.8417645E1,1.871E1,5.212509E-1,-3.262858E0,5.1442947E0,-4.6135274E-1,4.534487E-2,3.9673898E0,-1.7220774E0,3.2232559E0],"split_indices":[5,5,4,2,3,4,2,0,0,0,0,0,0,0,0],"split_type":[0,0,0,0,0,0,0,0,0,0,0,0,0,0,0],"sum_hessian":[4.23E2,1.3E2,2.93E2,1.17E2,1.3E1,1.95E2,9.8E1,1.09E2,8E0,9E0,4E0,1.84E2,1.1E1,8.9E1,9E0],"tree_param":{"num_deleted":"0","num_feature":"6","num_nodes":"15","size_leaf_vector":"1"}},{"base_weights":[-1.0267583E-1,-2.8923175E0,1.3593715E0,-5.4164433E0,1.3354133E0,2.553906E1,7.6280797E-1,-7.438492E-1,-4.281887E0,-6.169562E-1,3.0895588E0,6.243853E0,-8.542162E-1,7.457075E-2,3.7797058E0],"categories":[],"categories_nodes":[],"categories_segments":[],"categories_sizes":[],"default_left":[0,0,0,0,0,0,0,0,0,0,0,0,0,0,0],"id":48,"left_children":[1,3,5,7,9,11,13,-1,-1,-1,-1,-1,-1,-1,-1],"loss_changes":[1.814825E3,1.6399459E3,4.192538E3,2.5261267E3,3.665662E3,1.3186338E3,2.0155747E3,0E0,0E0,0E0,0E0,0E0,0E0,0E0,0E0],"parents":[2147483647,0,0,1,1,2,2,3,3,4,4,5,5,6,6],"right_children":[2,4,6,8,10,12,14,-1,-1,-1,-1,-1,-1,-1,-1],"split_conditions":[6.43E0,4.9887E1,6.45E0,5.074E1,3.321817E1,4.3675335E1,8.296E1,-7.438492E-1,-4.281887E0,-6.169562E-1,3.0895588E0,6.243853E0,-8.542162E-1,7.457075E-2,3.7797058E0],"split_indices":[1,3,1,0,4,3,0,0,0,0,0,0,0,0,0],"split_type":[0,0,0,0,0,0,0,0,0,0,0,0,0,0,0],"sum_hessian":[4.43E2,1.52E2,2.91E2,9.5E1,5.7E1,6E0,2.85E2,8.7E1,8E0,4.4E1,1.3E1,5E0,1E0,2.8E2,5E0],"tree_param":{"num_deleted":"0","num_feature":"6","num_nodes":"15","size_leaf_vector":"1"}},{"base_weights":[-3.377818E-1,-7.108778E-1,7.495469E0,-3.0131674E0,1.3261713E0,2.2663214E0,7.274373E0,-1.3717687E0,-2.1350053E-1,-1.9468739E0,4.2272893E-1,5.1831436E0,-1.2985472E-1],"categories":[],"categories_nodes":[],"categories_segments":[],"categories_sizes":[],"default_left":[0,0,0,0,0,0,0,0,0,0,0,0,0],"id":49,"left_children":[1,3,5,7,9,11,-1,-1,-1,-1,-1,-1,-1],"loss_changes":[1.2854073E3,1.9690544E3,2.9375483E3,1.4667103E3,1.9628785E3,1.2579636E3,0E0,0E0,0E0,0E0,0E0,0E0,0E0],"parents":[2147483647,0,0,1,1,2,2,3,3,4,4,5,5],"right_children":[2,4,6,8,10,12,-1,-1,-1,-1,-1,-1,-1],"split_conditions":[5.8111614E1,3.735144E1,1.39016E1,3.4432335E1,5.87E0,8.91386E0,7.274373E0,-1.3717687E0,-2.1350053E-1,-1.9468739E0,4.2272893E-1,5.1831436E0,-1.2985472E-1],"split_indices":[5,4,3,3,1,4,0,0,0,0,0,0,0],"split_type":[0,0,0,0,0,0,0,0,0,0,0,0,0],"sum_hessian":[4.37E2,4.18E2,1.9E1,1.96E2,2.22E2,1.7E1,2E0,6.5E1,1.31E2,1.4E1,2.08E2,1E0,1.6E1],"tree_param":{"num_deleted":"0","num_feature":"6","num_nodes":"13","size_leaf_vector":"1"}}]},"name":"gbtree"},"learner_model_param":{"base_score":"5.8844406E1","boost_from_average":"1","num_class":"0","num_feature":"6","num_target":"1"},"objective":{"name":"reg:squarederror","reg_loss_param":{"scale_pos_weight":"1"}}},"version":[2,1,1]}