{"learner":{"attributes":{"scikit_learn":"{\"_estimator_type\": \"regressor\"}"},"feature_names":["BD_P_mg_kg","pH","TOC_g_kg","% Clay","% Silt","% Sand"],"feature_types":["float","float","float","float","float","float"],"gradient_booster":{"model":{"gbtree_model_param":{"num_parallel_tree":"1","num_trees":"50"},"iteration_indptr":[0,1,2,3,4,5,6,7,8,9,10,11,12,13,14,15,16,17,18,19,20,21,22,23,24,25,26,27,28,29,30,31,32,33,34,35,36,37,38,39,40,41,42,43,44,45,46,47,48,49,50],"tree_info":[0,0,0,0,0,0,0,0,0,0,0,0,0,0,0,0,0,0,0,0,0,0,0,0,0,0,0,0,0,0,0,0,0,0,0,0,0,0,0,0,0,0,0,0,0,0,0,0,0,0],"trees":[{"base_weights":[-7.589273E-1,-1.3279588E2,5.182552E1,-1.8314397E2,-6.2260075E1,6.326074E0,1.2866594E2,-2.0352058E2,-1.1329883E1,5.1274695E0,-1.5232216E2,-2.6586111E1,1.2132104E2,-9.821536E0,1.7796506E2,-2.3304285E1,-1.4074878E1,-2.2410543E1,-7.382731E0,-4.8959797E1,8.550403E0,1.5851666E1,6.217546E0,2.7088027E0,-5.254906E0,2.3812518E2,1.14123535E2,6.3447304E0,-6.309692E1,2.814093E1,1.565465E1,6.8454585E0,1.3177057E2,-1.1382774E1,-2.4537601E0,9.698913E0,1.526727E1],"categories":[],"categories_nodes":[],"categories_segments":[],"categories_sizes":[],"default_left":[0,0,0,0,0,0,0,0,0,0,0,0,0,0,0,0,0,0,0,0,0,0,0,0,0,0,0,0,0,0,0,0,0,0,0,0,0],"id":0,"left_children":[1,3,5,7,9,11,13,15,-1,-1,17,19,21,23,25,-1,-1,-1,-1,27,-1,-1,-1,-1,-1,29,31,-1,33,-1,-1,-1,35,-1,-1,-1,-1],"loss_changes":[2.1939555E6,3.0821838E5,7.8932644E5,5.0948125E4,4.0659212E5,5.444426E5,5.75242E5,3.9473125E4,0E0,0E0,1.074165E5,2.8506766E5,6.0542812E4,3.76957E4,2.1094862E5,0E0,0E0,0E0,0E0,1.5337994E5,0E0,0E0,0E0,0E0,0E0,6.540925E4,1.6769219E4,0E0,1.6152322E5,0E0,0E0,0E0,1.1865E3,0E0,0E0,0E0,0E0],"parents":[2147483647,0,0,1,1,2,2,3,3,4,4,5,5,6,6,7,7,10,10,11,11,12,12,13,13,14,14,19,19,25,25,26,26,28,28,32,32],"right_children":[2,4,6,8,10,12,14,16,-1,-1,18,20,22,24,26,-1,-1,-1,-1,28,-1,-1,-1,-1,-1,30,32,-1,34,-1,-1,-1,36,-1,-1,-1,-1],"split_conditions":[2.191911E1,1.5199386E1,3.9412334E1,4.630467E1,6.41E0,1.1454298E2,1.2690376E1,1.1265712E1,-1.1329883E1,5.1274695E0,2.4560667E1,7.93E0,3.8072044E1,4.1998238E1,2.0296667E1,-2.3304285E1,-1.4074878E1,-2.2410543E1,-7.382731E0,5.9E0,8.550403E0,1.5851666E1,6.217546E0,2.7088027E0,-5.254906E0,5.1804333E1,6.68E0,6.3447304E0,6.68E0,2.814093E1,1.565465E1,6.8454585E0,2.2785484E1,-1.1382774E1,-2.4537601E0,9.698913E0,1.526727E1],"split_indices":[0,0,3,3,1,0,5,0,0,0,3,1,5,4,5,0,0,0,0,1,0,0,0,0,0,3,1,0,1,0,0,0,5,0,0,0,0],"split_type":[0,0,0,0,0,0,0,0,0,0,0,0,0,0,0,0,0,0,0,0,0,0,0,0,0,0,0,0,0,0,0,0,0,0,0,0,0],"sum_hessian":[3.14E2,8.9E1,2.25E2,5.1E1,3.8E1,1.42E2,8.3E1,3.8E1,1.3E1,1.7E1,2.1E1,1.11E2,3.1E1,2.2E1,6.1E1,2.4E1,1.4E1,1E1,1.1E1,9.3E1,1.8E1,1.8E1,1.3E1,1.2E1,1E1,3E1,3.1E1,1E1,8.3E1,1.8E1,1.2E1,1E1,2.1E1,3.5E1,4.8E1,1E1,1.1E1],"tree_param":{"num_deleted":"0","num_feature":"6","num_nodes":"37","size_leaf_vector":"1"}},{"base_weights":[5.8289236E-1,-1.3535239E2,2.1934477E1,-6.103061E0,-1.804771E2,5.3917747E1,-6.1172E1,-2.2105839E1,-1.3280191E1,9.943234E1,-9.338786E0,-1.2650575E2,2.185393E1,-6.4363976E0,1.18282074E2,-8.1585495E1,6.494756E1,-1.7851595E1,-8.607859E1,-1.8601776E0,6.6000733E0,9.458238E-1,1.3609473E2,-1.17300705E2,2.648333E0,-1.5623041E0,1.2517901E2,-1.1213935E1,-4.271587E0,1.5583664E1,-1.0881461E0,-6.0872097E0,-1.4529284E1,1.6479631E1,7.5130115E0],"categories":[],"categories_nodes":[],"categories_segments":[],"categories_sizes":[],"default_left":[0,0,0,0,0,0,0,0,0,0,0,0,0,0,0,0,0,0,0,0,0,0,0,0,0,0,0,0,0,0,0,0,0,0,0],"id":1,"left_children":[1,3,5,-1,7,9,11,-1,-1,13,15,17,19,-1,21,23,25,-1,27,-1,-1,-1,29,31,-1,-1,33,-1,-1,-1,-1,-1,-1,-1,-1],"loss_changes":[8.766014E5,1.26489E5,6.9704075E5,0E0,1.9011062E4,5.450775E5,3.987455E5,0E0,0E0,3.4724E5,4.3465428E5,7.084125E4,6.01654E4,0E0,1.9061838E5,1.6135425E5,1.9607105E5,0E0,2.3461531E4,0E0,0E0,0E0,2.48331E5,4.012197E4,0E0,0E0,3.322328E4,0E0,0E0,0E0,0E0,0E0,0E0,0E0,0E0],"parents":[2147483647,0,0,1,1,2,2,4,4,5,5,6,6,9,9,10,10,11,11,12,12,14,14,15,15,16,16,18,18,22,22,23,23,26,26],"right_children":[2,4,6,-1,8,10,12,-1,-1,14,16,18,20,-1,22,24,26,-1,28,-1,-1,-1,30,32,-1,-1,34,-1,-1,-1,-1,-1,-1,-1,-1],"split_conditions":[1.4614058E1,3.2576653E1,3.480312E1,-6.103061E0,9.109748E0,4.1763763E1,5.1802383E1,-2.2105839E1,-1.3280191E1,1.714E1,6.64E0,2.5523603E1,7.33E0,-6.4363976E0,2.4199505E1,9.127377E1,6.382879E1,-1.7851595E1,3.6902645E1,-1.8601776E0,6.6000733E0,9.458238E-1,7.2E0,4.7043076E1,2.648333E0,-1.5623041E0,2.4688168E1,-1.1213935E1,-4.271587E0,1.5583664E1,-1.0881461E0,-6.0872097E0,-1.4529284E1,1.6479631E1,7.5130115E0],"split_indices":[0,4,5,0,0,4,0,0,0,2,1,0,1,0,4,0,0,0,4,0,0,0,1,4,0,0,3,0,0,0,0,0,0,0,0],"split_type":[0,0,0,0,0,0,0,0,0,0,0,0,0,0,0,0,0,0,0,0,0,0,0,0,0,0,0,0,0,0,0,0,0,0,0],"sum_hessian":[3E2,4E1,2.6E2,1.6E1,2.4E1,1.88E2,7.2E1,1.1E1,1.3E1,1.09E2,7.9E1,4E1,3.2E1,1.1E1,9.8E1,4E1,3.9E1,1.6E1,2.4E1,1.7E1,1.5E1,1.4E1,8.4E1,3E1,1E1,1.7E1,2.2E1,1.4E1,1E1,7.4E1,1E1,1.1E1,1.9E1,1.1E1,1.1E1],"tree_param":{"num_deleted":"0","num_feature":"6","num_nodes":"35","size_leaf_vector":"1"}},{"base_weights":[1.3846499E0,-1.3214258E2,2.728775E1,-1.6558371E2,-5.3552957E0,1.3836377E1,2.703458E1,-2.0536413E1,-1.1918206E1,2.3717367E1,1.8313524E0,3.2644894E1,-6.0198757E1,6.7035576E1,-1.067287E1,-8.766488E1,4.080294E0,-4.846127E0,8.352216E0,-6.827347E0,6.9569025E0,-1.5056983E1,-6.8677936E0],"categories":[],"categories_nodes":[],"categories_segments":[],"categories_sizes":[],"default_left":[0,0,0,0,0,0,0,0,0,0,0,0,0,0,0,0,0,0,0,0,0,0,0],"id":2,"left_children":[1,3,5,7,-1,9,-1,-1,-1,-1,11,13,15,17,19,21,-1,-1,-1,-1,-1,-1,-1],"loss_changes":[1.1069532E6,1.2779506E5,8.72476E5,4.1975875E4,0E0,6.832639E5,0E0,0E0,0E0,0E0,4.6642747E5,2.4354103E5,2.282811E5,1.7732506E5,3.421543E5,6.6099E4,0E0,0E0,0E0,0E0,0E0,0E0,0E0],"parents":[2147483647,0,0,1,1,2,2,3,3,5,5,10,10,11,11,12,12,13,13,14,14,15,15],"right_children":[2,4,6,8,-1,10,-1,-1,-1,-1,12,14,16,18,20,22,-1,-1,-1,-1,-1,-1,-1],"split_conditions":[1.5199386E1,4.3033E1,1.5976138E2,9.844854E0,-5.3552957E0,5.53E0,2.703458E1,-2.0536413E1,-1.1918206E1,2.3717367E1,3.3037205E1,4.2466473E1,1.0543047E2,1.714E1,6.79E0,2.7902666E1,4.080294E0,-4.846127E0,8.352216E0,-6.827347E0,6.9569025E0,-1.5056983E1,-6.8677936E0],"split_indices":[0,3,0,0,0,1,0,0,0,0,5,4,0,2,1,4,0,0,0,0,0,0,0],"split_type":[0,0,0,0,0,0,0,0,0,0,0,0,0,0,0,0,0,0,0,0,0,0,0],"sum_hessian":[3.18E2,5.1E1,2.67E2,3.5E1,1.6E1,2.54E2,1.3E1,1.7E1,1.8E1,1.2E1,2.42E2,1.62E2,8E1,9E1,7.2E1,6.3E1,1.7E1,1.1E1,7.9E1,4.2E1,3E1,1.3E1,5E1],"tree_param":{"num_deleted":"0","num_feature":"6","num_nodes":"23","size_leaf_vector":"1"}},{"base_weights":[4.5822033E-1,-7.571496E1,3.684247E1,-1.0716526E2,1.3456163E0,2.426634E1,2.5699854E1,-2.0033113E1,-9.00139E1,9.024245E0,-5.650461E0,1.9827879E1,1.4717556E1,-1.7835917E1,-6.0532764E1,-1.7903324E1,6.407127E1,1.983909E0,-9.147993E1,-7.249163E1,3.033948E1,-1.08300705E1,1.1848565E2,-4.2894764E0,-1.0788574E1,-4.4921355E0,-1.0248263E1,1.2830345E1,-3.5750613E-1,-3.645274E0,3.0207703E0,6.352846E0,1.6043074E1],"categories":[],"categories_nodes":[],"categories_segments":[],"categories_sizes":[],"default_left":[0,0,0,0,0,0,0,0,0,0,0,0,0,0,0,0,0,0,0,0,0,0,0,0,0,0,0,0,0,0,0,0,0],"id":3,"left_children":[1,3,5,7,9,11,-1,-1,13,-1,-1,-1,15,-1,17,19,21,-1,23,25,27,29,31,-1,-1,-1,-1,-1,-1,-1,-1,-1,-1],"loss_changes":[9.1738575E5,2.5946706E5,6.139548E5,1.0340944E5,1.696656E5,3.5100422E5,0E0,0E0,1.6110169E5,0E0,0E0,0E0,3.2796928E5,0E0,1.2866619E5,3.2611897E5,3.3141572E5,0E0,2.4864219E4,4.335428E4,2.1973731E5,3.790356E4,9.815175E4,0E0,0E0,0E0,0E0,0E0,0E0,0E0,0E0,0E0,0E0],"parents":[2147483647,0,0,1,1,2,2,3,3,4,4,5,5,8,8,12,12,14,14,15,15,16,16,18,18,19,19,20,20,21,21,22,22],"right_children":[2,4,6,8,10,12,-1,-1,14,-1,-1,-1,16,-1,18,20,22,-1,24,26,28,30,32,-1,-1,-1,-1,-1,-1,-1,-1,-1,-1],"split_conditions":[2.191911E1,4.630467E1,1.7863829E2,2.8079172E1,5.6772E1,5.56E0,2.5699854E1,-2.0033113E1,1.694473E1,9.024245E0,-5.650461E0,1.9827879E1,3.8985E1,-1.7835917E1,6.42E0,6.86E0,1.4546667E1,1.983909E0,3.426342E1,4.6452698E1,2.5313011E1,6.48E0,4.844492E1,-4.2894764E0,-1.0788574E1,-4.4921355E0,-1.0248263E1,1.2830345E1,-3.5750613E-1,-3.645274E0,3.0207703E0,6.352846E0,1.6043074E1],"split_indices":[0,3,0,4,3,1,0,0,5,0,0,0,3,0,1,1,5,0,4,4,5,1,0,0,0,0,0,0,0,0,0,0,0],"split_type":[0,0,0,0,0,0,0,0,0,0,0,0,0,0,0,0,0,0,0,0,0,0,0,0,0,0,0,0,0,0,0,0,0],"sum_hessian":[3.29E2,1.06E2,2.23E2,7.5E1,3.1E1,2.12E2,1.1E1,1E1,6.5E1,1.2E1,1.9E1,1E1,2.02E2,1.5E1,5E1,1.22E2,8E1,1.4E1,3.6E1,5.7E1,6.5E1,3.4E1,4.6E1,1E1,2.6E1,3.1E1,2.6E1,1.6E1,4.9E1,2.1E1,1.3E1,2.1E1,2.5E1],"tree_param":{"num_deleted":"0","num_feature":"6","num_nodes":"33","size_leaf_vector":"1"}},{"base_weights":[-3.6075718E0,-1.1635248E2,1.6867865E1,-1.3216357E2,-5.9969E0,4.3477856E1,-4.5003147E1,-1.7150564E1,-1.10582565E2,-1.230597E1,7.2978676E1,-1.0876544E2,2.6077503E1,-1.4169626E1,-5.728962E0,-4.919753E1,3.1887316E1,4.1422836E1,1.3512703E2,-8.421932E1,-1.69249E1,-1.3585936E1,6.449915E1,-7.616751E1,2.3925848E0,9.366802E-1,9.088974E0,7.18537E0,9.208463E1,7.233379E1,3.1122252E1,-1.2587703E1,-4.876508E0,5.659761E-1,-3.1596549E0,8.950576E0,3.3628995E0,-3.8584747E0,-1.2306247E1,4.499962E0,-3.9532406E0,-3.9392335E0,5.3496947E0,6.2383304E0,1.1124147E1,1.6470137E0,1.1262963E1],"categories":[],"categories_nodes":[],"categories_segments":[],"categories_sizes":[],"default_left":[0,0,0,0,0,0,0,0,0,0,0,0,0,0,0,0,0,0,0,0,0,0,0,0,0,0,0,0,0,0,0,0,0,0,0,0,0,0,0,0,0,0,0,0,0,0,0],"id":4,"left_children":[1,3,5,7,-1,9,11,-1,13,15,17,19,21,-1,-1,23,25,27,29,31,-1,33,35,37,-1,39,-1,41,43,45,-1,-1,-1,-1,-1,-1,-1,-1,-1,-1,-1,-1,-1,-1,-1,-1,-1],"loss_changes":[7.660765E5,3.754E4,4.6459138E5,1.41470625E4,0E0,3.2509478E5,3.8807894E5,0E0,3.831025E4,1.14063555E5,2.4739025E5,5.2554625E4,6.335761E4,0E0,0E0,7.6763555E4,5.8352066E4,1.502426E5,4.5296512E5,4.407764E4,0E0,7.457991E3,1.3201133E4,4.460003E4,0E0,4.1009055E4,0E0,1.1643298E5,1.29748125E4,7.2430375E4,0E0,0E0,0E0,0E0,0E0,0E0,0E0,0E0,0E0,0E0,0E0,0E0,0E0,0E0,0E0,0E0,0E0],"parents":[2147483647,0,0,1,1,2,2,3,3,5,5,6,6,8,8,9,9,10,10,11,11,12,12,15,15,16,16,17,17,18,18,19,19,21,21,22,22,23,23,25,25,27,27,28,28,29,29],"right_children":[2,4,6,8,-1,10,12,-1,14,16,18,20,22,-1,-1,24,26,28,30,32,-1,34,36,38,-1,40,-1,42,44,46,-1,-1,-1,-1,-1,-1,-1,-1,-1,-1,-1,-1,-1,-1,-1,-1,-1],"split_conditions":[1.5199386E1,1.3216875E1,3.3037205E1,1.117E1,-5.9969E0,1.6030539E1,5.7323532E1,-1.7150564E1,6.54E0,4.9264668E1,4.4606335E1,5.6377205E1,1.07855606E2,-1.4169626E1,-5.728962E0,1.13885925E2,6.25E0,6.400888E1,3.055198E1,3.8105698E1,-1.69249E1,1.8016E1,1.30783E2,4.8377537E1,2.3925848E0,5.88E0,9.088974E0,2.4790646E1,2.1381397E1,2.49253E1,3.1122252E1,-1.2587703E1,-4.876508E0,5.659761E-1,-3.1596549E0,8.950576E0,3.3628995E0,-3.8584747E0,-1.2306247E1,4.499962E0,-3.9532406E0,-3.9392335E0,5.3496947E0,6.2383304E0,1.1124147E1,1.6470137E0,1.1262963E1],"split_indices":[0,0,5,2,0,5,0,0,1,3,3,5,0,0,0,0,1,0,4,5,0,3,0,4,0,1,0,5,5,4,0,0,0,0,0,0,0,0,0,0,0,0,0,0,0,0,0],"split_type":[0,0,0,0,0,0,0,0,0,0,0,0,0,0,0,0,0,0,0,0,0,0,0,0,0,0,0,0,0,0,0,0,0,0,0,0,0,0,0,0,0,0,0,0,0,0,0],"sum_hessian":[3.3E2,5E1,2.8E2,3.8E1,1.2E1,1.96E2,8.4E1,1.1E1,2.7E1,6.8E1,1.28E2,4.4E1,4E1,1.6E1,1.1E1,3.7E1,3.1E1,8.6E1,4.2E1,3.3E1,1.1E1,2E1,2E1,2.7E1,1E1,2.1E1,1E1,5.2E1,3.4E1,3.2E1,1E1,1.4E1,1.9E1,1E1,1E1,1E1,1E1,1.6E1,1.1E1,1E1,1.1E1,2.6E1,2.6E1,1.5E1,1.9E1,1.4E1,1.8E1],"tree_param":{"num_deleted":"0","num_feature":"6","num_nodes":"47","size_leaf_vector":"1"}},{"base_weights":[6.11307E0,-1.1718245E2,2.292436E1,-5.286241E0,-1.3975687E2,1.348839E1,1.9690512E1,-1.5625811E1,-1.0335861E1,-1.5167743E1,5.900104E1,-3.346939E1,8.0150345E1,-8.405493E0,7.775861E1,-2.3672754E1,-1.4007606E1,1.3477488E1,3.0758526E0,9.649237E1,-3.2409605E-1,-3.3863895E0,7.378816E0,2.0093374E0,1.1907718E1],"categories":[],"categories_nodes":[],"categories_segments":[],"categories_sizes":[],"default_left":[0,0,0,0,0,0,0,0,0,0,0,0,0,0,0,0,0,0,0,0,0,0,0,0,0],"id":5,"left_children":[1,3,5,-1,7,9,-1,-1,-1,11,13,15,17,-1,19,21,-1,-1,-1,23,-1,-1,-1,-1,-1],"loss_changes":[6.908416E5,5.0691562E4,4.7835544E5,0E0,1.26725E3,3.647713E5,0E0,0E0,0E0,3.027328E5,2.963413E5,1.4812006E5,7.139866E4,0E0,1.4598562E5,1.3559262E5,0E0,0E0,0E0,1.3219294E5,0E0,0E0,0E0,0E0,0E0],"parents":[2147483647,0,0,1,1,2,2,4,4,5,5,9,9,10,10,11,11,12,12,14,14,15,15,19,19],"right_children":[2,4,6,-1,8,10,-1,-1,-1,12,14,16,18,-1,20,22,-1,-1,-1,24,-1,-1,-1,-1,-1],"split_conditions":[1.231875E1,2.2399902E1,1.7863829E2,-5.286241E0,8.586081E0,3.8985E1,1.9690512E1,-1.5625811E1,-1.0335861E1,1.02813896E2,1.648E1,5.683656E1,2.6146236E1,-8.405493E0,9.6377655E1,8.25E0,-1.4007606E1,1.3477488E1,3.0758526E0,2.4130333E1,-3.2409605E-1,-3.3863895E0,7.378816E0,2.0093374E0,1.1907718E1],"split_indices":[0,4,0,0,0,3,0,0,0,0,2,5,5,0,0,1,0,0,0,4,0,0,0,0,0],"split_type":[0,0,0,0,0,0,0,0,0,0,0,0,0,0,0,0,0,0,0,0,0,0,0,0,0],"sum_hessian":[3.31E2,3.9E1,2.92E2,1.1E1,2.8E1,2.78E2,1.4E1,1.7E1,1.1E1,1.71E2,1.07E2,1.44E2,2.7E1,1.2E1,9.5E1,1.33E2,1.1E1,1.2E1,1.5E1,7.7E1,1.8E1,1.21E2,1.2E1,1.8E1,5.9E1],"tree_param":{"num_deleted":"0","num_feature":"6","num_nodes":"25","size_leaf_vector":"1"}},{"base_weights":[-6.760582E-2,-3.4054794E1,5.453532E1,-6.389221E1,4.980058E1,-7.8171074E-2,9.246244E1,-1.4425524E1,-5.2092E1,-5.898628E0,1.20286476E2,1.1585653E1,-3.8721066E1,6.899582E1,1.7028337E1,-6.411364E1,2.024863E0,7.463369E0,-4.9896474E0,1.640534E1,6.64957E0,-8.108685E1,1.5210508E0,9.968031E1,2.573246E1,-7.508463E1,4.14512E0,-5.222471E0,-1.0078658E1,1.3691904E1,7.4837364E1,7.588342E0,-1.2760414E0,-1.0358195E1,-4.3310237E0,1.1263495E1,2.6800225E0],"categories":[],"categories_nodes":[],"categories_segments":[],"categories_sizes":[],"default_left":[0,0,0,0,0,0,0,0,0,0,0,0,0,0,0,0,0,0,0,0,0,0,0,0,0,0,0,0,0,0,0,0,0,0,0,0,0],"id":6,"left_children":[1,3,5,7,9,11,13,-1,15,17,19,-1,21,23,-1,25,-1,-1,-1,-1,-1,27,-1,29,31,33,-1,-1,-1,-1,35,-1,-1,-1,-1,-1,-1],"loss_changes":[5.901458E5,4.935792E5,2.5270981E5,1.2998906E5,2.0486197E5,2.3296877E5,1.1973706E5,0E0,1.1261372E5,1.1002141E5,4.323903E4,0E0,9.034266E4,7.310334E4,0E0,1.3050903E5,0E0,0E0,0E0,0E0,0E0,7.2451406E3,0E0,2.0282281E4,4.922968E4,8.606244E4,0E0,0E0,0E0,0E0,3.69265E4,0E0,0E0,0E0,0E0,0E0,0E0],"parents":[2147483647,0,0,1,1,2,2,3,3,4,4,5,5,6,6,8,8,9,9,10,10,12,12,13,13,15,15,21,21,23,23,24,24,25,25,30,30],"right_children":[2,4,6,8,10,12,14,-1,16,18,20,-1,22,24,-1,26,-1,-1,-1,-1,-1,28,-1,30,32,34,-1,-1,-1,-1,36,-1,-1,-1,-1,-1,-1],"split_conditions":[6.1411884E1,4.7161667E1,6.81E0,1.4687097E1,2.0367598E1,7.856089E1,1.3852884E2,-1.4425524E1,3.8395E1,5.76E0,6.12E0,1.1585653E1,1.16323044E2,2.6146236E1,1.7028337E1,7.93E0,2.024863E0,7.463369E0,-4.9896474E0,1.640534E1,6.64957E0,6.37E0,1.5210508E0,3.7017033E1,3.2264248E1,2.6006332E1,4.14512E0,-5.222471E0,-1.0078658E1,1.3691904E1,3.4243332E1,7.588342E0,-1.2760414E0,-1.0358195E1,-4.3310237E0,1.1263495E1,2.6800225E0],"split_indices":[0,3,1,5,0,0,0,0,3,1,1,0,0,5,0,1,0,0,0,0,0,1,0,4,4,3,0,0,0,0,3,0,0,0,0,0,0],"split_type":[0,0,0,0,0,0,0,0,0,0,0,0,0,0,0,0,0,0,0,0,0,0,0,0,0,0,0,0,0,0,0,0,0,0,0,0,0],"sum_hessian":[3.16E2,1.95E2,1.21E2,1.44E2,5.1E1,5E1,7.1E1,1.7E1,1.27E2,2.9E1,2.2E1,1.2E1,3.8E1,5.6E1,1.5E1,1.09E2,1.8E1,1E1,1.9E1,1.1E1,1.1E1,2.1E1,1.7E1,3.2E1,2.4E1,9.9E1,1E1,1E1,1.1E1,1.1E1,2.1E1,1E1,1.4E1,5.1E1,4.8E1,1.1E1,1E1],"tree_param":{"num_deleted":"0","num_feature":"6","num_nodes":"37","size_leaf_vector":"1"}},{"base_weights":[4.213357E0,-8.031833E1,2.90994E1,-1.3151865E2,-2.073214E1,1.5553027E1,1.27591736E2,-1.5835854E1,-9.944481E0,1.5439867E1,-8.833414E0,-4.062501E1,4.2753788E1,8.772956E0,1.7675236E1,-2.1316984E0,5.7476153E0,-8.561251E1,1.240983E1,1.4687748E1,7.860556E1,-6.8525154E1,-1.2132463E1,4.6468506E1,-4.3562636E0,3.763428E1,-4.5811367E1,9.157947E1,8.948971E-1,-1.1549556E1,-3.6014073E0,6.556251E0,2.3150098E0,-5.715339E0,5.7734885E0,-7.8205605E0,-1.4876908E0,1.273951E1,7.2648516E0],"categories":[],"categories_nodes":[],"categories_segments":[],"categories_sizes":[],"default_left":[0,0,0,0,0,0,0,0,0,0,0,0,0,0,0,0,0,0,0,0,0,0,0,0,0,0,0,0,0,0,0,0,0,0,0,0,0,0,0],"id":7,"left_children":[1,3,5,7,9,11,13,-1,-1,15,-1,17,19,-1,-1,-1,-1,21,23,25,27,29,-1,31,-1,33,35,37,-1,-1,-1,-1,-1,-1,-1,-1,-1,-1,-1],"loss_changes":[6.565751E5,2.1388238E5,3.195611E5,1.6964688E4,8.450406E4,3.2721906E5,4.1323375E4,0E0,0E0,3.676301E4,0E0,1.6807577E5,1.4374075E5,0E0,0E0,0E0,0E0,1.4874781E4,6.4933777E4,1.15560164E5,5.611472E4,3.859817E4,0E0,7.832297E3,0E0,1.1761709E5,2.1884793E4,2.6680188E4,0E0,0E0,0E0,0E0,0E0,0E0,0E0,0E0,0E0,0E0,0E0],"parents":[2147483647,0,0,1,1,2,2,3,3,4,4,5,5,6,6,9,9,11,11,12,12,17,17,18,18,19,19,20,20,21,21,23,23,25,25,26,26,27,27],"right_children":[2,4,6,8,10,12,14,-1,-1,16,-1,18,20,-1,-1,-1,-1,22,24,26,28,30,-1,32,-1,34,36,38,-1,-1,-1,-1,-1,-1,-1,-1,-1,-1,-1],"split_conditions":[1.7865524E1,3.3862686E1,1.3852884E2,6.7E0,3.0737204E1,2.9846666E1,1.8521548E2,-1.5835854E1,-9.944481E0,7.73E0,-8.833414E0,5.95942E1,6.47E0,8.772956E0,1.7675236E1,-2.1316984E0,5.7476153E0,2.1980917E1,2.2344334E1,3.8871773E1,5.3821335E1,2.4199505E1,-1.2132463E1,3.674456E1,-4.3562636E0,1.6482635E1,1.3564838E1,1.9461613E1,8.948971E-1,-1.1549556E1,-3.6014073E0,6.556251E0,2.3150098E0,-5.715339E0,5.7734885E0,-7.8205605E0,-1.4876908E0,1.273951E1,7.2648516E0],"split_indices":[2,0,0,1,5,3,0,0,0,1,0,0,1,0,0,0,0,3,3,4,3,4,0,4,0,0,5,5,0,0,0,0,0,0,0,0,0,0,0],"split_type":[0,0,0,0,0,0,0,0,0,0,0,0,0,0,0,0,0,0,0,0,0,0,0,0,0,0,0,0,0,0,0,0,0,0,0,0,0,0,0],"sum_hessian":[3.1E2,7E1,2.4E2,3.7E1,3.3E1,2.12E2,2.8E1,1.8E1,1.9E1,2.2E1,1.1E1,6.9E1,1.43E2,1.7E1,1.1E1,1.2E1,1E1,3.7E1,3.2E1,8.1E1,6.2E1,2.7E1,1E1,2E1,1.2E1,5.9E1,2.2E1,5.2E1,1E1,1E1,1.7E1,1E1,1E1,1E1,4.9E1,1E1,1.2E1,1.6E1,3.6E1],"tree_param":{"num_deleted":"0","num_feature":"6","num_nodes":"39","size_leaf_vector":"1"}},{"base_weights":[6.7880135E0,1.7180418E1,-7.332905E-1,-2.6780416E1,4.0581554E1,-8.947737E1,-1.2729113E1,-1.0754856E1,7.255926E1,-1.2584877E1,-5.8958294E1,-9.053312E1,2.9226115E0,4.708856E0,-2.6392923E1,1.2128159E2,1.9477852E1,-2.8832023E0,-8.166086E0,-1.3942232E1,-2.3397717E0,2.3124058E1,-4.023875E1,-4.9783478E1,2.0602643E0,1.9125292E1,6.884983E1,-2.8048937E0,3.9150837E1,-8.09153E-1,9.552184E0,-7.153445E0,2.0955594E0,-2.5552604E0,-7.045839E0,1.0339523E1,1.5483392E0,7.2099442E0,9.933174E-1],"categories":[],"categories_nodes":[],"categories_segments":[],"categories_sizes":[],"default_left":[0,0,0,0,0,0,0,0,0,0,0,0,0,0,0,0,0,0,0,0,0,0,0,0,0,0,0,0,0,0,0,0,0,0,0,0,0,0,0],"id":8,"left_children":[1,-1,3,5,7,9,11,13,15,-1,17,19,21,-1,23,25,27,-1,-1,-1,-1,29,31,33,-1,-1,35,-1,37,-1,-1,-1,-1,-1,-1,-1,-1,-1,-1],"loss_changes":[4.2707697E5,0E0,3.562107E5,1.7769875E5,2.1090783E5,3.365097E4,2.0363166E5,4.647076E4,2.0195138E5,0E0,1.26923125E4,8.86393E4,1.2299955E5,0E0,4.499577E4,1.3724981E5,3.75629E4,0E0,0E0,0E0,0E0,2.177271E5,8.7679414E4,1.172582E4,0E0,0E0,4.448821E4,0E0,2.6238902E4,0E0,0E0,0E0,0E0,0E0,0E0,0E0,0E0,0E0,0E0],"parents":[2147483647,0,0,2,2,3,3,4,4,5,5,6,6,7,7,8,8,10,10,11,11,12,12,14,14,15,15,16,16,21,21,22,22,23,23,26,26,28,28],"right_children":[2,-1,4,6,8,10,12,14,16,-1,18,20,22,-1,24,26,28,-1,-1,-1,-1,30,32,34,-1,-1,36,-1,38,-1,-1,-1,-1,-1,-1,-1,-1,-1,-1],"split_conditions":[5.44E0,1.7180418E1,6.1411884E1,1.9626333E1,6.67E0,2.5523603E1,1.355E1,3.3513355E1,2.488527E1,-1.2584877E1,7.24E0,7.1E0,4.1040314E1,4.708856E0,4.5903564E1,3.8608765E1,8.4589455E1,-2.8832023E0,-8.166086E0,-1.3942232E1,-2.3397717E0,3.4869045E1,6.54E0,6.21E0,2.0602643E0,1.9125292E1,3.4243332E1,-2.8048937E0,1.1997556E2,-8.09153E-1,9.552184E0,-7.153445E0,2.0955594E0,-2.5552604E0,-7.045839E0,1.0339523E1,1.5483392E0,7.2099442E0,9.933174E-1],"split_indices":[1,0,0,3,1,0,2,4,5,0,1,1,4,0,4,4,0,0,0,0,0,4,1,1,0,0,3,0,0,0,0,0,0,0,0,0,0,0,0],"split_type":[0,0,0,0,0,0,0,0,0,0,0,0,0,0,0,0,0,0,0,0,0,0,0,0,0,0,0,0,0,0,0,0,0,0,0,0,0,0,0],"sum_hessian":[3.43E2,1.4E1,3.29E2,2.02E2,1.27E2,3.6E1,1.66E2,4.9E1,7.8E1,1.5E1,2.1E1,2.7E1,1.39E2,1E1,3.9E1,4E1,3.8E1,1E1,1.1E1,1.5E1,1.2E1,9.5E1,4.4E1,2.6E1,1.3E1,1.6E1,2.4E1,1.1E1,2.7E1,6.7E1,2.8E1,2.9E1,1.5E1,1.3E1,1.3E1,1.4E1,1E1,1.2E1,1.5E1],"tree_param":{"num_deleted":"0","num_feature":"6","num_nodes":"39","size_leaf_vector":"1"}},{"base_weights":[-7.15749E0,-5.7131268E1,1.3530149E1,-1.0206388E2,-4.0023346E1,3.4291767E1,-4.684023E1,-1.1952009E1,-6.8981423E0,-1.085626E1,-2.2173828E1,1.7170858E1,1.5332047E2,-1.0549663E1,-2.9245153E1,-6.262738E0,-8.487234E0,8.934031E1,-1.9344299E0,9.700912E0,1.9569359E1,-3.2862327E0,-5.09192E1,-5.266272E0,1.46548195E1,1.5396651E0,1.3523122E1,-3.0575834E1,3.500612E1,-4.3467994E0,4.0847163E0,-2.7395713E0,-7.8367662E0,3.8608854E0,-2.8052588E0,-5.3722854E0,5.3248696E0,1.0363762E1,-1.290258E-1],"categories":[],"categories_nodes":[],"categories_segments":[],"categories_sizes":[],"default_left":[0,0,0,0,0,0,0,0,0,0,0,0,0,0,0,0,0,0,0,0,0,0,0,0,0,0,0,0,0,0,0,0,0,0,0,0,0,0,0],"id":9,"left_children":[1,3,5,7,9,11,13,-1,-1,-1,15,17,19,-1,21,-1,23,25,27,-1,-1,29,31,-1,33,-1,-1,35,37,-1,-1,-1,-1,-1,-1,-1,-1,-1,-1],"loss_changes":[3.2850006E5,6.74045E4,2.8361825E5,6.1927188E3,8.2006836E4,3.397312E5,5.677443E4,0E0,0E0,0E0,3.0474066E4,2.0423792E5,3.1123781E4,0E0,2.5713871E4,0E0,4.4731156E4,1.031115E5,1.2591778E5,0E0,0E0,4.0789402E4,1.3995145E4,0E0,3.07505E4,0E0,0E0,1.3285998E5,1.2966961E5,0E0,0E0,0E0,0E0,0E0,0E0,0E0,0E0,0E0,0E0],"parents":[2147483647,0,0,1,1,2,2,3,3,4,4,5,5,6,6,10,10,11,11,12,12,14,14,16,16,17,17,18,18,21,21,22,22,24,24,27,27,28,28],"right_children":[2,4,6,8,10,12,14,-1,-1,-1,16,18,20,-1,22,-1,24,26,28,-1,-1,30,32,-1,34,-1,-1,36,38,-1,-1,-1,-1,-1,-1,-1,-1,-1,-1],"split_conditions":[2.1337442E1,9.109748E0,3.7546665E1,6.74E0,2.4560667E1,1.2241501E2,1.301E1,-1.1952009E1,-6.8981423E0,-1.085626E1,1.777E1,3.2206783E1,3.2876E1,-1.0549663E1,3.3884163E1,-6.262738E0,1.4614058E1,2.5818356E1,6.68E0,9.700912E0,1.9569359E1,2.7838398E1,1.7278334E1,-5.266272E0,5.7899666E1,1.5396651E0,1.3523122E1,2.8408602E1,7.06E0,-4.3467994E0,4.0847163E0,-2.7395713E0,-7.8367662E0,3.8608854E0,-2.8052588E0,-5.3722854E0,5.3248696E0,1.0363762E1,-1.290258E-1],"split_indices":[0,0,5,1,3,0,2,0,0,0,2,4,3,0,4,0,0,4,1,0,0,4,3,0,3,0,0,5,1,0,0,0,0,0,0,0,0,0,0],"split_type":[0,0,0,0,0,0,0,0,0,0,0,0,0,0,0,0,0,0,0,0,0,0,0,0,0,0,0,0,0,0,0,0,0,0,0,0,0,0,0],"sum_hessian":[3.16E2,9.2E1,2.24E2,2.4E1,6.8E1,1.67E2,5.7E1,1.4E1,1E1,1.3E1,5.5E1,1.47E2,2E1,1.2E1,4.5E1,1.3E1,4.2E1,3E1,1.17E2,1E1,1E1,2.1E1,2.4E1,1.4E1,2.8E1,1.2E1,1.8E1,6.6E1,5.1E1,1.1E1,1E1,1.4E1,1E1,1.8E1,1E1,5.2E1,1.4E1,1.7E1,3.4E1],"tree_param":{"num_deleted":"0","num_feature":"6","num_nodes":"39","size_leaf_vector":"1"}},{"base_weights":[-9.349033E0,-3.156802E1,4.004673E1,-4.590712E1,4.2668167E1,2.2437489E1,1.5074901E1,4.749166E0,-5.3507576E1,2.3295418E1,8.281821E0,-3.9866745E1,4.253048E1,-5.957069E1,2.9266639E0,5.6230254E0,-6.5984E-1,2.4704395E-2,-7.6356287E0,-2.7322975E1,9.424308E1,-8.239068E1,-3.141196E1,-5.7552924E0,-1.0534554E-1,1.486877E1,4.5681095E1,-1.1892286E1,-6.427612E0,2.0957286E0,-7.2522063E0,2.841391E0,5.8795457E0],"categories":[],"categories_nodes":[],"categories_segments":[],"categories_sizes":[],"default_left":[0,0,0,0,0,0,0,0,0,0,0,0,0,0,0,0,0,0,0,0,0,0,0,0,0,0,0,0,0,0,0,0,0],"id":10,"left_children":[1,3,5,7,9,11,-1,-1,13,15,-1,17,19,21,-1,-1,-1,-1,-1,23,25,27,29,-1,-1,-1,31,-1,-1,-1,-1,-1,-1],"loss_changes":[3.3930156E5,2.28693E5,1.8375836E5,1.296085E5,2.5294309E4,1.0685334E5,0E0,0E0,8.505381E4,2.4984727E4,0E0,3.0757266E4,2.3376244E5,9.7012125E4,0E0,0E0,0E0,0E0,0E0,2.2174908E4,9.10335E4,4.8606062E4,1.5437612E5,0E0,0E0,0E0,3.0848008E3,0E0,0E0,0E0,0E0,0E0,0E0],"parents":[2147483647,0,0,1,1,2,2,3,3,4,4,5,5,8,8,9,9,11,11,12,12,13,13,19,19,20,20,21,21,22,22,26,26],"right_children":[2,4,6,8,10,12,-1,-1,14,16,-1,18,20,22,-1,-1,-1,-1,-1,24,26,28,30,-1,-1,-1,32,-1,-1,-1,-1,-1,-1],"split_conditions":[4.3324333E1,1.07855606E2,1.79E1,5.84E0,1.6740419E2,2.2850506E1,1.5074901E1,4.749166E0,8.37E0,3.8871773E1,8.281821E0,1.5078774E1,1.4592258E1,2.9846666E1,2.9266639E0,5.6230254E0,-6.5984E-1,2.4704395E-2,-7.6356287E0,4.9887E1,6.14E0,2.5523603E1,3.7219364E1,-5.7552924E0,-1.0534554E-1,1.486877E1,2.1120537E1,-1.1892286E1,-6.427612E0,2.0957286E0,-7.2522063E0,2.841391E0,5.8795457E0],"split_indices":[3,0,2,1,0,4,0,0,1,4,0,4,5,3,0,0,0,0,0,3,1,0,4,0,0,0,5,0,0,0,0,0,0],"split_type":[0,0,0,0,0,0,0,0,0,0,0,0,0,0,0,0,0,0,0,0,0,0,0,0,0,0,0,0,0,0,0,0,0],"sum_hessian":[3.07E2,2.12E2,9.5E1,1.78E2,3.4E1,8.3E1,1.2E1,1.3E1,1.65E2,2.4E1,1E1,2E1,6.3E1,1.54E2,1.1E1,1.1E1,1.3E1,1E1,1E1,2.7E1,3.6E1,8.4E1,7E1,1.2E1,1.5E1,1.6E1,2E1,2.6E1,5.8E1,3.1E1,3.9E1,1E1,1E1],"tree_param":{"num_deleted":"0","num_feature":"6","num_nodes":"33","size_leaf_vector":"1"}},{"base_weights":[-6.4269342E0,-2.5768734E1,3.478481E1,-1.5919693E1,-1.1234344E2,-1.5727038E1,6.2575012E1,-3.8081905E-1,-6.517313E1,-1.3036264E1,-8.247308E0,-4.0240078E1,1.5478896E0,4.5581776E1,1.352461E1,-4.5054623E1,1.8588068E1,-8.695706E1,1.4024943E0,-1.1946517E0,-6.487545E0,1.2302825E1,2.5637486E1,-5.4688595E1,-1.713342E0,3.3173267E1,-2.9994907E1,-5.150878E0,-1.0878505E1,7.219026E0,2.2849314E0,-7.39946E0,-3.4489448E0,-5.712299E0,4.7967377E0,-5.665542E0,3.6085996E-1,2.7384953E0,-4.584101E0],"categories":[],"categories_nodes":[],"categories_segments":[],"categories_sizes":[],"default_left":[0,0,0,0,0,0,0,0,0,0,0,0,0,0,0,0,0,0,0,0,0,0,0,0,0,0,0,0,0,0,0,0,0,0,0,0,0,0,0],"id":11,"left_children":[1,3,5,7,9,11,13,15,17,-1,-1,19,-1,21,-1,23,25,27,-1,-1,-1,-1,29,31,-1,33,35,-1,-1,-1,37,-1,-1,-1,-1,-1,-1,-1,-1],"loss_changes":[2.5437711E5,1.8324261E5,1.4416506E5,1.4998239E5,1.0899062E3,2.892611E4,7.5339734E4,1.27949336E5,8.2306125E4,0E0,0E0,1.3862434E4,0E0,8.179968E4,0E0,1.1167648E4,7.610582E4,2.3025875E4,0E0,0E0,0E0,0E0,4.8755734E4,1.0316805E4,0E0,1.1227998E5,2.2601617E4,0E0,0E0,0E0,3.870218E4,0E0,0E0,0E0,0E0,0E0,0E0,0E0,0E0],"parents":[2147483647,0,0,1,1,2,2,3,3,4,4,5,5,6,6,7,7,8,8,11,11,13,13,15,15,16,16,17,17,22,22,23,23,25,25,26,26,30,30],"right_children":[2,4,6,8,10,12,14,16,18,-1,-1,20,-1,22,-1,24,26,28,-1,-1,-1,-1,30,32,-1,34,36,-1,-1,-1,38,-1,-1,-1,-1,-1,-1,-1,-1],"split_conditions":[6.568053E1,5.4129482E1,1.807699E1,4.6452698E1,1.1407666E1,6.48E0,2.142E1,1.6887312E1,7.38E0,-1.3036264E1,-8.247308E0,6.27E0,1.5478896E0,7.589398E1,1.352461E1,1.49287195E1,7.21E0,4.9147335E1,1.4024943E0,-1.1946517E0,-6.487545E0,1.2302825E1,2.6146236E1,6.48E0,-1.713342E0,1.75E1,7.5E0,-5.150878E0,-1.0878505E1,7.219026E0,7.45E0,-7.39946E0,-3.4489448E0,-5.712299E0,4.7967377E0,-5.665542E0,3.6085996E-1,2.7384953E0,-4.584101E0],"split_indices":[0,5,5,4,3,1,2,0,1,0,0,1,0,0,0,0,1,4,0,0,0,0,5,1,0,2,1,0,0,0,1,0,0,0,0,0,0,0,0],"split_type":[0,0,0,0,0,0,0,0,0,0,0,0,0,0,0,0,0,0,0,0,0,0,0,0,0,0,0,0,0,0,0,0,0,0,0,0,0,0,0],"sum_hessian":[3.17E2,2.16E2,1.01E2,1.95E2,2.1E1,3.6E1,6.5E1,1.49E2,4.6E1,1.1E1,1E1,2E1,1.6E1,5.4E1,1.1E1,4.4E1,1.05E2,3.6E1,1E1,1E1,1E1,1E1,4.4E1,3.2E1,1.2E1,8.1E1,2.4E1,1.5E1,2.1E1,1.4E1,3E1,1.5E1,1.7E1,1.1E1,7E1,1.3E1,1.1E1,2E1,1E1],"tree_param":{"num_deleted":"0","num_feature":"6","num_nodes":"39","size_leaf_vector":"1"}},{"base_weights":[-5.4024043E0,-1.713122E1,6.1166817E1,1.2194077E1,-2.2552942E1,-1.0414238E0,1.0052661E2,-2.7112595E1,9.100153E0,1.433822E2,1.7806923E-1,-3.956014E1,1.59800205E1,9.859192E0,1.8328142E1,-4.5590458E1,7.313019E0,1.0512019E1,-2.0849594E1,-5.4837303E0,4.3801728E-1,9.0736467E-1,-4.6163697E0],"categories":[],"categories_nodes":[],"categories_segments":[],"categories_sizes":[],"default_left":[0,0,0,0,0,0,0,0,0,0,0,0,0,0,0,0,0,0,0,0,0,0,0],"id":12,"left_children":[1,3,5,-1,7,-1,9,11,-1,13,-1,15,17,-1,-1,19,-1,-1,21,-1,-1,-1,-1],"loss_changes":[2.657317E5,2.2065897E5,1.4473508E5,0E0,1.4692477E5,0E0,1.3939453E5,1.4492305E5,0E0,2.3033188E4,0E0,1.4536181E5,2.024546E5,0E0,0E0,9.219225E4,0E0,0E0,3.3747996E4,0E0,0E0,0E0,0E0],"parents":[2147483647,0,0,1,1,2,2,4,4,6,6,7,7,9,9,11,11,12,12,15,15,18,18],"right_children":[2,4,6,-1,8,-1,10,12,-1,14,-1,16,18,-1,-1,20,-1,-1,22,-1,-1,-1,-1],"split_conditions":[1.16323044E2,5.31E0,6.76E0,1.2194077E1,2.905E1,-1.0414238E0,3.8072044E1,4.7161667E1,9.100153E0,1.6740419E2,1.7806923E-1,8.23E0,5.1804333E1,9.859192E0,1.8328142E1,8.214233E1,7.313019E0,1.0512019E1,5.6772E1,-5.4837303E0,4.3801728E-1,9.0736467E-1,-4.6163697E0],"split_indices":[0,1,1,0,2,0,5,3,0,0,0,1,3,0,0,0,0,0,3,0,0,0,0],"split_type":[0,0,0,0,0,0,0,0,0,0,0,0,0,0,0,0,0,0,0,0,0,0,0],"sum_hessian":[3.38E2,2.88E2,5E1,1E1,2.78E2,1.8E1,3.2E1,2.68E2,1E1,2.2E1,1E1,2.08E2,6E1,1.2E1,1E1,1.98E2,1E1,1.7E1,4.3E1,1.67E2,3.1E1,2E1,2.3E1],"tree_param":{"num_deleted":"0","num_feature":"6","num_nodes":"23","size_leaf_vector":"1"}},{"base_weights":[2.9353905E0,-7.249056E1,1.6638525E1,-9.208848E0,-4.7422462E1,1.0661802E1,1.5911064E1,-6.4277964E0,-2.5210466E0,7.406917E1,3.748246E0,1.9016724E0,1.0728841E1,1.6732363E1,-2.242914E1,-5.0964382E1,2.6696186E1,-4.9254486E1,6.6286674E0,-6.143739E0,-3.5858247E0,4.8857946E0,2.1863881E-1,-6.875408E0,-1.7644919E0],"categories":[],"categories_nodes":[],"categories_segments":[],"categories_sizes":[],"default_left":[0,0,0,0,0,0,0,0,0,0,0,0,0,0,0,0,0,0,0,0,0,0,0,0,0],"id":13,"left_children":[1,3,5,-1,7,9,-1,-1,-1,11,13,-1,-1,15,17,19,21,23,-1,-1,-1,-1,-1,-1,-1],"loss_changes":[3.360835E5,2.0197031E4,2.3247066E5,0E0,7.3649883E3,1.1589052E5,0E0,0E0,0E0,4.550853E4,8.194894E4,0E0,0E0,1.0995803E5,1.936515E5,1.1193047E3,7.648159E4,3.7002016E4,0E0,0E0,0E0,0E0,0E0,0E0,0E0],"parents":[2147483647,0,0,1,1,2,2,4,4,5,5,9,9,10,10,13,13,14,14,15,15,16,16,17,17],"right_children":[2,4,6,-1,8,10,-1,-1,-1,12,14,-1,-1,16,18,20,22,24,-1,-1,-1,-1,-1,-1,-1],"split_conditions":[1.4614058E1,1.7865524E1,1.8721544E2,-9.208848E0,2.7236559E1,5.85E0,1.5911064E1,-6.4277964E0,-2.5210466E0,2.6822279E1,4.287757E1,1.9016724E0,1.0728841E1,2.400862E1,7.66E0,2.6088923E1,2.7010754E1,6.382879E1,6.6286674E0,-6.143739E0,-3.5858247E0,4.8857946E0,2.1863881E-1,-6.875408E0,-1.7644919E0],"split_indices":[0,2,0,0,4,1,0,0,0,4,4,0,0,4,1,0,5,0,0,0,0,0,0,0,0],"split_type":[0,0,0,0,0,0,0,0,0,0,0,0,0,0,0,0,0,0,0,0,0,0,0,0,0],"sum_hessian":[3.23E2,4.9E1,2.74E2,2.6E1,2.3E1,2.64E2,1E1,1.2E1,1.1E1,2.5E1,2.39E2,1E1,1.5E1,1.6E2,7.9E1,2E1,1.4E2,6.1E1,1.8E1,1E1,1E1,7.3E1,6.7E1,3.7E1,2.4E1],"tree_param":{"num_deleted":"0","num_feature":"6","num_nodes":"25","size_leaf_vector":"1"}},{"base_weights":[-5.6031528E0,-1.1339594E1,1.0194679E1,-5.5629097E1,-2.8585002E0,-8.891803E0,-3.0752964E1,-3.0040266E1,1.1404585E1,-7.5418983E0,1.0251865E0,-7.499842E1,1.770758E1,-3.3159916E0,6.4654335E1,-1.0016559E1,-4.8803596E1,-3.0360591E0,4.7316887E1,-2.047419E1,2.9930214E1,4.5508724E1,9.148967E0,-6.2623606E0,-2.976496E0,6.8179474E0,1.0773172E0,-1.0047109E0,-7.412632E0,5.732737E0,-3.4829724E0,6.2895474E0,2.7296188E0],"categories":[],"categories_nodes":[],"categories_segments":[],"categories_sizes":[],"default_left":[0,0,0,0,0,0,0,0,0,0,0,0,0,0,0,0,0,0,0,0,0,0,0,0,0,0,0,0,0,0,0,0,0],"id":14,"left_children":[1,3,-1,5,7,-1,9,11,13,-1,-1,15,17,19,21,-1,23,-1,25,27,29,31,-1,-1,-1,-1,-1,-1,-1,-1,-1,-1,-1],"loss_changes":[1.948796E5,1.1215238E5,0E0,3.7014312E4,9.8041945E4,0E0,5.3887336E4,1.8808705E5,1.3033631E5,0E0,0E0,2.4777766E4,6.2636977E4,7.534109E4,1.4332453E4,0E0,4.45075E3,0E0,1.9850191E4,4.792609E4,8.1837414E4,5.566297E3,0E0,0E0,0E0,0E0,0E0,0E0,0E0,0E0,0E0,0E0,0E0],"parents":[2147483647,0,0,1,1,3,3,4,4,6,6,7,7,8,8,11,11,12,12,13,13,14,14,16,16,18,18,19,19,20,20,21,21],"right_children":[2,4,-1,6,8,-1,10,12,14,-1,-1,16,18,20,22,-1,24,-1,26,28,30,32,-1,-1,-1,-1,-1,-1,-1,-1,-1,-1,-1],"split_conditions":[1.6740419E2,1.355E1,1.0194679E1,7.14E0,2.9846666E1,-8.891803E0,3.764214E1,5.349394E1,2.528669E1,-7.5418983E0,1.0251865E0,2.69294E1,6.9E0,6.67E0,3.5149323E1,-1.0016559E1,4.0106236E1,-3.0360591E0,2.0598667E1,4.9354763E1,2.1662796E1,2.9480886E1,9.148967E0,-6.2623606E0,-2.976496E0,6.8179474E0,1.0773172E0,-1.0047109E0,-7.412632E0,5.732737E0,-3.4829724E0,6.2895474E0,2.7296188E0],"split_indices":[0,2,0,1,3,0,4,0,5,0,0,0,1,1,4,0,5,0,3,4,5,0,0,0,0,0,0,0,0,0,0,0,0],"split_type":[0,0,0,0,0,0,0,0,0,0,0,0,0,0,0,0,0,0,0,0,0,0,0,0,0,0,0,0,0,0,0,0,0],"sum_hessian":[3.13E2,2.98E2,1.5E1,4.7E1,2.51E2,1.9E1,2.8E1,8.6E1,1.65E2,1.3E1,1.5E1,4.4E1,4.2E1,1.3E2,3.5E1,2.1E1,2.3E1,1.6E1,2.6E1,8.6E1,4.4E1,2.2E1,1.3E1,1.2E1,1.1E1,1.6E1,1E1,7.3E1,1.3E1,3.1E1,1.3E1,1E1,1.2E1],"tree_param":{"num_deleted":"0","num_feature":"6","num_nodes":"33","size_leaf_vector":"1"}},{"base_weights":[2.8947363E0,-3.657514E1,2.097964E1,2.3969011E0,-4.693216E1,3.4329906E1,-2.4001055E1,-5.4279198E1,1.0767411E0,2.2951889E1,1.09515236E2,-6.3872805E0,-5.7895217E0,-7.313595E1,-3.948327E1,5.3327755E1,4.2123193E-1,7.3118896E0,1.4257316E1,2.6271687E0,-1.9958872E1,-4.373281E0,-9.404723E0,-6.748514E1,-9.836258E0,1.9087679E1,1.1245257E2,-3.3713486E1,3.0991474E1,-1.9686365E-1,-4.4312043E0,-8.123645E0,-4.6964126E0,2.5660362E0,-3.7023869E0,-9.1796714E-1,5.8857875E0,1.6344183E1,3.7334175E0,-5.7152027E-1,-6.2772865E0,-6.7536086E-1,6.0598893E0],"categories":[],"categories_nodes":[],"categories_segments":[],"categories_sizes":[],"default_left":[0,0,0,0,0,0,0,0,0,0,0,0,0,0,0,0,0,0,0,0,0,0,0,0,0,0,0,0,0,0,0,0,0,0,0,0,0,0,0,0,0,0,0],"id":15,"left_children":[1,3,5,-1,7,9,11,13,-1,15,17,19,-1,21,23,25,27,-1,-1,-1,29,-1,-1,31,33,35,37,39,41,-1,-1,-1,-1,-1,-1,-1,-1,-1,-1,-1,-1,-1,-1],"loss_changes":[2.3846569E5,6.6965875E4,1.383394E5,0E0,3.8737344E4,1.4890283E5,3.1271422E4,1.9432594E4,0E0,1.0605772E5,1.7248531E4,1.6480783E4,0E0,1.6792203E4,3.835428E4,1.3146645E5,9.496042E4,0E0,0E0,0E0,1.1303864E4,0E0,0E0,2.9573828E3,2.4111686E4,4.888081E4,8.582359E4,3.4626582E4,5.405091E4,0E0,0E0,0E0,0E0,0E0,0E0,0E0,0E0,0E0,0E0,0E0,0E0,0E0,0E0],"parents":[2147483647,0,0,1,1,2,2,4,4,5,5,6,6,7,7,9,9,10,10,11,11,13,13,14,14,15,15,16,16,20,20,23,23,24,24,25,25,26,26,27,27,28,28],"right_children":[2,4,6,-1,8,10,12,14,-1,16,18,20,-1,22,24,26,28,-1,-1,-1,30,-1,-1,32,34,36,38,40,42,-1,-1,-1,-1,-1,-1,-1,-1,-1,-1,-1,-1,-1,-1],"split_conditions":[2.2085806E1,5.8E0,4.0141613E1,2.3969011E0,7.39E0,1.26679016E2,5.521574E1,3.3812332E1,1.0767411E0,5.1099144E1,1.7523944E2,3.2363754E1,-5.7895217E0,3.1648344E1,1.4614058E1,4.7161667E1,6.76E0,7.3118896E0,1.4257316E1,2.6271687E0,1.7278334E1,-4.373281E0,-9.404723E0,3.9501797E1,1.7576939E1,2.8551184E1,6.19E0,6.26E0,7.274595E1,-1.9686365E-1,-4.4312043E0,-8.123645E0,-4.6964126E0,2.5660362E0,-3.7023869E0,-9.1796714E-1,5.8857875E0,1.6344183E1,3.7334175E0,-5.7152027E-1,-6.2772865E0,-6.7536086E-1,6.0598893E0],"split_indices":[0,1,5,0,1,0,5,3,0,0,0,4,0,4,0,3,1,0,0,0,3,0,0,4,0,5,1,1,0,0,0,0,0,0,0,0,0,0,0,0,0,0,0],"split_type":[0,0,0,0,0,0,0,0,0,0,0,0,0,0,0,0,0,0,0,0,0,0,0,0,0,0,0,0,0,0,0,0,0,0,0,0,0,0,0,0,0,0,0],"sum_hessian":[3.32E2,1.04E2,2.28E2,1.5E1,8.9E1,1.76E2,5.2E1,7.9E1,1E1,1.54E2,2.2E1,3.5E1,1.7E1,3.3E1,4.6E1,6.5E1,8.9E1,1.2E1,1E1,1E1,2.5E1,1.5E1,1.8E1,2.3E1,2.3E1,4.2E1,2.3E1,4.2E1,4.7E1,1.5E1,1E1,1.2E1,1.1E1,1E1,1.3E1,2.5E1,1.7E1,1.3E1,1E1,2.2E1,2E1,2.1E1,2.6E1],"tree_param":{"num_deleted":"0","num_feature":"6","num_nodes":"43","size_leaf_vector":"1"}},{"base_weights":[-2.8417125E-1,-5.059267E1,1.354215E1,-7.34537E1,1.3048892E0,8.982813E0,1.1676132E1,-6.20876E1,-9.021078E0,5.5831504E0,-6.325428E0,-8.210364E0,1.3480965E1,-2.9470377E0,-7.932266E1,9.518556E0,9.159503E0,-5.2927337E0,-9.850684E0,-3.472368E1,1.5167235E1,-4.4594517E-1,-5.7143135E0,-1.1280218E0,2.7425632E0],"categories":[],"categories_nodes":[],"categories_segments":[],"categories_sizes":[],"default_left":[0,0,0,0,0,0,0,0,0,0,0,0,0,0,0,0,0,0,0,0,0,0,0,0,0],"id":16,"left_children":[1,3,5,7,9,11,-1,13,-1,-1,-1,-1,15,-1,17,-1,19,-1,-1,21,23,-1,-1,-1,-1],"loss_changes":[2.3231377E5,8.5518875E4,1.2225124E5,3.9221562E3,8.449602E4,1.0435645E5,0E0,1.6213617E4,0E0,0E0,0E0,0E0,8.42212E4,0E0,5.420125E3,0E0,6.11635E4,0E0,0E0,1.8743383E4,6.612266E4,0E0,0E0,0E0,0E0],"parents":[2147483647,0,0,1,1,2,2,3,3,4,4,5,5,7,7,12,12,14,14,16,16,19,19,20,20],"right_children":[2,4,6,8,10,12,-1,14,-1,-1,-1,-1,16,-1,18,-1,20,-1,-1,22,24,-1,-1,-1,-1],"split_conditions":[1.777E1,5.0327667E1,1.8721544E2,7.59E0,2.5525667E1,1.1407666E1,1.1676132E1,3.5004665E1,-9.021078E0,5.5831504E0,-6.325428E0,-8.210364E0,1.39016E1,-2.9470377E0,3.7219364E1,9.518556E0,1.2764199E1,-5.2927337E0,-9.850684E0,1.8689785E1,2.9846666E1,-4.4594517E-1,-5.7143135E0,-1.1280218E0,2.7425632E0],"split_indices":[2,4,0,1,3,3,0,3,0,0,0,0,3,0,4,0,0,0,0,5,3,0,0,0,0],"split_type":[0,0,0,0,0,0,0,0,0,0,0,0,0,0,0,0,0,0,0,0,0,0,0,0,0],"sum_hessian":[3.32E2,7.1E1,2.61E2,4.9E1,2.2E1,2.51E2,1E1,3.2E1,1.7E1,1.2E1,1E1,1.1E1,2.4E2,1.2E1,2E1,1.1E1,2.29E2,1E1,1E1,2.7E1,2.02E2,1.2E1,1.5E1,6.4E1,1.38E2],"tree_param":{"num_deleted":"0","num_feature":"6","num_nodes":"25","size_leaf_vector":"1"}},{"base_weights":[4.531087E0,9.5055E0,-1.1233596E1,1.0561947E1,5.203592E0,-4.3371147E1,1.2630363E1,-6.5086075E1,2.3742394E0,-7.2950783E0,3.508373E1,-3.6997147E0,-7.617209E1,1.452863E1,-4.162558E1,6.230089E1,3.7219582E0,-8.835464E0,-5.59573E0,1.4529353E-1,8.54072E0,-5.2102313E0,-5.725445E-1,9.019359E-1,8.386439E0,5.4735885E0,-1.5632681E0],"categories":[],"categories_nodes":[],"categories_segments":[],"categories_sizes":[],"default_left":[0,0,0,0,0,0,0,0,0,0,0,0,0,0,0,0,0,0,0,0,0,0,0,0,0,0,0],"id":17,"left_children":[1,3,-1,-1,5,7,9,11,-1,13,15,-1,17,19,21,23,25,-1,-1,-1,-1,-1,-1,-1,-1,-1,-1],"loss_changes":[1.9930642E5,1.350697E5,0E0,0E0,1.1418515E5,6.2754664E4,1.2284169E5,7.1464688E3,0E0,1.0999072E5,1.0987972E5,0E0,4.738047E2,8.328669E4,2.1140312E4,7.852019E4,6.1084395E4,0E0,0E0,0E0,0E0,0E0,0E0,0E0,0E0,0E0,0E0],"parents":[2147483647,0,0,1,1,4,4,5,5,6,6,7,7,9,9,10,10,12,12,13,13,14,14,15,15,16,16],"right_children":[2,4,-1,-1,6,8,10,12,-1,14,16,-1,18,20,22,24,26,-1,-1,-1,-1,-1,-1,-1,-1,-1,-1],"split_conditions":[6.184613E1,5.44E0,-1.1233596E1,1.0561947E1,1.301E1,8E0,6.69E0,3.3063786E1,2.3742394E0,3.9367226E1,2.7010754E1,-3.6997147E0,7.02E0,3.7718872E1,6.48E0,4.6949963E1,7.08E0,-8.835464E0,-5.59573E0,1.4529353E-1,8.54072E0,-5.2102313E0,-5.725445E-1,9.019359E-1,8.386439E0,5.4735885E0,-1.5632681E0],"split_indices":[5,1,0,0,2,1,1,4,0,4,5,0,1,4,1,0,1,0,0,0,0,0,0,0,0,0,0],"split_type":[0,0,0,0,0,0,0,0,0,0,0,0,0,0,0,0,0,0,0,0,0,0,0,0,0,0,0],"sum_hessian":[3.4E2,3.27E2,1.3E1,1.3E1,3.14E2,4.1E1,2.73E2,3.1E1,1E1,1.45E2,1.28E2,1E1,2.1E1,8.9E1,5.6E1,6.8E1,6E1,1.1E1,1E1,7.6E1,1.3E1,4.3E1,1.3E1,2E1,4.8E1,1.6E1,4.4E1],"tree_param":{"num_deleted":"0","num_feature":"6","num_nodes":"27","size_leaf_vector":"1"}},{"base_weights":[-2.6422012E0,-4.28379E1,4.3942575E0,-5.7354485E1,1.3844041E0,1.2689143E1,-2.5779024E1,-8.594389E0,-4.2032463E1,7.0351434E0,1.2204557E1,-6.3220444E0,-1.248452E1,-6.019237E0,-1.6448536E0,-1.5370704E1,2.1240112E1,2.193068E1,-4.11249E1,6.4494567E0,-3.1088154E1,3.0893457E1,-2.1311935E1,-1.460732E-1,4.5454884E0,-1.7883263E0,-5.453322E0,3.077411E0,-2.9656665E0,-5.523663E0,6.688968E-1,1.8756872E0,9.475654E0,-4.497563E0,1.2894187E0],"categories":[],"categories_nodes":[],"categories_segments":[],"categories_sizes":[],"default_left":[0,0,0,0,0,0,0,0,0,0,0,0,0,0,0,0,0,0,0,0,0,0,0,0,0,0,0,0,0,0,0,0,0,0,0],"id":18,"left_children":[1,3,5,7,-1,9,11,-1,13,15,-1,-1,17,-1,-1,19,21,23,25,27,29,31,33,-1,-1,-1,-1,-1,-1,-1,-1,-1,-1,-1,-1],"loss_changes":[9.4938086E4,4.1935438E4,7.190831E4,1.3909469E4,0E0,1.3825916E5,3.0072164E4,0E0,1.2018773E4,6.875547E4,0E0,0E0,4.7228125E4,0E0,0E0,2.9008916E4,5.487998E4,1.2172214E4,7.1271797E3,3.2530336E4,4.5070203E4,8.193128E4,2.0816004E4,0E0,0E0,0E0,0E0,0E0,0E0,0E0,0E0,0E0,0E0,0E0,0E0],"parents":[2147483647,0,0,1,1,2,2,3,3,5,5,6,6,8,8,9,9,12,12,15,15,16,16,17,17,18,18,19,19,20,20,21,21,22,22],"right_children":[2,4,6,8,-1,10,12,-1,14,16,-1,-1,18,-1,-1,20,22,24,26,28,30,32,34,-1,-1,-1,-1,-1,-1,-1,-1,-1,-1,-1,-1],"split_conditions":[1.355E1,5.486585E1,3.8984516E1,1.649887E1,1.3844041E0,1.7171375E2,2.4367395E1,-8.594389E0,3.622284E1,1.807699E1,1.2204557E1,-6.3220444E0,1.5178667E1,-6.019237E0,-1.6448536E0,3.8252193E1,3.3037205E1,5.7323532E1,7.3E0,6.0796665E1,6.48E0,2.889914E1,2.4939E1,-1.460732E-1,4.5454884E0,-1.7883263E0,-5.453322E0,3.077411E0,-2.9656665E0,-5.523663E0,6.688968E-1,1.8756872E0,9.475654E0,-4.497563E0,1.2894187E0],"split_indices":[2,4,5,5,0,0,0,0,4,5,0,0,3,0,0,4,5,0,1,3,1,5,3,0,0,0,0,0,0,0,0,0,0,0,0],"split_type":[0,0,0,0,0,0,0,0,0,0,0,0,0,0,0,0,0,0,0,0,0,0,0,0,0,0,0,0,0,0,0,0,0,0,0],"sum_hessian":[3.34E2,4.9E1,2.85E2,3.9E1,1E1,2.24E2,6.1E1,1.2E1,2.7E1,2.14E2,1E1,1.5E1,4.6E1,1.5E1,1.2E1,8.3E1,1.31E2,2.1E1,2.5E1,3.5E1,4.8E1,1.07E2,2.4E1,1.1E1,1E1,1E1,1.5E1,2.1E1,1.4E1,2.9E1,1.9E1,9.1E1,1.6E1,1.4E1,1E1],"tree_param":{"num_deleted":"0","num_feature":"6","num_nodes":"35","size_leaf_vector":"1"}},{"base_weights":[2.128914E0,-4.2694397E1,1.1678999E1,-8.33865E0,-3.0266317E1,8.100066E0,9.586094E0,1.6232605E-1,-5.0824734E1,8.194602E0,4.8444886E0,-3.3206346E0,-5.876793E0,1.2304607E1,-3.2749073E1,6.339929E0,1.2017695E1,-5.241989E1,-8.490176E-1,1.5377096E0,-3.696141E0,-6.8438354E0,-3.2033105E0],"categories":[],"categories_nodes":[],"categories_segments":[],"categories_sizes":[],"default_left":[0,0,0,0,0,0,0,0,0,0,0,0,0,0,0,0,0,0,0,0,0,0,0],"id":19,"left_children":[1,3,5,-1,7,9,-1,-1,11,-1,13,-1,-1,15,17,19,-1,21,-1,-1,-1,-1,-1],"loss_changes":[1.4133247E5,2.6808227E4,8.117208E4,0E0,3.0240062E4,6.2590758E4,0E0,0E0,1.9670234E3,0E0,7.107698E4,0E0,0E0,1.3500052E5,1.9597023E4,7.922398E4,0E0,5.318707E3,0E0,0E0,0E0,0E0,0E0],"parents":[2147483647,0,0,1,1,2,2,4,4,5,5,8,8,10,10,13,13,14,14,15,15,17,17],"right_children":[2,4,6,-1,8,10,-1,-1,12,-1,14,-1,-1,16,18,20,-1,22,-1,-1,-1,-1,-1],"split_conditions":[1.431E1,8.61E0,3.097E1,-8.33865E0,2.6447E1,5.6E0,9.586094E0,1.6232605E-1,3.5724667E1,8.194602E0,4.2927097E1,-3.3206346E0,-5.876793E0,1.7171375E2,7.21E0,1.842E1,1.2017695E1,5.5320324E1,-8.490176E-1,1.5377096E0,-3.696141E0,-6.8438354E0,-3.2033105E0],"split_indices":[2,2,2,0,3,1,0,0,3,0,5,0,0,0,1,2,0,5,0,0,0,0,0],"split_type":[0,0,0,0,0,0,0,0,0,0,0,0,0,0,0,0,0,0,0,0,0,0,0],"sum_hessian":[3.28E2,5.7E1,2.71E2,1.2E1,4.5E1,2.61E2,1E1,1.8E1,2.7E1,1E1,2.51E2,1E1,1.7E1,2.1E2,4.1E1,2E2,1E1,2.2E1,1.9E1,1.66E2,3.4E1,1.1E1,1.1E1],"tree_param":{"num_deleted":"0","num_feature":"6","num_nodes":"23","size_leaf_vector":"1"}},{"base_weights":[-1.2792926E0,-4.8352976E0,9.7112055E0,-5.7232597E1,8.983544E-1,-6.6365623E0,-3.800259E0,4.405731E0,-7.633879E0,3.0867382E1,-6.2582436E0,6.947196E0,1.0755758E1,-3.9926456E1,8.5837597E-1,3.0707548E0,-4.0920863E0,7.339185E-2,-6.0290008E0,1.1681663E0,-2.5512636E0],"categories":[],"categories_nodes":[],"categories_segments":[],"categories_sizes":[],"default_left":[0,0,0,0,0,0,0,0,0,0,0,0,0,0,0,0,0,0,0,0,0],"id":20,"left_children":[1,3,-1,5,7,-1,-1,9,-1,11,13,15,-1,17,19,-1,-1,-1,-1,-1,-1],"loss_changes":[1.1033192E5,9.13815E4,0E0,2.7467812E3,7.4833766E4,0E0,0E0,7.4690375E4,0E0,1.3867052E5,4.5319402E4,6.836094E4,0E0,2.7367898E4,4.5109125E4,0E0,0E0,0E0,0E0,0E0,0E0],"parents":[2147483647,0,0,1,1,3,3,4,4,7,7,9,9,10,10,11,11,13,13,14,14],"right_children":[2,4,-1,6,8,-1,-1,10,-1,12,14,16,-1,18,20,-1,-1,-1,-1,-1,-1],"split_conditions":[1.7361604E2,1.0104114E1,9.7112055E0,7.890373E0,6.184613E1,-6.6365623E0,-3.800259E0,3.2206783E1,-7.633879E0,6.429071E1,6.11E0,5.6003334E1,1.0755758E1,5.76E0,3.3037205E1,3.0707548E0,-4.0920863E0,7.339185E-2,-6.0290008E0,1.1681663E0,-2.5512636E0],"split_indices":[0,0,0,0,5,0,0,4,0,0,1,3,0,1,5,0,0,0,0,0,0],"split_type":[0,0,0,0,0,0,0,0,0,0,0,0,0,0,0,0,0,0,0,0,0],"sum_hessian":[3.13E2,3.03E2,1E1,2.9E1,2.74E2,1.8E1,1.1E1,2.63E2,1.1E1,7.5E1,1.88E2,5.8E1,1.7E1,3.2E1,1.56E2,3.9E1,1.9E1,1.1E1,2.1E1,1.11E2,4.5E1],"tree_param":{"num_deleted":"0","num_feature":"6","num_nodes":"21","size_leaf_vector":"1"}},{"base_weights":[2.7427528E0,7.3274245E0,-6.789088E-1,-3.4593266E1,5.513365E0,-1.0127891E1,-5.49052E1,1.15608015E1,7.0484936E-1,-2.4878356E0,3.132339E-1,-7.2271867E0,-3.9534042E0,-8.2005E0,2.7692417E1,-3.9446312E1,-3.2571766E0,8.178343E0,5.924361E0,-6.0830655E0,-9.4286865E-1,6.953797E-1,-2.1893244E0,7.876972E0,-1.6498508E0],"categories":[],"categories_nodes":[],"categories_segments":[],"categories_sizes":[],"default_left":[0,0,0,0,0,0,0,0,0,0,0,0,0,0,0,0,0,0,0,0,0,0,0,0,0],"id":21,"left_children":[1,-1,3,5,7,9,11,-1,13,-1,-1,-1,-1,15,17,19,21,-1,23,-1,-1,-1,-1,-1,-1],"loss_changes":[7.824225E4,0E0,6.529289E4,2.3297E4,1.3914855E5,4.576602E3,4.0833906E3,0E0,6.1031516E4,0E0,0E0,0E0,0E0,2.9373021E4,7.369522E4,1.6116031E4,3.1740775E4,0E0,7.643608E4,0E0,0E0,0E0,0E0,0E0,0E0],"parents":[2147483647,0,0,2,2,3,3,4,4,5,5,6,6,8,8,13,13,14,14,15,15,16,16,18,18],"right_children":[2,-1,4,6,8,10,12,-1,14,-1,-1,-1,-1,16,18,20,22,-1,24,-1,-1,-1,-1,-1,-1],"split_conditions":[5.44E0,7.3274245E0,6.11E0,5.84E0,6.21E0,2.8350914E1,5.93E0,1.15608015E1,9.404381E1,-2.4878356E0,3.132339E-1,-7.2271867E0,-3.9534042E0,1.0104114E1,2.0708666E1,7.02E0,5.1099144E1,8.178343E0,3.5475235E1,-6.0830655E0,-9.4286865E-1,6.953797E-1,-2.1893244E0,7.876972E0,-1.6498508E0],"split_indices":[1,0,1,1,1,4,1,0,0,0,0,0,0,0,3,1,0,0,4,0,0,0,0,0,0],"split_type":[0,0,0,0,0,0,0,0,0,0,0,0,0,0,0,0,0,0,0,0,0,0,0,0,0],"sum_hessian":[3.23E2,1.4E1,3.09E2,4.7E1,2.62E2,2.2E1,2.5E1,1E1,2.52E2,1E1,1.2E1,1E1,1.5E1,1.9E2,6.2E1,2.5E1,1.65E2,1.7E1,4.5E1,1.4E1,1.1E1,1.07E2,5.8E1,1E1,3.5E1],"tree_param":{"num_deleted":"0","num_feature":"6","num_nodes":"25","size_leaf_vector":"1"}},{"base_weights":[6.4182043E-1,-2.1333477E1,2.3058228E1,-4.569444E0,-4.889926E1,9.699714E0,1.6997458E1,-4.069766E1,1.1136343E1,-3.0836483E1,-8.077358E0,-2.8619142E0,5.200719E1,-5.0439734E0,-2.2693079E0,-4.2246947E0,3.1608711E1,-5.1011204E1,7.3924094E-1,-4.323524E1,1.4486368E1,1.1384118E1,2.9484846E1,4.5765095E1,-2.1455615E0,-6.677114E0,-2.4883E0,-5.874937E0,-1.8946803E0,5.0302296E1,-1.959788E1,-4.8547263E0,8.24861E1,2.5240917E0,8.984108E0,9.569892E0,2.4127767E0,-4.6271405E0,5.2006924E-1,1.3460082E1,2.3497546E0],"categories":[],"categories_nodes":[],"categories_segments":[],"categories_sizes":[],"default_left":[0,0,0,0,0,0,0,0,0,0,0,0,0,0,0,0,0,0,0,0,0,0,0,0,0,0,0,0,0,0,0,0,0,0,0,0,0,0,0,0,0],"id":22,"left_children":[1,3,5,7,9,-1,11,13,15,17,-1,19,21,-1,-1,-1,23,25,-1,27,29,-1,31,33,-1,-1,-1,-1,-1,35,37,-1,39,-1,-1,-1,-1,-1,-1,-1,-1],"loss_changes":[1.4728888E5,6.955573E4,6.4674055E4,5.4358316E4,3.0326328E4,0E0,9.609627E4,3.9420312E3,7.4558484E4,2.9684867E4,0E0,6.296262E4,6.627572E4,0E0,0E0,0E0,3.7790656E4,8.633012E3,0E0,9.060867E3,7.789364E4,0E0,1.6116488E5,3.3012633E4,0E0,0E0,0E0,0E0,0E0,3.4526297E4,2.2068998E4,0E0,6.754316E4,0E0,0E0,0E0,0E0,0E0,0E0,0E0,0E0],"parents":[2147483647,0,0,1,1,2,2,3,3,4,4,6,6,7,7,8,8,9,9,11,11,12,12,16,16,17,17,19,19,20,20,22,22,23,23,29,29,30,30,32,32],"right_children":[2,4,6,8,10,-1,12,14,16,18,-1,20,22,-1,-1,-1,24,26,-1,28,30,-1,32,34,-1,-1,-1,-1,-1,36,38,-1,40,-1,-1,-1,-1,-1,-1,-1,-1],"split_conditions":[4.336729E1,4.0835915E1,5.85E0,1.3216875E1,2.3855377E1,9.699714E0,3.7774166E1,6.52E0,2.2850506E1,1.694473E1,-8.077358E0,6.86E0,6.2820347E1,-5.0439734E0,-2.2693079E0,-4.2246947E0,7.04E0,1.777E1,7.3924094E-1,9.8239716E1,3.8261505E1,1.1384118E1,6.44E0,3.4830097E1,-2.1455615E0,-6.677114E0,-2.4883E0,-5.874937E0,-1.8946803E0,2.1980917E1,7.790801E1,-4.8547263E0,7.16E0,2.5240917E0,8.984108E0,9.569892E0,2.4127767E0,-4.6271405E0,5.2006924E-1,1.3460082E1,2.3497546E0],"split_indices":[0,4,1,0,5,0,3,1,4,5,0,1,0,0,0,0,1,2,0,0,5,0,1,4,0,0,0,0,0,3,0,0,1,0,0,0,0,0,0,0,0],"split_type":[0,0,0,0,0,0,0,0,0,0,0,0,0,0,0,0,0,0,0,0,0,0,0,0,0,0,0,0,0,0,0,0,0,0,0,0,0,0,0,0,0],"sum_hessian":[2.97E2,1.5E2,1.47E2,9.4E1,5.6E1,1E1,1.37E2,2.8E1,6.6E1,3.7E1,1.9E1,8.8E1,4.9E1,1.7E1,1.1E1,1.8E1,4.8E1,2.4E1,1.3E1,2.6E1,6.2E1,1.2E1,3.7E1,3.8E1,1E1,1.4E1,1E1,1.5E1,1.1E1,3E1,3.2E1,1.5E1,2.2E1,2.7E1,1.1E1,1E1,2E1,1.5E1,1.7E1,1.1E1,1.1E1],"tree_param":{"num_deleted":"0","num_feature":"6","num_nodes":"41","size_leaf_vector":"1"}},{"base_weights":[-4.0276923E0,-6.836881E0,7.4229593E0,8.8689554E-1,-2.78526E1,6.77613E0,-2.554718E0,-7.3481393E0,-1.3871358E1,1.2262832E1,-2.2337368E1,-6.981579E0,3.8150758E-1,-5.52037E0,6.0929756E1,-4.4722214E1,4.6468046E-2,-2.2046133E1,2.7465677E1,1.1761158E0,-4.1051517E0,8.847482E0,-2.2035217E-1,-1.7397708E0,-5.385446E0,4.82059E0,-1.4272456E0,-4.062963E0,7.666294E-1,6.9453797E0,-1.3405333E0],"categories":[],"categories_nodes":[],"categories_segments":[],"categories_sizes":[],"default_left":[0,0,0,0,0,0,0,0,0,0,0,0,0,0,0,0,0,0,0,0,0,0,0,0,0,0,0,0,0,0,0],"id":23,"left_children":[1,3,-1,5,7,-1,9,-1,11,13,15,-1,17,19,21,23,25,27,29,-1,-1,-1,-1,-1,-1,-1,-1,-1,-1,-1,-1],"loss_changes":[6.975693E4,4.9532523E4,0E0,5.172802E4,5.129238E4,0E0,6.300383E4,0E0,5.1058223E4,1.06787164E5,4.6099484E4,0E0,3.2192082E4,5.6359758E4,5.758228E4,1.0541633E4,3.3098805E4,1.6324143E4,4.211737E4,0E0,0E0,0E0,0E0,0E0,0E0,0E0,0E0,0E0,0E0,0E0,0E0],"parents":[2147483647,0,0,1,1,3,3,4,4,6,6,8,8,9,9,10,10,12,12,13,13,14,14,15,15,16,16,17,17,18,18],"right_children":[2,4,-1,6,8,-1,10,-1,12,14,16,-1,18,20,22,24,26,28,30,-1,-1,-1,-1,-1,-1,-1,-1,-1,-1,-1,-1],"split_conditions":[1.8521548E2,3.3262257E1,7.4229593E0,2.1157667E1,3.8984516E1,6.77613E0,3.8252193E1,-7.3481393E0,2.4199505E1,3.524242E1,6.49E0,-6.981579E0,4.9009033E1,3.1219301E1,5.1099144E1,6.04E0,6.74E0,7.33E0,5.318516E1,1.1761158E0,-4.1051517E0,8.847482E0,-2.2035217E-1,-1.7397708E0,-5.385446E0,4.82059E0,-1.4272456E0,-4.062963E0,7.666294E-1,6.9453797E0,-1.3405333E0],"split_indices":[0,5,0,3,5,0,4,0,4,4,1,0,5,4,0,1,1,1,5,0,0,0,0,0,0,0,0,0,0,0,0],"split_type":[0,0,0,0,0,0,0,0,0,0,0,0,0,0,0,0,0,0,0,0,0,0,0,0,0,0,0,0,0,0,0],"sum_hessian":[3.14E2,3.04E2,1E1,2.23E2,8.1E1,1E1,2.13E2,1.8E1,6.3E1,1.22E2,9.1E1,1.2E1,5.1E1,9E1,3.2E1,4.5E1,4.6E1,2.8E1,2.3E1,6.1E1,2.9E1,2.2E1,1E1,1.2E1,3.3E1,1E1,3.6E1,1.7E1,1.1E1,1.1E1,1.2E1],"tree_param":{"num_deleted":"0","num_feature":"6","num_nodes":"31","size_leaf_vector":"1"}},{"base_weights":[-2.8810856E-1,-2.0322851E1,1.1175461E1,-4.8102272E1,-1.35264635E1,2.5485268E1,-1.3000951E1,-1.4068073E0,-7.3200264E0,-3.1743972E0,-4.867331E1,3.269157E1,-4.8701525E0,-2.5190245E1,4.4520836E0,-3.7746925E1,2.0193487E1,-7.7223663E0,-1.8446045E0,-2.9543817E0,3.8617912E1,-1.4771513E0,-4.3095364E1,-2.2378624E1,-6.3654866E0,-4.8382854E0,5.9400597E0,5.6877666E1,1.7157461E1,-1.861101E0,2.104229E0,-1.4457649E0,-7.252086E0,-3.6458E0,-6.264829E-1,3.2725048E0,-4.742222E0,3.337239E0,1.3748308E1,-1.1367416E0,6.3365636E0],"categories":[],"categories_nodes":[],"categories_segments":[],"categories_sizes":[],"default_left":[0,0,0,0,0,0,0,0,0,0,0,0,0,0,0,0,0,0,0,0,0,0,0,0,0,0,0,0,0,0,0,0,0,0,0,0,0,0,0,0,0],"id":24,"left_children":[1,3,5,7,9,11,13,-1,-1,15,17,19,-1,21,-1,23,25,-1,-1,-1,27,29,31,33,-1,35,-1,37,39,-1,-1,-1,-1,-1,-1,-1,-1,-1,-1,-1,-1],"loss_changes":[7.509942E4,2.1816508E4,7.229097E4,1.8616578E4,3.513821E4,7.162635E4,5.581118E4,0E0,0E0,6.216164E4,1.7561504E4,4.5400312E4,0E0,2.753441E4,0E0,1.091848E4,4.5432875E4,0E0,0E0,0E0,4.2129E4,1.1581121E4,3.013064E4,4.535913E3,0E0,4.794014E4,0E0,1.07196375E5,6.92606E4,0E0,0E0,0E0,0E0,0E0,0E0,0E0,0E0,0E0,0E0,0E0,0E0],"parents":[2147483647,0,0,1,1,2,2,3,3,4,4,5,5,6,6,9,9,10,10,11,11,13,13,15,15,16,16,20,20,21,21,22,22,23,23,25,25,27,27,28,28],"right_children":[2,4,6,8,10,12,14,-1,-1,16,18,20,-1,22,-1,24,26,-1,-1,-1,28,30,32,34,-1,36,-1,38,40,-1,-1,-1,-1,-1,-1,-1,-1,-1,-1,-1,-1],"split_conditions":[2.513715E1,2.4560667E1,7.2E0,1.6910334E1,5.6003334E1,5.079428E1,7.93E0,-1.4068073E0,-7.3200264E0,1.774E1,6.1692E1,1.775E1,-4.8701525E0,7.46E0,4.4520836E0,1.4722728E1,6.48E0,-7.7223663E0,-1.8446045E0,-2.9543817E0,7.589398E1,8.778315E1,3.5916183E1,9.931291E0,-6.3654866E0,3.7449E1,5.9400597E0,6.429071E1,6.67E0,-1.861101E0,2.104229E0,-1.4457649E0,-7.252086E0,-3.6458E0,-6.264829E-1,3.2725048E0,-4.742222E0,3.337239E0,1.3748308E1,-1.1367416E0,6.3365636E0],"split_indices":[0,3,1,3,3,4,1,0,0,2,3,2,0,1,0,0,1,0,0,0,0,0,4,5,0,3,0,0,1,0,0,0,0,0,0,0,0,0,0,0,0],"split_type":[0,0,0,0,0,0,0,0,0,0,0,0,0,0,0,0,0,0,0,0,0,0,0,0,0,0,0,0,0,0,0,0,0,0,0,0,0,0,0,0,0],"sum_hessian":[3.25E2,1.18E2,2.07E2,2.2E1,9.6E1,1.3E2,7.7E1,1E1,1.2E1,7.5E1,2.1E1,1.19E2,1.1E1,6.4E1,1.3E1,3E1,4.5E1,1E1,1.1E1,1E1,1.09E2,2.8E1,3.6E1,2E1,1E1,2.8E1,1.7E1,5.8E1,5.1E1,1.6E1,1.2E1,1.9E1,1.7E1,1E1,1E1,1.5E1,1.3E1,4.6E1,1.2E1,3.2E1,1.9E1],"tree_param":{"num_deleted":"0","num_feature":"6","num_nodes":"41","size_leaf_vector":"1"}},{"base_weights":[-5.9349265E0,-9.1426307E-1,-6.0591644E1,-2.1988586E1,7.968504E0,-2.759054E0,-8.361807E0,9.2016155E-1,-2.8265621E1,4.4358765E1,6.8663675E-1,-5.551114E0,-1.947435E1,3.283817E-1,8.09372E0,-4.8355232E1,7.776425E0,1.4961737E0,-3.1102697E1,-6.613672E0,-2.2944813E0,-1.2981381E1,2.2268328E1,-2.7925272E0,3.345628E0,-4.3577104E0,3.4778497E-1,1.8594589E0,-3.3970628E0,7.321607E0,8.3853495E-1],"categories":[],"categories_nodes":[],"categories_segments":[],"categories_sizes":[],"default_left":[0,0,0,0,0,0,0,0,0,0,0,0,0,0,0,0,0,0,0,0,0,0,0,0,0,0,0,0,0,0,0],"id":25,"left_children":[1,3,5,7,9,-1,-1,-1,11,13,15,-1,17,-1,-1,19,21,23,25,-1,-1,27,29,-1,-1,-1,-1,-1,-1,-1,-1],"loss_changes":[9.132413E4,5.7457895E4,1.8970047E4,1.807625E4,5.7207176E4,0E0,0E0,0E0,1.7122688E4,5.3822688E4,6.3309086E4,0E0,1.4433832E4,0E0,0E0,8.874715E3,4.8119473E4,2.1621152E4,1.6543676E4,0E0,0E0,4.437355E4,6.587286E4,0E0,0E0,0E0,0E0,0E0,0E0,0E0,0E0],"parents":[2147483647,0,0,1,1,2,2,3,3,4,4,8,8,9,9,10,10,12,12,15,15,16,16,17,17,18,18,21,21,22,22],"right_children":[2,4,6,8,10,-1,-1,-1,12,14,16,-1,18,-1,-1,20,22,24,26,-1,-1,28,30,-1,-1,-1,-1,-1,-1,-1,-1],"split_conditions":[5.4129482E1,2.128514E1,3.1417755E1,5.85E0,3.1648344E1,-2.759054E0,-8.361807E0,9.2016155E-1,6.25E0,2.7317076E1,3.426342E1,-5.551114E0,6.6E0,3.283817E-1,8.09372E0,3.9412334E1,6.68E0,6.47E0,7.28E0,-6.613672E0,-2.2944813E0,6.26E0,1.9785376E1,-2.7925272E0,3.345628E0,-4.3577104E0,3.4778497E-1,1.8594589E0,-3.3970628E0,7.321607E0,8.3853495E-1],"split_indices":[5,0,0,1,4,0,0,0,1,4,4,0,1,0,0,3,1,1,1,0,0,1,5,0,0,0,0,0,0,0,0],"split_type":[0,0,0,0,0,0,0,0,0,0,0,0,0,0,0,0,0,0,0,0,0,0,0,0,0,0,0,0,0,0,0],"sum_hessian":[3.32E2,3.05E2,2.7E1,9E1,2.15E2,1.2E1,1.5E1,1.5E1,7.5E1,3.5E1,1.8E2,1.7E1,5.8E1,1.7E1,1.8E1,2.2E1,1.58E2,2.1E1,3.7E1,1.2E1,1E1,6.5E1,9.3E1,1.1E1,1E1,2.7E1,1E1,2.6E1,3.9E1,1.9E1,7.4E1],"tree_param":{"num_deleted":"0","num_feature":"6","num_nodes":"31","size_leaf_vector":"1"}},{"base_weights":[-5.571072E0,-2.1924417E0,-5.469814E1,-5.443957E0,4.4739E0,-1.0044228E0,-9.437949E0,-3.625159E1,8.6861855E-1,1.291688E0,-5.254723E1,7.136934E0,-1.7242624E1,-3.539027E1,-7.06501E0,2.570362E0,6.5250816E0,-3.095463E1,1.1002466E1,-1.449209E0,-5.3071156E0,-1.0435762E0,2.6555061E0,-1.180416E0,-4.9543E0,2.6909664E0,-5.9049547E-1],"categories":[],"categories_nodes":[],"categories_segments":[],"categories_sizes":[],"default_left":[0,0,0,0,0,0,0,0,0,0,0,0,0,0,0,0,0,0,0,0,0,0,0,0,0,0,0],"id":26,"left_children":[1,3,5,7,-1,-1,-1,9,11,-1,13,15,17,19,-1,21,-1,23,25,-1,-1,-1,-1,-1,-1,-1,-1],"loss_changes":[5.4156254E4,4.7091234E4,3.626251E4,5.6040438E4,0E0,0E0,0E0,3.9939094E4,2.7369533E4,0E0,8.991516E3,4.733552E4,2.4352984E4,6.9903535E3,0E0,5.2372438E4,0E0,1.436618E4,5.806843E3,0E0,0E0,0E0,0E0,0E0,0E0,0E0,0E0],"parents":[2147483647,0,0,1,1,2,2,3,3,7,7,8,8,10,10,11,11,12,12,13,13,15,15,17,17,18,18],"right_children":[2,4,6,8,-1,-1,-1,10,12,-1,14,16,18,20,-1,22,-1,24,26,-1,-1,-1,-1,-1,-1,-1,-1],"split_conditions":[5.6377205E1,7.91E0,7.24E0,1.7865524E1,4.4739E0,-1.0044228E0,-9.437949E0,3.2850376E1,3.1875591E1,1.291688E0,1.423E1,2.872043E1,9.6377655E1,1.7289755E1,-7.06501E0,6.68E0,6.5250816E0,3.5963776E1,1.3518666E2,-1.449209E0,-5.3071156E0,-1.0435762E0,2.6555061E0,-1.180416E0,-4.9543E0,2.6909664E0,-5.9049547E-1],"split_indices":[5,1,1,2,0,0,0,4,5,0,2,5,0,0,0,1,0,4,0,0,0,0,0,0,0,0,0],"split_type":[0,0,0,0,0,0,0,0,0,0,0,0,0,0,0,0,0,0,0,0,0,0,0,0,0,0,0],"sum_hessian":[3.26E2,3.06E2,2E1,2.87E2,1.9E1,1E1,1E1,4.8E1,2.39E2,1.2E1,3.6E1,1.78E2,6.1E1,2E1,1.6E1,1.66E2,1.2E1,4.1E1,2E1,1E1,1E1,1.08E2,5.8E1,2.1E1,2E1,1E1,1E1],"tree_param":{"num_deleted":"0","num_feature":"6","num_nodes":"27","size_leaf_vector":"1"}},{"base_weights":[2.962548E0,9.13707E0,-6.38291E-1,2.5293145E0,-6.521489E0,-3.2142387E1,6.9814477E0,-4.840966E1,-8.8933565E-2,4.142459E0,6.3224187E0,-3.2368152E0,-6.2966933E0,7.4318795E0,-4.6485696E0,4.7360778E-1,6.4348383E0],"categories":[],"categories_nodes":[],"categories_segments":[],"categories_sizes":[],"default_left":[0,0,0,0,0,0,0,0,0,0,0,0,0,0,0,0,0],"id":27,"left_children":[1,-1,3,5,-1,7,9,11,-1,13,-1,-1,-1,15,-1,-1,-1],"loss_changes":[1.0574838E5,0E0,6.562197E4,4.745949E4,0E0,1.7751016E4,4.3169016E4,3.3328477E3,0E0,4.364517E4,0E0,0E0,0E0,3.728697E4,0E0,0E0,0E0],"parents":[2147483647,0,0,2,2,3,3,5,5,6,6,7,7,9,9,13,13],"right_children":[2,-1,4,6,-1,8,10,12,-1,14,-1,-1,-1,16,-1,-1,-1],"split_conditions":[5.44E0,9.13707E0,6.184613E1,1.264E1,-6.521489E0,4.972149E1,7.73E0,7.51E0,-8.8933565E-2,7.53E0,6.3224187E0,-3.2368152E0,-6.2966933E0,1.7863829E2,-4.6485696E0,4.7360778E-1,6.4348383E0],"split_indices":[1,0,5,2,0,4,1,1,0,1,0,0,0,0,0,0,0],"split_type":[0,0,0,0,0,0,0,0,0,0,0,0,0,0,0,0,0],"sum_hessian":[3.31E2,1.2E1,3.19E2,3.05E2,1.4E1,3.4E1,2.71E2,2.2E1,1.2E1,2.59E2,1.2E1,1.2E1,1E1,2.44E2,1.5E1,2.34E2,1E1],"tree_param":{"num_deleted":"0","num_feature":"6","num_nodes":"17","size_leaf_vector":"1"}},{"base_weights":[3.883695E-1,-2.8335875E1,8.868409E0,-5.239129E1,-1.8635883E1,1.3461843E1,-5.210449E0,-6.1059613E0,-3.896012E0,-4.039318E1,1.1150345E1,2.187888E1,-1.0132495E1,-2.9609619E-2,-6.1382317E1,-1.7265681E0,3.2680771E0,1.6459625E1,1.0117869E1,1.5015263E1,-3.2023678E1,-4.2815795E0,-7.436863E0,2.814711E1,-2.0915222E-1,-2.1380858E0,4.8198175E0,-7.2354326E0,-9.589267E0,4.8235583E0,4.826506E-1,-2.473442E0,3.4471714E0,9.1986334E-1,-3.09214E0],"categories":[],"categories_nodes":[],"categories_segments":[],"categories_sizes":[],"default_left":[0,0,0,0,0,0,0,0,0,0,0,0,0,0,0,0,0,0,0,0,0,0,0,0,0,0,0,0,0,0,0,0,0,0,0],"id":28,"left_children":[1,3,5,7,9,11,-1,-1,-1,13,15,17,19,-1,21,-1,-1,23,-1,25,27,-1,-1,29,31,-1,-1,-1,33,-1,-1,-1,-1,-1,-1],"loss_changes":[8.014643E4,1.6523945E4,7.184047E4,6.605078E1,3.6094133E4,4.728856E4,0E0,0E0,0E0,2.6913125E4,1.5247675E4,7.354016E4,3.5163234E4,0E0,1.8791797E3,0E0,0E0,3.2150535E4,0E0,3.7262395E4,3.006918E4,0E0,0E0,4.5209305E4,5.9541113E4,0E0,0E0,0E0,9.502511E3,0E0,0E0,0E0,0E0,0E0,0E0],"parents":[2147483647,0,0,1,1,2,2,3,3,4,4,5,5,9,9,10,10,11,11,12,12,14,14,17,17,19,19,20,20,23,23,24,24,28,28],"right_children":[2,4,6,8,10,12,-1,-1,-1,14,16,18,20,-1,22,-1,-1,24,-1,26,28,-1,-1,30,32,-1,-1,-1,34,-1,-1,-1,-1,-1,-1],"split_conditions":[1.7865524E1,1.6622904E1,5.237886E1,6.47E0,3.622284E1,3.8072044E1,-5.210449E0,-6.1059613E0,-3.896012E0,6.97E0,7.39E0,1.7171375E2,3.3884163E1,-2.9609619E-2,2.2085806E1,-1.7265681E0,3.2680771E0,5.0989586E1,1.0117869E1,2.5939936E1,7.12E0,-4.2815795E0,-7.436863E0,2.2465485E1,6.63E0,-2.1380858E0,4.8198175E0,-7.2354326E0,1.7605333E1,4.8235583E0,4.826506E-1,-2.473442E0,3.4471714E0,9.1986334E-1,-3.09214E0],"split_indices":[2,5,4,1,4,5,0,0,0,1,1,0,4,0,0,0,0,0,0,4,1,0,0,5,1,0,0,0,3,0,0,0,0,0,0],"split_type":[0,0,0,0,0,0,0,0,0,0,0,0,0,0,0,0,0,0,0,0,0,0,0,0,0,0,0,0,0,0,0,0,0,0,0],"sum_hessian":[3.27E2,7.4E1,2.53E2,2E1,5.4E1,2.36E2,1.7E1,1E1,1E1,3.1E1,2.3E1,1.74E2,6.2E1,1.1E1,2E1,1E1,1.3E1,1.64E2,1E1,2.9E1,3.3E1,1E1,1E1,9.6E1,6.8E1,1.4E1,1.5E1,1.1E1,2.2E1,5.1E1,4.5E1,4E1,2.8E1,1.2E1,1E1],"tree_param":{"num_deleted":"0","num_feature":"6","num_nodes":"35","size_leaf_vector":"1"}},{"base_weights":[-1.1542993E-1,6.1130986E0,-2.915981E0,-2.0601297E1,5.2715254E0,-2.4964668E1,6.9523424E-1,-4.487754E0,3.4803772E1,-1.4829704E1,-4.1221382E1,-2.6672064E1,1.2083086E1,-3.2840436E0,6.0352642E1,-4.279263E0,-3.7451255E0,-2.5356272E1,-6.2074666E0,-3.4274662E1,1.4830707E0,-6.69336E0,3.0242342E1,-2.7954428E0,9.7857445E1,-2.4755445E0,2.7982223E0,-1.2382526E0,-3.60249E0,-4.6521335E0,-1.7538385E-1,3.7462919E0,-1.8976071E0,6.668098E0,1.5564023E-1,1.8381481E0,1.816973E1],"categories":[],"categories_nodes":[],"categories_segments":[],"categories_sizes":[],"default_left":[0,0,0,0,0,0,0,0,0,0,0,0,0,0,0,0,0,0,0,0,0,0,0,0,0,0,0,0,0,0,0,0,0,0,0,0,0],"id":29,"left_children":[1,-1,3,5,7,9,-1,11,13,15,17,19,21,-1,23,25,-1,27,-1,29,-1,31,33,-1,35,-1,-1,-1,-1,-1,-1,-1,-1,-1,-1,-1,-1],"loss_changes":[5.8839363E4,0E0,4.7602555E4,1.2677145E4,6.5004223E4,1.4217211E4,0E0,6.281643E4,9.876305E4,1.3443775E4,9.674559E3,2.354193E4,3.3617117E4,0E0,1.3852503E5,2.7116393E4,0E0,2.4605742E3,0E0,2.4611258E4,0E0,2.728648E4,5.216004E4,0E0,1.898945E5,0E0,0E0,0E0,0E0,0E0,0E0,0E0,0E0,0E0,0E0,0E0,0E0],"parents":[2147483647,0,0,2,2,3,3,4,4,5,5,7,7,8,8,9,9,10,10,11,11,12,12,14,14,15,15,17,17,19,19,21,21,22,22,24,24],"right_children":[2,-1,4,6,8,10,-1,12,14,16,18,20,22,-1,24,26,-1,28,-1,30,-1,32,34,-1,36,-1,-1,-1,-1,-1,-1,-1,-1,-1,-1,-1,-1],"split_conditions":[5.44E0,6.1130986E0,2.1337442E1,3.8105698E1,4.4669666E1,1.5548542E1,6.9523424E-1,3.8608765E1,6.1E0,5.6772E1,3.6712364E1,1.16323044E2,2.2282581E1,-3.2840436E0,1.4004517E1,1.7865524E1,-3.7451255E0,4.4779667E1,-6.2074666E0,3.8395E1,1.4830707E0,1.1513226E1,3.134301E1,-2.7954428E0,3.0419956E1,-2.4755445E0,2.7982223E0,-1.2382526E0,-3.60249E0,-4.6521335E0,-1.7538385E-1,3.7462919E0,-1.8976071E0,6.668098E0,1.5564023E-1,1.8381481E0,1.816973E1],"split_indices":[1,0,0,5,3,0,0,4,1,3,4,0,5,0,5,2,0,3,0,3,0,5,5,0,4,0,0,0,0,0,0,0,0,0,0,0,0],"split_type":[0,0,0,0,0,0,0,0,0,0,0,0,0,0,0,0,0,0,0,0,0,0,0,0,0,0,0,0,0,0,0,0,0,0,0,0,0],"sum_hessian":[3.41E2,1.4E1,3.27E2,1.03E2,2.24E2,8.9E1,1.4E1,1.69E2,5.5E1,5.6E1,3.3E1,7.2E1,9.7E1,1.5E1,4E1,3.9E1,1.7E1,2E1,1.3E1,6.1E1,1.1E1,4.8E1,4.9E1,1.2E1,2.8E1,2.4E1,1.5E1,1E1,1E1,4.4E1,1.7E1,1E1,3.8E1,2.1E1,2.8E1,1.5E1,1.3E1],"tree_param":{"num_deleted":"0","num_feature":"6","num_nodes":"37","size_leaf_vector":"1"}},{"base_weights":[3.7806928E0,1.661619E0,6.431221E0,4.659124E0,-1.2085973E0,-2.4877213E1,2.3463435E0,-1.12275305E1,-5.465337E0,-2.911908E0,4.6674595E0,-2.9241278E0,4.046224E-2,-1.1461117E1,9.226805E0,-3.523682E0,2.4524598E-1,2.8600051E0,2.2914217E-1],"categories":[],"categories_nodes":[],"categories_segments":[],"categories_sizes":[],"default_left":[0,0,0,0,0,0,0,0,0,0,0,0,0,0,0,0,0,0,0],"id":30,"left_children":[1,3,-1,-1,5,7,9,11,-1,-1,13,-1,-1,15,17,-1,-1,-1,-1],"loss_changes":[4.1709402E4,4.0806953E4,0E0,0E0,2.5132246E4,1.5237344E4,1.9124984E4,5.878915E3,0E0,0E0,1.7974938E4,0E0,0E0,1.7949889E4,2.5463033E4,0E0,0E0,0E0,0E0],"parents":[2147483647,0,0,1,1,4,4,5,5,6,6,7,7,10,10,13,13,14,14],"right_children":[2,4,-1,-1,6,8,10,12,-1,-1,14,-1,-1,16,18,-1,-1,-1,-1],"split_conditions":[1.8521548E2,5.6E0,6.431221E0,4.659124E0,1.301E1,4.086789E1,9.844854E0,6.96E0,-5.465337E0,-2.911908E0,6.23E0,-2.9241278E0,4.046224E-2,2.4871244E1,3.2576653E1,-3.523682E0,2.4524598E-1,2.8600051E0,2.2914217E-1],"split_indices":[0,1,0,0,2,0,0,1,0,0,1,0,0,0,4,0,0,0,0],"split_type":[0,0,0,0,0,0,0,0,0,0,0,0,0,0,0,0,0,0,0],"sum_hessian":[3.25E2,3.15E2,1E1,1.8E1,2.97E2,3.8E1,2.59E2,2.7E1,1.1E1,1.7E1,2.42E2,1E1,1.7E1,5.3E1,1.89E2,1.9E1,3.4E1,4.9E1,1.4E2],"tree_param":{"num_deleted":"0","num_feature":"6","num_nodes":"19","size_leaf_vector":"1"}},{"base_weights":[2.9156527E-1,-2.1250114E0,6.727014E0,1.628873E0,-2.442939E1,-1.1258275E1,9.525105E0,3.2431073E0,-5.2045307E1,-3.7560757E1,-3.358078E0,3.4679825E1,-1.9122028E0,-8.327781E0,-2.65971E0,-8.895055E-1,-5.892706E0,-2.6827635E1,6.944239E0,8.768779E0,7.942248E0,1.1920561E1,-3.8886627E1,-1.2044047E0,-4.3204236E0,-3.3665245E0,2.0315394E0,-1.1099061E0,2.875652E0,-2.1941254E0,3.252936E0,-6.1096196E0,-1.4246645E0],"categories":[],"categories_nodes":[],"categories_segments":[],"categories_sizes":[],"default_left":[0,0,0,0,0,0,0,0,0,0,0,0,0,0,0,0,0,0,0,0,0,0,0,0,0,0,0,0,0,0,0,0,0],"id":31,"left_children":[1,3,-1,5,7,9,11,-1,13,15,17,19,21,-1,-1,-1,-1,23,25,-1,27,29,31,-1,-1,-1,-1,-1,-1,-1,-1,-1,-1],"loss_changes":[5.1128492E4,2.5576852E4,0E0,2.6768336E4,7.0779055E4,2.0653344E4,4.696179E4,0E0,2.162939E4,1.3562885E4,1.904598E4,7.158609E4,5.8258355E4,0E0,0E0,0E0,0E0,5.290164E3,3.0548688E4,0E0,1.4190756E4,5.863539E4,1.6094129E4,0E0,0E0,0E0,0E0,0E0,0E0,0E0,0E0,0E0,0E0],"parents":[2147483647,0,0,1,1,3,3,4,4,5,5,6,6,8,8,9,9,10,10,11,11,12,12,17,17,18,18,20,20,21,21,22,22],"right_children":[2,4,-1,6,8,10,12,-1,14,16,18,20,22,-1,-1,-1,-1,24,26,-1,28,30,32,-1,-1,-1,-1,-1,-1,-1,-1,-1,-1],"split_conditions":[1.7523944E2,1.842E1,6.727014E0,2.513715E1,3.2576653E1,3.0881332E1,5.1204754E1,3.2431073E0,3.7906E1,1.5770722E1,1.0104114E1,6.35E0,4.276889E1,-8.327781E0,-2.65971E0,-8.895055E-1,-5.892706E0,1.7929678E1,5.74E0,8.768779E0,2.7138334E1,7.4960915E1,6.13E0,-1.2044047E0,-4.3204236E0,-3.3665245E0,2.0315394E0,-1.1099061E0,2.875652E0,-2.1941254E0,3.252936E0,-6.1096196E0,-1.4246645E0],"split_indices":[0,2,0,0,4,3,0,0,3,0,0,1,3,0,0,0,0,5,1,0,3,0,1,0,0,0,0,0,0,0,0,0,0],"split_type":[0,0,0,0,0,0,0,0,0,0,0,0,0,0,0,0,0,0,0,0,0,0,0,0,0,0,0,0,0,0,0,0,0],"sum_hessian":[3.14E2,3.04E2,1E1,2.61E2,4.3E1,9.9E1,1.62E2,1.4E1,2.9E1,2.2E1,7.7E1,5E1,1.12E2,1.2E1,1.7E1,1E1,1.2E1,2.3E1,5.4E1,1.6E1,3.4E1,8.2E1,3E1,1.3E1,1E1,1.3E1,4.1E1,1.8E1,1.6E1,3.1E1,5.1E1,1.5E1,1.5E1],"tree_param":{"num_deleted":"0","num_feature":"6","num_nodes":"33","size_leaf_vector":"1"}},{"base_weights":[3.3865595E-1,-2.3380573E1,4.9950185E0,-2.9773588E1,4.3169957E-1,8.181617E0,8.710071E-1,-5.132913E0,-1.1338209E1,2.4142954E1,-4.3286414E0,1.7863817E0,-5.012841E0,-1.2763427E-1,3.4647263E1,1.0857939E0,-5.4399414E1,7.32283E0,1.5520648E1,-4.8661666E0,6.4197826E0,-2.2120159E0,-8.173327E0,-1.5965232E0,4.339064E0,-3.1242542E0,1.2247549E0],"categories":[],"categories_nodes":[],"categories_segments":[],"categories_sizes":[],"default_left":[0,0,0,0,0,0,0,0,0,0,0,0,0,0,0,0,0,0,0,0,0,0,0,0,0,0,0],"id":32,"left_children":[1,3,5,7,-1,-1,9,-1,11,13,15,-1,-1,-1,17,19,21,-1,23,-1,25,-1,-1,-1,-1,-1,-1],"loss_changes":[3.6342855E4,9.690363E3,8.7051836E4,1.6902941E4,0E0,0E0,3.1808062E4,0E0,2.9214297E4,1.2860807E4,5.8346637E4,0E0,0E0,0E0,2.395289E4,5.2056113E4,1.6720688E4,0E0,2.1753012E4,0E0,3.9231883E4,0E0,0E0,0E0,0E0,0E0,0E0],"parents":[2147483647,0,0,1,1,2,2,3,3,6,6,8,8,9,9,10,10,14,14,15,15,16,16,18,18,20,20],"right_children":[2,4,6,8,-1,-1,10,-1,12,14,16,-1,-1,-1,18,20,22,-1,24,-1,26,-1,-1,-1,-1,-1,-1],"split_conditions":[2.7236559E1,6.604E1,1.39016E1,1.999414E1,4.3169957E-1,8.181617E0,3.1648344E1,-5.132913E0,5.6384E1,2.2085806E1,2.17E1,1.7863817E0,-5.012841E0,-1.2763427E-1,3.682281E1,5.92E0,3.7017033E1,7.32283E0,6.071808E1,-4.8661666E0,3.4830097E1,-2.2120159E0,-8.173327E0,-1.5965232E0,4.339064E0,-3.1242542E0,1.2247549E0],"split_indices":[4,3,3,4,0,0,4,0,3,0,2,0,0,0,0,1,4,0,0,0,4,0,0,0,0,0,0],"split_type":[0,0,0,0,0,0,0,0,0,0,0,0,0,0,0,0,0,0,0,0,0,0,0,0,0,0,0],"sum_hessian":[3.27E2,5.3E1,2.74E2,4.3E1,1E1,1.3E1,2.61E2,1.9E1,2.4E1,4.7E1,2.14E2,1.4E1,1E1,1.4E1,3.3E1,1.94E2,2E1,1E1,2.3E1,1.8E1,1.76E2,1E1,1E1,1.1E1,1.2E1,2.3E1,1.53E2],"tree_param":{"num_deleted":"0","num_feature":"6","num_nodes":"27","size_leaf_vector":"1"}},{"base_weights":[1.0772619E0,7.358663E0,-1.628296E0,-3.000557E1,3.330749E0,-5.6733336E0,-1.733139E1,6.7603273E0,-6.372938E-1,-3.922341E0,1.30134E0,-1.9321417E1,5.6898313E0,-3.7805702E1,2.8392646E0,1.5236809E0,5.558206E0,-9.6918076E-1,-5.931311E0,-3.0478601E0,7.829897E-1],"categories":[],"categories_nodes":[],"categories_segments":[],"categories_sizes":[],"default_left":[0,0,0,0,0,0,0,0,0,0,0,0,0,0,0,0,0,0,0,0,0],"id":33,"left_children":[1,-1,3,5,7,-1,9,-1,11,-1,-1,13,15,17,-1,19,-1,-1,-1,-1,-1],"loss_changes":[6.5447195E4,0E0,4.541313E4,1.5276852E4,7.0178016E4,0E0,2.309693E4,0E0,3.0846297E4,0E0,0E0,5.9282797E4,4.0447723E4,2.844868E4,0E0,3.6766848E4,0E0,0E0,0E0,0E0,0E0],"parents":[2147483647,0,0,2,2,3,3,4,4,6,6,8,8,11,11,12,12,13,13,15,15],"right_children":[2,-1,4,6,8,-1,10,-1,12,-1,-1,14,16,18,-1,20,-1,-1,-1,-1,-1],"split_conditions":[5.44E0,7.358663E0,1.7821667E1,6.87E0,2.0708666E1,-5.6733336E0,3.5714527E1,6.7603273E0,3.0509666E1,-3.922341E0,1.30134E0,7.53E0,2.995871E1,3.8080246E1,2.8392646E0,1.7865524E1,5.558206E0,-9.6918076E-1,-5.931311E0,-3.0478601E0,7.829897E-1],"split_indices":[1,0,3,1,3,0,4,0,3,0,0,1,5,0,0,2,0,0,0,0,0],"split_type":[0,0,0,0,0,0,0,0,0,0,0,0,0,0,0,0,0,0,0,0,0],"sum_hessian":[3.32E2,1.1E1,3.21E2,4.7E1,2.74E2,1.4E1,3.3E1,1.5E1,2.59E2,1.9E1,1.4E1,6.5E1,1.94E2,4.7E1,1.8E1,1.8E2,1.4E1,2.1E1,2.6E1,2.9E1,1.51E2],"tree_param":{"num_deleted":"0","num_feature":"6","num_nodes":"21","size_leaf_vector":"1"}},{"base_weights":[2.9464831E0,-1.9294746E1,8.2258625E0,-3.341939E1,2.6961677E0,-1.5032977E1,1.3040932E1,-1.4646862E0,-5.1378207E0,2.6242106E0,-1.5996796E0,-3.3455994E0,-4.985451E0,7.434362E0,9.533939E0,2.3437667E0,-3.3076203E0,2.4078358E1,-7.1692996E0,1.1607629E1,5.2164474E1,-3.8879303E1,8.044501E0,-2.7574077E0,2.0409863E0,8.349476E0,5.918769E-1,-5.249314E0,-1.4084128E0,-6.555777E-1,5.134256E0],"categories":[],"categories_nodes":[],"categories_segments":[],"categories_sizes":[],"default_left":[0,0,0,0,0,0,0,0,0,0,0,0,0,0,0,0,0,0,0,0,0,0,0,0,0,0,0,0,0,0,0],"id":34,"left_children":[1,3,5,7,9,11,13,-1,-1,-1,-1,-1,15,-1,17,-1,-1,19,21,23,25,27,29,-1,-1,-1,-1,-1,-1,-1,-1],"loss_changes":[3.6089203E4,1.841632E4,2.7970285E4,1.1384234E4,1.098323E4,7.792755E3,4.3578754E4,0E0,0E0,0E0,0E0,0E0,2.3929604E4,0E0,4.778865E4,0E0,0E0,3.6171195E4,4.4696293E4,2.608438E4,4.5870336E4,9.387402E3,4.01629E4,0E0,0E0,0E0,0E0,0E0,0E0,0E0,0E0],"parents":[2147483647,0,0,1,1,2,2,3,3,4,4,5,5,6,6,12,12,14,14,17,17,18,18,19,19,20,20,21,21,22,22],"right_children":[2,4,6,8,10,12,14,-1,-1,-1,-1,-1,16,-1,18,-1,-1,20,22,24,26,28,30,-1,-1,-1,-1,-1,-1,-1,-1],"split_conditions":[1.777E1,7.32E0,1.88308E1,1.9081753E1,8.35E0,6.87E0,2.0708666E1,-1.4646862E0,-5.1378207E0,2.6242106E0,-1.5996796E0,-3.3455994E0,7.24E0,7.434362E0,4.5156635E1,2.3437667E0,-3.3076203E0,2.452473E1,7.4960915E1,5.61E0,6.35E0,6.76E0,2.031E1,-2.7574077E0,2.0409863E0,8.349476E0,5.918769E-1,-5.249314E0,-1.4084128E0,-6.555777E-1,5.134256E0],"split_indices":[2,1,3,0,1,1,3,0,0,0,0,0,1,0,0,0,0,0,0,1,1,1,2,0,0,0,0,0,0,0,0],"split_type":[0,0,0,0,0,0,0,0,0,0,0,0,0,0,0,0,0,0,0,0,0,0,0,0,0,0,0,0,0,0,0],"sum_hessian":[3.05E2,5.8E1,2.47E2,3.5E1,2.3E1,4.2E1,2.05E2,1.8E1,1.7E1,1E1,1.3E1,1.4E1,2.8E1,1E1,1.95E2,1.4E1,1.4E1,1.04E2,9.1E1,7.3E1,3.1E1,2.9E1,6.2E1,1.3E1,6E1,1.8E1,1.3E1,1.8E1,1.1E1,4.7E1,1.5E1],"tree_param":{"num_deleted":"0","num_feature":"6","num_nodes":"31","size_leaf_vector":"1"}},{"base_weights":[-4.6880662E-1,5.9994936E0,-3.1460965E0,-1.6120111E1,3.860029E0,5.702982E0,-2.75582E1,1.6993933E1,-1.3256934E1,3.558073E0,-1.06043825E1,-5.754515E0,-1.8131248E1,-1.7564337E1,2.7060738E1,1.5143067E1,-3.2470695E1,-1.3249397E-1,-2.313772E0,1.9388064E0,-2.9657137E1,-2.556341E0,-3.6053738E-1,-2.8553948E0,5.276141E1,-1.1697103E0,3.0168873E1,-5.57361E1,-1.2000505E1,-5.465383E0,-1.7411625E0,3.1381166E0,-4.7753215E0,-1.629411E-1,7.044572E0,5.6219835E0,7.5453395E-1,-3.9017723E0,-7.3466964E0,3.5453668E-1,-3.9174771E0],"categories":[],"categories_nodes":[],"categories_segments":[],"categories_sizes":[],"default_left":[0,0,0,0,0,0,0,0,0,0,0,0,0,0,0,0,0,0,0,0,0,0,0,0,0,0,0,0,0,0,0,0,0,0,0,0,0,0,0,0,0],"id":35,"left_children":[1,-1,3,5,7,9,11,13,15,-1,17,-1,19,21,23,25,27,-1,-1,-1,29,-1,-1,31,33,-1,35,37,39,-1,-1,-1,-1,-1,-1,-1,-1,-1,-1,-1,-1],"loss_changes":[5.3446926E4,0E0,2.8785857E4,2.7864375E4,4.653667E4,1.9379182E4,1.9592684E4,4.1178594E4,4.9602086E4,0E0,2.993206E3,0E0,2.5224268E4,2.922621E3,7.011735E4,1.5274809E4,2.5048488E4,0E0,0E0,0E0,1.2516668E4,0E0,0E0,6.759587E4,4.724611E4,0E0,1.3720561E4,4.5442812E3,1.2812318E4,0E0,0E0,0E0,0E0,0E0,0E0,0E0,0E0,0E0,0E0,0E0,0E0],"parents":[2147483647,0,0,2,2,3,3,4,4,5,5,6,6,7,7,8,8,10,10,12,12,13,13,14,14,15,15,16,16,20,20,23,23,24,24,26,26,27,27,28,28],"right_children":[2,-1,4,6,8,10,12,14,16,-1,18,-1,20,22,24,26,28,-1,-1,-1,30,-1,-1,32,34,-1,36,38,40,-1,-1,-1,-1,-1,-1,-1,-1,-1,-1,-1,-1],"split_conditions":[5.44E0,5.9994936E0,6.49E0,1.4483548E1,7.26E0,3.3513355E1,1.807699E1,1.6193274E1,2.4496775E1,3.558073E0,4.7923485E1,-5.754515E0,2.0296667E1,2.5354193E1,2.9846666E1,1.722957E1,4.962245E1,-1.3249397E-1,-2.313772E0,1.9388064E0,5.92E0,-2.556341E0,-3.6053738E-1,2.0598667E1,3.3594364E1,-1.1697103E0,2.4560667E1,2.9480886E1,1.1675043E2,-5.465383E0,-1.7411625E0,3.1381166E0,-4.7753215E0,-1.629411E-1,7.044572E0,5.6219835E0,7.5453395E-1,-3.9017723E0,-7.3466964E0,3.5453668E-1,-3.9174771E0],"split_indices":[1,0,1,5,1,4,5,0,5,0,4,0,5,5,3,5,0,0,0,0,1,0,0,3,4,0,3,0,0,0,0,0,0,0,0,0,0,0,0,0,0],"split_type":[0,0,0,0,0,0,0,0,0,0,0,0,0,0,0,0,0,0,0,0,0,0,0,0,0,0,0,0,0,0,0,0,0,0,0,0,0,0,0,0,0],"sum_hessian":[3.28E2,1.3E1,3.15E2,1.1E2,2.05E2,3.8E1,7.2E1,1.16E2,8.9E1,1.3E1,2.5E1,1.6E1,5.6E1,2.6E1,9E1,3.6E1,5.3E1,1.5E1,1E1,1.3E1,4.3E1,1.6E1,1E1,4.2E1,4.8E1,1.3E1,2.3E1,2.4E1,2.9E1,1.3E1,3E1,2.4E1,1.8E1,1.2E1,3.6E1,1E1,1.3E1,1.4E1,1E1,1.9E1,1E1],"tree_param":{"num_deleted":"0","num_feature":"6","num_nodes":"41","size_leaf_vector":"1"}},{"base_weights":[3.3110442E0,4.063565E1,-5.390433E-1,-2.7786818E-1,1.1192989E1,-5.9676796E1,4.203063E0,-4.3878284E0,-7.005015E0,-7.642159E-1,2.291199E1,5.8773E0,-2.565253E1,8.088046E0,4.8538E0,-8.593715E0,2.0629591E1,1.4022049E0,-4.6657383E1,1.8609972E1,-2.832275E0,-3.0488265E-1,-4.1608977E0,-2.3867214E0,3.8380334E0,-1.0907204E0,-6.789876E0,6.316908E0,-9.0559924E-1],"categories":[],"categories_nodes":[],"categories_segments":[],"categories_sizes":[],"default_left":[0,0,0,0,0,0,0,0,0,0,0,0,0,0,0,0,0,0,0,0,0,0,0,0,0,0,0,0,0],"id":36,"left_children":[1,3,5,-1,-1,7,9,-1,-1,11,13,15,17,-1,19,21,23,-1,25,27,-1,-1,-1,-1,-1,-1,-1,-1,-1],"loss_changes":[4.4569836E4,9.0071586E4,7.93342E4,0E0,0E0,3.67875E2,2.4365812E4,0E0,0E0,3.4532367E4,5.7181742E4,3.5401586E4,3.7322008E4,0E0,2.0151523E4,1.5250682E4,6.5683836E4,0E0,2.1281516E4,3.8787945E4,0E0,0E0,0E0,0E0,0E0,0E0,0E0,0E0,0E0],"parents":[2147483647,0,0,1,1,2,2,5,5,6,6,9,9,10,10,11,11,12,12,14,14,15,15,16,16,18,18,19,19],"right_children":[2,4,6,-1,-1,8,10,-1,-1,12,14,16,18,-1,20,22,24,-1,26,28,-1,-1,-1,-1,-1,-1,-1,-1,-1],"split_conditions":[5.72E0,2.4067066E1,5.98E0,-2.7786818E-1,1.1192989E1,2.8821726E1,4.4669666E1,-4.3878284E0,-7.005015E0,1.79E1,4.7493E1,4.059584E1,3.6279278E1,8.088046E0,3.1648344E1,7.64E0,2.864828E1,1.4022049E0,2.134E1,5.4769E1,-2.832275E0,-3.0488265E-1,-4.1608977E0,-2.3867214E0,3.8380334E0,-1.0907204E0,-6.789876E0,6.316908E0,-9.0559924E-1],"split_indices":[1,0,1,0,0,0,3,0,0,2,3,4,4,0,4,1,0,0,2,3,0,0,0,0,0,0,0,0,0],"split_type":[0,0,0,0,0,0,0,0,0,0,0,0,0,0,0,0,0,0,0,0,0,0,0,0,0,0,0,0,0],"sum_hessian":[3.09E2,2.8E1,2.81E2,1.8E1,1E1,2E1,2.61E2,1E1,1E1,2.07E2,5.4E1,1.64E2,4.3E1,1.2E1,4.2E1,8.3E1,8.1E1,1.5E1,2.8E1,3E1,1.2E1,7.2E1,1.1E1,2.3E1,5.8E1,1.1E1,1.7E1,1.1E1,1.9E1],"tree_param":{"num_deleted":"0","num_feature":"6","num_nodes":"29","size_leaf_vector":"1"}},{"base_weights":[1.0648952E0,-1.928948E1,4.8725877E0,-4.061385E0,-4.1928554E0,9.007912E0,-1.5728519E1,-3.552831E0,2.3942451E0,-2.4189225E-1,1.9594149E1,-4.1082867E1,4.98424E0,1.4707979E1,-1.817734E1,7.847586E0,1.1785818E1,-6.4267106E0,-1.2432921E0,5.6127906E0,3.4893582E0,3.1000762E0,-4.2029076E1,5.2442566E1,-7.140878E-2,-6.3533133E-1,3.4263217E0,-1.4238063E0,2.138742E0,-5.5813975E0,-2.622674E0,1.6157137E0,8.396049E0,9.7663033E-1,-3.8761647E0],"categories":[],"categories_nodes":[],"categories_segments":[],"categories_sizes":[],"default_left":[0,0,0,0,0,0,0,0,0,0,0,0,0,0,0,0,0,0,0,0,0,0,0,0,0,0,0,0,0,0,0,0,0,0,0],"id":37,"left_children":[1,3,5,7,-1,9,11,-1,-1,13,15,17,-1,19,21,-1,23,-1,-1,-1,25,27,29,31,33,-1,-1,-1,-1,-1,-1,-1,-1,-1,-1],"loss_changes":[2.4585004E4,1.706721E4,2.2888012E4,2.8167668E4,0E0,2.1841033E4,7.686052E4,0E0,0E0,3.244327E4,4.689095E4,2.1120469E4,0E0,3.0472662E4,2.8042977E4,0E0,4.483684E4,0E0,0E0,0E0,1.6271228E4,9.81657E3,4.1998555E3,2.2659914E4,2.8164064E4,0E0,0E0,0E0,0E0,0E0,0E0,0E0,0E0,0E0,0E0],"parents":[2147483647,0,0,1,1,2,2,3,3,5,5,6,6,9,9,10,10,11,11,13,13,14,14,16,16,20,20,21,21,22,22,23,23,24,24],"right_children":[2,4,6,8,-1,10,12,-1,-1,14,16,18,-1,20,22,-1,24,-1,-1,-1,26,28,30,32,34,-1,-1,-1,-1,-1,-1,-1,-1,-1,-1],"split_conditions":[2.5939936E1,5.6772E1,1.842E1,4.7161667E1,-4.1928554E0,4.0988194E1,4.3324333E1,-3.552831E0,2.3942451E0,4.4580868E1,4.232282E1,2.4122366E1,4.98424E0,1.7300537E1,3.5916183E1,7.847586E0,2.0182333E1,-6.4267106E0,-1.2432921E0,5.6127906E0,3.746869E1,2.687871E1,3.764214E1,5.0653606E1,1.0555453E2,-6.3533133E-1,3.4263217E0,-1.4238063E0,2.138742E0,-5.5813975E0,-2.622674E0,1.6157137E0,8.396049E0,9.7663033E-1,-3.8761647E0],"split_indices":[4,3,2,3,0,4,3,0,0,0,4,5,0,5,4,0,3,0,0,0,4,5,4,0,0,0,0,0,0,0,0,0,0,0,0],"split_type":[0,0,0,0,0,0,0,0,0,0,0,0,0,0,0,0,0,0,0,0,0,0,0,0,0,0,0,0,0,0,0,0,0,0,0],"sum_hessian":[3.15E2,4.9E1,2.66E2,3E1,1.9E1,2.22E2,4.4E1,1.4E1,1.6E1,1.19E2,1.03E2,3.2E1,1.2E1,6.5E1,5.4E1,1.1E1,9.2E1,1.7E1,1.5E1,1.3E1,5.2E1,2.9E1,2.5E1,2E1,7.2E1,4E1,1.2E1,1.5E1,1.4E1,1.2E1,1.3E1,1E1,1E1,5.8E1,1.4E1],"tree_param":{"num_deleted":"0","num_feature":"6","num_nodes":"35","size_leaf_vector":"1"}},{"base_weights":[5.0536096E-2,2.5460806E0,-4.619341E0,-1.0778983E0,7.509752E0,4.12553E0,-1.6007257E1,1.3754126E0,5.259631E0,-3.7383778E1,-2.592912E0,4.829205E0,-4.4536595E0,-5.5920568E0,-8.841781E-1,2.310592E0,-1.3532613E1,9.540872E-1,-2.428636E0,1.5572232E0,-2.579744E0],"categories":[],"categories_nodes":[],"categories_segments":[],"categories_sizes":[],"default_left":[0,0,0,0,0,0,0,0,0,0,0,0,0,0,0,0,0,0,0,0,0],"id":38,"left_children":[1,3,-1,5,-1,7,9,11,-1,13,15,17,-1,-1,-1,-1,19,-1,-1,-1,-1],"loss_changes":[3.831628E4,8.290228E4,0E0,2.3448875E4,0E0,2.9786932E4,2.2269723E4,3.39906E4,0E0,1.5377875E4,1.4088423E4,2.7531096E4,0E0,0E0,0E0,0E0,1.2895529E4,0E0,0E0,0E0,0E0],"parents":[2147483647,0,0,1,1,3,3,5,5,6,6,7,7,9,9,10,10,11,11,16,16],"right_children":[2,4,-1,6,-1,8,10,12,-1,14,16,18,-1,-1,-1,-1,20,-1,-1,-1,-1],"split_conditions":[5.6377205E1,5.1277634E1,-4.619341E0,3.1163334E1,7.509752E0,2.9486452E1,3.6985485E1,2.7010754E1,5.259631E0,2.90355E1,3.3884163E1,2.17E1,-4.4536595E0,-5.5920568E0,-8.841781E-1,2.310592E0,4.0106236E1,9.540872E-1,-2.428636E0,1.5572232E0,-2.579744E0],"split_indices":[5,5,0,5,0,5,5,5,0,3,4,2,0,0,0,0,5,0,0,0,0],"split_type":[0,0,0,0,0,0,0,0,0,0,0,0,0,0,0,0,0,0,0,0,0],"sum_hessian":[3.3E2,3.14E2,1.6E1,3E2,1.4E1,2.23E2,7.7E1,2.12E2,1.1E1,2.9E1,4.8E1,1.98E2,1.4E1,1.7E1,1.2E1,1.4E1,3.4E1,1.71E2,2.7E1,1E1,2.4E1],"tree_param":{"num_deleted":"0","num_feature":"6","num_nodes":"21","size_leaf_vector":"1"}},{"base_weights":[5.67149E0,-1.7382904E1,1.0997143E1,-3.37695E1,-3.3767967E0,-8.449271E0,1.8513128E1,-4.746099E0,-1.6687945E0,-2.9120104E0,8.562919E0,-2.3375605E1,4.134745E0,6.9647098E0,1.5285424E1,3.6119366E0,-1.3700212E0,-4.280621E-1,-3.2321877E1,-1.8692791E0,2.2812504E1,2.1421732E1,-1.4899462E1,-5.1678925E0,-1.0271336E0,5.040985E0,-6.685888E-1,6.762334E0,1.5400471E1,1.0806369E0,-4.6885567E0,3.7144074E0,1.5924236E-1],"categories":[],"categories_nodes":[],"categories_segments":[],"categories_sizes":[],"default_left":[0,0,0,0,0,0,0,0,0,0,0,0,0,0,0,0,0,0,0,0,0,0,0,0,0,0,0,0,0,0,0,0,0],"id":39,"left_children":[1,3,5,7,9,11,13,-1,-1,-1,15,17,19,-1,21,-1,-1,-1,23,-1,25,27,29,-1,-1,-1,-1,-1,31,-1,-1,-1,-1],"loss_changes":[3.9849E4,1.3886229E4,3.8596234E4,5.7563867E3,1.0699857E4,1.39963125E4,3.0294031E4,0E0,0E0,0E0,1.521867E4,5.6698223E3,1.7907484E4,0E0,3.365944E4,0E0,0E0,0E0,9.286361E3,0E0,1.9060814E4,4.068736E4,2.5995773E4,0E0,0E0,0E0,0E0,0E0,4.017257E4,0E0,0E0,0E0,0E0],"parents":[2147483647,0,0,1,1,2,2,3,3,4,4,5,5,6,6,10,10,11,11,12,12,14,14,18,18,20,20,21,21,22,22,28,28],"right_children":[2,4,6,8,10,12,14,-1,-1,-1,16,18,20,-1,22,-1,-1,-1,24,-1,26,28,30,-1,-1,-1,-1,-1,32,-1,-1,-1,-1],"split_conditions":[1.693E1,7.32E0,2.128514E1,2.1381397E1,9.55E0,6.27E0,5.61E0,-4.746099E0,-1.6687945E0,-2.9120104E0,2.3283833E1,1.1477199E1,3.4536667E1,6.9647098E0,4.495817E1,3.6119366E0,-1.3700212E0,-4.280621E-1,5.5628666E1,-1.8692791E0,5.1612E1,2.0708666E1,1.4906667E1,-5.1678925E0,-1.0271336E0,5.040985E0,-6.685888E-1,6.762334E0,3.6279278E1,1.0806369E0,-4.6885567E0,3.7144074E0,1.5924236E-1],"split_indices":[2,1,0,5,2,1,1,0,0,0,3,0,3,0,5,0,0,0,3,0,3,3,3,0,0,0,0,0,4,0,0,0,0],"split_type":[0,0,0,0,0,0,0,0,0,0,0,0,0,0,0,0,0,0,0,0,0,0,0,0,0,0,0,0,0,0,0,0,0],"sum_hessian":[3.22E2,6E1,2.62E2,2.7E1,3.3E1,7.3E1,1.89E2,1.4E1,1.3E1,1E1,2.3E1,3.3E1,4E1,1E1,1.79E2,1E1,1.3E1,1.1E1,2.2E1,1.8E1,2.2E1,1.49E2,3E1,1.1E1,1.1E1,1.1E1,1.1E1,1.6E1,1.33E2,1.7E1,1.3E1,5.1E1,8.2E1],"tree_param":{"num_deleted":"0","num_feature":"6","num_nodes":"33","size_leaf_vector":"1"}},{"base_weights":[-1.7648556E0,-4.670085E0,1.0398209E0,1.4367543E1,-6.1540055E0,-2.3751207E1,2.8124163E1,-3.6942913E1,-1.1158452E0,3.4564903E-1,-4.097205E0,7.4472694E1,7.168325E0,-1.6721152E0,-4.930935E0,-7.567141E0,1.4195179E1,1.4295143E1,-7.00163E-1,2.5817024E1,-1.9814024E1,-3.3844974E0,-4.4523015E0,-2.074084E0,3.7394794E1,-5.3906393E-1,6.704171E0,1.0423392E0,-4.8250165E0,8.7411636E-1,-1.6450119E0,5.6994553E0,1.0395492E0],"categories":[],"categories_nodes":[],"categories_segments":[],"categories_sizes":[],"default_left":[0,0,0,0,0,0,0,0,0,0,0,0,0,0,0,0,0,0,0,0,0,0,0,0,0,0,0,0,0,0,0,0,0],"id":40,"left_children":[1,-1,3,5,7,9,11,13,15,-1,-1,17,19,-1,-1,21,23,-1,-1,25,27,29,-1,-1,31,-1,-1,-1,-1,-1,-1,-1,-1],"loss_changes":[3.6471496E4,0E0,2.6262926E4,5.100896E4,2.7570041E4,1.23236455E4,6.8426484E4,5.4272695E3,1.5318913E4,0E0,0E0,1.237446E5,2.5670826E4,0E0,0E0,1.6697795E4,3.80587E4,0E0,0E0,3.8957184E4,1.8559473E4,1.5828295E4,0E0,0E0,1.4224547E4,0E0,0E0,0E0,0E0,0E0,0E0,0E0,0E0],"parents":[2147483647,0,0,2,2,3,3,4,4,5,5,6,6,7,7,8,8,11,11,12,12,15,15,16,16,19,19,20,20,21,21,24,24],"right_children":[2,-1,4,6,8,10,12,14,16,-1,-1,18,20,-1,-1,22,24,-1,-1,26,28,30,-1,-1,32,-1,-1,-1,-1,-1,-1,-1,-1],"split_conditions":[5.68E0,-4.670085E0,1.9986774E1,6.11E0,2.2282581E1,1.9081753E1,3.8252193E1,5.0989586E1,3.8608765E1,3.4564903E-1,-4.097205E0,5.4327E1,3.9247665E1,-1.6721152E0,-4.930935E0,3.738029E1,6.98E0,1.4295143E1,-7.00163E-1,5.6292717E1,6.540379E1,7.06E0,-4.4523015E0,-2.074084E0,7.48E0,-5.3906393E-1,6.704171E0,1.0423392E0,-4.8250165E0,8.7411636E-1,-1.6450119E0,5.6994553E0,1.0395492E0],"split_indices":[1,0,5,1,5,0,4,0,4,0,0,3,3,0,0,4,1,0,0,0,0,1,0,0,1,0,0,0,0,0,0,0,0],"split_type":[0,0,0,0,0,0,0,0,0,0,0,0,0,0,0,0,0,0,0,0,0,0,0,0,0,0,0,0,0,0,0,0,0],"sum_hessian":[2.88E2,1.6E1,2.72E2,9.5E1,1.77E2,2.5E1,7E1,2.4E1,1.53E2,1E1,1.5E1,2.1E1,4.9E1,1E1,1.4E1,1.08E2,4.5E1,1.1E1,1E1,2.9E1,2E1,9.8E1,1E1,1.8E1,2.7E1,1.7E1,1.2E1,1E1,1E1,5.1E1,4.7E1,1.5E1,1.2E1],"tree_param":{"num_deleted":"0","num_feature":"6","num_nodes":"33","size_leaf_vector":"1"}},{"base_weights":[-1.2506483E0,7.0232844E0,-3.750864E0,-1.72807E1,1.9339361E0,-2.5854898E1,1.7474335E0,-2.1684966E0,2.9311108E1,-3.3766758E1,-5.259663E0,9.524029E-1,-4.9581504E0,-1.05674565E-1,6.676822E0,-6.198071E0,-2.4229897E1,-3.6324124E0,2.36544E0,1.0870537E1,-8.976083E0,-3.3649347E0,-2.9874742E-1,2.8527832E0,-1.2797145E0,-3.805666E0,-3.695806E-2],"categories":[],"categories_nodes":[],"categories_segments":[],"categories_sizes":[],"default_left":[0,0,0,0,0,0,0,0,0,0,0,0,0,0,0,0,0,0,0,0,0,0,0,0,0,0,0],"id":41,"left_children":[1,-1,3,5,7,9,-1,11,13,15,17,19,-1,-1,-1,-1,21,-1,-1,23,25,-1,-1,-1,-1,-1,-1],"loss_changes":[5.817006E4,0E0,2.4184545E4,2.8165482E4,2.4997047E4,1.2043391E4,0E0,2.8753639E4,3.305783E4,1.3028133E4,2.0619621E4,1.8117959E4,0E0,0E0,0E0,0E0,8.303332E3,0E0,0E0,3.881254E4,2.3011883E4,0E0,0E0,0E0,0E0,0E0,0E0],"parents":[2147483647,0,0,2,2,3,3,4,4,5,5,7,7,8,8,9,9,10,10,11,11,16,16,19,19,20,20],"right_children":[2,-1,4,6,8,10,-1,12,14,16,18,20,-1,-1,-1,-1,22,-1,-1,24,26,-1,-1,-1,-1,-1,-1],"split_conditions":[5.55E0,7.0232844E0,1.722957E1,6.76E0,4.4669666E1,5.3543E1,1.7474335E0,4.2504665E1,2.8079172E1,3.9157364E1,1.8887737E1,3.480312E1,-4.9581504E0,-1.05674565E-1,6.676822E0,-6.198071E0,4.0004E1,-3.6324124E0,2.36544E0,5.1099144E1,2.5523603E1,-3.3649347E0,-2.9874742E-1,2.8527832E0,-1.2797145E0,-3.805666E0,-3.695806E-2],"split_indices":[1,0,5,1,3,3,0,3,4,4,0,5,0,0,0,0,3,0,0,0,0,0,0,0,0,0,0],"split_type":[0,0,0,0,0,0,0,0,0,0,0,0,0,0,0,0,0,0,0,0,0,0,0,0,0,0,0],"sum_hessian":[3.23E2,1E1,3.13E2,9.2E1,2.21E2,7.4E1,1.8E1,1.93E2,2.8E1,5.3E1,2.1E1,1.82E2,1.1E1,1.6E1,1.2E1,1.2E1,4.1E1,1E1,1.1E1,9.1E1,9.1E1,2.8E1,1.3E1,5.2E1,3.9E1,2E1,7.1E1],"tree_param":{"num_deleted":"0","num_feature":"6","num_nodes":"27","size_leaf_vector":"1"}},{"base_weights":[5.966789E0,-1.3187933E1,1.1872574E1,-2.2725105E1,1.0387434E1,3.550576E1,5.902441E0,-4.9749637E-1,-3.1711609E1,2.6357934E0,-7.97924E-1,1.5420326E1,9.447704E0,-3.7322147E0,9.511803E0,-1.5982642E1,-5.7100425E0,-8.548095E0,7.285006E0,1.4620095E1,-2.7375181E1,-2.9951863E0,-6.815351E-2,9.289161E-1,-1.958702E0,2.529102E1,-2.067185E1,-6.651223E0,1.0781713E0,-3.3051315E-1,4.0535874E0,-4.0575647E0,-5.256732E-1],"categories":[],"categories_nodes":[],"categories_segments":[],"categories_sizes":[],"default_left":[0,0,0,0,0,0,0,0,0,0,0,0,0,0,0,0,0,0,0,0,0,0,0,0,0,0,0,0,0,0,0,0,0],"id":42,"left_children":[1,3,5,7,9,11,13,-1,15,-1,-1,17,-1,-1,19,21,-1,23,-1,25,27,-1,-1,-1,-1,29,31,-1,-1,-1,-1,-1,-1],"loss_changes":[3.5451164E4,1.687439E4,3.3511723E4,8.296354E3,6.663464E3,5.5397402E4,3.0309535E4,0E0,1.3064277E4,0E0,0E0,5.1553227E4,0E0,0E0,3.3940676E4,4.8957114E3,0E0,5.4983584E3,0E0,5.964865E4,3.357078E4,0E0,0E0,0E0,0E0,5.288322E4,1.1139021E4,0E0,0E0,0E0,0E0,0E0,0E0],"parents":[2147483647,0,0,1,1,2,2,3,3,4,4,5,5,6,6,8,8,11,11,14,14,15,15,17,17,19,19,20,20,25,25,26,26],"right_children":[2,4,6,8,10,12,14,-1,16,-1,-1,18,-1,-1,20,22,-1,24,-1,26,28,-1,-1,-1,-1,30,32,-1,-1,-1,-1,-1,-1],"split_conditions":[1.7865524E1,5.311541E1,1.4652904E1,1.145E1,8.3E0,1.3171613E1,1.6030539E1,-4.9749637E-1,7.34E0,2.6357934E0,-7.97924E-1,6.45E0,9.447704E0,-3.7322147E0,4.6452698E1,2.1004301E1,-5.7100425E0,8.584193E0,7.285006E0,7.26E0,5.349394E1,-2.9951863E0,-6.815351E-2,9.289161E-1,-1.958702E0,3.0820076E1,6.883261E1,-6.651223E0,1.0781713E0,-3.3051315E-1,4.0535874E0,-4.0575647E0,-5.256732E-1],"split_indices":[2,4,5,2,1,5,5,0,1,0,0,1,0,0,4,5,0,5,0,1,0,0,0,0,0,4,0,0,0,0,0,0,0],"split_type":[0,0,0,0,0,0,0,0,0,0,0,0,0,0,0,0,0,0,0,0,0,0,0,0,0,0,0,0,0,0,0,0,0],"sum_hessian":[3.11E2,7.3E1,2.38E2,5.2E1,2.1E1,4.7E1,1.91E2,1.8E1,3.4E1,1.1E1,1E1,3.6E1,1.1E1,1.4E1,1.77E2,2.2E1,1.2E1,2.6E1,1E1,1.56E2,2.1E1,1.1E1,1.1E1,1E1,1.6E1,1.2E2,3.6E1,1E1,1.1E1,4.2E1,7.8E1,1.5E1,2.1E1],"tree_param":{"num_deleted":"0","num_feature":"6","num_nodes":"33","size_leaf_vector":"1"}},{"base_weights":[1.4448925E0,2.478633E1,-6.6333747E0,3.793893E0,7.9384254E1,-3.5555653E1,-2.3323078E0,1.0902372E1,-2.95085E0,1.740402E1,-2.188705E0,-1.1136631E0,-4.8429284E0,5.6843624E0,-2.2945894E1,2.3548481E1,-2.420152E0,1.0427569E1,-4.583359E0,-3.8972527E1,1.5724355E0,4.622812E0,8.392522E0,5.4155087E0,5.897497E0,-1.5710228E1,-5.9405968E1,-1.2403282E0,2.694307E0,-1.498766E-2,5.4659295E0,-2.788369E0,-2.1085642E-1,-7.5755563E0,-3.616951E0],"categories":[],"categories_nodes":[],"categories_segments":[],"categories_sizes":[],"default_left":[0,0,0,0,0,0,0,0,0,0,0,0,0,0,0,0,0,0,0,0,0,0,0,0,0,0,0,0,0,0,0,0,0,0,0],"id":43,"left_children":[1,3,5,7,9,11,13,15,-1,-1,-1,-1,-1,17,19,21,-1,23,-1,25,-1,-1,27,29,-1,31,33,-1,-1,-1,-1,-1,-1,-1,-1],"loss_changes":[6.088021E4,9.482873E4,2.977227E4,1.4762203E4,2.2428561E5,9.205863E3,3.483342E4,2.3210217E4,0E0,0E0,0E0,0E0,0E0,3.76207E4,3.7178297E4,1.2673834E4,0E0,3.3745777E4,0E0,1.9030531E4,0E0,0E0,9.592748E3,3.5087953E4,0E0,3.4183706E3,5.6178984E3,0E0,0E0,0E0,0E0,0E0,0E0,0E0,0E0],"parents":[2147483647,0,0,1,1,2,2,3,3,4,4,5,5,6,6,7,7,13,13,14,14,15,15,17,17,19,19,22,22,23,23,25,25,26,26],"right_children":[2,4,6,8,10,12,14,16,-1,-1,-1,-1,-1,18,20,22,-1,24,-1,26,-1,-1,28,30,-1,32,34,-1,-1,-1,-1,-1,-1,-1,-1],"split_conditions":[6.28E0,4.1858284E1,6.48E0,4.5308903E1,4.8864666E1,4.0326828E1,7.45E0,5.7899666E1,-2.95085E0,1.740402E1,-2.188705E0,-1.1136631E0,-4.8429284E0,5.469958E1,4.972149E1,1.897755E1,-2.420152E0,4.708528E1,-4.583359E0,5.7323532E1,1.5724355E0,4.622812E0,3.6279278E1,1.6740419E2,5.897497E0,1.169E1,2.2990334E1,-1.2403282E0,2.694307E0,-1.498766E-2,5.4659295E0,-2.788369E0,-2.1085642E-1,-7.5755563E0,-3.616951E0],"split_indices":[1,0,1,4,3,4,1,3,0,0,0,0,0,4,4,5,0,4,0,0,0,0,4,0,0,2,3,0,0,0,0,0,0,0,0],"split_type":[0,0,0,0,0,0,0,0,0,0,0,0,0,0,0,0,0,0,0,0,0,0,0,0,0,0,0,0,0,0,0,0,0,0,0],"sum_hessian":[3.21E2,8.2E1,2.39E2,6E1,2.2E1,3E1,2.09E2,5E1,1E1,1.1E1,1.1E1,1.1E1,1.9E1,1.51E2,5.8E1,3.7E1,1.3E1,1.39E2,1.2E1,4.1E1,1.7E1,1.4E1,2.3E1,1.27E2,1.2E1,2E1,2.1E1,1.1E1,1.2E1,1.15E2,1.2E1,1E1,1E1,1.1E1,1E1],"tree_param":{"num_deleted":"0","num_feature":"6","num_nodes":"35","size_leaf_vector":"1"}},{"base_weights":[-3.5034425E0,-2.957156E1,2.3028955E0,8.580684E-1,-4.6954586E1,8.202954E0,-2.207088E0,-5.8367855E1,-1.1558889E0,6.858568E0,-7.7852063E0,-3.600226E0,-7.335318E0,-1.3487563E-1,6.027531E0,1.163994E0,-2.4379354E1,1.0629566E1,-2.1287922E1,1.5814133E1,-1.7418716E1,-3.0986792E1,4.2666933E-1,-1.7734164E0,2.3127506E0,-3.8901749E0,3.627325E-2,5.1538563E0,1.8282996E-1,-3.74161E0,-1.3661632E-1,-4.34034E0,-6.5450144E-1],"categories":[],"categories_nodes":[],"categories_segments":[],"categories_sizes":[],"default_left":[0,0,0,0,0,0,0,0,0,0,0,0,0,0,0,0,0,0,0,0,0,0,0,0,0,0,0,0,0,0,0,0,0],"id":44,"left_children":[1,3,5,-1,7,-1,9,11,-1,13,15,-1,-1,17,-1,19,21,23,25,27,29,31,-1,-1,-1,-1,-1,-1,-1,-1,-1,-1,-1],"loss_changes":[4.8200676E4,3.886859E4,9.4027734E4,0E0,1.54845625E4,0E0,1.2594584E4,7.413789E3,0E0,3.5496996E4,2.289805E4,0E0,0E0,1.9580844E4,0E0,2.7771629E4,1.0353162E4,2.0615973E4,1.1073286E4,2.8385018E4,1.4394289E4,1.3069219E4,0E0,0E0,0E0,0E0,0E0,0E0,0E0,0E0,0E0,0E0,0E0],"parents":[2147483647,0,0,1,1,2,2,4,4,6,6,7,7,9,9,10,10,13,13,15,15,16,16,17,17,18,18,19,19,20,20,21,21],"right_children":[2,4,6,-1,8,-1,10,12,-1,14,16,-1,-1,18,-1,20,22,24,26,28,30,32,-1,-1,-1,-1,-1,-1,-1,-1,-1,-1,-1],"split_conditions":[6.09E0,1.4446451E1,6.19E0,8.580684E-1,5.2358E1,8.202954E0,3.5916183E1,2.462044E1,-1.1558889E0,3.5149323E1,3.6136E1,-3.600226E0,-7.335318E0,3.2206783E1,6.027531E0,3.1163334E1,2.2594086E1,2.2813E1,3.4027622E1,4.6452698E1,3.6985485E1,4.4769665E1,4.2666933E-1,-1.7734164E0,2.3127506E0,-3.8901749E0,3.627325E-2,5.1538563E0,1.8282996E-1,-3.74161E0,-1.3661632E-1,-4.34034E0,-6.5450144E-1],"split_indices":[1,5,1,0,3,0,4,0,0,4,3,0,0,4,0,5,5,4,4,4,5,4,0,0,0,0,0,0,0,0,0,0,0],"split_type":[0,0,0,0,0,0,0,0,0,0,0,0,0,0,0,0,0,0,0,0,0,0,0,0,0,0,0,0,0,0,0,0,0],"sum_hessian":[3.17E2,5.7E1,2.6E2,1.8E1,3.9E1,1.3E1,2.47E2,2.9E1,1E1,9.4E1,1.53E2,1.3E1,1.6E1,8.4E1,1E1,1E2,5.3E1,5.6E1,2.8E1,5.6E1,4.4E1,4.3E1,1E1,1.7E1,3.9E1,1.5E1,1.3E1,1.5E1,4.1E1,1.9E1,2.5E1,2.8E1,1.5E1],"tree_param":{"num_deleted":"0","num_feature":"6","num_nodes":"33","size_leaf_vector":"1"}},{"base_weights":[-6.183677E0,-1.1555617E1,1.5148892E1,-9.372478E0,-5.46193E0,6.353521E0,-9.598826E-1,-1.5372751E1,3.4405687E0,1.5397847E1,-2.759829E0,-5.2512174E0,-1.1850879E1,3.4244713E1,-1.1735815E1,-1.9632412E0,4.178817E0,-6.3562336E0,-3.59573E1,7.0662456E0,7.067221E-1,-2.5591795E1,2.5072122E0,-2.2329364E0,8.731721E-1,-7.17967E-1,-5.1545997E0,-1.4390436E0,-5.2796125E0],"categories":[],"categories_nodes":[],"categories_segments":[],"categories_sizes":[],"default_left":[0,0,0,0,0,0,0,0,0,0,0,0,0,0,0,0,0,0,0,0,0,0,0,0,0,0,0,0,0],"id":45,"left_children":[1,3,5,7,-1,-1,9,11,13,15,-1,-1,17,19,21,-1,-1,23,25,-1,-1,27,-1,-1,-1,-1,-1,-1,-1],"loss_changes":[3.6387797E4,2.3273633E4,4.9945426E4,1.8658283E4,0E0,0E0,2.1776404E4,2.0959734E4,3.686654E4,2.9478654E4,0E0,0E0,1.9904795E4,2.5233932E4,2.7672172E4,0E0,0E0,3.0320205E4,1.2190879E4,0E0,0E0,1.1124533E4,0E0,0E0,0E0,0E0,0E0,0E0,0E0],"parents":[2147483647,0,0,1,1,2,2,3,3,6,6,7,7,8,8,9,9,12,12,13,13,14,14,17,17,18,18,21,21],"right_children":[2,4,6,8,-1,-1,10,12,14,16,-1,-1,18,20,22,-1,-1,24,26,-1,-1,28,-1,-1,-1,-1,-1,-1,-1],"split_conditions":[4.8036E1,4.5588333E1,5.1804333E1,7.385429E1,-5.46193E0,6.353521E0,1.7300537E1,5.93E0,2.0182333E1,1.2382903E1,-2.759829E0,-5.2512174E0,1.818E1,4.644656E1,1.928E1,-1.9632412E0,4.178817E0,2.5838E1,3.4805935E1,7.0662456E0,7.067221E-1,1.255068E2,2.5072122E0,-2.2329364E0,8.731721E-1,-7.17967E-1,-5.1545997E0,-1.4390436E0,-5.2796125E0],"split_indices":[3,3,3,0,0,0,5,1,3,5,0,0,2,5,2,0,0,3,4,0,0,0,0,0,0,0,0,0,0],"split_type":[0,0,0,0,0,0,0,0,0,0,0,0,0,0,0,0,0,0,0,0,0,0,0,0,0,0,0,0,0],"sum_hessian":[3.15E2,2.52E2,6.3E1,2.41E2,1.1E1,1.5E1,4.8E1,1.64E2,7.7E1,3E1,1.8E1,1.3E1,1.51E2,2.5E1,5.2E1,1.3E1,1.7E1,1.24E2,2.7E1,1E1,1.5E1,3.8E1,1.4E1,6E1,6.4E1,1E1,1.7E1,2.8E1,1E1],"tree_param":{"num_deleted":"0","num_feature":"6","num_nodes":"29","size_leaf_vector":"1"}},{"base_weights":[-2.7180803E0,-1.9198154E1,4.1422157E0,-2.449151E1,2.1499081E-1,-4.0531535E0,6.4736466E0,-1.6698236E1,-4.576196E0,-6.6464105E0,1.8116999E1,-5.3967333E0,-3.3405186E1,-2.740131E-1,-5.7600684E0,6.2050102E1,6.559937E0,-2.2967443E0,1.1497644E0,-9.9562836E-1,-5.211625E0,-3.9228451E0,7.520528E0,2.1732218E0,9.719714E0,2.3337608E1,-1.878879E1,-5.692746E-1,2.5453765E0,-7.2743624E-1,4.3038387E0,1.3620384E0,-3.1777718E0],"categories":[],"categories_nodes":[],"categories_segments":[],"categories_sizes":[],"default_left":[0,0,0,0,0,0,0,0,0,0,0,0,0,0,0,0,0,0,0,0,0,0,0,0,0,0,0,0,0,0,0,0,0],"id":46,"left_children":[1,3,5,7,-1,-1,9,11,-1,13,15,17,19,21,-1,23,25,-1,-1,-1,-1,-1,27,-1,-1,29,31,-1,-1,-1,-1,-1,-1],"loss_changes":[3.5014504E4,1.0335918E4,2.3072057E4,1.13368125E4,0E0,0E0,3.204755E4,1.0204471E4,0E0,3.2129604E4,5.5951824E4,1.0356842E4,9.133701E3,2.7318264E4,0E0,3.0479945E4,3.8289527E4,0E0,0E0,0E0,0E0,0E0,1.791666E4,0E0,0E0,3.287938E4,1.55874E4,0E0,0E0,0E0,0E0,0E0,0E0],"parents":[2147483647,0,0,1,1,2,2,3,3,6,6,7,7,9,9,10,10,11,11,12,12,13,13,15,15,16,16,22,22,25,25,26,26],"right_children":[2,4,6,8,-1,-1,10,12,-1,14,16,18,20,22,-1,24,26,-1,-1,-1,-1,-1,28,-1,-1,30,32,-1,-1,-1,-1,-1,-1],"split_conditions":[2.150118E1,4.664704E1,8.32301E0,3.805986E1,2.1499081E-1,-4.0531535E0,2.9846666E1,5.2135E1,-4.576196E0,1.6740419E2,3.6136E1,1.6646488E1,1.5845054E1,6.46E0,-5.7600684E0,6.52E0,2.0019356E1,-2.2967443E0,1.1497644E0,-9.9562836E-1,-5.211625E0,-3.9228451E0,7.274595E1,2.1732218E0,9.719714E0,6.1E0,2.7864878E1,-5.692746E-1,2.5453765E0,-7.2743624E-1,4.3038387E0,1.3620384E0,-3.1777718E0],"split_indices":[0,4,5,4,0,0,3,3,0,0,3,0,5,1,0,1,5,0,0,0,0,0,0,0,0,1,0,0,0,0,0,0,0],"split_type":[0,0,0,0,0,0,0,0,0,0,0,0,0,0,0,0,0,0,0,0,0,0,0,0,0,0,0,0,0,0,0,0,0],"sum_hessian":[3.08E2,9E1,2.18E2,7.2E1,1.8E1,1E1,2.08E2,5.4E1,1.8E1,9.8E1,1.1E2,3.3E1,2.1E1,8.8E1,1E1,2.2E1,8.8E1,1.6E1,1.7E1,1E1,1.1E1,1.4E1,7.4E1,1.1E1,1.1E1,5.3E1,3.5E1,4.3E1,3.1E1,2.1E1,3.2E1,1E1,2.5E1],"tree_param":{"num_deleted":"0","num_feature":"6","num_nodes":"33","size_leaf_vector":"1"}},{"base_weights":[3.0978164E-1,7.9166384E0,-2.5673885E0,1.1169217E1,-7.6295896E0,2.026298E1,-1.9242151E1,-4.8834877E0,-3.6796322E0,5.9451867E-2,4.652558E1,-2.842659E0,-8.308427E-1,3.7064216E0,-5.99033E0,5.2164445E0,-1.9047693E1,-2.6851287E0,9.693523E0,1.8244816E1,-1.0289405E1,1.2555825E0,-4.7485514E0,-5.8921266E-1,2.9483976E0,-4.0793576E0,-6.412074E-1],"categories":[],"categories_nodes":[],"categories_segments":[],"categories_sizes":[],"default_left":[0,0,0,0,0,0,0,0,0,0,0,0,0,0,0,0,0,0,0,0,0,0,0,0,0,0,0],"id":47,"left_children":[1,-1,3,5,7,9,11,-1,13,15,17,-1,-1,-1,19,-1,21,-1,-1,23,25,-1,-1,-1,-1,-1,-1],"loss_changes":[7.7343766E4,0E0,2.2963043E4,2.5003188E4,3.9045258E4,3.6608438E4,1.8726426E3,0E0,2.1028455E4,4.0816723E4,1.1356991E5,0E0,0E0,0E0,2.2067355E4,0E0,2.7558271E4,0E0,0E0,8.85465E3,2.0909611E4,0E0,0E0,0E0,0E0,0E0,0E0],"parents":[2147483647,0,0,2,2,3,3,4,4,5,5,6,6,8,8,9,9,10,10,14,14,16,16,19,19,20,20],"right_children":[2,-1,4,6,8,10,12,-1,14,16,18,-1,-1,-1,20,-1,22,-1,-1,24,26,-1,-1,-1,-1,-1,-1],"split_conditions":[5.44E0,7.9166384E0,6.41E0,7.589398E1,6.49E0,3.7718872E1,5.1804333E1,-4.8834877E0,1.0765645E1,1.4232688E1,1.4446451E1,-2.842659E0,-8.308427E-1,3.7064216E0,1.6482635E1,5.2164445E0,2.347343E1,-2.6851287E0,9.693523E0,1.275E1,1.722957E1,1.2555825E0,-4.7485514E0,-5.8921266E-1,2.9483976E0,-4.0793576E0,-6.412074E-1],"split_indices":[1,0,1,0,1,4,3,0,5,5,5,0,0,0,0,0,0,0,0,2,5,0,0,0,0,0,0],"split_type":[0,0,0,0,0,0,0,0,0,0,0,0,0,0,0,0,0,0,0,0,0,0,0,0,0,0,0],"sum_hessian":[3.39E2,1.1E1,3.28E2,8.8E1,2.4E2,6.8E1,2E1,2E1,2.2E2,3.9E1,2.9E1,1E1,1E1,1.1E1,2.09E2,1E1,2.9E1,1.2E1,1.7E1,3.1E1,1.78E2,1.4E1,1.5E1,1E1,2.1E1,1.9E1,1.59E2],"tree_param":{"num_deleted":"0","num_feature":"6","num_nodes":"27","size_leaf_vector":"1"}},{"base_weights":[-7.5824256E0,1.8346605E1,-1.0927925E1,-8.219679E0,8.671712E0,-2.312402E1,-4.4339056E0,-2.7567232E0,1.1675855E0,1.4867461E0,-2.77775E1,4.313796E0,-9.166459E0,-5.2651434E0,-2.1105738E1,3.7019873E0,-2.0979101E1,-2.773616E1,1.4314932E-1,-3.1972756E0,3.990509E0,-5.4852357E0,-3.235446E1,-5.4896765E0,-1.4141468E0,-4.426325E0,1.2832035E0,2.6378088E0,-2.9154177E0,-4.0416856E0,-3.8179204E-1],"categories":[],"categories_nodes":[],"categories_segments":[],"categories_sizes":[],"default_left":[0,0,0,0,0,0,0,0,0,0,0,0,0,0,0,0,0,0,0,0,0,0,0,0,0,0,0,0,0,0,0],"id":48,"left_children":[1,3,5,7,-1,9,11,-1,-1,-1,13,-1,15,-1,17,19,21,23,-1,25,-1,27,29,-1,-1,-1,-1,-1,-1,-1,-1],"loss_changes":[2.952049E4,7.1550445E4,2.3657973E4,1.1484838E4,0E0,1.8799418E4,4.4747293E4,0E0,0E0,0E0,1.4322375E4,0E0,2.7439523E4,0E0,1.1247055E4,2.1857988E4,1.6389871E4,2.0639605E4,0E0,4.927917E4,0E0,3.1690049E4,1.2269621E4,0E0,0E0,0E0,0E0,0E0,0E0,0E0,0E0],"parents":[2147483647,0,0,1,1,2,2,3,3,5,5,6,6,10,10,12,12,14,14,15,15,16,16,17,17,19,19,21,21,22,22],"right_children":[2,4,6,8,-1,10,12,-1,-1,-1,14,-1,16,-1,18,20,22,24,-1,26,-1,28,30,-1,-1,-1,-1,-1,-1,-1,-1],"split_conditions":[1.5229667E1,6.568053E1,1.807699E1,2.7902666E1,8.671712E0,8.419871E0,1.9785376E1,-2.7567232E0,1.1675855E0,1.4867461E0,1.8214533E1,4.313796E0,3.8080246E1,-5.2651434E0,5.3543E1,3.0688951E1,2.4560667E1,4.0988194E1,1.4314932E-1,2.90355E1,3.990509E0,3.8261505E1,1.0664071E2,-5.4896765E0,-1.4141468E0,-4.426325E0,1.2832035E0,2.6378088E0,-2.9154177E0,-4.0416856E0,-3.8179204E-1],"split_indices":[3,0,5,4,0,0,5,0,0,0,0,0,0,0,3,0,3,4,0,3,0,5,0,0,0,0,0,0,0,0,0],"split_type":[0,0,0,0,0,0,0,0,0,0,0,0,0,0,0,0,0,0,0,0,0,0,0,0,0,0,0,0,0,0,0],"sum_hessian":[3.37E2,3.8E1,2.99E2,2.8E1,1E1,1.03E2,1.96E2,1.4E1,1.4E1,1.1E1,9.2E1,1.7E1,1.79E2,1.8E1,7.4E1,8.6E1,9.3E1,5.7E1,1.7E1,7.3E1,1.3E1,4E1,5.3E1,1.8E1,3.9E1,2E1,5.3E1,1.7E1,2.3E1,4.1E1,1.2E1],"tree_param":{"num_deleted":"0","num_feature":"6","num_nodes":"31","size_leaf_vector":"1"}},{"base_weights":[-1.22188525E-2,-3.5651042E0,2.2309435E1,-4.9479327E0,-8.709703E-1,5.513658E1,-1.6008207E1,-1.1762544E1,7.3206005E0,2.3946326E0,9.265634E0,8.625253E-1,-3.7254865E0,-6.9090714E0,-4.227161E0,1.6754261E1,-8.209722E0,-1.47884865E1,2.6529925E0,7.678867E0,8.2810755E0,-1.9179296E1,3.2924843E0,-4.5238976E0,-3.2538134E-1,3.092017E0,-1.8752618E-1,3.094897E-1,-3.2646978E0],"categories":[],"categories_nodes":[],"categories_segments":[],"categories_sizes":[],"default_left":[0,0,0,0,0,0,0,0,0,0,0,0,0,0,0,0,0,0,0,0,0,0,0,0,0,0,0,0,0],"id":49,"left_children":[1,3,5,-1,7,9,11,13,15,-1,-1,-1,-1,17,-1,19,21,23,-1,-1,25,27,-1,-1,-1,-1,-1,-1,-1],"loss_changes":[2.6567832E4,3.5705934E4,5.874415E4,0E0,2.4532139E4,2.7037492E4,1.1835663E4,1.7180781E4,2.313927E4,0E0,0E0,0E0,0E0,2.7530748E4,0E0,4.9215E4,2.7705195E4,2.9356666E4,0E0,0E0,2.0061916E4,1.450016E4,0E0,0E0,0E0,0E0,0E0,0E0,0E0],"parents":[2147483647,0,0,1,1,2,2,4,4,5,5,6,6,7,7,8,8,13,13,15,15,16,16,17,17,20,20,21,21],"right_children":[2,4,6,-1,8,10,12,14,16,-1,-1,-1,-1,18,-1,20,22,24,-1,-1,26,28,-1,-1,-1,-1,-1,-1,-1],"split_conditions":[4.5133224E1,5.61E0,5.4209568E1,-4.9479327E0,3.4536667E1,5.1277634E1,5.8645267E1,3.3025665E1,4.992069E1,2.3946326E0,9.265634E0,8.625253E-1,-3.7254865E0,2.9846666E1,-4.227161E0,3.6136E1,2.167E1,3.0688951E1,2.6529925E0,7.678867E0,1.4652904E1,1.2429462E1,3.2924843E0,-4.5238976E0,-3.2538134E-1,3.092017E0,-1.8752618E-1,3.094897E-1,-3.2646978E0],"split_indices":[5,1,5,0,3,5,5,3,0,0,0,0,0,3,0,3,2,0,0,0,5,5,0,0,0,0,0,0,0],"split_type":[0,0,0,0,0,0,0,0,0,0,0,0,0,0,0,0,0,0,0,0,0,0,0,0,0,0,0,0,0],"sum_hessian":[3.33E2,2.88E2,4.5E1,1.5E1,2.73E2,2.4E1,2.1E1,1.17E2,1.56E2,1.4E1,1E1,1E1,1.1E1,1.02E2,1.5E1,9.7E1,5.9E1,8.3E1,1.9E1,1.1E1,8.6E1,4.7E1,1.2E1,2.2E1,6.1E1,2.6E1,6E1,1.8E1,2.9E1],"tree_param":{"num_deleted":"0","num_feature":"6","num_nodes":"29","size_leaf_vector":"1"}}]},"name":"gbtree"},"learner_model_param":{"base_score":"3.6316797E2","boost_from_average":"1","num_class":"0","num_feature":"6","num_target":"1"},"objective":{"name":"reg:squarederror","reg_loss_param":{"scale_pos_weight":"1"}}},"version":[2,1,1]}