{"learner":{"attributes":{"scikit_learn":"{\"_estimator_type\": \"regressor\"}"},"feature_names":["ox_P_mg_kg","pH","TOC_g_kg","% Clay","% Silt","% Sand"],"feature_types":["float","float","float","float","float","float"],"gradient_booster":{"model":{"gbtree_model_param":{"num_parallel_tree":"1","num_trees":"200"},"iteration_indptr":[0,1,2,3,4,5,6,7,8,9,10,11,12,13,14,15,16,17,18,19,20,21,22,23,24,25,26,27,28,29,30,31,32,33,34,35,36,37,38,39,40,41,42,43,44,45,46,47,48,49,50,51,52,53,54,55,56,57,58,59,60,61,62,63,64,65,66,67,68,69,70,71,72,73,74,75,76,77,78,79,80,81,82,83,84,85,86,87,88,89,90,91,92,93,94,95,96,97,98,99,100,101,102,103,104,105,106,107,108,109,110,111,112,113,114,115,116,117,118,119,120,121,122,123,124,125,126,127,128,129,130,131,132,133,134,135,136,137,138,139,140,141,142,143,144,145,146,147,148,149,150,151,152,153,154,155,156,157,158,159,160,161,162,163,164,165,166,167,168,169,170,171,172,173,174,175,176,177,178,179,180,181,182,183,184,185,186,187,188,189,190,191,192,193,194,195,196,197,198,199,200],"tree_info":[0,0,0,0,0,0,0,0,0,0,0,0,0,0,0,0,0,0,0,0,0,0,0,0,0,0,0,0,0,0,0,0,0,0,0,0,0,0,0,0,0,0,0,0,0,0,0,0,0,0,0,0,0,0,0,0,0,0,0,0,0,0,0,0,0,0,0,0,0,0,0,0,0,0,0,0,0,0,0,0,0,0,0,0,0,0,0,0,0,0,0,0,0,0,0,0,0,0,0,0,0,0,0,0,0,0,0,0,0,0,0,0,0,0,0,0,0,0,0,0,0,0,0,0,0,0,0,0,0,0,0,0,0,0,0,0,0,0,0,0,0,0,0,0,0,0,0,0,0,0,0,0,0,0,0,0,0,0,0,0,0,0,0,0,0,0,0,0,0,0,0,0,0,0,0,0,0,0,0,0,0,0,0,0,0,0,0,0,0,0,0,0,0,0,0,0,0,0,0,0],"trees":[{"base_weights":[2.0503999E-6,-3.1670792E1,9.171334E1,-6.476715E1,-8.629706E0,1.1441234E2,-1.0886458E1,-7.4244494E0,-5.164623E1,4.2521606E1,-3.2489613E1,8.553509E1,2.0008612E2,-2.8219057E1,7.102079E0,-2.632672E1,-5.806632E1,-8.731549E0,6.9301735E1,-4.1348614E1,-9.296118E0,1.3396567E2,2.69962E1,2.6831958E2,1.1851359E2,-3.5306065E1,1.42707405E1,-4.92863E0,-9.32274E-1,-6.5362077E0,-4.699868E0,-2.0572224E0,1.4638888E0,1.4981683E-1,8.5409775E0,-4.818483E0,-2.7179992E0,1.1779879E0,-3.6954777E0,5.7840924E0,1.6276297E1,-5.340903E-1,7.98778E0,1.2023991E0,3.0682478E1,4.769766E-1,2.4782515E1,7.8004915E-1,-3.7985382E0,-6.329506E-1,2.3247325E0],"categories":[],"categories_nodes":[],"categories_segments":[],"categories_sizes":[],"default_left":[0,0,0,0,0,0,0,0,0,0,0,0,0,0,0,0,0,0,0,0,0,0,0,0,0,0,0,0,0,0,0,0,0,0,0,0,0,0,0,0,0,0,0,0,0,0,0,0,0,0,0],"id":0,"left_children":[1,3,5,7,9,11,13,-1,15,17,19,21,23,25,-1,27,29,31,33,35,37,39,41,43,45,47,49,-1,-1,-1,-1,-1,-1,-1,-1,-1,-1,-1,-1,-1,-1,-1,-1,-1,-1,-1,-1,-1,-1,-1,-1],"loss_changes":[1.6294998E6,3.1743528E5,3.3660888E5,1.7429625E4,3.028365E5,2.7482038E5,4.03351E4,0E0,1.0662844E4,1.0903784E5,3.434025E4,2.5153988E5,1.2961375E5,7.4297305E3,0E0,6.1773896E3,1.692125E3,8.0493633E3,5.666553E4,1.0507234E4,2.8416146E4,9.800275E4,7.22482E4,1.4434138E5,2.1944375E5,2.6062285E3,8.868234E2,0E0,0E0,0E0,0E0,0E0,0E0,0E0,0E0,0E0,0E0,0E0,0E0,0E0,0E0,0E0,0E0,0E0,0E0,0E0,0E0,0E0,0E0,0E0,0E0],"parents":[2147483647,0,0,1,1,2,2,3,3,4,4,5,5,6,6,8,8,9,9,10,10,11,11,12,12,13,13,15,15,16,16,17,17,18,18,19,19,20,20,21,21,22,22,23,23,24,24,25,25,26,26],"right_children":[2,4,6,8,10,12,14,-1,16,18,20,22,24,26,-1,28,30,32,34,36,38,40,42,44,46,48,50,-1,-1,-1,-1,-1,-1,-1,-1,-1,-1,-1,-1,-1,-1,-1,-1,-1,-1,-1,-1,-1,-1,-1,-1],"split_conditions":[4.7248E2,2.654E2,2.038E1,1.9532E2,2.4450333E1,6.6376E2,6.8208E2,-7.4244494E0,2.115E1,1.311E1,4.214E2,3.4502666E1,6.35E0,7.52E0,7.102079E0,1.757E1,4.1117226E1,4.0656E2,6.9E0,4.163813E1,1.9773119E1,1.513E1,5.1907665E1,2.0272167E1,2.460559E1,2.5855614E1,4.9356E2,-4.92863E0,-9.32274E-1,-6.5362077E0,-4.699868E0,-2.0572224E0,1.4638888E0,1.4981683E-1,8.5409775E0,-4.818483E0,-2.7179992E0,1.1779879E0,-3.6954777E0,5.7840924E0,1.6276297E1,-5.340903E-1,7.98778E0,1.2023991E0,3.0682478E1,4.769766E-1,2.4782515E1,7.8004915E-1,-3.7985382E0,-6.329506E-1,2.3247325E0],"split_indices":[0,0,2,0,3,0,0,0,3,2,0,3,1,1,0,2,4,0,1,4,5,2,3,3,5,4,0,0,0,0,0,0,0,0,0,0,0,0,0,0,0,0,0,0,0,0,0,0,0,0,0],"split_type":[0,0,0,0,0,0,0,0,0,0,0,0,0,0,0,0,0,0,0,0,0,0,0,0,0,0,0,0,0,0,0,0,0,0,0,0,0,0,0,0,0,0,0,0,0,0,0,0,0,0,0],"sum_hessian":[5.59E2,4.16E2,1.43E2,1.7E2,2.46E2,1.17E2,2.6E1,9.6E1,7.4E1,7.8E1,1.68E2,8.9E1,2.8E1,2.2E1,4E0,1.6E1,5.8E1,2.7E1,5.1E1,1.21E2,4.7E1,4.8E1,4.1E1,1.4E1,1.4E1,1.9E1,3E0,6E0,1E1,3.2E1,2.6E1,1.8E1,9E0,1E1,4.1E1,8E1,4.1E1,2.7E1,2E1,1.4E1,3.4E1,2.6E1,1.5E1,2E0,1.2E1,8E0,6E0,1E0,1.8E1,1E0,2E0],"tree_param":{"num_deleted":"0","num_feature":"6","num_nodes":"51","size_leaf_vector":"1"}},{"base_weights":[1.1777956E-1,-2.856721E1,8.318391E1,-5.8433834E1,-7.774657E0,1.0370549E2,-9.58391E0,-7.0659876E0,-5.0075947E1,3.8371944E1,-2.930014E1,7.730951E1,1.82048E2,-2.5454834E1,6.533913E1,-3.258131E1,-5.5421253E1,-7.8795867E0,6.2538692E1,-6.558023E0,-2.4267462E1,1.2101931E2,2.4474049E1,2.4361328E2,1.083462E2,-3.1926382E1,1.3266613E1,1.8574456E0,7.2386675E0,-1.5965337E0,-5.2020836E0,-6.2055535E0,-4.5773206E0,-4.5923843E0,-1.477322E-1,3.918644E0,1.0831178E1,-3.3748453E0,2.648975E-1,5.244243E0,1.469517E1,1.0902186E1,7.3543626E-1,1.1222392E0,2.7850248E1,4.345789E-1,2.2658298E1,7.4104655E-1,-3.4386768E0,-6.013031E-1,2.1697505E0],"categories":[],"categories_nodes":[],"categories_segments":[],"categories_sizes":[],"default_left":[0,0,0,0,0,0,0,0,0,0,0,0,0,0,0,0,0,0,0,0,0,0,0,0,0,0,0,0,0,0,0,0,0,0,0,0,0,0,0,0,0,0,0,0,0,0,0,0,0,0,0],"id":1,"left_children":[1,3,5,7,9,11,13,-1,15,17,19,21,23,25,27,29,31,33,35,-1,37,39,41,43,45,47,49,-1,-1,-1,-1,-1,-1,-1,-1,-1,-1,-1,-1,-1,-1,-1,-1,-1,-1,-1,-1,-1,-1,-1,-1],"loss_changes":[1.3367169E6,2.5850416E5,2.7513288E5,1.39350625E4,2.464763E5,2.2994138E5,3.3768836E4,0E0,8.0133125E3,8.8794945E4,2.9265578E4,2.0488662E5,1.0519206E5,6.1870723E3,3.033418E2,7.8906523E3,2.2161406E3,6.7520986E3,5.133867E4,0E0,3.836857E4,7.943325E4,5.9990355E4,1.1849344E5,1.8346544E5,2.190496E3,7.806461E2,0E0,0E0,0E0,0E0,0E0,0E0,0E0,0E0,0E0,0E0,0E0,0E0,0E0,0E0,0E0,0E0,0E0,0E0,0E0,0E0,0E0,0E0,0E0,0E0],"parents":[2147483647,0,0,1,1,2,2,3,3,4,4,5,5,6,6,8,8,9,9,10,10,11,11,12,12,13,13,14,14,15,15,16,16,17,17,18,18,20,20,21,21,22,22,23,23,24,24,25,25,26,26],"right_children":[2,4,6,8,10,12,14,-1,16,18,20,22,24,26,28,30,32,34,36,-1,38,40,42,44,46,48,50,-1,-1,-1,-1,-1,-1,-1,-1,-1,-1,-1,-1,-1,-1,-1,-1,-1,-1,-1,-1,-1,-1,-1,-1],"split_conditions":[4.7248E2,2.654E2,2.038E1,1.5276E2,2.4450333E1,6.6376E2,6.8208E2,-7.0659876E0,2.115E1,1.311E1,2.138443E1,3.4502666E1,6.35E0,7.52E0,7.1992E2,5.1277634E1,4.054459E1,7.55E0,3.698E2,-6.558023E0,4.214E2,1.513E1,5.71E0,2.0272167E1,2.460559E1,2.5855614E1,4.9356E2,1.8574456E0,7.2386675E0,-1.5965337E0,-5.2020836E0,-6.2055535E0,-4.5773206E0,-4.5923843E0,-1.477322E-1,3.918644E0,1.0831178E1,-3.3748453E0,2.648975E-1,5.244243E0,1.469517E1,1.0902186E1,7.3543626E-1,1.1222392E0,2.7850248E1,4.345789E-1,2.2658298E1,7.4104655E-1,-3.4386768E0,-6.013031E-1,2.1697505E0],"split_indices":[0,0,2,0,3,0,0,0,3,2,4,3,1,1,0,5,4,2,0,0,0,2,1,3,5,4,0,0,0,0,0,0,0,0,0,0,0,0,0,0,0,0,0,0,0,0,0,0,0,0,0],"split_type":[0,0,0,0,0,0,0,0,0,0,0,0,0,0,0,0,0,0,0,0,0,0,0,0,0,0,0,0,0,0,0,0,0,0,0,0,0,0,0,0,0,0,0,0,0,0,0,0,0,0,0],"sum_hessian":[5.59E2,4.16E2,1.43E2,1.7E2,2.46E2,1.17E2,2.6E1,6.6E1,1.04E2,7.8E1,1.68E2,8.9E1,2.8E1,2.2E1,4E0,2.6E1,7.8E1,2.7E1,5.1E1,1.9E1,1.49E2,4.8E1,4.1E1,1.4E1,1.4E1,1.9E1,3E0,1E0,3E0,1.5E1,1.1E1,4.3E1,3.5E1,3E0,2.4E1,3.5E1,1.6E1,1.1E2,3.9E1,1.4E1,3.4E1,6E0,3.5E1,2E0,1.2E1,8E0,6E0,1E0,1.8E1,1E0,2E0],"tree_param":{"num_deleted":"0","num_feature":"6","num_nodes":"51","size_leaf_vector":"1"}},{"base_weights":[2.2618653E-1,-2.5768776E1,7.550169E1,-5.273459E1,-6.995807E0,9.404378E1,-8.330449E0,-6.017173E1,-4.1144264E1,3.4661453E1,-2.6427334E1,6.992942E1,1.6563857E2,-2.2958447E1,6.062443E1,-6.626415E0,-5.3983955E1,-1.7497559E1,-4.6743484E1,-7.2609153E0,5.656847E1,5.274251E0,-2.817584E1,4.1434875E1,1.3847618E2,2.2118346E2,9.90511E1,-2.8868628E1,1.2332062E1,1.7645733E0,6.6957674E0,-3.895659E0,-5.8065543E0,-4.050258E0,2.3394127E-1,-5.1573524E0,-3.5470734E0,-2.7610188E0,3.831382E-1,-2.2004373E-1,7.0613456E0,-5.9350104E0,-2.374277E0,-5.052457E0,4.994024E0,1.4365924E1,4.4497606E-1,1.0474232E0,2.5279455E1,3.959498E-1,2.0716158E1,7.039944E-1,-3.1129074E0,-5.71238E-1,2.0251002E0],"categories":[],"categories_nodes":[],"categories_segments":[],"categories_sizes":[],"default_left":[0,0,0,0,0,0,0,0,0,0,0,0,0,0,0,0,0,0,0,0,0,0,0,0,0,0,0,0,0,0,0,0,0,0,0,0,0,0,0,0,0,0,0,0,0,0,0,0,0,0,0,0,0,0,0],"id":2,"left_children":[1,3,5,7,9,11,13,15,17,19,21,23,25,27,29,-1,31,33,35,37,39,-1,41,43,45,47,49,51,53,-1,-1,-1,-1,-1,-1,-1,-1,-1,-1,-1,-1,-1,-1,-1,-1,-1,-1,-1,-1,-1,-1,-1,-1,-1,-1],"loss_changes":[1.0977445E6,2.1072831E5,2.2462031E5,1.2264281E4,2.0085367E5,1.9213962E5,2.8625984E4,2.6803125E2,8.45032E3,7.296387E4,2.4880555E4,1.70051E5,8.535075E4,5.1531924E3,1.7945508E2,0E0,1.17275E3,6.9400034E3,1.2197266E3,6.42595E3,4.307664E4,0E0,2.1531672E4,5.336285E4,1.7422094E4,9.7263375E4,1.5338575E5,1.8425371E3,6.872528E2,0E0,0E0,0E0,0E0,0E0,0E0,0E0,0E0,0E0,0E0,0E0,0E0,0E0,0E0,0E0,0E0,0E0,0E0,0E0,0E0,0E0,0E0,0E0,0E0,0E0,0E0],"parents":[2147483647,0,0,1,1,2,2,3,3,4,4,5,5,6,6,7,7,8,8,9,9,10,10,11,11,12,12,13,13,14,14,16,16,17,17,18,18,19,19,20,20,22,22,23,23,24,24,25,25,26,26,27,27,28,28],"right_children":[2,4,6,8,10,12,14,16,18,20,22,24,26,28,30,-1,32,34,36,38,40,-1,42,44,46,48,50,52,54,-1,-1,-1,-1,-1,-1,-1,-1,-1,-1,-1,-1,-1,-1,-1,-1,-1,-1,-1,-1,-1,-1,-1,-1,-1,-1],"split_conditions":[4.7248E2,2.654E2,2.038E1,1.996E2,2.4450333E1,6.6376E2,6.8208E2,1.2476E2,2.115E1,1.311E1,5.27E0,2.8398172E1,6.35E0,7.52E0,7.1992E2,-6.626415E0,2.0419333E1,7.14E0,4.365001E1,3.4528E2,6.9E0,5.274251E0,2.138443E1,2.442656E1,6.524E2,2.0272167E1,2.460559E1,2.5855614E1,4.9356E2,1.7645733E0,6.6957674E0,-3.895659E0,-5.8065543E0,-4.050258E0,2.3394127E-1,-5.1573524E0,-3.5470734E0,-2.7610188E0,3.831382E-1,-2.2004373E-1,7.0613456E0,-5.9350104E0,-2.374277E0,-5.052457E0,4.994024E0,1.4365924E1,4.4497606E-1,1.0474232E0,2.5279455E1,3.959498E-1,2.0716158E1,7.039944E-1,-3.1129074E0,-5.71238E-1,2.0251002E0],"split_indices":[0,0,2,0,3,0,0,0,3,2,1,5,1,1,0,0,3,1,4,0,1,0,4,4,0,3,5,4,0,0,0,0,0,0,0,0,0,0,0,0,0,0,0,0,0,0,0,0,0,0,0,0,0,0,0],"split_type":[0,0,0,0,0,0,0,0,0,0,0,0,0,0,0,0,0,0,0,0,0,0,0,0,0,0,0,0,0,0,0,0,0,0,0,0,0,0,0,0,0,0,0,0,0,0,0,0,0,0,0,0,0,0,0],"sum_hessian":[5.59E2,4.16E2,1.43E2,1.7E2,2.46E2,1.17E2,2.6E1,1.01E2,6.9E1,7.8E1,1.68E2,8.9E1,2.8E1,2.2E1,4E0,4.6E1,5.5E1,1.4E1,5.5E1,2.7E1,5.1E1,3E0,1.65E2,6.4E1,2.5E1,1.4E1,1.4E1,1.9E1,3E0,1E0,3E0,1.4E1,4.1E1,6E0,8E0,3.6E1,1.9E1,9E0,1.8E1,1E1,4.1E1,1.9E1,1.46E2,5E0,5.9E1,2.4E1,1E0,2E0,1.2E1,8E0,6E0,1E0,1.8E1,1E0,2E0],"tree_param":{"num_deleted":"0","num_feature":"6","num_nodes":"55","size_leaf_vector":"1"}},{"base_weights":[2.7905962E-1,-2.3257656E1,6.843553E1,-4.762984E1,-6.2904453E0,4.254699E1,1.1932621E2,-5.616203E0,-3.932685E1,2.9987246E1,-2.4501099E1,8.0251724E1,-8.739007E0,1.7233362E2,8.1777306E1,-1.9551802E1,-4.3999058E1,-4.6407113E0,4.77004E1,4.878682E0,-2.6159435E1,1.2304699E2,4.6696022E1,-3.242592E1,8.171588E1,9.445599E0,2.0228477E2,3.9130062E1,1.9416597E1,-4.6601486E0,-6.562522E-1,-5.9831386E0,-4.0163207E0,-1.6655169E0,1.6533417E0,5.8350974E-1,6.3254013E0,-5.371185E0,-2.212302E0,1.2919551E1,-9.184448E-1,-3.194491E0,6.535493E0,5.1323504E0,-3.6519039E0,2.6349201E0,1.4433695E1,1.2151157E0,6.6446304E-2,2.201591E1,-3.2914884E0,9.281818E0,9.840374E-1],"categories":[],"categories_nodes":[],"categories_segments":[],"categories_sizes":[],"default_left":[0,0,0,0,0,0,0,0,0,0,0,0,0,0,0,0,0,0,0,0,0,0,0,0,0,0,0,0,0,0,0,0,0,0,0,0,0,0,0,0,0,0,0,0,0,0,0,0,0,0,0,0,0],"id":3,"left_children":[1,3,5,7,9,11,13,-1,15,17,19,21,23,25,27,29,31,33,35,-1,37,39,41,43,45,47,49,51,-1,-1,-1,-1,-1,-1,-1,-1,-1,-1,-1,-1,-1,-1,-1,-1,-1,-1,-1,-1,-1,-1,-1,-1,-1],"loss_changes":[8.999322E5,1.7214158E5,1.8464088E5,9.905406E3,1.6391292E5,1.8827264E5,8.144481E4,0E0,7.4551406E3,5.11311E4,2.1329688E4,7.4671625E4,9.263879E4,9.078431E4,1.3619427E5,6.369939E3,1.9695625E3,7.652842E3,3.5444523E4,0E0,1.6828234E4,2.0699219E4,5.0510438E4,1.3529359E4,2.7400922E4,8.695749E1,7.451094E4,3.525433E4,0E0,0E0,0E0,0E0,0E0,0E0,0E0,0E0,0E0,0E0,0E0,0E0,0E0,0E0,0E0,0E0,0E0,0E0,0E0,0E0,0E0,0E0,0E0,0E0,0E0],"parents":[2147483647,0,0,1,1,2,2,3,3,4,4,5,5,6,6,8,8,9,9,10,10,11,11,12,12,13,13,14,14,15,15,16,16,17,17,18,18,20,20,21,21,22,22,23,23,24,24,25,25,26,26,27,27],"right_children":[2,4,6,8,10,12,14,-1,16,18,20,22,24,26,28,30,32,34,36,-1,38,40,42,44,46,48,50,52,-1,-1,-1,-1,-1,-1,-1,-1,-1,-1,-1,-1,-1,-1,-1,-1,-1,-1,-1,-1,-1,-1,-1,-1,-1],"split_conditions":[4.7248E2,2.654E2,6.1444E2,1.7932E2,2.4939E1,3.7766666E1,6.35E0,-5.616203E0,2.115E1,1.311E1,5.27E0,4.2752914E1,5.4494E1,2.0272167E1,2.6006775E1,1.476E1,2.2649477E1,4.0656E2,7E0,4.878682E0,2.138443E1,1.79E1,6.86E0,5.31E0,5.7152E2,5.44E0,6.1235E1,6.56E2,1.9416597E1,-4.6601486E0,-6.562522E-1,-5.9831386E0,-4.0163207E0,-1.6655169E0,1.6533417E0,5.8350974E-1,6.3254013E0,-5.371185E0,-2.212302E0,1.2919551E1,-9.184448E-1,-3.194491E0,6.535493E0,5.1323504E0,-3.6519039E0,2.6349201E0,1.4433695E1,1.2151157E0,6.6446304E-2,2.201591E1,-3.2914884E0,9.281818E0,9.840374E-1],"split_indices":[0,0,0,0,3,3,1,0,3,2,1,4,3,3,5,2,4,0,1,0,4,2,1,1,0,1,3,0,0,0,0,0,0,0,0,0,0,0,0,0,0,0,0,0,0,0,0,0,0,0,0,0,0],"split_type":[0,0,0,0,0,0,0,0,0,0,0,0,0,0,0,0,0,0,0,0,0,0,0,0,0,0,0,0,0,0,0,0,0,0,0,0,0,0,0,0,0,0,0,0,0,0,0,0,0,0,0,0,0],"sum_hessian":[5.59E2,4.16E2,1.43E2,1.7E2,2.46E2,9.6E1,4.7E1,8.1E1,8.9E1,8.2E1,1.64E2,5.5E1,4.1E1,1.8E1,2.9E1,1.8E1,7.1E1,2.8E1,5.4E1,3E0,1.61E2,2.3E1,3.2E1,3.3E1,8E0,3E0,1.5E1,2.2E1,7E0,5E0,1.3E1,1.1E1,6E1,1.8E1,1E1,1.5E1,3.9E1,1.9E1,1.42E2,2.2E1,1E0,6E0,2.6E1,1E0,3.2E1,5E0,3E0,2E0,1E0,1.4E1,1E0,7E0,1.5E1],"tree_param":{"num_deleted":"0","num_feature":"6","num_nodes":"53","size_leaf_vector":"1"}},{"base_weights":[3.7050962E-1,-2.0972034E1,6.217239E1,-4.2989265E1,-5.6444283E0,3.8641685E1,1.08428764E2,-5.4293413E0,-3.7307926E1,2.8377E1,-2.1514538E1,7.250052E1,-7.423464E0,1.561532E2,7.458899E1,-4.1334522E1,-1.9054249E1,-6.0804906E0,4.6385323E1,-2.867728E1,-2.8610144E0,1.1124233E2,4.2127663E1,-2.9139788E1,7.544081E1,8.821428E0,1.8322658E2,1.5678764E2,2.5650278E1,-4.7485766E0,-3.374981E0,-3.5901162E-1,-3.8798606E0,-4.0731735E0,-2.9307205E-2,2.6617315E0,8.551844E0,-3.4324486E0,-1.7503939E0,1.4766484E0,-2.6228106E0,1.1683767E1,-8.725228E-1,-2.9206774E0,5.9061494E0,4.875733E0,-3.2977803E0,2.4153435E0,1.3351166E1,1.1341077E0,6.312408E-2,1.996109E1,-3.1269138E0,3.4696298E0,1.8006392E1,-9.029669E-1,5.4845657E0],"categories":[],"categories_nodes":[],"categories_segments":[],"categories_sizes":[],"default_left":[0,0,0,0,0,0,0,0,0,0,0,0,0,0,0,0,0,0,0,0,0,0,0,0,0,0,0,0,0,0,0,0,0,0,0,0,0,0,0,0,0,0,0,0,0,0,0,0,0,0,0,0,0,0,0,0,0],"id":4,"left_children":[1,3,5,7,9,11,13,-1,15,17,19,21,23,25,27,29,31,33,35,37,39,41,43,45,47,49,51,53,55,-1,-1,-1,-1,-1,-1,-1,-1,-1,-1,-1,-1,-1,-1,-1,-1,-1,-1,-1,-1,-1,-1,-1,-1,-1,-1,-1,-1],"loss_changes":[7.399491E5,1.4048295E5,1.5254619E5,8.9565E3,1.3397169E5,1.5183028E5,6.587194E4,0E0,7.811922E3,4.9303246E4,2.249811E4,6.120878E4,7.777763E4,7.417025E4,1.16659234E5,2.829625E3,6.883285E3,5.603218E3,3.795008E4,7.0971562E3,2.015866E4,1.7129656E4,4.1587848E4,1.1772896E4,2.357995E4,7.538666E1,6.2471562E4,2.5012594E4,2.0745121E4,0E0,0E0,0E0,0E0,0E0,0E0,0E0,0E0,0E0,0E0,0E0,0E0,0E0,0E0,0E0,0E0,0E0,0E0,0E0,0E0,0E0,0E0,0E0,0E0,0E0,0E0,0E0,0E0],"parents":[2147483647,0,0,1,1,2,2,3,3,4,4,5,5,6,6,8,8,9,9,10,10,11,11,12,12,13,13,14,14,15,15,16,16,17,17,18,18,19,19,20,20,21,21,22,22,23,23,24,24,25,25,26,26,27,27,28,28],"right_children":[2,4,6,8,10,12,14,-1,16,18,20,22,24,26,28,30,32,34,36,38,40,42,44,46,48,50,52,54,56,-1,-1,-1,-1,-1,-1,-1,-1,-1,-1,-1,-1,-1,-1,-1,-1,-1,-1,-1,-1,-1,-1,-1,-1,-1,-1,-1,-1],"split_conditions":[4.7248E2,2.654E2,6.1444E2,1.527E1,2.4450333E1,3.7766666E1,6.35E0,-5.4293413E0,7.21E0,1.311E1,4.214E2,4.2752914E1,5.4494E1,2.0272167E1,3.3078167E1,1.9532E2,2.115E1,7.55E0,3.698E2,4.161012E1,1.9773119E1,1.79E1,6.86E0,5.31E0,5.7152E2,5.44E0,6.1235E1,2.0281828E1,4.47E1,-4.7485766E0,-3.374981E0,-3.5901162E-1,-3.8798606E0,-4.0731735E0,-2.9307205E-2,2.6617315E0,8.551844E0,-3.4324486E0,-1.7503939E0,1.4766484E0,-2.6228106E0,1.1683767E1,-8.725228E-1,-2.9206774E0,5.9061494E0,4.875733E0,-3.2977803E0,2.4153435E0,1.3351166E1,1.1341077E0,6.312408E-2,1.996109E1,-3.1269138E0,3.4696298E0,1.8006392E1,-9.029669E-1,5.4845657E0],"split_indices":[0,0,0,2,3,3,1,0,1,2,0,4,3,3,3,0,3,2,0,4,5,2,1,1,0,1,3,5,3,0,0,0,0,0,0,0,0,0,0,0,0,0,0,0,0,0,0,0,0,0,0,0,0,0,0,0,0],"split_type":[0,0,0,0,0,0,0,0,0,0,0,0,0,0,0,0,0,0,0,0,0,0,0,0,0,0,0,0,0,0,0,0,0,0,0,0,0,0,0,0,0,0,0,0,0,0,0,0,0,0,0,0,0,0,0,0,0],"sum_hessian":[5.59E2,4.16E2,1.43E2,1.7E2,2.46E2,9.6E1,4.7E1,5.4E1,1.16E2,7.8E1,1.68E2,5.5E1,4.1E1,1.8E1,2.9E1,9.4E1,2.2E1,2.7E1,5.1E1,1.21E2,4.7E1,2.3E1,3.2E1,3.3E1,8E0,3E0,1.5E1,1E1,1.9E1,4.9E1,4.5E1,1.3E1,9E0,3E0,2.4E1,3.5E1,1.6E1,7.9E1,4.2E1,2.7E1,2E1,2.2E1,1E0,6E0,2.6E1,1E0,3.2E1,5E0,3E0,2E0,1E0,1.4E1,1E0,2E0,8E0,9E0,1E1],"tree_param":{"num_deleted":"0","num_feature":"6","num_nodes":"57","size_leaf_vector":"1"}},{"base_weights":[4.374249E-1,-1.891562E1,5.6477585E1,-3.4883896E1,-1.2474438E0,3.9872513E1,1.1112275E2,-2.0607933E1,-4.0517086E1,3.41558E1,-1.605272E1,7.489709E1,5.9720917E0,1.6707338E2,6.110264E1,-3.689527E1,3.2145363E-1,-4.988336E0,-3.5761658E1,5.693723E1,-1.4395013E0,-4.6199306E1,-1.0979076E1,8.361686E1,-1.0250475E1,-1.1867194E1,4.9694324E1,8.949684E0,1.9071167E1,1.5847497E1,1.565142E1,-4.4231305E0,-2.6094337E0,-2.801975E0,1.4475982E0,-5.0652337E0,-3.3347547E0,-1.8301392E-1,6.434034E0,-3.7676854E0,5.5313987E-1,-4.7256293E0,-1.3058252E0,2.7869442E0,-1.5470456E0,2.7153792E0,1.0482044E1,-1.7136348E0,2.3475139E-1,1.4472188E0,-2.8632667E0,-4.385037E0,7.287178E0,5.9967805E-2,1.2824849E0,2.9813657E0,-2.6521318E0],"categories":[],"categories_nodes":[],"categories_segments":[],"categories_sizes":[],"default_left":[0,0,0,0,0,0,0,0,0,0,0,0,0,0,0,0,0,0,0,0,0,0,0,0,0,0,0,0,0,0,0,0,0,0,0,0,0,0,0,0,0,0,0,0,0,0,0,0,0,0,0,0,0,0,0,0,0],"id":5,"left_children":[1,3,5,7,9,11,13,15,17,19,21,23,25,27,29,31,33,-1,35,37,39,41,43,45,47,49,51,53,-1,55,-1,-1,-1,-1,-1,-1,-1,-1,-1,-1,-1,-1,-1,-1,-1,-1,-1,-1,-1,-1,-1,-1,-1,-1,-1,-1,-1],"loss_changes":[6.084151E5,1.1760478E5,1.26233E5,1.6776844E4,1.048551E5,1.325357E5,8.214703E4,2.182844E4,5.164422E3,4.7925766E4,2.1059148E4,4.169275E4,4.5828188E4,5.435978E4,7.955904E4,1.6983047E3,1.2039147E4,0E0,2.1572812E3,1.5779953E4,6.2709727E3,8.350781E1,2.1718125E4,5.701472E4,5.6071674E2,1.8961248E4,4.005364E4,8.938216E1,0E0,9.074912E3,0E0,0E0,0E0,0E0,0E0,0E0,0E0,0E0,0E0,0E0,0E0,0E0,0E0,0E0,0E0,0E0,0E0,0E0,0E0,0E0,0E0,0E0,0E0,0E0,0E0,0E0,0E0],"parents":[2147483647,0,0,1,1,2,2,3,3,4,4,5,5,6,6,7,7,8,8,9,9,10,10,11,11,12,12,13,13,14,14,15,15,16,16,18,18,19,19,20,20,21,21,22,22,23,23,24,24,25,25,26,26,27,27,29,29],"right_children":[2,4,6,8,10,12,14,16,18,20,22,24,26,28,30,32,34,-1,36,38,40,42,44,46,48,50,52,54,-1,56,-1,-1,-1,-1,-1,-1,-1,-1,-1,-1,-1,-1,-1,-1,-1,-1,-1,-1,-1,-1,-1,-1,-1,-1,-1,-1,-1],"split_conditions":[4.7248E2,3.1012E2,6.75E2,2.115E1,2.4450333E1,3.4502666E1,6.35E0,2.094E2,1.7028E2,7.91E0,2.2956055E1,2.038E1,5.1907665E1,2.0272167E1,2.460559E1,3.2333065E1,1.757E1,-4.988336E0,2.2649477E1,6.9E0,7.55E0,4.5936E2,5.74E0,1.513E1,5.4656E2,3.9983E1,2.0935127E1,7.7884E2,1.9071167E1,7.51E0,1.565142E1,-4.4231305E0,-2.6094337E0,-2.801975E0,1.4475982E0,-5.0652337E0,-3.3347547E0,-1.8301392E-1,6.434034E0,-3.7676854E0,5.5313987E-1,-4.7256293E0,-1.3058252E0,2.7869442E0,-1.5470456E0,2.7153792E0,1.0482044E1,-1.7136348E0,2.3475139E-1,1.4472188E0,-2.8632667E0,-4.385037E0,7.287178E0,5.9967805E-2,1.2824849E0,2.9813657E0,-2.6521318E0],"split_indices":[0,0,0,3,3,3,1,0,0,1,4,2,3,3,5,4,2,0,4,1,2,0,1,2,0,3,4,0,0,1,0,0,0,0,0,0,0,0,0,0,0,0,0,0,0,0,0,0,0,0,0,0,0,0,0,0,0],"split_type":[0,0,0,0,0,0,0,0,0,0,0,0,0,0,0,0,0,0,0,0,0,0,0,0,0,0,0,0,0,0,0,0,0,0,0,0,0,0,0,0,0,0,0,0,0,0,0,0,0,0,0,0,0,0,0,0,0],"sum_hessian":[5.59E2,4.16E2,1.43E2,2.18E2,1.98E2,1.11E2,3.2E1,6.3E1,1.55E2,5.8E1,1.4E2,5.4E1,5.7E1,1.4E1,1.8E1,3.5E1,2.8E1,4.9E1,1.06E2,3.5E1,2.3E1,1.9E1,1.21E2,4.9E1,5E0,4.1E1,1.6E1,2E0,1.2E1,1.3E1,5E0,1.9E1,1.6E1,9E0,1.9E1,1.2E1,9.4E1,4E0,3.1E1,3E0,2E1,1.8E1,1E0,1.2E1,1.09E2,1.4E1,3.5E1,3E0,2E0,1.6E1,2.5E1,3E0,1.3E1,1E0,1E0,1E1,3E0],"tree_param":{"num_deleted":"0","num_feature":"6","num_nodes":"57","size_leaf_vector":"1"}},{"base_weights":[4.4023284E-1,-1.7080488E1,5.1174263E1,-3.1494936E1,-1.1315204E0,3.135198E1,9.016566E1,-3.684671E1,-1.9068987E1,3.0791685E1,-1.4481432E1,5.9130974E1,-6.4331503E0,1.2811519E2,6.312544E1,-4.9205527E0,-3.3273743E1,1.9187914E1,-2.84604E1,5.141714E1,-1.4294896E0,-4.1880946E0,-9.871008E0,9.2808014E1,3.2846733E1,-2.5011887E1,6.446798E1,5.282469E0,1.5081616E2,1.330583E2,2.1506092E1,-4.4485574E0,-2.9890604E0,-9.3793374E-1,2.783165E0,-2.1751182E-1,-3.047934E0,-1.683728E-1,5.810737E0,-3.485109E0,5.0046E-1,-1.2652738E0,4.601789E0,9.748942E0,-7.432148E-1,-2.6694288E0,4.7066746E0,-3.1485689E0,1.8833297E0,8.338569E0,-4.3436847E0,-1.0791117E-1,1.2183605E0,1.6453901E1,-2.751316E0,1.4564494E1,3.595974E-1,1.1683124E1,1.0339967E0],"categories":[],"categories_nodes":[],"categories_segments":[],"categories_sizes":[],"default_left":[0,0,0,0,0,0,0,0,0,0,0,0,0,0,0,0,0,0,0,0,0,0,0,0,0,0,0,0,0,0,0,0,0,0,0,0,0,0,0,0,0,0,0,0,0,0,0,0,0,0,0,0,0,0,0,0,0,0,0],"id":6,"left_children":[1,3,5,7,9,11,13,15,17,19,21,23,25,27,29,-1,31,33,35,37,39,-1,41,43,45,47,49,51,53,55,57,-1,-1,-1,-1,-1,-1,-1,-1,-1,-1,-1,-1,-1,-1,-1,-1,-1,-1,-1,-1,-1,-1,-1,-1,-1,-1,-1,-1],"loss_changes":[4.9865628E5,9.583079E4,1.0847053E5,1.3861078E4,8.525413E4,1.0219477E5,4.116853E4,5.074703E3,2.4977564E4,3.928351E4,1.7398188E4,4.652139E4,5.693711E4,5.2183344E4,8.445524E4,0E0,3.2599844E3,3.7180317E3,2.8524688E3,1.288707E4,5.3353174E3,0E0,1.954932E4,1.1986891E4,2.9196664E4,1.0243711E4,2.1993824E4,1.88756E2,4.3681906E4,1.7400688E4,2.0080219E4,0E0,0E0,0E0,0E0,0E0,0E0,0E0,0E0,0E0,0E0,0E0,0E0,0E0,0E0,0E0,0E0,0E0,0E0,0E0,0E0,0E0,0E0,0E0,0E0,0E0,0E0,0E0,0E0],"parents":[2147483647,0,0,1,1,2,2,3,3,4,4,5,5,6,6,7,7,8,8,9,9,10,10,11,11,12,12,13,13,14,14,16,16,17,17,18,18,19,19,20,20,22,22,23,23,24,24,25,25,26,26,27,27,28,28,29,29,30,30],"right_children":[2,4,6,8,10,12,14,16,18,20,22,24,26,28,30,-1,32,34,36,38,40,-1,42,44,46,48,50,52,54,56,58,-1,-1,-1,-1,-1,-1,-1,-1,-1,-1,-1,-1,-1,-1,-1,-1,-1,-1,-1,-1,-1,-1,-1,-1,-1,-1,-1,-1],"split_conditions":[4.7248E2,3.1012E2,6.1444E2,2.4412E2,2.4450333E1,3.7766666E1,6.35E0,1.171E1,1.7224E1,7.91E0,2.2956055E1,4.2752914E1,5.4494E1,2.0272167E1,3.3078167E1,-4.9205527E0,2.5912033E1,1.556E1,2.494E2,6.9E0,7.55E0,-4.1880946E0,5.8946E1,1.79E1,6.86E0,7.36E0,2.86053E1,7.7884E2,6.1235E1,8.1196E2,6.1912E2,-4.4485574E0,-2.9890604E0,-9.3793374E-1,2.783165E0,-2.1751182E-1,-3.047934E0,-1.683728E-1,5.810737E0,-3.485109E0,5.0046E-1,-1.2652738E0,4.601789E0,9.748942E0,-7.432148E-1,-2.6694288E0,4.7066746E0,-3.1485689E0,1.8833297E0,8.338569E0,-4.3436847E0,-1.0791117E-1,1.2183605E0,1.6453901E1,-2.751316E0,1.4564494E1,3.595974E-1,1.1683124E1,1.0339967E0],"split_indices":[0,0,0,0,3,3,1,2,3,1,4,4,3,3,3,0,4,2,0,1,2,0,3,2,1,1,4,0,3,0,0,0,0,0,0,0,0,0,0,0,0,0,0,0,0,0,0,0,0,0,0,0,0,0,0,0,0,0,0],"split_type":[0,0,0,0,0,0,0,0,0,0,0,0,0,0,0,0,0,0,0,0,0,0,0,0,0,0,0,0,0,0,0,0,0,0,0,0,0,0,0,0,0,0,0,0,0,0,0,0,0,0,0,0,0,0,0,0,0,0,0],"sum_hessian":[5.59E2,4.16E2,1.43E2,2.18E2,1.98E2,9.6E1,4.7E1,1.51E2,6.7E1,5.8E1,1.4E2,5.5E1,4.1E1,1.8E1,2.9E1,3.1E1,1.2E2,1.3E1,5.4E1,3.5E1,2.3E1,1.9E1,1.21E2,2.3E1,3.2E1,3.3E1,8E0,3E0,1.5E1,1E1,1.9E1,2.5E1,9.5E1,3E0,1E1,4E0,5E1,4E0,3.1E1,3E0,2E1,1.16E2,5E0,2.2E1,1E0,6E0,2.6E1,2.9E1,4E0,7E0,1E0,2E0,1E0,1.4E1,1E0,9E0,1E0,1E0,1.8E1],"tree_param":{"num_deleted":"0","num_feature":"6","num_nodes":"59","size_leaf_vector":"1"}},{"base_weights":[4.7523546E-1,-1.5401149E1,4.64473E1,-2.8408358E1,-1.009291E0,2.6566652E1,7.908974E1,-1.6249205E1,-3.3214622E1,2.7757566E1,-1.3039329E1,5.3460533E1,-1.0662641E1,1.16763954E2,5.5301903E1,-2.9619886E1,9.0919745E-1,-4.109374E0,-2.8996254E1,6.0401344E1,9.468413E0,-3.7902256E1,-8.856559E0,8.1728065E1,2.5302807E1,-2.538538E1,4.956115E1,5.0318336E0,1.361854E2,1.1645781E2,1.833109E1,-3.5904126E0,-2.0484314E0,-2.3218234E0,1.2927454E0,-2.1928356E0,-3.2840493E0,2.2121239E0,7.796131E0,1.4953614E0,-6.1338534E0,-4.0778832E0,-2.111677E0,2.601351E0,-1.2897053E0,8.875792E0,-1.7533773E-1,-2.9950736E0,3.8616655E0,3.1507647E0,-3.0228503E0,6.8431315E0,-4.1265006E0,-1.00717165E-1,1.1574425E0,1.4796417E1,-2.6137505E0,3.2415369E0,1.38429E1,-9.32924E-1,4.4463835E0],"categories":[],"categories_nodes":[],"categories_segments":[],"categories_sizes":[],"default_left":[0,0,0,0,0,0,0,0,0,0,0,0,0,0,0,0,0,0,0,0,0,0,0,0,0,0,0,0,0,0,0,0,0,0,0,0,0,0,0,0,0,0,0,0,0,0,0,0,0,0,0,0,0,0,0,0,0,0,0,0,0],"id":7,"left_children":[1,3,5,7,9,11,13,15,17,19,21,23,25,27,29,31,33,-1,35,37,39,41,43,45,47,49,51,53,55,57,59,-1,-1,-1,-1,-1,-1,-1,-1,-1,-1,-1,-1,-1,-1,-1,-1,-1,-1,-1,-1,-1,-1,-1,-1,-1,-1,-1,-1,-1,-1],"loss_changes":[4.0944262E5,7.803285E4,9.134803E4,1.2258672E4,6.922914E4,9.168288E4,4.1936906E4,1.4709777E4,3.9934062E3,3.465269E4,1.4327738E4,4.0117375E4,3.5837836E4,4.271472E4,7.699963E4,1.3312969E3,8.709271E3,0E0,2.132789E3,1.2391547E4,1.6064453E4,1.04578125E2,1.7524357E4,1.5414016E4,2.1754434E4,9.769709E3,1.6535057E4,1.6970041E2,3.6370812E4,1.9517453E4,1.704014E4,0E0,0E0,0E0,0E0,0E0,0E0,0E0,0E0,0E0,0E0,0E0,0E0,0E0,0E0,0E0,0E0,0E0,0E0,0E0,0E0,0E0,0E0,0E0,0E0,0E0,0E0,0E0,0E0,0E0,0E0],"parents":[2147483647,0,0,1,1,2,2,3,3,4,4,5,5,6,6,7,7,8,8,9,9,10,10,11,11,12,12,13,13,14,14,15,15,16,16,18,18,19,19,20,20,21,21,22,22,23,23,24,24,25,25,26,26,27,27,28,28,29,29,30,30],"right_children":[2,4,6,8,10,12,14,16,18,20,22,24,26,28,30,32,34,-1,36,38,40,42,44,46,48,50,52,54,56,58,60,-1,-1,-1,-1,-1,-1,-1,-1,-1,-1,-1,-1,-1,-1,-1,-1,-1,-1,-1,-1,-1,-1,-1,-1,-1,-1,-1,-1,-1,-1],"split_conditions":[4.7248E2,3.1012E2,6.0036E2,2.115E1,2.4450333E1,3.7766666E1,6.35E0,2.094E2,1.7736E2,3.616441E1,2.2956055E1,4.3804977E1,5.4494E1,2.0272167E1,3.3078167E1,3.2333065E1,1.757E1,-4.109374E0,1.7147203E1,3.5384E2,4.8161613E1,4.3984E2,5.74E0,1.79E1,6.86E0,4.8808E2,2.86053E1,7.7884E2,6.1235E1,2.1785162E1,4.47E1,-3.5904126E0,-2.0484314E0,-2.3218234E0,1.2927454E0,-2.1928356E0,-3.2840493E0,2.2121239E0,7.796131E0,1.4953614E0,-6.1338534E0,-4.0778832E0,-2.111677E0,2.601351E0,-1.2897053E0,8.875792E0,-1.7533773E-1,-2.9950736E0,3.8616655E0,3.1507647E0,-3.0228503E0,6.8431315E0,-4.1265006E0,-1.00717165E-1,1.1574425E0,1.4796417E1,-2.6137505E0,3.2415369E0,1.38429E1,-9.32924E-1,4.4463835E0],"split_indices":[0,0,0,3,3,3,1,0,0,4,4,4,3,3,3,4,2,0,5,0,5,0,1,2,1,0,4,0,3,5,3,0,0,0,0,0,0,0,0,0,0,0,0,0,0,0,0,0,0,0,0,0,0,0,0,0,0,0,0,0,0],"split_type":[0,0,0,0,0,0,0,0,0,0,0,0,0,0,0,0,0,0,0,0,0,0,0,0,0,0,0,0,0,0,0,0,0,0,0,0,0,0,0,0,0,0,0,0,0,0,0,0,0,0,0,0,0,0,0,0,0,0,0,0,0],"sum_hessian":[5.59E2,4.16E2,1.43E2,2.18E2,1.98E2,9E1,5.3E1,6.3E1,1.55E2,5.8E1,1.4E2,5.2E1,3.8E1,1.9E1,3.4E1,3.5E1,2.8E1,5.1E1,1.04E2,2E1,3.8E1,1.9E1,1.21E2,2.5E1,2.7E1,3.1E1,7E0,3E0,1.6E1,1.2E1,2.2E1,1.9E1,1.6E1,9E0,1.9E1,3.9E1,6.5E1,7E0,1.3E1,3.6E1,2E0,1.5E1,4E0,1.2E1,1.09E2,2.3E1,2E0,5E0,2.2E1,2E0,2.9E1,6E0,1E0,2E0,1E0,1.5E1,1E0,3E0,9E0,1.1E1,1.1E1],"tree_param":{"num_deleted":"0","num_feature":"6","num_nodes":"61","size_leaf_vector":"1"}},{"base_weights":[4.82152E-1,-1.3640472E1,4.2947456E1,-2.564174E1,-6.2609684E-1,3.821359E1,1.6311922E2,-3.2983788E1,-1.9077925E1,2.2546947E1,-1.3261196E1,2.2677242E1,8.074018E1,3.956184E1,2.3230352E1,-4.0311522E0,-2.9808315E1,7.3904204E0,-2.4232359E1,5.4837795E1,9.072817E0,4.1734818E1,-1.4863699E1,9.041781E1,1.3393198E1,8.8225975E1,-1.2026272E0,1.0995705E0,4.8347054E0,-3.1881819E0,-1.6265606E0,-1.2834648E0,1.6975068E0,-3.9847076E0,-2.2030177E0,-2.8131702E0,6.0392857E0,1.2870687E0,-5.72493E0,1.2719139E0,4.7166996E0,-3.4421508E0,-1.1172608E0,1.6394093E0,1.1327082E1,4.1276608E0,1.3493865E-2,5.0577254E0,1.07331085E1,-6.97287E-1,3.045077E-1],"categories":[],"categories_nodes":[],"categories_segments":[],"categories_sizes":[],"default_left":[0,0,0,0,0,0,0,0,0,0,0,0,0,0,0,0,0,0,0,0,0,0,0,0,0,0,0,0,0,0,0,0,0,0,0,0,0,0,0,0,0,0,0,0,0,0,0,0,0,0,0],"id":8,"left_children":[1,3,5,7,9,11,13,15,17,19,21,23,25,27,-1,-1,29,31,33,35,37,39,41,43,45,47,49,-1,-1,-1,-1,-1,-1,-1,-1,-1,-1,-1,-1,-1,-1,-1,-1,-1,-1,-1,-1,-1,-1,-1,-1],"loss_changes":[3.3642988E5,6.5739516E4,7.3409484E4,9.924766E3,5.973612E4,8.80253E4,3.3550812E4,1.1718125E3,1.627775E4,3.0829031E4,1.225366E4,6.2308574E4,2.2188734E4,2.2126855E2,0E0,0E0,1.5874844E3,4.0948716E3,2.526418E3,1.1377871E4,1.3834744E4,3.0550293E1,8.927887E3,1.8442992E4,3.326612E4,1.8307812E4,1.1927406E2,0E0,0E0,0E0,0E0,0E0,0E0,0E0,0E0,0E0,0E0,0E0,0E0,0E0,0E0,0E0,0E0,0E0,0E0,0E0,0E0,0E0,0E0,0E0,0E0],"parents":[2147483647,0,0,1,1,2,2,3,3,4,4,5,5,6,6,7,7,8,8,9,9,10,10,11,11,12,12,13,13,16,16,17,17,18,18,19,19,20,20,21,21,22,22,23,23,24,24,25,25,26,26],"right_children":[2,4,6,8,10,12,14,16,18,20,22,24,26,28,-1,-1,30,32,34,36,38,40,42,44,46,48,50,-1,-1,-1,-1,-1,-1,-1,-1,-1,-1,-1,-1,-1,-1,-1,-1,-1,-1,-1,-1,-1,-1,-1,-1],"split_conditions":[4.8064E2,3.1012E2,1.08396E3,1.996E2,2.6006332E1,2.8839355E1,4.5303665E1,1.171E1,1.7224E1,3.616441E1,5.27E0,5.71E0,1.79E1,5.44E0,2.3230352E1,-4.0311522E0,7.31E0,2.4412E2,2.2399902E1,8.548E0,4.8161613E1,3.9084E2,2.2956055E1,5.5596E2,3.4502666E1,6.6E0,6.59E0,1.0995705E0,4.8347054E0,-3.1881819E0,-1.6265606E0,-1.2834648E0,1.6975068E0,-3.9847076E0,-2.2030177E0,-2.8131702E0,6.0392857E0,1.2870687E0,-5.72493E0,1.2719139E0,4.7166996E0,-3.4421508E0,-1.1172608E0,1.6394093E0,1.1327082E1,4.1276608E0,1.3493865E-2,5.0577254E0,1.07331085E1,-6.97287E-1,3.045077E-1],"split_indices":[0,0,0,0,3,5,3,2,3,4,1,1,2,1,0,0,1,0,4,4,5,0,4,0,3,1,1,0,0,0,0,0,0,0,0,0,0,0,0,0,0,0,0,0,0,0,0,0,0,0,0],"split_type":[0,0,0,0,0,0,0,0,0,0,0,0,0,0,0,0,0,0,0,0,0,0,0,0,0,0,0,0,0,0,0,0,0,0,0,0,0,0,0,0,0,0,0,0,0,0,0,0,0,0,0],"sum_hessian":[5.59E2,4.2E2,1.39E2,2.18E2,2.02E2,1.35E2,4E0,1.01E2,1.17E2,7.1E1,1.31E2,1E2,3.5E1,2E0,2E0,2.7E1,7.4E1,1.9E1,9.8E1,2E1,5.1E1,3E0,1.28E2,1.1E1,8.9E1,3.2E1,3E0,1E0,1E0,6.3E1,1.1E1,6E0,1.3E1,1E1,8.8E1,1E0,1.9E1,4.9E1,2E0,1E0,2E0,1.9E1,1.09E2,3E0,8E0,2.8E1,6.1E1,1.2E1,2E1,1E0,2E0],"tree_param":{"num_deleted":"0","num_feature":"6","num_nodes":"51","size_leaf_vector":"1"}},{"base_weights":[5.183448E-1,-1.0723925E1,4.508488E1,-1.9848118E1,6.4819245E0,3.9737526E1,1.5264023E2,-2.4359394E1,-6.876752E0,1.9706042E0,7.994787E1,6.9418E1,1.857816E1,3.7583748E1,2.1681664E1,-3.209659E1,-2.0296122E1,-2.086697E1,1.3449087E1,8.581533E0,-2.937997E1,9.962511E0,3.0445042E0,9.739348E0,8.0155136E1,4.667258E1,-1.37406435E1,1.0445919E0,4.5929704E0,-3.375707E0,-1.8259856E0,-2.7021244E0,-1.3102301E0,-2.7556684E0,-6.601467E-1,-1.9742848E0,1.8895893E0,-3.123669E0,1.3167619E0,-3.6135597E0,-1.68827E0,3.5523884E0,-4.7761446E-1,8.476407E0,-1.870491E-1,-3.429649E0,6.460744E0,-2.0962201E-1,-4.1971874E0],"categories":[],"categories_nodes":[],"categories_segments":[],"categories_sizes":[],"default_left":[0,0,0,0,0,0,0,0,0,0,0,0,0,0,0,0,0,0,0,0,0,0,0,0,0,0,0,0,0,0,0,0,0,0,0,0,0,0,0,0,0,0,0,0,0,0,0,0,0],"id":9,"left_children":[1,3,5,7,9,11,13,15,17,19,21,23,25,27,-1,29,31,33,35,37,39,-1,-1,41,43,45,47,-1,-1,-1,-1,-1,-1,-1,-1,-1,-1,-1,-1,-1,-1,-1,-1,-1,-1,-1,-1,-1,-1],"loss_changes":[2.8105972E5,7.0459945E4,5.892489E4,1.6978094E4,5.1545285E4,6.7164516E4,2.8770766E4,6.170672E3,2.2176586E4,3.0926078E4,5.733621E3,2.8054344E4,5.965988E4,1.9969531E2,0E0,1.0608281E3,6.660961E3,4.207963E3,6.15834E3,2.2872309E4,1.5850332E3,0E0,0E0,3.1638691E3,1.4524484E4,5.304172E4,1.0102847E4,0E0,0E0,0E0,0E0,0E0,0E0,0E0,0E0,0E0,0E0,0E0,0E0,0E0,0E0,0E0,0E0,0E0,0E0,0E0,0E0,0E0,0E0],"parents":[2147483647,0,0,1,1,2,2,3,3,4,4,5,5,6,6,7,7,8,8,9,9,10,10,11,11,12,12,13,13,15,15,16,16,17,17,18,18,19,19,20,20,23,23,24,24,25,25,26,26],"right_children":[2,4,6,8,10,12,14,16,18,20,22,24,26,28,-1,30,32,34,36,38,40,-1,-1,42,44,46,48,-1,-1,-1,-1,-1,-1,-1,-1,-1,-1,-1,-1,-1,-1,-1,-1,-1,-1,-1,-1,-1,-1],"split_conditions":[5.1444E2,3.6208E2,1.08396E3,3.981043E1,5.2108925E1,3.4502666E1,4.5303665E1,1.774E1,2.6472E2,1.801E1,2.918958E1,2.0008818E1,2.0815054E1,5.44E0,2.1681664E1,8.25E0,4.1117226E1,3.2747044E1,1.355E1,2.2956055E1,4.602E2,9.962511E0,3.0445042E0,5.372185E1,2.038E1,1.2805699E1,4.842E1,1.0445919E0,4.5929704E0,-3.375707E0,-1.8259856E0,-2.7021244E0,-1.3102301E0,-2.7556684E0,-6.601467E-1,-1.9742848E0,1.8895893E0,-3.123669E0,1.3167619E0,-3.6135597E0,-1.68827E0,3.5523884E0,-4.7761446E-1,8.476407E0,-1.870491E-1,-3.429649E0,6.460744E0,-2.0962201E-1,-4.1971874E0],"split_indices":[0,0,0,5,5,3,3,2,0,2,4,5,5,1,0,1,4,4,2,4,0,0,0,4,2,5,3,0,0,0,0,0,0,0,0,0,0,0,0,0,0,0,0,0,0,0,0,0,0],"split_type":[0,0,0,0,0,0,0,0,0,0,0,0,0,0,0,0,0,0,0,0,0,0,0,0,0,0,0,0,0,0,0,0,0,0,0,0,0,0,0,0,0,0,0,0,0,0,0,0,0],"sum_hessian":[5.59E2,4.47E2,1.12E2,2.92E2,1.55E2,1.08E2,4E0,2.16E2,7.6E1,1.47E2,8E0,4.4E1,6.4E1,2E0,2E0,7.2E1,1.44E2,4.5E1,3.1E1,1.22E2,2.5E1,5E0,3E0,7E0,3.7E1,3.4E1,3E1,1E0,1E0,6.3E1,9E0,7.3E1,7.1E1,3E1,1.5E1,4E0,2.7E1,1.2E1,1.1E2,1.5E1,1E1,2E0,5E0,3.5E1,2E0,6E0,2.8E1,2.2E1,8E0],"tree_param":{"num_deleted":"0","num_feature":"6","num_nodes":"49","size_leaf_vector":"1"}},{"base_weights":[5.2095884E-1,-7.199247E0,5.4665245E1,-1.7621866E1,9.123592E0,9.193841E1,3.681474E1,-2.4842482E1,-1.0137601E1,2.681453E1,-1.2535752E1,-2.510275E0,1.06983475E2,8.5173386E1,8.462539E0,-3.168409E0,-2.1074106E1,-1.721327E1,1.0260784E1,2.8749003E0,4.187068E1,3.408655E0,-2.9700205E1,-9.962781E-1,9.923622E-1,8.3858795E1,2.023622E1,9.382879E1,1.0620107E1,-3.5837724E0,7.422938E1,-3.1608815E0,-1.7192837E0,-2.2594824E0,-9.942841E-1,-1.1158366E0,2.1399527E0,-2.2310014E0,8.549312E-1,5.321431E0,-1.266487E0,-3.151566E0,1.2755533E0,-3.2410843E0,4.1535693E-1,9.199029E0,-2.3122551E0,1.367023E0,1.0430357E1,1.5959778E0,-2.961731E-3,5.286893E-1,-4.5446215E0,9.648783E0,-7.40221E-1],"categories":[],"categories_nodes":[],"categories_segments":[],"categories_sizes":[],"default_left":[0,0,0,0,0,0,0,0,0,0,0,0,0,0,0,0,0,0,0,0,0,0,0,0,0,0,0,0,0,0,0,0,0,0,0,0,0,0,0,0,0,0,0,0,0,0,0,0,0,0,0,0,0,0,0],"id":10,"left_children":[1,3,5,7,9,11,13,15,17,19,21,23,25,27,29,-1,31,33,35,37,39,41,43,-1,-1,45,-1,47,49,51,53,-1,-1,-1,-1,-1,-1,-1,-1,-1,-1,-1,-1,-1,-1,-1,-1,-1,-1,-1,-1,-1,-1,-1,-1],"loss_changes":[2.3447636E5,8.3693E4,4.3189453E4,1.5960469E4,7.390558E4,3.1530266E4,6.646184E4,3.2511094E3,2.1682125E4,3.8086125E4,2.3911145E4,4.6952167E2,2.4936578E4,1.0618734E4,2.561795E4,0E0,3.586246E3,4.1183516E3,9.543498E3,6.192937E3,4.088496E4,1.5417932E4,3.9887617E3,0E0,0E0,1.6915656E4,0E0,1.2008422E4,1.7107074E2,1.0638005E4,9.7991875E3,0E0,0E0,0E0,0E0,0E0,0E0,0E0,0E0,0E0,0E0,0E0,0E0,0E0,0E0,0E0,0E0,0E0,0E0,0E0,0E0,0E0,0E0,0E0,0E0],"parents":[2147483647,0,0,1,1,2,2,3,3,4,4,5,5,6,6,7,7,8,8,9,9,10,10,11,11,12,12,13,13,14,14,16,16,17,17,18,18,19,19,20,20,21,21,22,22,25,25,27,27,28,28,29,29,30,30],"right_children":[2,4,6,8,10,12,14,16,18,20,22,24,26,28,30,-1,32,34,36,38,40,42,44,-1,-1,46,-1,48,50,52,54,-1,-1,-1,-1,-1,-1,-1,-1,-1,-1,-1,-1,-1,-1,-1,-1,-1,-1,-1,-1,-1,-1,-1,-1],"split_conditions":[5.7544E2,3.6376E2,6.35E0,2.4412E2,3.8070667E1,2.0272167E1,3.3078167E1,1.527E1,3.9741505E1,1.513E1,2.0008818E1,7.7884E2,7.7396E2,5.405007E1,5.1815666E1,-3.168409E0,2.7295387E1,4.163813E1,6.81E0,4.5651066E1,1.79E1,1.0779677E1,7.38E0,-9.962781E-1,9.923622E-1,6.1235E1,2.023622E1,5.8584E2,6.1196E2,4.842E1,7.18E0,-3.1608815E0,-1.7192837E0,-2.2594824E0,-9.942841E-1,-1.1158366E0,2.1399527E0,-2.2310014E0,8.549312E-1,5.321431E0,-1.266487E0,-3.151566E0,1.2755533E0,-3.2410843E0,4.1535693E-1,9.199029E0,-2.3122551E0,1.367023E0,1.0430357E1,1.5959778E0,-2.961731E-3,5.286893E-1,-4.5446215E0,9.648783E0,-7.40221E-1],"split_indices":[0,0,1,0,3,3,3,2,5,2,5,0,0,4,3,0,4,4,1,4,2,5,1,0,0,3,0,0,0,3,1,0,0,0,0,0,0,0,0,0,0,0,0,0,0,0,0,0,0,0,0,0,0,0,0],"split_type":[0,0,0,0,0,0,0,0,0,0,0,0,0,0,0,0,0,0,0,0,0,0,0,0,0,0,0,0,0,0,0,0,0,0,0,0,0,0,0,0,0,0,0,0,0,0,0,0,0,0,0,0,0,0,0],"sum_hessian":[5.59E2,4.9E2,6.9E1,2.99E2,1.91E2,2.1E1,4.8E1,1.51E2,1.48E2,1.05E2,8.6E1,3E0,1.8E1,1.7E1,3.1E1,5.1E1,1E2,1.1E2,3.8E1,4.1E1,6.4E1,4.5E1,4.1E1,2E0,1E0,1.6E1,2E0,1.5E1,2E0,2.7E1,4E0,2.5E1,7.5E1,6.2E1,4.8E1,1.3E1,2.5E1,7E0,3.4E1,5.3E1,1.1E1,9E0,3.6E1,3.8E1,3E0,1.5E1,1E0,2E0,1.3E1,1E0,1E0,2.3E1,4E0,3E0,1E0],"tree_param":{"num_deleted":"0","num_feature":"6","num_nodes":"55","size_leaf_vector":"1"}},{"base_weights":[5.27972E-1,-6.504375E0,4.984732E1,-1.589394E1,8.200697E0,-2.9025583E1,5.6361015E1,-1.991108E1,-4.5979195E0,2.415835E1,-1.1336221E1,-3.4819448E0,-2.8137208E-3,3.6892284E1,9.273661E1,-2.7135942E1,-1.6522669E1,-1.6573112E1,1.1272274E1,2.554644E0,3.7746E1,3.0270078E0,-2.6797466E1,6.889847E1,-8.8473425E0,1.0905411E2,-4.6958947E0,-2.836024E0,-1.8102349E0,-2.1321254E0,-1.1111732E0,-2.2305489E0,-4.4308123E-1,-1.3621596E-1,2.328047E0,-1.8785906E0,8.1284773E-1,4.799143E0,-1.1503924E0,2.4730818E0,-1.1808685E0,-2.9252865E0,3.8420507E-1,1.4580082E0,8.113712E0,-2.1492252E0,3.0856855E0,1.9595366E1,8.219222E0],"categories":[],"categories_nodes":[],"categories_segments":[],"categories_sizes":[],"default_left":[0,0,0,0,0,0,0,0,0,0,0,0,0,0,0,0,0,0,0,0,0,0,0,0,0,0,0,0,0,0,0,0,0,0,0,0,0,0,0,0,0,0,0,0,0,0,0,0,0],"id":11,"left_children":[1,3,5,7,9,11,13,15,17,19,21,-1,-1,23,25,27,29,31,33,35,37,39,41,43,45,47,-1,-1,-1,-1,-1,-1,-1,-1,-1,-1,-1,-1,-1,-1,-1,-1,-1,-1,-1,-1,-1,-1,-1],"loss_changes":[1.9454947E5,6.792479E4,3.759867E4,1.3521742E4,6.013243E4,1.0070635E3,4.2610875E4,4.9619062E3,1.5390706E4,3.1019191E4,1.9401502E4,0E0,0E0,6.50234E4,5.5269656E4,2.4973828E2,3.7357031E3,3.102963E3,5.3417974E3,5.1485444E3,3.335022E4,1.5103627E4,3.2721445E3,1.6101398E4,1.0202246E4,3.0579875E4,0E0,0E0,0E0,0E0,0E0,0E0,0E0,0E0,0E0,0E0,0E0,0E0,0E0,0E0,0E0,0E0,0E0,0E0,0E0,0E0,0E0,0E0,0E0],"parents":[2147483647,0,0,1,1,2,2,3,3,4,4,5,5,6,6,7,7,8,8,9,9,10,10,13,13,14,14,15,15,16,16,17,17,18,18,19,19,20,20,21,21,22,22,23,23,24,24,25,25],"right_children":[2,4,6,8,10,12,14,16,18,20,22,-1,-1,24,26,28,30,32,34,36,38,40,42,44,46,48,-1,-1,-1,-1,-1,-1,-1,-1,-1,-1,-1,-1,-1,-1,-1,-1,-1,-1,-1,-1,-1,-1,-1],"split_conditions":[5.7544E2,3.6376E2,1.1402043E1,3.981043E1,3.8070667E1,6.6376E2,4.714633E1,1.996E2,2.6472E2,1.513E1,2.0008818E1,-3.4819448E0,-2.8137208E-3,3.4243332E1,2.313699E1,1.84E1,4.1117226E1,3.2747044E1,3.3861916E1,4.732869E1,1.79E1,2.86053E1,7.38E0,5.84E0,4.47E1,4.8666725E1,-4.6958947E0,-2.836024E0,-1.8102349E0,-2.1321254E0,-1.1111732E0,-2.2305489E0,-4.4308123E-1,-1.3621596E-1,2.328047E0,-1.8785906E0,8.1284773E-1,4.799143E0,-1.1503924E0,2.4730818E0,-1.1808685E0,-2.9252865E0,3.8420507E-1,1.4580082E0,8.113712E0,-2.1492252E0,3.0856855E0,1.9595366E1,8.219222E0],"split_indices":[0,0,5,5,3,0,3,0,0,2,5,0,0,3,5,2,4,4,4,4,2,4,1,1,3,3,0,0,0,0,0,0,0,0,0,0,0,0,0,0,0,0,0,0,0,0,0,0,0],"split_type":[0,0,0,0,0,0,0,0,0,0,0,0,0,0,0,0,0,0,0,0,0,0,0,0,0,0,0,0,0,0,0,0,0,0,0,0,0,0,0,0,0,0,0,0,0,0,0,0,0],"sum_hessian":[5.59E2,4.9E2,6.9E1,2.99E2,1.91E2,5E0,6.4E1,2.2E2,7.9E1,1.05E2,8.6E1,4E0,1E0,4.3E1,2.1E1,6.8E1,1.52E2,4.5E1,3.4E1,4.1E1,6.4E1,4.5E1,4.1E1,2.5E1,1.8E1,1.9E1,2E0,5.8E1,1E1,7.9E1,7.3E1,3E1,1.5E1,1.7E1,1.7E1,8E0,3.3E1,5.3E1,1.1E1,1.8E1,2.7E1,3.8E1,3E0,5E0,2E1,1.4E1,4E0,3E0,1.6E1],"tree_param":{"num_deleted":"0","num_feature":"6","num_nodes":"49","size_leaf_vector":"1"}},{"base_weights":[5.1643336E-1,-8.052342E0,3.4483646E1,-1.7329412E1,8.160521E-1,2.9983301E1,1.25694466E2,-2.8834045E0,-1.4754771E1,1.868181E1,-8.297316E0,2.012118E1,7.0352135E1,3.368298E1,1.758078E1,-4.440997E0,-1.8443645E1,3.764762E1,4.6697774E0,3.991824E1,-1.0195937E1,7.9409294E1,1.4878553E1,7.760674E1,9.555766E-1,8.6984366E-1,4.1826034E0,-2.0630696E0,3.3083016E-1,-2.3288124E0,-1.5244704E0,2.0672317E0,5.4391866E0,-1.1649213E0,1.2941844E0,1.7946835E0,5.5907364E0,-8.635854E-1,-4.0386786E0,2.351712E0,8.480514E0,-2.55993E0,1.9537516E0,4.30455E0,9.882895E0,-3.5433197E-1,4.9766847E-1],"categories":[],"categories_nodes":[],"categories_segments":[],"categories_sizes":[],"default_left":[0,0,0,0,0,0,0,0,0,0,0,0,0,0,0,0,0,0,0,0,0,0,0,0,0,0,0,0,0,0,0,0,0,0,0,0,0,0,0,0,0,0,0,0,0,0,0],"id":12,"left_children":[1,3,5,7,9,11,13,-1,15,17,19,21,23,25,-1,27,29,31,33,35,37,39,41,43,45,-1,-1,-1,-1,-1,-1,-1,-1,-1,-1,-1,-1,-1,-1,-1,-1,-1,-1,-1,-1,-1,-1],"loss_changes":[1.6326984E5,3.6872316E4,4.261553E4,6.0614062E3,3.7602973E4,4.1979742E4,1.7133281E4,0E0,6.804461E3,2.055266E4,1.4413098E4,2.6481969E4,1.04981875E4,2.4653027E2,0E0,6.215734E3,1.7061055E3,8.255473E3,6.3603833E3,1.1044609E3,6.6220615E3,1.1672266E2,1.6152682E4,9.681719E3,7.1905624E1,0E0,0E0,0E0,0E0,0E0,0E0,0E0,0E0,0E0,0E0,0E0,0E0,0E0,0E0,0E0,0E0,0E0,0E0,0E0,0E0,0E0,0E0],"parents":[2147483647,0,0,1,1,2,2,3,3,4,4,5,5,6,6,8,8,9,9,10,10,11,11,12,12,13,13,15,15,16,16,17,17,18,18,19,19,20,20,21,21,22,22,23,23,24,24],"right_children":[2,4,6,8,10,12,14,-1,16,18,20,22,24,26,-1,28,30,32,34,36,38,40,42,44,46,-1,-1,-1,-1,-1,-1,-1,-1,-1,-1,-1,-1,-1,-1,-1,-1,-1,-1,-1,-1,-1,-1],"split_conditions":[5.1444E2,3.1012E2,1.08396E3,1.176E1,2.4939E1,3.077129E1,4.5303665E1,-2.8834045E0,2.0710667E1,3.9594517E1,5.31E0,5.29E0,7.69E0,5.44E0,1.758078E1,1.2324E2,1.996E2,7.35E0,1.117E1,3.6944668E1,4.998E2,1.3523871E1,1.2805699E1,6.76E0,5.3444E2,8.6984366E-1,4.1826034E0,-2.0630696E0,3.3083016E-1,-2.3288124E0,-1.5244704E0,2.0672317E0,5.4391866E0,-1.1649213E0,1.2941844E0,1.7946835E0,5.5907364E0,-8.635854E-1,-4.0386786E0,2.351712E0,8.480514E0,-2.55993E0,1.9537516E0,4.30455E0,9.882895E0,-3.5433197E-1,4.9766847E-1],"split_indices":[0,0,0,2,3,5,3,0,3,4,1,1,1,1,0,0,0,1,2,3,0,5,5,1,0,0,0,0,0,0,0,0,0,0,0,0,0,0,0,0,0,0,0,0,0,0,0],"split_type":[0,0,0,0,0,0,0,0,0,0,0,0,0,0,0,0,0,0,0,0,0,0,0,0,0,0,0,0,0,0,0,0,0,0,0,0,0,0,0,0,0,0,0,0,0,0,0],"sum_hessian":[5.59E2,4.47E2,1.12E2,2.18E2,2.29E2,1.08E2,4E0,3.8E1,1.8E2,7.7E1,1.52E2,8.8E1,2E1,2E0,2E0,4.8E1,1.32E2,3.2E1,4.5E1,5E0,1.47E2,6E0,8.2E1,1.8E1,2E0,1E0,1E0,1.5E1,3.3E1,5E1,8.2E1,1.7E1,1.5E1,1.5E1,3E1,3E0,2E0,1.41E2,6E0,1E0,5E0,8E0,7.4E1,8E0,1E1,1E0,1E0],"tree_param":{"num_deleted":"0","num_feature":"6","num_nodes":"47","size_leaf_vector":"1"}},{"base_weights":[5.5200434E-1,-5.3563733E0,4.1987167E1,-1.2748464E1,7.2639804E0,3.561884E1,1.17651665E2,-2.156687E1,-8.985715E0,2.1749949E1,-1.027651E1,6.462525E1,2.1602457E1,3.1998833E1,1.6408728E1,-2.7256847E1,-1.8784006E1,-1.5563659E1,2.8684082E0,2.0032191E0,3.4342068E1,-1.2958139E1,6.5552974E0,7.576424E1,-2.7463362E0,5.3138515E1,-1.8470875E1,8.263516E-1,3.9734733E0,-2.8461618E0,2.6359865E-1,-2.163577E0,-1.335575E0,-1.8377155E0,-1.7739491E-1,8.1146115E-1,-3.4141853E0,-1.770258E0,7.482875E-1,4.4529157E0,-1.0965976E0,5.2180204E0,-1.526772E0,8.207842E0,-1.8945488E0,-1.0341682E-1,6.024948E0,-3.744066E0,-8.3869165E-1],"categories":[],"categories_nodes":[],"categories_segments":[],"categories_sizes":[],"default_left":[0,0,0,0,0,0,0,0,0,0,0,0,0,0,0,0,0,0,0,0,0,0,0,0,0,0,0,0,0,0,0,0,0,0,0,0,0,0,0,0,0,0,0,0,0,0,0,0,0],"id":13,"left_children":[1,3,5,7,9,11,13,15,17,19,21,23,25,27,-1,29,31,33,35,37,39,41,-1,43,-1,45,47,-1,-1,-1,-1,-1,-1,-1,-1,-1,-1,-1,-1,-1,-1,-1,-1,-1,-1,-1,-1,-1,-1],"loss_changes":[1.3732106E5,4.5898383E4,2.9539336E4,1.0092453E4,4.646807E4,2.5437219E4,1.4636102E4,9.4477734E2,1.7121332E4,2.4796516E4,1.7727207E4,2.3621984E4,5.9114246E4,2.2249316E2,0E0,1.083418E3,7.172461E2,5.4378203E3,1.5615953E4,4.4517056E3,2.864329E4,1.2982497E4,0E0,1.2917281E4,0E0,1.0078031E4,3.7030908E3,0E0,0E0,0E0,0E0,0E0,0E0,0E0,0E0,0E0,0E0,0E0,0E0,0E0,0E0,0E0,0E0,0E0,0E0,0E0,0E0,0E0,0E0],"parents":[2147483647,0,0,1,1,2,2,3,3,4,4,5,5,6,6,7,7,8,8,9,9,10,10,11,11,12,12,13,13,15,15,16,16,17,17,18,18,19,19,20,20,21,21,23,23,25,25,26,26],"right_children":[2,4,6,8,10,12,14,16,18,20,22,24,26,28,-1,30,32,34,36,38,40,42,-1,44,-1,46,48,-1,-1,-1,-1,-1,-1,-1,-1,-1,-1,-1,-1,-1,-1,-1,-1,-1,-1,-1,-1,-1,-1],"split_conditions":[5.7544E2,3.7404E2,1.08396E3,1.711E1,3.8070667E1,3.1395657E1,4.5303665E1,9.49E0,6.78E0,1.513E1,4.7923485E1,7.42E0,3.4243332E1,5.44E0,1.6408728E1,3.506E2,7.51E0,5.4802666E1,4.0492E1,4.732869E1,1.79E1,5.31E0,6.5552974E0,6.1235E1,-2.7463362E0,1.8958065E1,5.9412E2,8.263516E-1,3.9734733E0,-2.8461618E0,2.6359865E-1,-2.163577E0,-1.335575E0,-1.8377155E0,-1.7739491E-1,8.1146115E-1,-3.4141853E0,-1.770258E0,7.482875E-1,4.4529157E0,-1.0965976E0,5.2180204E0,-1.526772E0,8.207842E0,-1.8945488E0,-1.0341682E-1,6.024948E0,-3.744066E0,-8.3869165E-1],"split_indices":[0,0,0,2,3,4,3,2,1,2,4,1,3,1,0,0,1,3,3,4,2,1,0,3,0,5,0,0,0,0,0,0,0,0,0,0,0,0,0,0,0,0,0,0,0,0,0,0,0],"split_type":[0,0,0,0,0,0,0,0,0,0,0,0,0,0,0,0,0,0,0,0,0,0,0,0,0,0,0,0,0,0,0,0,0,0,0,0,0,0,0,0,0,0,0,0,0,0,0,0,0],"sum_hessian":[5.59E2,4.9E2,6.9E1,3.09E2,1.81E2,6.5E1,4E0,9.1E1,2.18E2,9.9E1,8.2E1,2E1,4.5E1,2E0,2E0,2.7E1,6.4E1,1.4E2,7.8E1,3.9E1,6E1,8E1,2E0,1.8E1,2E0,2.5E1,2E1,1E0,1E0,2.6E1,1E0,4E1,2.4E1,1.16E2,2.4E1,6.9E1,9E0,8E0,3.1E1,4.9E1,1.1E1,2E0,7.8E1,1.7E1,1E0,3E0,2.2E1,6E0,1.4E1],"tree_param":{"num_deleted":"0","num_feature":"6","num_nodes":"49","size_leaf_vector":"1"}},{"base_weights":[5.4679537E-1,-6.5948267E0,2.8855644E1,-1.4303863E1,7.741892E-1,2.4862814E1,1.1012821E2,-2.3645039E0,-1.2212096E1,1.4933895E1,-7.322338E0,1.790905E1,6.72458E1,3.0398888E1,1.5314814E1,-1.4979462E1,-2.3972025E0,-1.0174539E1,2.2939259E1,3.319152E1,-8.982625E0,6.598053E1,1.3926922E1,1.4621457E1,8.50527E1,7.850338E-1,3.7747993E0,-9.9142134E-2,-1.7018431E0,6.5160567E-1,-1.2081927E0,-2.9071462E0,-5.4099697E-1,2.639713E0,-2.3143048E0,1.3261137E0,4.8701525E0,-7.4577844E-1,-3.732488E0,1.8237336E0,7.089817E0,3.2667272E0,3.8442495E-1,4.7668414E0,-5.5573845E-1,2.5358803E0,8.84862E0],"categories":[],"categories_nodes":[],"categories_segments":[],"categories_sizes":[],"default_left":[0,0,0,0,0,0,0,0,0,0,0,0,0,0,0,0,0,0,0,0,0,0,0,0,0,0,0,0,0,0,0,0,0,0,0,0,0,0,0,0,0,0,0,0,0,0,0],"id":14,"left_children":[1,3,5,7,9,11,13,-1,15,17,19,21,23,25,-1,27,29,31,33,35,37,39,41,43,45,-1,-1,-1,-1,-1,-1,-1,-1,-1,-1,-1,-1,-1,-1,-1,-1,-1,-1,-1,-1,-1,-1],"loss_changes":[1.1340612E5,2.5461064E4,3.393125E4,3.9904023E3,2.6477574E4,3.0920305E4,1.2494215E4,0E0,4.8803047E3,1.7117572E4,1.018605E4,1.7266639E4,1.2812555E4,2.0080054E2,0E0,4.0046152E3,3.6179475E3,1.7334736E3,1.0809098E4,1.2088843E3,5.8585146E3,3.5049414E2,1.6691217E4,3.5991577E3,1.06484375E1,0E0,0E0,0E0,0E0,0E0,0E0,0E0,0E0,0E0,0E0,0E0,0E0,0E0,0E0,0E0,0E0,0E0,0E0,0E0,0E0,0E0,0E0],"parents":[2147483647,0,0,1,1,2,2,3,3,4,4,5,5,6,6,8,8,9,9,10,10,11,11,12,12,13,13,15,15,16,16,17,17,18,18,19,19,20,20,21,21,22,22,23,23,24,24],"right_children":[2,4,6,8,10,12,14,-1,16,18,20,22,24,26,-1,28,30,32,34,36,38,40,42,44,46,-1,-1,-1,-1,-1,-1,-1,-1,-1,-1,-1,-1,-1,-1,-1,-1,-1,-1,-1,-1,-1,-1],"split_conditions":[5.1444E2,3.1012E2,1.08396E3,1.176E1,2.6006332E1,3.2147633E1,4.5303665E1,-2.3645039E0,7.21E0,1.135E1,5.31E0,5.29E0,1.6463E1,5.44E0,1.5314814E1,1.5559334E1,2.2454666E1,7.55E0,1.79E1,3.6944668E1,4.998E2,1.3523871E1,3.4502666E1,2.7295387E1,5.2084E2,7.850338E-1,3.7747993E0,-9.9142134E-2,-1.7018431E0,6.5160567E-1,-1.2081927E0,-2.9071462E0,-5.4099697E-1,2.639713E0,-2.3143048E0,1.3261137E0,4.8701525E0,-7.4577844E-1,-3.732488E0,1.8237336E0,7.089817E0,3.2667272E0,3.8442495E-1,4.7668414E0,-5.5573845E-1,2.5358803E0,8.84862E0],"split_indices":[0,0,0,2,3,5,3,0,1,2,1,1,3,1,0,3,3,2,2,3,0,5,3,4,0,0,0,0,0,0,0,0,0,0,0,0,0,0,0,0,0,0,0,0,0,0,0],"split_type":[0,0,0,0,0,0,0,0,0,0,0,0,0,0,0,0,0,0,0,0,0,0,0,0,0,0,0,0,0,0,0,0,0,0,0,0,0,0,0,0,0,0,0,0,0,0,0],"sum_hessian":[5.59E2,4.47E2,1.12E2,2.18E2,2.29E2,1.08E2,4E0,3.8E1,1.8E2,8.3E1,1.46E2,9.4E1,1.4E1,2E0,2E0,1.4E2,4E1,2E1,6.3E1,5E0,1.41E2,6E0,8.8E1,4E0,1E1,1E0,1E0,1.8E1,1.22E2,2.1E1,1.9E1,3E0,1.7E1,5.9E1,4E0,3E0,2E0,1.35E2,6E0,1E0,5E0,3E1,5.8E1,1E0,3E0,1E0,9E0],"tree_param":{"num_deleted":"0","num_feature":"6","num_nodes":"47","size_leaf_vector":"1"}},{"base_weights":[5.6695265E-1,-4.395401E0,3.536622E1,-1.0504955E1,6.035133E0,2.9699753E1,1.0309032E2,-1.5550769E1,-5.6152153E0,1.8176683E1,-8.665954E0,5.6092712E1,1.7005148E1,2.8878944E1,1.4293825E1,-2.3333237E1,-1.3759678E1,1.3366534E1,-8.923647E0,7.2744405E-1,2.932083E1,-1.1164371E1,6.1679964E0,6.608491E1,-2.5888755E0,4.3984905E1,-1.7208132E1,7.457821E-1,3.5860596E0,-2.576308E0,-1.0534949E0,-2.0553443E0,-1.024088E0,4.3061072E-1,3.9830132E0,-1.2765101E0,-1.13025606E-1,-1.055827E0,9.528114E-1,3.8086915E0,-9.647933E-1,2.668122E-1,-2.0729797E0,9.636496E0,4.0391135E0,-3.7562236E-1,5.0375323E0,-3.4560966E0,-7.962934E-1],"categories":[],"categories_nodes":[],"categories_segments":[],"categories_sizes":[],"default_left":[0,0,0,0,0,0,0,0,0,0,0,0,0,0,0,0,0,0,0,0,0,0,0,0,0,0,0,0,0,0,0,0,0,0,0,0,0,0,0,0,0,0,0,0,0,0,0,0,0],"id":15,"left_children":[1,3,5,7,9,11,13,15,17,19,21,23,25,27,-1,29,31,33,35,37,39,41,-1,43,-1,45,47,-1,-1,-1,-1,-1,-1,-1,-1,-1,-1,-1,-1,-1,-1,-1,-1,-1,-1,-1,-1,-1,-1],"loss_changes":[9.685976E4,3.135282E4,2.3801188E4,7.5612188E3,3.2643424E4,2.1159316E4,1.0657941E4,1.7976875E3,1.0104451E4,1.9424355E4,1.5276154E4,1.8913523E4,4.3217938E4,1.8122266E2,0E0,5.6822754E2,2.8016582E3,5.583003E3,4.0571328E3,4.0734746E3,2.1205277E4,1.0772715E4,0E0,1.0889875E4,0E0,8.121449E3,3.0938325E3,0E0,0E0,0E0,0E0,0E0,0E0,0E0,0E0,0E0,0E0,0E0,0E0,0E0,0E0,0E0,0E0,0E0,0E0,0E0,0E0,0E0,0E0],"parents":[2147483647,0,0,1,1,2,2,3,3,4,4,5,5,6,6,7,7,8,8,9,9,10,10,11,11,12,12,13,13,15,15,16,16,17,17,18,18,19,19,20,20,21,21,23,23,25,25,26,26],"right_children":[2,4,6,8,10,12,14,16,18,20,22,24,26,28,-1,30,32,34,36,38,40,42,-1,44,-1,46,48,-1,-1,-1,-1,-1,-1,-1,-1,-1,-1,-1,-1,-1,-1,-1,-1,-1,-1,-1,-1,-1,-1],"split_conditions":[5.7544E2,3.7404E2,1.08396E3,2.4412E2,3.8070667E1,3.1395657E1,4.5303665E1,2.49253E1,1.7224E1,1.513E1,4.7923485E1,7.42E0,3.4243332E1,5.44E0,1.4293825E1,7.42E0,1.376E2,1.6202E1,7.06E0,8.39E0,1.79E1,2.86053E1,6.1679964E0,6.524E2,-2.5888755E0,5.69E0,5.9412E2,7.457821E-1,3.5860596E0,-2.576308E0,-1.0534949E0,-2.0553443E0,-1.024088E0,4.3061072E-1,3.9830132E0,-1.2765101E0,-1.13025606E-1,-1.055827E0,9.528114E-1,3.8086915E0,-9.647933E-1,2.668122E-1,-2.0729797E0,9.636496E0,4.0391135E0,-3.7562236E-1,5.0375323E0,-3.4560966E0,-7.962934E-1],"split_indices":[0,0,0,0,3,4,3,4,3,2,4,1,3,1,0,1,0,3,1,1,2,4,0,0,0,1,0,0,0,0,0,0,0,0,0,0,0,0,0,0,0,0,0,0,0,0,0,0,0],"split_type":[0,0,0,0,0,0,0,0,0,0,0,0,0,0,0,0,0,0,0,0,0,0,0,0,0,0,0,0,0,0,0,0,0,0,0,0,0,0,0,0,0,0,0,0,0,0,0,0,0],"sum_hessian":[5.59E2,4.9E2,6.9E1,3.09E2,1.81E2,6.5E1,4E0,1.51E2,1.58E2,9.9E1,8.2E1,2E1,4.5E1,2E0,2E0,2.6E1,1.25E2,2.3E1,1.35E2,3.9E1,6E1,8E1,2E0,1.8E1,2E0,2.5E1,2E1,1E0,1E0,2.1E1,5E0,4.1E1,8.4E1,1.8E1,5E0,9E1,4.5E1,1.7E1,2.2E1,4.9E1,1.1E1,3.3E1,4.7E1,7E0,1.1E1,3E0,2.2E1,6E0,1.4E1],"tree_param":{"num_deleted":"0","num_feature":"6","num_nodes":"49","size_leaf_vector":"1"}},{"base_weights":[5.7014954E-1,-3.9489E0,3.225991E1,-9.466348E0,5.4706473E0,2.6903963E1,9.6506424E1,-1.6801548E1,-6.341668E0,1.5731709E1,-8.726017E0,5.1941753E1,1.5677159E1,2.7434998E1,1.3340904E1,-2.3763636E1,-1.524728E1,-1.1522041E1,2.9845896E0,1.2611252E1,6.563744E1,6.9058566E0,-2.1917004E1,6.476322E1,-1.5534918E1,3.9765717E1,-1.3503735E1,7.0849305E-1,3.4067566E0,-1.615948E0,-2.8397338E0,-1.7538617E0,-1.0770934E0,-1.4170715E0,1.3346289E-1,7.765921E-1,-2.7278726E0,5.958201E-1,3.7672482E0,1.0058221E0,7.4741645E0,-2.5325758E0,1.8587719E0,-1.19631E0,-2.9619658E0,-3.2693836E-1,7.4052196E0,4.046674E0,-4.769105E0,4.621721E0,-7.2717667E-1,-2.9850156E0,-3.885395E-1],"categories":[],"categories_nodes":[],"categories_segments":[],"categories_sizes":[],"default_left":[0,0,0,0,0,0,0,0,0,0,0,0,0,0,0,0,0,0,0,0,0,0,0,0,0,0,0,0,0,0,0,0,0,0,0,0,0,0,0,0,0,0,0,0,0,0,0,0,0,0,0,0,0],"id":16,"left_children":[1,3,5,7,9,11,13,15,17,19,21,23,25,27,-1,29,31,33,35,37,39,41,43,45,47,49,51,-1,-1,-1,-1,-1,-1,-1,-1,-1,-1,-1,-1,-1,-1,-1,-1,-1,-1,-1,-1,-1,-1,-1,-1,-1,-1],"loss_changes":[8.032365E4,2.556997E4,2.1490648E4,6.9986934E3,2.664973E4,1.773793E4,9.084504E3,6.331992E2,1.0615045E4,1.5679471E4,1.6028742E4,1.8309086E4,3.3574492E4,1.6355322E2,0E0,6.964453E1,6.1112305E2,4.8204043E3,1.164306E4,1.6615637E4,2.2842598E3,1.4025658E4,2.8658594E3,1.0985305E4,9.133087E3,8.226086E3,3.3429792E3,0E0,0E0,0E0,0E0,0E0,0E0,0E0,0E0,0E0,0E0,0E0,0E0,0E0,0E0,0E0,0E0,0E0,0E0,0E0,0E0,0E0,0E0,0E0,0E0,0E0,0E0],"parents":[2147483647,0,0,1,1,2,2,3,3,4,4,5,5,6,6,7,7,8,8,9,9,10,10,11,11,12,12,13,13,15,15,16,16,17,17,18,18,19,19,20,20,21,21,22,22,23,23,24,24,25,25,26,26],"right_children":[2,4,6,8,10,12,14,16,18,20,22,24,26,28,-1,30,32,34,36,38,40,42,44,46,48,50,52,-1,-1,-1,-1,-1,-1,-1,-1,-1,-1,-1,-1,-1,-1,-1,-1,-1,-1,-1,-1,-1,-1,-1,-1,-1,-1],"split_conditions":[5.7544E2,3.7404E2,1.08396E3,1.711E1,3.9543E1,3.1118366E1,4.5303665E1,8E0,6.78E0,5.777226E1,1.7548746E1,2.313699E1,3.4243332E1,5.44E0,1.3340904E1,1.5784E2,7.51E0,5.4802666E1,3.8637554E1,5.2084E2,7.03E0,1.0779677E1,4.542E2,1.3523871E1,6.1912E2,5.405007E1,6.0036E2,7.0849305E-1,3.4067566E0,-1.615948E0,-2.8397338E0,-1.7538617E0,-1.0770934E0,-1.4170715E0,1.3346289E-1,7.765921E-1,-2.7278726E0,5.958201E-1,3.7672482E0,1.0058221E0,7.4741645E0,-2.5325758E0,1.8587719E0,-1.19631E0,-2.9619658E0,-3.2693836E-1,7.4052196E0,4.046674E0,-4.769105E0,4.621721E0,-7.2717667E-1,-2.9850156E0,-3.885395E-1],"split_indices":[0,0,0,2,3,4,3,2,1,5,5,5,3,1,0,0,1,3,3,0,1,5,0,5,0,4,0,0,0,0,0,0,0,0,0,0,0,0,0,0,0,0,0,0,0,0,0,0,0,0,0,0,0],"split_type":[0,0,0,0,0,0,0,0,0,0,0,0,0,0,0,0,0,0,0,0,0,0,0,0,0,0,0,0,0,0,0,0,0,0,0,0,0,0,0,0,0,0,0,0,0,0,0,0,0,0,0,0,0],"sum_hessian":[5.59E2,4.9E2,6.9E1,3.09E2,1.81E2,6.5E1,4E0,9.1E1,2.18E2,1.05E2,7.6E1,1.9E1,4.6E1,2E0,2E0,1.4E1,7.7E1,1.4E2,7.8E1,1E2,5E0,3.5E1,4.1E1,1.6E1,3E0,2.5E1,2.1E1,1E0,1E0,7E0,7E0,4.9E1,2.8E1,1.16E2,2.4E1,6.8E1,1E1,8E1,2E1,1E0,4E0,9E0,2.6E1,1.9E1,2.2E1,2E0,1.4E1,1E0,2E0,2.2E1,3E0,7E0,1.4E1],"tree_param":{"num_deleted":"0","num_feature":"6","num_nodes":"53","size_leaf_vector":"1"}},{"base_weights":[5.5210334E-1,-3.559123E0,2.9381533E1,-8.7797365E0,4.616623E0,2.431776E1,9.034701E1,-2.2423378E1,-7.0669756E0,1.3852502E1,-6.6893516E0,4.638571E1,1.3714615E1,2.6063248E1,1.245151E1,-1.5347476E1,-2.4832578E0,-1.5140651E1,-3.1687524E0,1.0944981E1,6.0487026E1,4.8279433E0,-1.914426E1,5.726378E1,-1.4162031E1,3.593893E1,-1.4454282E1,6.730682E-1,3.236419E0,-1.9398283E0,1.9207701E-1,-1.9804357E0,-1.3049645E0,-8.994436E-1,6.7301065E-1,5.683458E-1,3.3353474E0,9.555306E-1,6.8762317E0,1.0359364E0,-4.260158E0,-2.2532716E0,1.01696886E-1,3.0713007E0,8.661312E0,3.8443406E0,-4.4511647E0,-7.976637E-1,4.201386E0,-2.9040012E0,-6.6839886E-1],"categories":[],"categories_nodes":[],"categories_segments":[],"categories_sizes":[],"default_left":[0,0,0,0,0,0,0,0,0,0,0,0,0,0,0,0,0,0,0,0,0,0,0,0,0,0,0,0,0,0,0,0,0,0,0,0,0,0,0,0,0,0,0,0,0,0,0,0,0,0,0],"id":17,"left_children":[1,3,5,7,9,11,13,15,17,19,21,23,25,27,-1,29,-1,31,33,35,37,39,41,43,45,47,49,-1,-1,-1,-1,-1,-1,-1,-1,-1,-1,-1,-1,-1,-1,-1,-1,-1,-1,-1,-1,-1,-1,-1,-1],"loss_changes":[6.647818E4,2.0997598E4,1.9413027E4,6.8520234E3,2.0141422E4,1.480716E4,7.737E3,1.8144336E2,8.386784E3,1.3710604E4,1.2572305E4,1.4642465E4,2.9317055E4,1.476073E2,0E0,8.0671313E2,0E0,5.899707E2,1.0556041E4,1.1718619E4,1.8718008E3,1.2509546E4,2.892163E3,1.1366309E4,8.097398E3,7.2715156E3,2.185941E3,0E0,0E0,0E0,0E0,0E0,0E0,0E0,0E0,0E0,0E0,0E0,0E0,0E0,0E0,0E0,0E0,0E0,0E0,0E0,0E0,0E0,0E0,0E0,0E0],"parents":[2147483647,0,0,1,1,2,2,3,3,4,4,5,5,6,6,7,7,8,8,9,9,10,10,11,11,12,12,13,13,15,15,17,17,18,18,19,19,20,20,21,21,22,22,23,23,24,24,25,25,26,26],"right_children":[2,4,6,8,10,12,14,16,18,20,22,24,26,28,-1,30,-1,32,34,36,38,40,42,44,46,48,50,-1,-1,-1,-1,-1,-1,-1,-1,-1,-1,-1,-1,-1,-1,-1,-1,-1,-1,-1,-1,-1,-1,-1,-1],"split_conditions":[5.7544E2,3.6376E2,1.08396E3,2.2649477E1,3.8070667E1,3.1395657E1,4.5303665E1,1.4212E2,1.711E1,5.777226E1,2.0008818E1,2.313699E1,3.4243332E1,5.44E0,1.245151E1,9.72E1,-2.4832578E0,9.45E0,6.68E0,5.2084E2,7.03E0,5.2732E2,2.499E1,1.7883656E1,6.1912E2,1.8958065E1,5.9412E2,6.730682E-1,3.236419E0,-1.9398283E0,1.9207701E-1,-1.9804357E0,-1.3049645E0,-8.994436E-1,6.7301065E-1,5.683458E-1,3.3353474E0,9.555306E-1,6.8762317E0,1.0359364E0,-4.260158E0,-2.2532716E0,1.01696886E-1,3.0713007E0,8.661312E0,3.8443406E0,-4.4511647E0,-7.976637E-1,4.201386E0,-2.9040012E0,-6.6839886E-1],"split_indices":[0,0,0,4,3,4,3,0,2,5,5,5,3,1,0,0,0,2,1,0,1,0,2,5,0,5,0,0,0,0,0,0,0,0,0,0,0,0,0,0,0,0,0,0,0,0,0,0,0,0,0],"split_type":[0,0,0,0,0,0,0,0,0,0,0,0,0,0,0,0,0,0,0,0,0,0,0,0,0,0,0,0,0,0,0,0,0,0,0,0,0,0,0,0,0,0,0,0,0,0,0,0,0,0,0],"sum_hessian":[5.59E2,4.9E2,6.9E1,2.99E2,1.91E2,6.5E1,4E0,3.2E1,2.67E2,1.05E2,8.6E1,2E1,4.5E1,2E0,2E0,1E1,2.2E1,8.6E1,1.81E2,1E2,5E0,4.5E1,4.1E1,1.7E1,3E0,2.5E1,2E1,1E0,1E0,8E0,2E0,2.4E1,6.2E1,1.14E2,6.7E1,8.2E1,1.8E1,1E0,4E0,4.1E1,4E0,3.5E1,6E0,1E1,7E0,1E0,2E0,3E0,2.2E1,6E0,1.4E1],"tree_param":{"num_deleted":"0","num_feature":"6","num_nodes":"51","size_leaf_vector":"1"}},{"base_weights":[5.432061E-1,-3.2060268E0,2.6833637E1,-7.732124E0,4.5208745E0,2.2052E1,8.45845E1,-2.0309254E1,-6.2113414E0,1.3102815E1,-7.3519373E0,-2.3439852E1,2.61651E1,2.4760086E1,1.1621409E1,-1.1107755E1,-2.1555674E0,-7.510336E0,1.7065046E1,-3.5973736E1,1.5380069E1,-9.773516E0,5.5638156E0,-2.7293918E0,-2.0847626E-1,3.2302704E1,-8.36694E0,6.3941497E-1,3.074598E0,-1.711203E0,9.456812E-1,-1.0770664E0,1.859732E-1,3.093802E0,-8.900749E-1,-1.5062547E0,-4.489368E0,-3.158715E-2,2.470447E0,4.1040325E-1,-2.0196435E0,4.953382E0,2.2518053E0,-2.5445054E0,1.3800184E0],"categories":[],"categories_nodes":[],"categories_segments":[],"categories_sizes":[],"default_left":[0,0,0,0,0,0,0,0,0,0,0,0,0,0,0,0,0,0,0,0,0,0,0,0,0,0,0,0,0,0,0,0,0,0,0,0,0,0,0,0,0,0,0,0,0],"id":18,"left_children":[1,3,5,7,9,11,13,15,17,19,21,23,25,27,-1,29,-1,31,33,35,37,39,-1,-1,-1,41,43,-1,-1,-1,-1,-1,-1,-1,-1,-1,-1,-1,-1,-1,-1,-1,-1,-1,-1],"loss_changes":[5.528464E4,1.7206553E4,1.7464797E4,5.803246E3,1.8640633E4,1.2962732E4,6.583633E3,1.3903906E2,8.533743E3,1.2399814E4,1.2289008E4,4.3692236E2,1.3198855E4,1.3321521E2,0E0,9.026771E2,0E0,8.0851006E3,5.6787134E3,2.5641992E2,1.4936037E4,1.0931231E4,0E0,0E0,0E0,7.6518164E3,4.1368726E3,0E0,0E0,0E0,0E0,0E0,0E0,0E0,0E0,0E0,0E0,0E0,0E0,0E0,0E0,0E0,0E0,0E0,0E0],"parents":[2147483647,0,0,1,1,2,2,3,3,4,4,5,5,6,6,7,7,8,8,9,9,10,10,11,11,12,12,13,13,15,15,17,17,18,18,19,19,20,20,21,21,25,25,26,26],"right_children":[2,4,6,8,10,12,14,16,18,20,22,24,26,28,-1,30,-1,32,34,36,38,40,-1,-1,-1,42,44,-1,-1,-1,-1,-1,-1,-1,-1,-1,-1,-1,-1,-1,-1,-1,-1,-1,-1],"split_conditions":[5.7544E2,3.7404E2,1.08396E3,2.2649477E1,3.9543E1,1.1402043E1,4.5303665E1,8.931666E0,5.4802666E1,1.5218602E1,4.5651066E1,6.6376E2,2.069E1,5.44E0,1.1621409E1,8.69623E0,-2.1555674E0,3.981043E1,1.6453442E1,1.5027419E1,1.513E1,2.86053E1,5.5638156E0,-2.7293918E0,-2.0847626E-1,3.1118366E1,4.47E1,6.3941497E-1,3.074598E0,-1.711203E0,9.456812E-1,-1.0770664E0,1.859732E-1,3.093802E0,-8.900749E-1,-1.5062547E0,-4.489368E0,-3.158715E-2,2.470447E0,4.1040325E-1,-2.0196435E0,4.953382E0,2.2518053E0,-2.5445054E0,1.3800184E0],"split_indices":[0,0,0,4,3,5,3,3,3,5,4,0,2,1,0,3,0,5,5,5,2,4,0,0,0,4,3,0,0,0,0,0,0,0,0,0,0,0,0,0,0,0,0,0,0],"split_type":[0,0,0,0,0,0,0,0,0,0,0,0,0,0,0,0,0,0,0,0,0,0,0,0,0,0,0,0,0,0,0,0,0,0,0,0,0,0,0,0,0,0,0,0,0],"sum_hessian":[5.59E2,4.9E2,6.9E1,3.09E2,1.81E2,6.5E1,4E0,3.2E1,2.77E2,1.05E2,7.6E1,5E0,6E1,2E0,2E0,5E0,2.7E1,2.63E2,1.4E1,4E0,1.01E2,7.4E1,2E0,4E0,1E0,5.1E1,9E0,1E0,1E0,4E0,1E0,1.95E2,6.8E1,9E0,5E0,2E0,2E0,3.8E1,6.3E1,3.2E1,4.2E1,1.7E1,3.4E1,5E0,4E0],"tree_param":{"num_deleted":"0","num_feature":"6","num_nodes":"45","size_leaf_vector":"1"}},{"base_weights":[5.196496E-1,-4.02858E0,1.8546972E1,-1.1161352E1,-3.64574E-1,1.5594881E1,7.9193146E1,-1.6965994E1,-9.533998E0,8.561047E0,-5.5850725E0,1.0159788E1,4.8977478E1,2.3522081E1,1.0846649E1,-1.9124779E0,-8.099039E0,-1.0021986E1,2.4512289E0,-9.900023E0,1.3288815E1,-3.5125396E0,-2.2818722E1,1.2969592E1,-2.701626E1,4.5577087E0,6.471578E0,6.074444E-1,2.920868E0,5.444298E-2,-1.3394006E0,-1.6941904E0,-7.8308064E-1,-2.6380742E0,-6.1088794E-1,-3.29594E-1,1.9922384E0,-6.9891113E-1,9.07926E-1,-3.2866256E0,-1.6165045E0,-2.1899981E0,1.6213337E0,-3.8684595E0,1.4363836E-1,3.4044557E0,-1.1325142E0],"categories":[],"categories_nodes":[],"categories_segments":[],"categories_sizes":[],"default_left":[0,0,0,0,0,0,0,0,0,0,0,0,0,0,0,0,0,0,0,0,0,0,0,0,0,0,0,0,0,0,0,0,0,0,0,0,0,0,0,0,0,0,0,0,0,0,0],"id":19,"left_children":[1,3,5,7,9,11,13,15,17,19,21,23,25,27,-1,-1,29,31,-1,33,35,37,39,41,43,45,-1,-1,-1,-1,-1,-1,-1,-1,-1,-1,-1,-1,-1,-1,-1,-1,-1,-1,-1,-1,-1],"loss_changes":[4.599047E4,1.1704194E4,1.8995715E4,1.2740723E3,1.3886882E4,1.9279088E4,5.597033E3,4.5764746E2,2.2559775E3,9.732323E3,6.6347017E3,1.0273844E4,1.0191426E4,1.2022644E2,0E0,0E0,3.734272E2,1.6868652E3,0E0,1.2759014E3,9.747079E3,7.4616494E3,8.0577637E2,1.042168E4,2.3795303E3,2.7272354E3,0E0,0E0,0E0,0E0,0E0,0E0,0E0,0E0,0E0,0E0,0E0,0E0,0E0,0E0,0E0,0E0,0E0,0E0,0E0,0E0,0E0],"parents":[2147483647,0,0,1,1,2,2,3,3,4,4,5,5,6,6,7,7,8,8,9,9,10,10,11,11,12,12,13,13,16,16,17,17,19,19,20,20,21,21,22,22,23,23,24,24,25,25],"right_children":[2,4,6,8,10,12,14,16,18,20,22,24,26,28,-1,-1,30,32,-1,34,36,38,40,42,44,46,-1,-1,-1,-1,-1,-1,-1,-1,-1,-1,-1,-1,-1,-1,-1,-1,-1,-1,-1,-1,-1],"split_conditions":[5.1444E2,2.4412E2,1.08396E3,2.7861849E1,2.6006332E1,3.2147633E1,4.5303665E1,7.42E0,5.3543E1,1.117E1,4.848377E1,7.7396E2,1.6463E1,5.44E0,1.0846649E1,-1.9124779E0,7.78E0,1.2164E2,2.4512289E0,7.55E0,7.07E0,4.163813E1,5.0327667E1,1.2805699E1,8.1196E2,2.7295387E1,6.471578E0,6.074444E-1,2.920868E0,5.444298E-2,-1.3394006E0,-1.6941904E0,-7.8308064E-1,-2.6380742E0,-6.1088794E-1,-3.29594E-1,1.9922384E0,-6.9891113E-1,9.07926E-1,-3.2866256E0,-1.6165045E0,-2.1899981E0,1.6213337E0,-3.8684595E0,1.4363836E-1,3.4044557E0,-1.1325142E0],"split_indices":[0,0,0,4,3,5,3,1,3,2,4,0,3,1,0,0,1,0,0,2,1,4,4,5,0,4,0,0,0,0,0,0,0,0,0,0,0,0,0,0,0,0,0,0,0,0,0],"split_type":[0,0,0,0,0,0,0,0,0,0,0,0,0,0,0,0,0,0,0,0,0,0,0,0,0,0,0,0,0,0,0,0,0,0,0,0,0,0,0,0,0,0,0,0,0,0,0],"sum_hessian":[5.59E2,4.47E2,1.12E2,1.51E2,2.96E2,1.08E2,4E0,3.1E1,1.2E2,1.09E2,1.87E2,9.4E1,1.4E1,2E0,2E0,2.4E1,7E0,1.19E2,1E0,2.2E1,8.7E1,1.68E2,1.9E1,8.8E1,6E0,4E0,1E1,1E0,1E0,3E0,4E0,2.7E1,9.2E1,3E0,1.9E1,2.5E1,6.2E1,1.32E2,3.6E1,6E0,1.3E1,7E0,8.1E1,4E0,2E0,1E0,3E0],"tree_param":{"num_deleted":"0","num_feature":"6","num_nodes":"47","size_leaf_vector":"1"}},{"base_weights":[4.8432937E-1,-2.696546E0,2.2788979E1,-8.288504E0,1.799188E0,1.8552794E1,7.414882E1,-1.2113839E1,-5.7715836E0,8.74403E0,-6.997176E0,3.710833E1,9.678468E0,5.7707214E-1,8.980067E1,-1.4206604E1,-9.985205E0,6.2707553E0,-8.065034E0,-3.9707158E0,1.5522553E1,8.699486E-2,-1.705844E1,4.529891E1,-2.7134798E0,2.881021E1,-1.4469329E1,1.0123539E1,2.7748246E0,-1.5233152E0,-3.7688345E-1,1.3844371E-1,-1.0810632E0,-4.317617E-1,1.2629656E0,-1.548847E-1,-1.0849863E0,-3.408764E0,-2.0189395E-2,2.2018366E0,-1.7487491E0,-1.9844118E0,7.098183E-1,-2.5909936E0,-1.0797524E0,7.2329154E0,2.3503838E0,9.6706957E-1,4.2201138E0,-2.6673365E0,-7.8094906E-1],"categories":[],"categories_nodes":[],"categories_segments":[],"categories_sizes":[],"default_left":[0,0,0,0,0,0,0,0,0,0,0,0,0,0,0,0,0,0,0,0,0,0,0,0,0,0,0,0,0,0,0,0,0,0,0,0,0,0,0,0,0,0,0,0,0,0,0,0,0,0,0],"id":20,"left_children":[1,3,5,7,9,11,13,15,17,19,21,23,25,-1,27,29,31,33,35,37,39,41,43,45,-1,47,49,-1,-1,-1,-1,-1,-1,-1,-1,-1,-1,-1,-1,-1,-1,-1,-1,-1,-1,-1,-1,-1,-1,-1,-1],"loss_changes":[3.9792504E4,1.2358631E4,1.3854215E4,2.0386279E3,1.6738578E4,1.0508928E4,4.833002E3,2.4125195E2,3.7514536E3,1.3248275E4,8.625846E3,1.2279133E4,2.1668375E4,0E0,2.9105469E1,3.8189844E2,4.4666797E2,1.5357987E3,2.0337466E3,6.122405E3,2.1827754E4,1.0202193E4,2.4911602E3,9.493387E3,0E0,6.255578E3,1.4985093E3,0E0,0E0,0E0,0E0,0E0,0E0,0E0,0E0,0E0,0E0,0E0,0E0,0E0,0E0,0E0,0E0,0E0,0E0,0E0,0E0,0E0,0E0,0E0,0E0],"parents":[2147483647,0,0,1,1,2,2,3,3,4,4,5,5,6,6,7,7,8,8,9,9,10,10,11,11,12,12,14,14,15,15,16,16,17,17,18,18,19,19,20,20,21,21,22,22,23,23,25,25,26,26],"right_children":[2,4,6,8,10,12,14,16,18,20,22,24,26,-1,28,30,32,34,36,38,40,42,44,46,-1,48,50,-1,-1,-1,-1,-1,-1,-1,-1,-1,-1,-1,-1,-1,-1,-1,-1,-1,-1,-1,-1,-1,-1,-1,-1],"split_conditions":[5.7544E2,3.1012E2,1.08396E3,1.8448E2,3.8270332E1,3.1395657E1,5.44E0,1.2164E2,1.7224E1,1.711E1,2.0050753E1,7.42E0,3.4243332E1,5.7707214E-1,6.14E0,7.42E0,1.37592E1,2.4412E2,1.6453442E1,7.35E0,1.801E1,1.0779677E1,2.3634624E1,6.524E2,-2.7134798E0,6.9E0,5.9412E2,1.0123539E1,2.7748246E0,-1.5233152E0,-3.7688345E-1,1.3844371E-1,-1.0810632E0,-4.317617E-1,1.2629656E0,-1.548847E-1,-1.0849863E0,-3.408764E0,-2.0189395E-2,2.2018366E0,-1.7487491E0,-1.9844118E0,7.098183E-1,-2.5909936E0,-1.0797524E0,7.2329154E0,2.3503838E0,9.6706957E-1,4.2201138E0,-2.6673365E0,-7.8094906E-1],"split_indices":[0,0,0,0,3,4,1,0,3,2,5,1,3,0,1,1,3,0,5,1,2,5,5,0,0,1,0,0,0,0,0,0,0,0,0,0,0,0,0,0,0,0,0,0,0,0,0,0,0,0,0],"split_type":[0,0,0,0,0,0,0,0,0,0,0,0,0,0,0,0,0,0,0,0,0,0,0,0,0,0,0,0,0,0,0,0,0,0,0,0,0,0,0,0,0,0,0,0,0,0,0,0,0,0,0],"sum_hessian":[5.59E2,4.9E2,6.9E1,2.18E2,2.72E2,6.5E1,4E0,8.5E1,1.33E2,1.52E2,1.2E2,2E1,4.5E1,1E0,3E0,4E1,4.5E1,2.1E1,1.12E2,5.3E1,9.9E1,7.1E1,4.9E1,1.8E1,2E0,2.5E1,2E1,2E0,1E0,3.6E1,4E0,3E0,4.2E1,8E0,1.3E1,3.4E1,7.8E1,5E0,4.8E1,8.3E1,1.6E1,1.8E1,5.3E1,1.9E1,3E1,7E0,1.1E1,1.1E1,1.4E1,6E0,1.4E1],"tree_param":{"num_deleted":"0","num_feature":"6","num_nodes":"51","size_leaf_vector":"1"}},{"base_weights":[4.5538074E-1,-2.4496472E0,2.0825571E1,-7.4745007E0,1.5902523E0,1.6827951E1,6.942903E1,-1.3624953E1,-6.1079693E0,7.5044217E0,-6.8502035E0,-2.1058775E1,2.0278646E1,5.4821855E-1,8.40452E0,-1.1019719E0,-1.6681246E1,-7.9139667E0,2.518746E-1,1.0679981E1,-1.5417273E1,1.0947056E0,-1.6530186E1,-2.360557E0,-4.162403E-1,2.5433521E1,-8.554568E0,-1.8586073E0,-8.773413E-1,2.444955E-1,-9.449784E-1,6.3445085E-1,-6.4626163E-1,-4.1205683E-1,1.9808962E0,-2.1200988E0,1.3017834E0,1.9884733E0,-9.472742E-1,-3.7332203E0,-1.3457527E0,4.024564E0,1.7089194E0,-2.4001892E0,1.1693131E0],"categories":[],"categories_nodes":[],"categories_segments":[],"categories_sizes":[],"default_left":[0,0,0,0,0,0,0,0,0,0,0,0,0,0,0,0,0,0,0,0,0,0,0,0,0,0,0,0,0,0,0,0,0,0,0,0,0,0,0,0,0,0,0,0,0],"id":21,"left_children":[1,3,5,7,9,11,13,15,17,19,21,23,25,-1,-1,-1,27,29,31,33,35,37,39,-1,-1,41,43,-1,-1,-1,-1,-1,-1,-1,-1,-1,-1,-1,-1,-1,-1,-1,-1,-1,-1],"loss_changes":[3.3189555E4,9.979139E3,1.2432521E4,1.7574268E3,1.3679099E4,9.05559E3,4.212537E3,1.2671045E2,2.080933E3,1.1883719E4,8.708538E3,1.599336E2,9.2841E3,0E0,0E0,0E0,7.794531E1,2.266331E3,1.7182682E3,1.92678E4,3.5652021E3,1.2697809E4,2.7573945E3,0E0,0E0,5.739289E3,3.408384E3,0E0,0E0,0E0,0E0,0E0,0E0,0E0,0E0,0E0,0E0,0E0,0E0,0E0,0E0,0E0,0E0,0E0,0E0],"parents":[2147483647,0,0,1,1,2,2,3,3,4,4,5,5,6,6,7,7,8,8,9,9,10,10,11,11,12,12,16,16,17,17,18,18,19,19,20,20,21,21,22,22,25,25,26,26],"right_children":[2,4,6,8,10,12,14,16,18,20,22,24,26,-1,-1,-1,28,30,32,34,36,38,40,-1,-1,42,44,-1,-1,-1,-1,-1,-1,-1,-1,-1,-1,-1,-1,-1,-1,-1,-1,-1,-1],"split_conditions":[5.7544E2,3.1012E2,1.08396E3,1.176E1,3.9543E1,1.1402043E1,5.44E0,7.76E0,7.21E0,1.801E1,1.807699E1,6.6376E2,2.069E1,5.4821855E-1,8.40452E0,-1.1019719E0,4.321656E1,1.5559334E1,2.2454666E1,1.711E1,7.25E0,2.9311193E1,1.9553118E1,-2.360557E0,-4.162403E-1,3.1118366E1,4.47E1,-1.8586073E0,-8.773413E-1,2.444955E-1,-9.449784E-1,6.3445085E-1,-6.4626163E-1,-4.1205683E-1,1.9808962E0,-2.1200988E0,1.3017834E0,1.9884733E0,-9.472742E-1,-3.7332203E0,-1.3457527E0,4.024564E0,1.7089194E0,-2.4001892E0,1.1693131E0],"split_indices":[0,0,0,2,3,5,1,1,1,2,5,0,2,0,0,0,4,3,3,2,1,4,5,0,0,4,3,0,0,0,0,0,0,0,0,0,0,0,0,0,0,0,0,0,0],"split_type":[0,0,0,0,0,0,0,0,0,0,0,0,0,0,0,0,0,0,0,0,0,0,0,0,0,0,0,0,0,0,0,0,0,0,0,0,0,0,0,0,0,0,0,0,0],"sum_hessian":[5.59E2,4.9E2,6.9E1,2.18E2,2.72E2,6.5E1,4E0,3.8E1,1.8E2,1.6E2,1.12E2,5E0,6E1,1E0,3E0,2.3E1,1.5E1,1.4E2,4E1,1.41E2,1.9E1,6.2E1,5E1,4E0,1E0,5.1E1,9E0,1.1E1,4E0,1.8E1,1.22E2,2.1E1,1.9E1,5.4E1,8.7E1,1.6E1,3E0,2.2E1,4E1,5E0,4.5E1,1.7E1,3.4E1,5E0,4E0],"tree_param":{"num_deleted":"0","num_feature":"6","num_nodes":"45","size_leaf_vector":"1"}},{"base_weights":[4.149159E-1,-4.2685857E0,1.1004842E1,-3.7953553E0,-6.3892456E1,5.765632E0,2.8724054E1,-1.802263E1,-2.4621286E0,-1.103308E0,-8.48056E0,3.5238738E0,7.7741806E1,3.8742788E0,3.9624905E1,-2.61793E1,-1.2115044E1,-3.8146024E0,1.5543108E1,3.636182E1,5.094831E-1,8.888336E0,2.215857E0,-1.4394873E1,2.1589962E1,5.554792E1,1.6068845E0,-9.679473E-1,-3.0161302E0,-1.3603592E0,8.827967E-1,-4.5865613E-1,2.4313993E0,2.4491353E0,-2.5148137E0,2.129256E0,5.7409887E0,2.1629679E-1,-2.6727693E0,-2.0981853E0,1.381719E-1,5.773926E-1,2.3263648E0,6.005961E0,-1.2831234E0,-6.6349393E-1,6.8336195E-1],"categories":[],"categories_nodes":[],"categories_segments":[],"categories_sizes":[],"default_left":[0,0,0,0,0,0,0,0,0,0,0,0,0,0,0,0,0,0,0,0,0,0,0,0,0,0,0,0,0,0,0,0,0,0,0,0,0,0,0,0,0,0,0,0,0,0,0],"id":22,"left_children":[1,3,5,7,9,11,13,15,17,-1,-1,19,21,23,25,27,29,31,33,35,37,-1,-1,39,41,43,45,-1,-1,-1,-1,-1,-1,-1,-1,-1,-1,-1,-1,-1,-1,-1,-1,-1,-1,-1,-1],"loss_changes":[2.782182E4,1.0733465E4,1.5801951E4,7.296312E3,2.3807012E3,2.1347375E4,1.0410947E4,1.2729824E3,8.704113E3,0E0,0E0,1.2948692E4,5.0760547E2,4.518241E3,1.6255504E4,5.621846E2,7.747605E2,7.2988916E3,9.718791E3,2.2665635E3,5.507198E3,0E0,0E0,7.5643176E2,5.0975098E1,6.6322383E3,4.3304108E2,0E0,0E0,0E0,0E0,0E0,0E0,0E0,0E0,0E0,0E0,0E0,0E0,0E0,0E0,0E0,0E0,0E0,0E0,0E0,0E0],"parents":[2147483647,0,0,1,1,2,2,3,3,4,4,5,5,6,6,7,7,8,8,11,11,12,12,13,13,14,14,15,15,16,16,17,17,18,18,19,19,20,20,23,23,24,24,25,25,26,26],"right_children":[2,4,6,8,10,12,14,16,18,-1,-1,20,22,24,26,28,30,32,34,36,38,-1,-1,40,42,44,46,-1,-1,-1,-1,-1,-1,-1,-1,-1,-1,-1,-1,-1,-1,-1,-1,-1,-1,-1,-1],"split_conditions":[4.442E2,4.4344E2,2.9718817E1,1.9447495E1,7E0,1.08396E3,6.6E0,1.1810333E1,4.214E2,-1.103308E0,-8.48056E0,5.52E0,6.14E0,3.738029E1,7.69E0,2.6004E2,7.42E0,5.8946E1,1.79E1,5.25E0,7.7396E2,8.888336E0,2.215857E0,4.9969246E1,3.0105484E1,1.79E1,1.265E1,-9.679473E-1,-3.0161302E0,-1.3603592E0,8.827967E-1,-4.5865613E-1,2.4313993E0,2.4491353E0,-2.5148137E0,2.129256E0,5.7409887E0,2.1629679E-1,-2.6727693E0,-2.0981853E0,1.381719E-1,5.773926E-1,2.3263648E0,6.005961E0,-1.2831234E0,-6.6349393E-1,6.8336195E-1],"split_indices":[0,0,5,4,1,0,1,4,0,0,0,1,1,4,1,0,1,3,2,1,0,0,0,5,5,2,2,0,0,0,0,0,0,0,0,0,0,0,0,0,0,0,0,0,0,0,0],"split_type":[0,0,0,0,0,0,0,0,0,0,0,0,0,0,0,0,0,0,0,0,0,0,0,0,0,0,0,0,0,0,0,0,0,0,0,0,0,0,0,0,0,0,0,0,0,0,0],"sum_hessian":[5.59E2,3.88E2,1.71E2,3.86E2,2E0,1.33E2,3.8E1,3.2E1,3.54E2,1E0,1E0,1.3E2,3E0,1.2E1,2.6E1,1.2E1,2E1,3.3E2,2.4E1,1E1,1.2E2,2E0,1E0,6E0,6E0,1.8E1,8E0,3E0,9E0,1.9E1,1E0,3.22E2,8E0,2E1,4E0,7E0,3E0,1.14E2,6E0,4E0,2E0,1E0,5E0,1.7E1,1E0,3E0,5E0],"tree_param":{"num_deleted":"0","num_feature":"6","num_nodes":"47","size_leaf_vector":"1"}},{"base_weights":[3.913995E-1,-2.1075869E0,1.7914413E1,-1.612172E1,-9.6334404E-1,1.44357E1,6.0250538E1,-2.3777542E1,-1.1968198E1,-1.8465794E0,3.1796642E1,-1.9114433E1,1.7499063E1,1.7459757E1,8.29578E0,-8.953513E0,-2.772405E0,-1.315067E1,1.4809774E0,-7.249031E0,2.5711222E0,2.0895555E0,4.6388993E0,-2.189016E0,-2.617901E-1,3.3769283E1,9.902942E0,5.1389927E-1,2.1050644E0,-1.0429673E0,-2.262516E-1,-1.5467348E0,-7.570946E-1,8.3865684E-1,-6.165102E-1,-6.2559146E-1,-4.472939E0,-6.016435E-1,9.16319E-1,-9.9095595E-1,1.3392152E0,4.5732307E0,-2.2525144E0,2.6939108E0,-1.1035606E0],"categories":[],"categories_nodes":[],"categories_segments":[],"categories_sizes":[],"default_left":[0,0,0,0,0,0,0,0,0,0,0,0,0,0,0,0,0,0,0,0,0,0,0,0,0,0,0,0,0,0,0,0,0,0,0,0,0,0,0,0,0,0,0,0,0],"id":23,"left_children":[1,3,5,7,9,11,13,15,17,19,21,23,25,27,-1,29,-1,31,33,35,37,39,-1,-1,-1,41,43,-1,-1,-1,-1,-1,-1,-1,-1,-1,-1,-1,-1,-1,-1,-1,-1,-1,-1],"loss_changes":[2.456003E4,7.857936E3,9.439506E3,8.919746E2,1.3224038E4,7.117717E3,3.4098848E3,4.5381006E2,4.3296118E2,1.0615329E4,5.1050225E3,2.1743286E2,7.2046094E3,2.454834E1,0E0,1.5910645E1,0E0,1.9313184E2,2.1010614E2,7.1646475E3,1.392452E4,8.108161E2,0E0,0E0,0E0,1.3825709E4,1.563593E4,0E0,0E0,0E0,0E0,0E0,0E0,0E0,0E0,0E0,0E0,0E0,0E0,0E0,0E0,0E0,0E0,0E0,0E0],"parents":[2147483647,0,0,1,1,2,2,3,3,4,4,5,5,6,6,7,7,8,8,9,9,10,10,11,11,12,12,13,13,15,15,17,17,18,18,19,19,20,20,21,21,25,25,26,26],"right_children":[2,4,6,8,10,12,14,16,18,20,22,24,26,28,-1,30,-1,32,34,36,38,40,-1,-1,-1,42,44,-1,-1,-1,-1,-1,-1,-1,-1,-1,-1,-1,-1,-1,-1,-1,-1,-1,-1],"split_conditions":[5.7544E2,1.9447495E1,1.08396E3,9.542968E0,5.8946E1,1.1402043E1,4.5303665E1,2.6004E2,7.42E0,6.7E0,2.5204E2,6.6376E2,3.1118366E1,5.44E0,8.29578E0,2.1808E2,-2.772405E0,3.234E2,9.824E1,5.4988E2,1.7865524E1,1.9532E2,4.6388993E0,-2.189016E0,-2.617901E-1,2.313699E1,3.4243332E1,5.1389927E-1,2.1050644E0,-1.0429673E0,-2.262516E-1,-1.5467348E0,-7.570946E-1,8.3865684E-1,-6.165102E-1,-6.2559146E-1,-4.472939E0,-6.016435E-1,9.16319E-1,-9.9095595E-1,1.3392152E0,4.5732307E0,-2.2525144E0,2.6939108E0,-1.1035606E0],"split_indices":[0,4,0,4,3,5,3,0,1,1,0,0,4,1,0,0,0,0,0,0,2,0,0,0,0,5,3,0,0,0,0,0,0,0,0,0,0,0,0,0,0,0,0,0,0],"split_type":[0,0,0,0,0,0,0,0,0,0,0,0,0,0,0,0,0,0,0,0,0,0,0,0,0,0,0,0,0,0,0,0,0,0,0,0,0,0,0,0,0,0,0,0,0],"sum_hessian":[5.59E2,4.9E2,6.9E1,3.6E1,4.54E2,6.5E1,4E0,1.1E1,2.5E1,4.43E2,1.1E1,5E0,6E1,2E0,2E0,3E0,8E0,2.3E1,2E0,1.99E2,2.44E2,4E0,7E0,4E0,1E0,1.8E1,4.2E1,1E0,1E0,2E0,1E0,1.5E1,8E0,1E0,1E0,1.95E2,4E0,1.06E2,1.38E2,2E0,2E0,1.5E1,3E0,2.3E1,1.9E1],"tree_param":{"num_deleted":"0","num_feature":"6","num_nodes":"45","size_leaf_vector":"1"}},{"base_weights":[3.6378616E-1,-2.6692197E0,1.2385227E1,-1.4675043E1,-1.5845482E0,1.0252188E1,5.6408436E1,-2.173659E1,-1.0851443E1,-2.3341684E0,2.5954718E1,6.1678667E0,3.5436077E1,1.6586771E1,7.7427287E0,-8.375465E0,-2.525969E1,-1.1931596E1,1.4069277E0,5.316412E0,-4.7517247E0,-9.2489225E-1,3.4805405E1,8.534273E0,-2.4800419E1,5.513494E1,1.1307703E1,4.882042E-1,1.9998115E0,-9.734362E-1,-2.1493892E-1,-3.542453E0,-1.7294801E0,-1.4017285E0,-6.897973E-1,7.9672396E-1,-5.856848E-1,2.618097E-1,3.1409035E0,-6.77433E-1,2.8516948E-1,4.2402763E0,5.4764354E-1,-3.2504013E0,1.0343795E0,-3.4267068E0,-7.5586446E-2,2.9903839E0,7.2890086E0,-2.03881E0,1.8748261E0],"categories":[],"categories_nodes":[],"categories_segments":[],"categories_sizes":[],"default_left":[0,0,0,0,0,0,0,0,0,0,0,0,0,0,0,0,0,0,0,0,0,0,0,0,0,0,0,0,0,0,0,0,0,0,0,0,0,0,0,0,0,0,0,0,0,0,0,0,0,0,0],"id":24,"left_children":[1,3,5,7,9,11,13,15,17,19,21,23,25,27,-1,29,31,33,35,37,39,-1,41,43,45,47,49,-1,-1,-1,-1,-1,-1,-1,-1,-1,-1,-1,-1,-1,-1,-1,-1,-1,-1,-1,-1,-1,-1,-1,-1],"loss_changes":[2.0451275E4,5.8107705E3,1.0032754E4,7.63146E2,8.565908E3,1.0993075E4,2.9007607E3,3.5330908E2,3.6105078E2,7.460536E3,3.7492534E3,7.17359E3,6.506076E3,2.2154907E1,0E0,1.2919434E1,1.1599609E2,1.5527466E2,1.896208E2,6.74716E3,4.725206E3,0E0,1.7731885E3,6.9453247E3,1.5674478E3,1.4041602E3,2.268917E3,0E0,0E0,0E0,0E0,0E0,0E0,0E0,0E0,0E0,0E0,0E0,0E0,0E0,0E0,0E0,0E0,0E0,0E0,0E0,0E0,0E0,0E0,0E0,0E0],"parents":[2147483647,0,0,1,1,2,2,3,3,4,4,5,5,6,6,7,7,8,8,9,9,10,10,11,11,12,12,13,13,15,15,16,16,17,17,18,18,19,19,20,20,22,22,23,23,24,24,25,25,26,26],"right_children":[2,4,6,8,10,12,14,16,18,20,22,24,26,28,-1,30,32,34,36,38,40,-1,42,44,46,48,50,-1,-1,-1,-1,-1,-1,-1,-1,-1,-1,-1,-1,-1,-1,-1,-1,-1,-1,-1,-1,-1,-1,-1,-1],"split_conditions":[5.1444E2,1.9447495E1,1.08396E3,9.542968E0,5.8946E1,3.2147633E1,4.5303665E1,2.6004E2,7.42E0,2.0272167E1,1.9532E2,7.7396E2,3.7902473E1,5.44E0,7.7427287E0,2.1808E2,8.548E0,3.234E2,9.824E1,4.4884E2,4.214E2,-9.2489225E-1,2.442656E1,2.2956055E1,8.1196E2,3.3037205E1,5.22E0,4.882042E-1,1.9998115E0,-9.734362E-1,-2.1493892E-1,-3.542453E0,-1.7294801E0,-1.4017285E0,-6.897973E-1,7.9672396E-1,-5.856848E-1,2.618097E-1,3.1409035E0,-6.77433E-1,2.8516948E-1,4.2402763E0,5.4764354E-1,-3.2504013E0,1.0343795E0,-3.4267068E0,-7.5586446E-2,2.9903839E0,7.2890086E0,-2.03881E0,1.8748261E0],"split_indices":[0,4,0,4,3,5,3,0,1,3,0,0,5,1,0,0,4,0,0,0,0,0,4,4,0,5,1,0,0,0,0,0,0,0,0,0,0,0,0,0,0,0,0,0,0,0,0,0,0,0,0],"split_type":[0,0,0,0,0,0,0,0,0,0,0,0,0,0,0,0,0,0,0,0,0,0,0,0,0,0,0,0,0,0,0,0,0,0,0,0,0,0,0,0,0,0,0,0,0,0,0,0,0,0,0],"sum_hessian":[5.59E2,4.47E2,1.12E2,3.6E1,4.11E2,1.08E2,4E0,1.1E1,2.5E1,4.01E2,1E1,9.4E1,1.4E1,2E0,2E0,3E0,8E0,2.3E1,2E0,9.6E1,3.05E2,2E0,8E0,8.8E1,6E0,7E0,7E0,1E0,1E0,2E0,1E0,2E0,6E0,1.5E1,8E0,1E0,1E0,8.8E1,8E0,2.41E2,6.4E1,6E0,2E0,3E0,8.5E1,4E0,2E0,4E0,3E0,1E0,6E0],"tree_param":{"num_deleted":"0","num_feature":"6","num_nodes":"51","size_leaf_vector":"1"}},{"base_weights":[3.5090792E-1,-1.5132865E0,1.7847124E1,-6.012086E-1,-1.5995285E1,1.3993521E1,5.2813736E1,-3.384947E0,6.95623E0,-1.7214928E1,7.198143E-1,1.7521833E1,-6.7203474E0,1.5757431E1,7.226547E0,-5.555362E0,2.7620363E0,-1.8379492E1,9.473793E0,-2.519502E0,-1.4384689E1,-2.5412273E-1,3.6209488E-1,3.027557E1,9.608203E0,-1.8575665E1,3.8133438E0,4.6379396E-1,1.8998207E0,-2.4088554E0,-4.9449617E-1,-1.4815602E-1,2.1570938E0,-2.5776513E0,-2.8683633E-1,3.4273548E0,5.247621E-1,-2.3372917E0,-1.0589465E0,6.3722987E0,1.3816184E0,2.5079386E0,-5.4721147E-1,-6.0369875E-2,-2.564371E0],"categories":[],"categories_nodes":[],"categories_segments":[],"categories_sizes":[],"default_left":[0,0,0,0,0,0,0,0,0,0,0,0,0,0,0,0,0,0,0,0,0,0,0,0,0,0,0,0,0,0,0,0,0,0,0,0,0,0,0,0,0,0,0,0,0],"id":25,"left_children":[1,3,5,7,9,11,13,15,17,19,21,23,25,27,-1,29,31,33,35,-1,37,-1,-1,39,41,43,-1,-1,-1,-1,-1,-1,-1,-1,-1,-1,-1,-1,-1,-1,-1,-1,-1,-1,-1],"loss_changes":[1.8292164E4,6.6871997E3,6.5373125E3,1.0079678E4,6.2398486E2,3.772002E3,2.4653281E3,4.684871E3,8.402295E3,2.6997363E2,3.7583817E1,4.0490254E3,4.9624004E3,1.9994873E1,0E0,2.8108643E3,7.375157E3,1.3028972E3,1.2187495E4,0E0,5.3707764E2,0E0,0E0,7.9279756E3,6.669927E3,8.7370557E2,0E0,0E0,0E0,0E0,0E0,0E0,0E0,0E0,0E0,0E0,0E0,0E0,0E0,0E0,0E0,0E0,0E0,0E0,0E0],"parents":[2147483647,0,0,1,1,2,2,3,3,4,4,5,5,6,6,7,7,8,8,9,9,10,10,11,11,12,12,13,13,15,15,16,16,17,17,18,18,20,20,23,23,24,24,25,25],"right_children":[2,4,6,8,10,12,14,16,18,20,22,24,26,28,-1,30,32,34,36,-1,38,-1,-1,40,42,44,-1,-1,-1,-1,-1,-1,-1,-1,-1,-1,-1,-1,-1,-1,-1,-1,-1,-1,-1],"split_conditions":[6.0036E2,2.57E1,1.08396E3,4.214E2,7.61E0,7.51E0,4.5303665E1,3.981043E1,2.2956055E1,2.679E1,2.3264E2,3.1118366E1,7.95E0,5.44E0,7.226547E0,5.56E0,3.5384E2,2.738801E1,2.842201E1,-2.519502E0,2.8281334E1,-2.5412273E-1,3.6209488E-1,6.524E2,3.3078167E1,6.1196E2,3.8133438E0,4.6379396E-1,1.8998207E0,-2.4088554E0,-4.9449617E-1,-1.4815602E-1,2.1570938E0,-2.5776513E0,-2.8683633E-1,3.4273548E0,5.247621E-1,-2.3372917E0,-1.0589465E0,6.3722987E0,1.3816184E0,2.5079386E0,-5.4721147E-1,-6.0369875E-2,-2.564371E0],"split_indices":[0,2,0,0,1,1,3,5,4,2,0,4,1,1,0,1,0,5,4,0,3,0,0,0,3,0,0,0,0,0,0,0,0,0,0,0,0,0,0,0,0,0,0,0,0],"split_type":[0,0,0,0,0,0,0,0,0,0,0,0,0,0,0,0,0,0,0,0,0,0,0,0,0,0,0,0,0,0,0,0,0,0,0,0,0,0,0,0,0,0,0,0,0],"sum_hessian":[5.59E2,5.06E2,5.3E1,4.77E2,2.9E1,4.9E1,4E0,3.49E2,1.28E2,2.7E1,2E0,4.2E1,7E0,2E0,2E0,2.58E2,9.1E1,1.1E1,1.17E2,5E0,2.2E1,1E0,1E0,1.5E1,2.7E1,6E0,1E0,1E0,1E0,7E0,2.51E2,7.5E1,1.6E1,7E0,4E0,1.6E1,1.01E2,5E0,1.7E1,4E0,1.1E1,1.3E1,1.4E1,2E0,4E0],"tree_param":{"num_deleted":"0","num_feature":"6","num_nodes":"45","size_leaf_vector":"1"}},{"base_weights":[3.4238642E-1,-1.2716721E0,1.7585505E1,-1.1851713E1,-1.7915359E-1,1.3564824E1,4.9450386E1,-6.450813E0,-1.4605407E1,-7.101646E0,1.8292466E0,5.7584753E0,1.0097571E1,1.4969559E1,6.7447753E0,-8.231996E0,5.1991004E-1,2.460471E0,-1.5867208E1,-3.6443958E0,-8.852612E0,3.3635442E0,-1.17386E1,-1.065476E1,1.455246E1,4.4060442E-1,1.8048295E0,-8.720132E-1,-4.5497417E-2,-7.648468E-2,4.455553E-1,-1.2309121E0,-2.0570521E0,-6.938412E-1,7.37459E-1,-1.0924265E0,-6.2615883E-1,-4.459048E-1,6.319957E-1,1.3332889E0,-1.3552196E0,2.9876275E0,-4.0948634E0,3.4496858E0,8.3343285E-1],"categories":[],"categories_nodes":[],"categories_segments":[],"categories_sizes":[],"default_left":[0,0,0,0,0,0,0,0,0,0,0,0,0,0,0,0,0,0,0,0,0,0,0,0,0,0,0,0,0,0,0,0,0,0,0,0,0,0,0,0,0,0,0,0,0],"id":26,"left_children":[1,3,5,7,9,11,13,15,17,19,21,-1,23,25,-1,27,-1,29,31,33,35,37,39,41,43,-1,-1,-1,-1,-1,-1,-1,-1,-1,-1,-1,-1,-1,-1,-1,-1,-1,-1,-1,-1],"loss_changes":[1.5607947E4,5.9275874E3,5.4789033E3,6.1965967E2,6.491852E3,6.1341753E3,2.0931572E3,4.1631024E2,7.065864E2,6.033574E2,7.5752793E3,0E0,4.0379243E3,1.8045166E1,0E0,5.6772583E1,0E0,2.271214E1,2.32104E2,1.3941465E3,3.0196875E2,7.567521E3,1.863063E3,1.104613E4,4.053082E3,0E0,0E0,0E0,0E0,0E0,0E0,0E0,0E0,0E0,0E0,0E0,0E0,0E0,0E0,0E0,0E0,0E0,0E0,0E0,0E0],"parents":[2147483647,0,0,1,1,2,2,3,3,4,4,5,5,6,6,7,7,8,8,9,9,10,10,12,12,13,13,15,15,17,17,18,18,19,19,20,20,21,21,22,22,23,23,24,24],"right_children":[2,4,6,8,10,12,14,16,18,20,22,-1,24,26,-1,28,-1,30,32,34,36,38,40,42,44,-1,-1,-1,-1,-1,-1,-1,-1,-1,-1,-1,-1,-1,-1,-1,-1,-1,-1,-1,-1],"split_conditions":[6.1444E2,1.0779677E1,1.08396E3,2.0988E2,2.2084E2,6.1912E2,4.5303665E1,1.8448E2,5.6313443E0,6.42E0,2.216E1,5.7584753E0,2.7861849E1,5.44E0,6.7447753E0,2.049E1,5.1991004E-1,3.304E2,3.6208E2,1.9376E2,7.14E0,1.7865524E1,1.4556882E1,5.29E0,3.1118366E1,4.4060442E-1,1.8048295E0,-8.720132E-1,-4.5497417E-2,-7.648468E-2,4.455553E-1,-1.2309121E0,-2.0570521E0,-6.938412E-1,7.37459E-1,-1.0924265E0,-6.2615883E-1,-4.459048E-1,6.319957E-1,1.3332889E0,-1.3552196E0,2.9876275E0,-4.0948634E0,3.4496858E0,8.3343285E-1],"split_indices":[0,5,0,0,0,0,3,0,5,1,2,0,4,1,0,2,0,0,0,0,1,2,5,1,4,0,0,0,0,0,0,0,0,0,0,0,0,0,0,0,0,0,0,0,0],"split_type":[0,0,0,0,0,0,0,0,0,0,0,0,0,0,0,0,0,0,0,0,0,0,0,0,0,0,0,0,0,0,0,0,0,0,0,0,0,0,0,0,0,0,0,0,0],"sum_hessian":[5.59E2,5.12E2,4.7E1,4.7E1,4.65E2,4.3E1,4E0,1.7E1,3E1,1.04E2,3.61E2,2E0,4.1E1,2E0,2E0,1.5E1,2E0,2E0,2.8E1,3.6E1,6.8E1,3.25E2,3.6E1,7E0,3.4E1,1E0,1E0,1.4E1,1E0,1E0,1E0,1.8E1,1E1,2.8E1,8E0,3.6E1,3.2E1,8.9E1,2.36E2,2E0,3.4E1,3E0,4E0,7E0,2.7E1],"tree_param":{"num_deleted":"0","num_feature":"6","num_nodes":"45","size_leaf_vector":"1"}},{"base_weights":[3.315369E-1,-1.2577502E0,1.5247037E1,1.3191372E0,-5.5279884E0,1.1836459E1,4.6303402E1,-4.222614E0,6.6474953E0,-1.9333972E-2,-1.3863198E1,2.2289333E1,5.7762113E0,1.4221082E1,6.2951255E0,-6.341685E0,-7.2640526E-1,1.3385548E1,-1.7507539E0,-2.1315222E0,4.729755E1,-1.5535918E1,2.2969065E0,-1.7878468E1,3.1514791E1,1.3720823E1,-2.0765806E1,4.1857415E-1,1.7145882E0,-5.7896394E-1,-1.7729338E0,1.5563514E0,-3.1715554E-1,-1.8270415E0,1.7128438E0,-1.6872011E0,4.6803695E-1,-3.1298983E-3,-3.9230251E0,-4.554243E-1,6.139906E0,-1.1461613E0,-2.9439309E0,-5.3899497E-1,1.1331251E0,1.9503938E-1,-2.513822E0,-3.8687935E-1,4.068309E0,-1.6219183E0,2.3513784E0,-3.2335266E-1,-3.7489705E0],"categories":[],"categories_nodes":[],"categories_segments":[],"categories_sizes":[],"default_left":[0,0,0,0,0,0,0,0,0,0,0,0,0,0,0,0,0,0,0,0,0,0,0,0,0,0,0,0,0,0,0,0,0,0,0,0,0,0,0,0,0,0,0,0,0,0,0,0,0,0,0,0,0],"id":27,"left_children":[1,3,5,7,9,11,13,15,17,19,21,23,25,27,-1,29,31,33,35,37,39,41,43,45,47,49,51,-1,-1,-1,-1,-1,-1,-1,-1,-1,-1,-1,-1,-1,-1,-1,-1,-1,-1,-1,-1,-1,-1,-1,-1,-1,-1],"loss_changes":[1.3293982E4,5.5862812E3,5.171618E3,9.388584E3,8.769648E3,3.0386025E3,1.7752734E3,1.1511531E3,9.190664E3,1.1694107E4,2.0900635E3,7.233631E3,7.243504E3,1.6285889E1,0E0,5.071443E2,2.4392383E3,1.0976575E4,7.1779736E3,8.72532E3,3.9355693E3,3.5711973E3,6.1664044E2,6.2483984E2,5.023503E3,8.0046094E3,2.2244402E3,0E0,0E0,0E0,0E0,0E0,0E0,0E0,0E0,0E0,0E0,0E0,0E0,0E0,0E0,0E0,0E0,0E0,0E0,0E0,0E0,0E0,0E0,0E0,0E0,0E0,0E0],"parents":[2147483647,0,0,1,1,2,2,3,3,4,4,5,5,6,6,7,7,8,8,9,9,10,10,11,11,12,12,13,13,15,15,16,16,17,17,18,18,19,19,20,20,21,21,22,22,23,23,24,24,25,25,26,26],"right_children":[2,4,6,8,10,12,14,16,18,20,22,24,26,28,-1,30,32,34,36,38,40,42,44,46,48,50,52,-1,-1,-1,-1,-1,-1,-1,-1,-1,-1,-1,-1,-1,-1,-1,-1,-1,-1,-1,-1,-1,-1,-1,-1,-1,-1],"split_conditions":[6.0036E2,3.8270332E1,1.08396E3,3.1012E2,2.007957E1,3.3078167E1,4.5303665E1,2.2084E2,4.535183E1,1.9553118E1,2.499E1,5.84E0,2.3234838E1,5.44E0,6.2951255E0,2.1856E2,2.2952E2,1.436E1,7.13E0,1.9160967E1,4.2368E2,4.9356E2,7.04E0,6.524E2,2.1785162E1,4.47E1,3.7748E1,4.1857415E-1,1.7145882E0,-5.7896394E-1,-1.7729338E0,1.5563514E0,-3.1715554E-1,-1.8270415E0,1.7128438E0,-1.6872011E0,4.6803695E-1,-3.1298983E-3,-3.9230251E0,-4.554243E-1,6.139906E0,-1.1461613E0,-2.9439309E0,-5.3899497E-1,1.1331251E0,1.9503938E-1,-2.513822E0,-3.8687935E-1,4.068309E0,-1.6219183E0,2.3513784E0,-3.2335266E-1,-3.7489705E0],"split_indices":[0,3,0,0,5,3,3,0,4,5,2,1,5,1,0,0,0,2,1,5,0,0,1,0,5,3,3,0,0,0,0,0,0,0,0,0,0,0,0,0,0,0,0,0,0,0,0,0,0,0,0,0,0],"split_type":[0,0,0,0,0,0,0,0,0,0,0,0,0,0,0,0,0,0,0,0,0,0,0,0,0,0,0,0,0,0,0,0,0,0,0,0,0,0,0,0,0,0,0,0,0,0,0,0,0,0,0,0,0],"sum_hessian":[5.59E2,5.06E2,5.3E1,3.16E2,1.9E2,4.9E1,4E0,1.55E2,1.61E2,1.15E2,7.5E1,1.7E1,3.2E1,2E0,2E0,9.6E1,5.9E1,8.9E1,7.2E1,1.11E2,4E0,6.8E1,7E0,3E0,1.4E1,2.5E1,7E0,1E0,1E0,9.3E1,3E0,7E0,5.2E1,9E0,8E1,2.1E1,5.1E1,1.06E2,5E0,1E0,3E0,5.4E1,1.4E1,4E0,3E0,1E0,2E0,3E0,1.1E1,6E0,1.9E1,4E0,3E0],"tree_param":{"num_deleted":"0","num_feature":"6","num_nodes":"53","size_leaf_vector":"1"}},{"base_weights":[3.024266E-1,-1.9262762E0,9.13567E0,-1.1885453E1,-1.0272087E0,-1.6847918E1,1.1275827E1,-1.860123E1,-8.328731E0,-1.6862874E0,2.3152508E1,2.88992E0,-2.6178709E1,1.4547617E1,-6.5162377E0,-6.632425E0,-2.1853897E1,-9.279625E0,2.0546749E0,-2.7930367E0,1.0374794E1,-7.705155E-1,3.0865894E1,-9.945652E0,-3.3929412E0,3.676646E1,1.1269708E1,-1.6702572E1,1.042175E1,-8.0581325E-1,-1.1776514E-1,-3.3145528E0,-1.3892642E0,-1.1545826E0,-4.2197552E-1,8.2455176E-1,-5.1635057E-1,2.1531363E0,-3.1863153E-1,-5.00793E-1,2.2782626E0,3.753254E0,5.021759E-1,-1.2333997E0,-1.3903084E-1,2.9208375E-2,4.4839425E0,6.126849E-2,2.017762E0,-1.8686943E-1,-1.799909E0,-5.7115175E-2,1.4933141E0],"categories":[],"categories_nodes":[],"categories_segments":[],"categories_sizes":[],"default_left":[0,0,0,0,0,0,0,0,0,0,0,0,0,0,0,0,0,0,0,0,0,0,0,0,0,0,0,0,0,0,0,0,0,0,0,0,0,0,0,0,0,0,0,0,0,0,0,0,0,0,0,0,0],"id":28,"left_children":[1,3,5,7,9,11,13,15,17,19,21,-1,23,25,27,29,31,33,35,37,39,-1,41,43,-1,45,47,49,51,-1,-1,-1,-1,-1,-1,-1,-1,-1,-1,-1,-1,-1,-1,-1,-1,-1,-1,-1,-1,-1,-1,-1,-1],"loss_changes":[1.1042135E4,3.999171E3,6.47379E3,7.288638E2,6.604813E3,4.598255E3,6.207045E3,3.2222168E2,2.7577844E2,5.395112E3,2.8560146E3,0E0,6.690908E2,6.0676445E3,3.1071821E3,2.1617966E1,3.4858105E2,2.2647974E2,1.7663564E2,3.5985564E3,6.603546E3,0E0,1.3621641E3,6.458438E1,0E0,3.225921E3,7.487248E3,1.7792139E2,3.5568207E2,0E0,0E0,0E0,0E0,0E0,0E0,0E0,0E0,0E0,0E0,0E0,0E0,0E0,0E0,0E0,0E0,0E0,0E0,0E0,0E0,0E0,0E0,0E0,0E0],"parents":[2147483647,0,0,1,1,2,2,3,3,4,4,5,5,6,6,7,7,8,8,9,9,10,10,12,12,13,13,14,14,15,15,16,16,17,17,18,18,19,19,20,20,22,22,23,23,25,25,26,26,27,27,28,28],"right_children":[2,4,6,8,10,12,14,16,18,20,22,-1,24,26,28,30,32,34,36,38,40,-1,42,44,-1,46,48,50,52,-1,-1,-1,-1,-1,-1,-1,-1,-1,-1,-1,-1,-1,-1,-1,-1,-1,-1,-1,-1,-1,-1,-1,-1],"split_conditions":[5.1444E2,1.9447495E1,1.2805699E1,9.542968E0,5.8946E1,5.2E2,2.205E1,2.6004E2,7.42E0,5.318516E1,1.9532E2,2.88992E0,1.0150753E1,1.6413548E1,4.47E1,2.1808E2,8.548E0,3.234E2,9.824E1,5.31E0,2.2668E2,-7.705155E-1,2.442656E1,6.1444E2,-3.3929412E0,5.19E0,6.89E0,6.73E0,1.7296558E1,-8.0581325E-1,-1.1776514E-1,-3.3145528E0,-1.3892642E0,-1.1545826E0,-4.2197552E-1,8.2455176E-1,-5.1635057E-1,2.1531363E0,-3.1863153E-1,-5.00793E-1,2.2782626E0,3.753254E0,5.021759E-1,-1.2333997E0,-1.3903084E-1,2.9208375E-2,4.4839425E0,6.126849E-2,2.017762E0,-1.8686943E-1,-1.799909E0,-5.7115175E-2,1.4933141E0],"split_indices":[0,4,5,4,3,0,2,0,1,5,0,0,5,5,3,0,4,0,0,1,0,0,4,0,0,1,1,1,5,0,0,0,0,0,0,0,0,0,0,0,0,0,0,0,0,0,0,0,0,0,0,0,0],"split_type":[0,0,0,0,0,0,0,0,0,0,0,0,0,0,0,0,0,0,0,0,0,0,0,0,0,0,0,0,0,0,0,0,0,0,0,0,0,0,0,0,0,0,0,0,0,0,0,0,0,0,0,0,0],"sum_hessian":[5.59E2,4.47E2,1.12E2,3.6E1,4.11E2,8E0,1.04E2,1.1E1,2.5E1,4.01E2,1E1,1E0,7E0,8.8E1,1.6E1,3E0,8E0,2.3E1,2E0,3.68E2,3.3E1,2E0,8E0,3E0,4E0,1E1,7.8E1,1E1,6E0,2E0,1E0,2E0,6E0,1.5E1,8E0,1E0,1E0,5E0,3.63E2,1.5E1,1.8E1,6E0,2E0,2E0,1E0,2E0,8E0,3.6E1,4.2E1,1E0,9E0,2E0,4E0],"tree_param":{"num_deleted":"0","num_feature":"6","num_nodes":"53","size_leaf_vector":"1"}},{"base_weights":[2.7998286E-1,-1.1085074E0,1.2552248E1,1.1378926E0,-4.858528E0,9.580659E0,4.154064E1,-3.5467281E0,5.727565E0,6.661481E-2,-1.2513367E1,-5.783972E0,1.2854878E1,3.94582E-1,4.9952893E0,-7.2016864E0,-1.919594E0,1.174909E1,-1.9860251E0,1.3542259E1,-6.416184E0,-1.3969667E1,3.4211857E0,1.9770117E1,-2.6115051E1,5.459974E1,7.3153987E0,-4.544215E-1,-8.786092E-1,-1.8108429E0,-1.1378604E-1,-1.6806587E0,1.5129433E0,-1.5345342E0,3.553812E-1,-1.5708646E0,2.7646854E0,-4.1710702E-1,-2.8912916E0,-1.0030499E0,-2.721937E0,-3.8273326E-1,9.814407E-1,2.0536701E-1,3.0896525E0,1.4791046E0,-3.725448E0,4.243927E-2,6.8037477E0,1.7802409E0,-2.0740815E-1],"categories":[],"categories_nodes":[],"categories_segments":[],"categories_sizes":[],"default_left":[0,0,0,0,0,0,0,0,0,0,0,0,0,0,0,0,0,0,0,0,0,0,0,0,0,0,0,0,0,0,0,0,0,0,0,0,0,0,0,0,0,0,0,0,0,0,0,0,0,0,0],"id":29,"left_children":[1,3,5,7,9,11,13,15,17,19,21,23,25,-1,-1,27,29,31,33,35,37,39,41,43,45,47,49,-1,-1,-1,-1,-1,-1,-1,-1,-1,-1,-1,-1,-1,-1,-1,-1,-1,-1,-1,-1,-1,-1,-1,-1],"loss_changes":[9.55627E3,4.251248E3,4.512084E3,6.81459E3,7.126354E3,2.7406318E3,1.3841807E3,9.1987146E2,7.4549463E3,1.0220636E4,1.765001E3,5.7117197E3,9.775352E3,0E0,0E0,1.6217896E2,1.3714844E3,8.941791E3,5.3091333E3,1.6112039E4,3.8695127E3,3.2760889E3,3.619527E2,9.2215076E2,3.2850564E3,3.6110957E3,3.9756262E3,0E0,0E0,0E0,0E0,0E0,0E0,0E0,0E0,0E0,0E0,0E0,0E0,0E0,0E0,0E0,0E0,0E0,0E0,0E0,0E0,0E0,0E0,0E0,0E0],"parents":[2147483647,0,0,1,1,2,2,3,3,4,4,5,5,6,6,7,7,8,8,9,9,10,10,11,11,12,12,15,15,16,16,17,17,18,18,19,19,20,20,21,21,22,22,23,23,24,24,25,25,26,26],"right_children":[2,4,6,8,10,12,14,16,18,20,22,24,26,-1,-1,28,30,32,34,36,38,40,42,44,46,48,50,-1,-1,-1,-1,-1,-1,-1,-1,-1,-1,-1,-1,-1,-1,-1,-1,-1,-1,-1,-1,-1,-1,-1,-1],"split_conditions":[5.9412E2,3.834133E1,1.08396E3,3.1012E2,2.007957E1,2.803356E1,5.44E0,1.3896E2,4.535183E1,2.86053E1,2.499E1,5.29E0,2.8805925E1,3.94582E-1,4.9952893E0,3.4988033E1,2.4130333E1,1.436E1,7.13E0,2.2649477E1,5.2732E2,4.9356E2,6.92E0,5.17E0,6.1912E2,6.1196E2,3.3078167E1,-4.544215E-1,-8.786092E-1,-1.8108429E0,-1.1378604E-1,-1.6806587E0,1.5129433E0,-1.5345342E0,3.553812E-1,-1.5708646E0,2.7646854E0,-4.1710702E-1,-2.8912916E0,-1.0030499E0,-2.721937E0,-3.8273326E-1,9.814407E-1,2.0536701E-1,3.0896525E0,1.4791046E0,-3.725448E0,4.243927E-2,6.8037477E0,1.7802409E0,-2.0740815E-1],"split_indices":[0,3,0,0,5,4,1,0,4,4,2,1,4,0,0,4,4,2,1,4,0,0,1,1,0,0,3,0,0,0,0,0,0,0,0,0,0,0,0,0,0,0,0,0,0,0,0,0,0,0,0],"split_type":[0,0,0,0,0,0,0,0,0,0,0,0,0,0,0,0,0,0,0,0,0,0,0,0,0,0,0,0,0,0,0,0,0,0,0,0,0,0,0,0,0,0,0,0,0,0,0,0,0,0,0],"sum_hessian":[5.59E2,5.03E2,5.6E1,3.15E2,1.88E2,5.2E1,4E0,1.56E2,1.59E2,1.15E2,7.3E1,9E0,4.3E1,1E0,3E0,4.7E1,1.09E2,8.9E1,7E1,3.7E1,7.8E1,6.7E1,6E0,4E0,5E0,4E0,3.9E1,1.9E1,2.8E1,4E0,1.05E2,9E0,8E1,2E1,5E1,1.2E1,2.5E1,7.2E1,6E0,5.3E1,1.4E1,3E0,3E0,2E0,2E0,1E0,4E0,1E0,3E0,1.8E1,2.1E1],"tree_param":{"num_deleted":"0","num_feature":"6","num_nodes":"51","size_leaf_vector":"1"}},{"base_weights":[2.609349E-1,-2.6864572E0,5.4575133E0,1.5347798E0,-4.6396594E0,8.140167E0,-9.132299E0,-1.5997001E0,1.2205316E1,-2.1533392E1,-4.0523086E0,-1.4490241E1,9.928012E0,-1.1070969E1,7.206127E0,-5.1274145E-1,-2.4569386E1,3.6038156E0,4.814728E0,-2.616421E0,-5.093959E0,3.2509647E1,-4.8162293E0,-2.19659E0,-2.1076581E0,2.1834866E1,6.897413E0,9.493465E-1,-1.294587E1,-3.948008E-1,1.5004456E0,-5.2058953E-1,3.8789293E-1,-2.962032E0,-4.70829E-1,1.2626113E0,-3.4343597E-1,-1.3857575E-1,-6.255181E-1,-8.1153053E-1,4.469471E0,-3.5396728E-1,-1.1738967E0,5.293593E-1,-7.131682E-1,2.737319E0,-1.3546733E0,-8.0596066E-1,1.1511253E0,-1.4559684E0,-2.9331544E-1,1.4758758E-1,-2.0680772E-1],"categories":[],"categories_nodes":[],"categories_segments":[],"categories_sizes":[],"default_left":[0,0,0,0,0,0,0,0,0,0,0,0,0,0,0,0,0,0,0,0,0,0,0,0,0,0,0,0,0,0,0,0,0,0,0,0,0,0,0,0,0,0,0,0,0,0,0,0,0,0,0,0,0],"id":30,"left_children":[1,3,5,7,9,11,13,15,17,19,21,23,25,27,29,31,33,-1,35,-1,37,39,41,-1,43,45,47,-1,49,51,-1,-1,-1,-1,-1,-1,-1,-1,-1,-1,-1,-1,-1,-1,-1,-1,-1,-1,-1,-1,-1,-1,-1],"loss_changes":[8.591819E3,2.9588054E3,8.019641E3,3.832435E3,2.3437646E3,7.102919E3,1.0933728E3,2.2094739E3,4.406093E3,4.757444E2,6.804019E3,1.1570869E3,5.6229805E3,1.2410332E3,2.4302188E2,1.7927208E3,2.6180737E2,0E0,1.3965352E3,0E0,4.2499695E0,2.8377993E3,2.0263687E3,0E0,2.6085657E2,6.64137E3,8.994977E3,0E0,3.9357812E2,1.2442702E1,0E0,0E0,0E0,0E0,0E0,0E0,0E0,0E0,0E0,0E0,0E0,0E0,0E0,0E0,0E0,0E0,0E0,0E0,0E0,0E0,0E0,0E0,0E0],"parents":[2147483647,0,0,1,1,2,2,3,3,4,4,5,5,6,6,7,7,8,8,9,9,10,10,11,11,12,12,13,13,14,14,15,15,16,16,18,18,20,20,21,21,22,22,24,24,25,25,26,26,28,28,29,29],"right_children":[2,4,6,8,10,12,14,16,18,20,22,24,26,28,30,32,34,-1,36,-1,38,40,42,-1,44,46,48,-1,50,52,-1,-1,-1,-1,-1,-1,-1,-1,-1,-1,-1,-1,-1,-1,-1,-1,-1,-1,-1,-1,-1,-1,-1],"split_conditions":[4.214E2,2.2153E1,2.205E1,3.5384E2,5.56E0,2.2956055E1,6.8208E2,3.4356E2,2.765156E1,3.6944E2,5.64E0,2.5757635E1,2.918958E1,2.5855614E1,7.16E0,2.094E2,1.294225E1,3.6038156E0,3.9256E2,-2.616421E0,3.9084E2,3.6763E1,3.6224E2,-2.19659E0,1.7506624E1,7.36E0,3.5664883E1,9.493465E-1,5.183E1,7.1992E2,1.5004456E0,-5.2058953E-1,3.8789293E-1,-2.962032E0,-4.70829E-1,1.2626113E0,-3.4343597E-1,-1.3857575E-1,-6.255181E-1,-8.1153053E-1,4.469471E0,-3.5396728E-1,-1.1738967E0,5.293593E-1,-7.131682E-1,2.737319E0,-1.3546733E0,-8.0596066E-1,1.1511253E0,-1.4559684E0,-2.9331544E-1,1.4758758E-1,-2.0680772E-1],"split_indices":[0,3,2,0,1,4,0,0,4,0,1,5,4,4,1,0,3,0,0,0,0,3,0,0,4,1,4,0,2,0,0,0,0,0,0,0,0,0,0,0,0,0,0,0,0,0,0,0,0,0,0,0,0],"split_type":[0,0,0,0,0,0,0,0,0,0,0,0,0,0,0,0,0,0,0,0,0,0,0,0,0,0,0,0,0,0,0,0,0,0,0,0,0,0,0,0,0,0,0,0,0,0,0,0,0,0,0,0,0],"sum_hessian":[5.59E2,3.57E2,2.02E2,1.13E2,2.44E2,1.71E2,3.1E1,8.8E1,2.5E1,7E0,2.37E2,1.2E1,1.59E2,2.8E1,3E0,8.5E1,3E0,5E0,2E1,5E0,2E0,4E0,2.33E2,7E0,5E0,3.1E1,1.28E2,2E0,2.6E1,2E0,1E0,4.1E1,4.4E1,2E0,1E0,1E1,1E1,1E0,1E0,1E0,3E0,1.98E2,3.5E1,2E0,3E0,2.7E1,4E0,3E1,9.8E1,2.2E1,4E0,1E0,1E0],"tree_param":{"num_deleted":"0","num_feature":"6","num_nodes":"53","size_leaf_vector":"1"}},{"base_weights":[2.3429826E-1,-1.12198696E-1,3.87179E1,-2.4186304E0,4.0376244E0,1.2209867E0,5.2319965E0,-1.9802616E1,-2.0155237E0,6.430842E0,-8.19586E0,-2.3983858E0,-4.839259E0,2.7253244E1,-2.5172493E0,-1.3651814E1,7.934438E0,-1.7164462E0,-4.6393294E0,-1.3164674E-1,-5.9424216E-1,-6.1698407E-2,4.1342607E0,-8.6926706E-2,-6.7998147E-1,-2.0043883E0,-6.941433E-2,1.9694589E0,4.860364E-1,-8.8329345E-1,3.797406E-1],"categories":[],"categories_nodes":[],"categories_segments":[],"categories_sizes":[],"default_left":[0,0,0,0,0,0,0,0,0,0,0,0,0,0,0,0,0,0,0,0,0,0,0,0,0,0,0,0,0,0,0],"id":31,"left_children":[1,3,5,7,9,-1,-1,11,13,15,17,-1,19,21,23,25,27,-1,29,-1,-1,-1,-1,-1,-1,-1,-1,-1,-1,-1,-1],"loss_changes":[7.471636E3,5.3313994E3,1.164E3,2.4688093E3,5.8789062E3,0E0,0E0,3.8445923E2,5.223E3,5.151088E3,9.7297314E2,0E0,3.8356323E0,2.3815503E3,2.4360164E3,9.800022E2,5.543923E3,0E0,9.180507E2,0E0,0E0,0E0,0E0,0E0,0E0,0E0,0E0,0E0,0E0,0E0,0E0],"parents":[2147483647,0,0,1,1,2,2,3,3,4,4,7,7,8,8,9,9,10,10,12,12,13,13,14,14,15,15,16,16,18,18],"right_children":[2,4,6,8,10,-1,-1,12,14,16,18,-1,20,22,24,26,28,-1,30,-1,-1,-1,-1,-1,-1,-1,-1,-1,-1,-1,-1],"split_conditions":[1.08396E3,4.214E2,4.5303665E1,5.56E0,2.071E1,1.2209867E0,5.2319965E0,3.6944E2,5.66E0,2.2956055E1,4.602E2,-2.3983858E0,3.9084E2,3.6763E1,4.0492E1,2.5757635E1,2.918958E1,-1.7164462E0,4.47E1,-1.3164674E-1,-5.9424216E-1,-6.1698407E-2,4.1342607E0,-8.6926706E-2,-6.7998147E-1,-2.0043883E0,-6.941433E-2,1.9694589E0,4.860364E-1,-8.8329345E-1,3.797406E-1],"split_indices":[0,0,3,1,2,0,0,0,1,4,0,0,0,3,3,5,4,0,3,0,0,0,0,0,0,0,0,0,0,0,0],"split_type":[0,0,0,0,0,0,0,0,0,0,0,0,0,0,0,0,0,0,0,0,0,0,0,0,0,0,0,0,0,0,0],"sum_hessian":[5.59E2,5.55E2,4E0,3.57E2,1.98E2,2E0,2E0,7E0,3.5E2,1.66E2,3.2E1,5E0,2E0,5E0,3.45E2,1.1E1,1.55E2,8E0,2.4E1,1E0,1E0,2E0,3E0,2.5E2,9.5E1,7E0,4E0,3.1E1,1.24E2,1.6E1,8E0],"tree_param":{"num_deleted":"0","num_feature":"6","num_nodes":"31","size_leaf_vector":"1"}},{"base_weights":[2.1943352E-1,-1.0395821E-1,3.6136707E1,-4.8412437E0,1.5635427E0,3.5410157E-1,4.340038E0,-6.7764E0,1.2062126E0,-2.4154148E0,6.003795E0,-6.117265E0,-1.9394783E0,-1.6005945E1,5.1821756E0,-6.1894426E0,7.1803555E0,9.6590805E0,-6.0461307E0,-4.5938167E-1,-9.2082787E-1,7.356882E-2,-2.2849739E0,-1.3043858E-1,1.5020717E0,-7.202324E-1,1.357577E0,-7.204365E-1,1.5848379E0,1.3259184E0,-9.7939295E-1,-1.3635881E0,2.853409E-1],"categories":[],"categories_nodes":[],"categories_segments":[],"categories_sizes":[],"default_left":[0,0,0,0,0,0,0,0,0,0,0,0,0,0,0,0,0,0,0,0,0,0,0,0,0,0,0,0,0,0,0,0,0],"id":32,"left_children":[1,3,5,7,9,-1,-1,11,13,15,17,19,-1,21,23,25,27,29,31,-1,-1,-1,-1,-1,-1,-1,-1,-1,-1,-1,-1,-1,-1],"loss_changes":[6.508352E3,4.3996514E3,1.0301401E3,1.7050757E3,7.293543E3,0E0,0E0,7.9625146E2,2.5466023E3,7.9392476E3,8.647354E3,4.568523E2,0E0,8.18844E2,1.9341416E3,3.2408896E3,7.8447773E3,1.0634786E4,3.1459917E3,0E0,0E0,0E0,0E0,0E0,0E0,0E0,0E0,0E0,0E0,0E0,0E0,0E0,0E0],"parents":[2147483647,0,0,1,1,2,2,3,3,4,4,7,7,8,8,9,9,10,10,11,11,13,13,14,14,15,15,16,16,17,17,18,18],"right_children":[2,4,6,8,10,-1,-1,12,14,16,18,20,-1,22,24,26,28,30,32,-1,-1,-1,-1,-1,-1,-1,-1,-1,-1,-1,-1,-1,-1],"split_conditions":[1.08396E3,1.7865524E1,5.44E0,8.39E0,6.68E0,3.5410157E-1,4.340038E0,5.2499E1,8.28E0,5.1907665E1,1.79E1,3.1012E2,-1.9394783E0,8.49E0,2.0419333E1,6.6376E2,1.2805699E1,4.842E1,7.21E0,-4.5938167E-1,-9.2082787E-1,7.356882E-2,-2.2849739E0,-1.3043858E-1,1.5020717E0,-7.202324E-1,1.357577E0,-7.204365E-1,1.5848379E0,1.3259184E0,-9.7939295E-1,-1.3635881E0,2.853409E-1],"split_indices":[0,2,1,1,1,0,0,3,2,3,2,0,0,1,3,0,5,3,1,0,0,0,0,0,0,0,0,0,0,0,0,0,0],"split_type":[0,0,0,0,0,0,0,0,0,0,0,0,0,0,0,0,0,0,0,0,0,0,0,0,0,0,0,0,0,0,0,0,0],"sum_hessian":[5.59E2,5.55E2,4E0,1.44E2,4.11E2,1E0,3E0,1.09E2,3.5E1,2.17E2,1.94E2,1.05E2,4E0,6E0,2.9E1,1.56E2,6.1E1,1.49E2,4.5E1,7.2E1,3.3E1,2E0,4E0,1.8E1,1.1E1,1.49E2,7E0,2.3E1,3.8E1,1.26E2,2.3E1,2.4E1,2.1E1],"tree_param":{"num_deleted":"0","num_feature":"6","num_nodes":"33","size_leaf_vector":"1"}},{"base_weights":[1.9982E-1,-2.0850426E-1,2.5221506E1,-2.1842551E0,3.0695848E0,4.363813E1,-8.708804E0,-1.7870794E1,-1.8065138E0,5.0504603E0,-7.216379E0,3.3639643E-1,5.102017E1,-1.2772688E0,-3.0966136E-1,-2.176919E0,-4.117072E0,2.5038517E1,-2.2847831E0,5.9051228E0,-2.5189093E1,-8.655884E0,1.05437975E1,5.8083825E0,1.1382774E0,-8.905258E-2,-5.2850825E-1,-9.56955E-3,3.7629547E0,-6.874878E-1,-1.0590582E-1,5.09743E-1,3.1701045E0,2.7615815E-1,-3.2867157E0,4.7545204E-1,-1.0207117E0,1.8940048E-1,1.3921692E0],"categories":[],"categories_nodes":[],"categories_segments":[],"categories_sizes":[],"default_left":[0,0,0,0,0,0,0,0,0,0,0,0,0,0,0,0,0,0,0,0,0,0,0,0,0,0,0,0,0,0,0,0,0,0,0,0,0,0,0],"id":33,"left_children":[1,3,5,7,9,11,13,15,17,19,21,-1,23,-1,-1,-1,25,27,29,31,33,35,37,-1,-1,-1,-1,-1,-1,-1,-1,-1,-1,-1,-1,-1,-1,-1,-1],"loss_changes":[5.726757E3,3.5818364E3,6.0039717E3,2.0119977E3,4.27449E3,1.6122031E3,5.1677094E1,3.3931445E2,4.396842E3,4.6715527E3,9.605049E2,0E0,7.3876953E2,0E0,0E0,0E0,6.599411E0,1.9023943E3,1.8662412E3,3.4012227E3,1.1638005E3,7.1421484E2,6.12865E1,0E0,0E0,0E0,0E0,0E0,0E0,0E0,0E0,0E0,0E0,0E0,0E0,0E0,0E0,0E0,0E0],"parents":[2147483647,0,0,1,1,2,2,3,3,4,4,5,5,6,6,7,7,8,8,9,9,10,10,12,12,16,16,17,17,18,18,19,19,20,20,21,21,22,22],"right_children":[2,4,6,8,10,12,14,16,18,20,22,-1,24,-1,-1,-1,26,28,30,32,34,36,38,-1,-1,-1,-1,-1,-1,-1,-1,-1,-1,-1,-1,-1,-1,-1,-1],"split_conditions":[7.9232E2,4.118E2,7.08E0,5.56E0,2.071E1,5.44E0,8.1196E2,3.6944E2,5.66E0,7.7396E2,6.8208E2,3.3639643E-1,1.79E1,-1.2772688E0,-3.0966136E-1,-2.176919E0,3.9084E2,3.6763E1,1.275E1,5.5316666E1,1.938E1,2.5855614E1,7.1992E2,5.8083825E0,1.1382774E0,-8.905258E-2,-5.2850825E-1,-9.56955E-3,3.7629547E0,-6.874878E-1,-1.0590582E-1,5.09743E-1,3.1701045E0,2.7615815E-1,-3.2867157E0,4.7545204E-1,-1.0207117E0,1.8940048E-1,1.3921692E0],"split_indices":[0,0,1,1,2,1,0,0,1,0,0,0,2,0,0,0,0,3,2,5,3,4,0,0,0,0,0,0,0,0,0,0,0,0,0,0,0,0,0],"split_type":[0,0,0,0,0,0,0,0,0,0,0,0,0,0,0,0,0,0,0,0,0,0,0,0,0,0,0,0,0,0,0,0,0,0,0,0,0,0,0],"sum_hessian":[5.59E2,5.51E2,8E0,3.44E2,2.07E2,5E0,3E0,7E0,3.37E2,1.74E2,3.3E1,1E0,4E0,1E0,2E0,5E0,2E0,5E0,3.32E2,1.7E2,4E0,3.1E1,2E0,3E0,1E0,1E0,1E0,2E0,3E0,6.9E1,2.63E2,1.66E2,4E0,1E0,3E0,3E0,2.8E1,1E0,1E0],"tree_param":{"num_deleted":"0","num_feature":"6","num_nodes":"39","size_leaf_vector":"1"}},{"base_weights":[1.9335088E-1,-1.842641E-1,2.3332253E1,-9.2370615E0,4.840671E-1,4.048815E1,-8.234656E0,-1.3451808E1,-6.2179675E0,-2.0892E-1,2.3597565E1,3.1957665E-1,4.7307472E1,-1.2134055E0,-2.8901723E-1,-4.0655355E0,-1.5459582E1,-8.183733E0,-1.2634702E0,-3.772911E0,2.5498185E0,1.0566298E0,3.1698212E1,5.3727527E0,1.0813637E0,-5.818587E-1,5.9680846E-2,-2.8749995E0,-9.9265003E-1,-9.664492E-1,7.7542037E-1,3.0675977E-1,-6.3614374E-1,1.758179E-1,-8.1849927E-1,-3.796017E-1,6.667166E-1,-6.262907E-1,8.0239564E-1,3.5571797E0,-3.518814E-1],"categories":[],"categories_nodes":[],"categories_segments":[],"categories_sizes":[],"default_left":[0,0,0,0,0,0,0,0,0,0,0,0,0,0,0,0,0,0,0,0,0,0,0,0,0,0,0,0,0,0,0,0,0,0,0,0,0,0,0,0,0],"id":34,"left_children":[1,3,5,7,9,11,13,15,17,19,21,-1,23,-1,-1,25,27,29,31,33,35,37,39,-1,-1,-1,-1,-1,-1,-1,-1,-1,-1,-1,-1,-1,-1,-1,-1,-1,-1],"loss_changes":[4.897353E3,3.344219E3,5.207434E3,3.9989624E2,