{"learner":{"attributes":{"scikit_learn":"{\"_estimator_type\": \"regressor\"}"},"feature_names":["ox_P_mg_kg","pH","TOC_g_kg","% Clay","% Silt","% Sand"],"feature_types":["float","float","float","float","float","float"],"gradient_booster":{"model":{"gbtree_model_param":{"num_parallel_tree":"1","num_trees":"100"},"iteration_indptr":[0,1,2,3,4,5,6,7,8,9,10,11,12,13,14,15,16,17,18,19,20,21,22,23,24,25,26,27,28,29,30,31,32,33,34,35,36,37,38,39,40,41,42,43,44,45,46,47,48,49,50,51,52,53,54,55,56,57,58,59,60,61,62,63,64,65,66,67,68,69,70,71,72,73,74,75,76,77,78,79,80,81,82,83,84,85,86,87,88,89,90,91,92,93,94,95,96,97,98,99,100],"tree_info":[0,0,0,0,0,0,0,0,0,0,0,0,0,0,0,0,0,0,0,0,0,0,0,0,0,0,0,0,0,0,0,0,0,0,0,0,0,0,0,0,0,0,0,0,0,0,0,0,0,0,0,0,0,0,0,0,0,0,0,0,0,0,0,0,0,0,0,0,0,0,0,0,0,0,0,0,0,0,0,0,0,0,0,0,0,0,0,0,0,0,0,0,0,0,0,0,0,0,0,0],"trees":[{"base_weights":[-6.4391506E-1,-2.6906834E1,1.4979546E1,-3.8509983E1,-1.2550887E1,-1.11693E1,2.7754505E1,-4.1955323E0,-2.1652666E1,-2.546045E1,-6.435662E-1,-2.080636E1,1.4333831E1,2.2868893E1,8.0297356E1,-3.4087949E0,-9.539176E0,-4.0808864E0,-2.0877712E1,-3.3180459E0,2.011954E0,2.132519E1,-2.2482365E1,-3.5100827E0,2.0158619E1,-2.3732815E0,2.9339624E1,5.4785666E0,1.07006134E2,-1.4832837E1,7.7569785E0,-3.1209423E1,-1.5455659E1,-1.8407251E1,7.3900104E0,5.720797E0,-2.5220187E0,-2.5153795E1,-3.6589122E0,-1.8594153E0,2.6901243E1,-1.683471E1,8.069323E0,2.5678852E1,1.0254614E2,1.7172339E0,-8.041393E-1,1.1837605E0,1.1533923E1,-1.9282687E0,-5.562317E-1,2.1396561E-1,9.4958115E-1,-7.738558E-1,-3.3175962E0,2.4232183E0,-1.865166E0,-2.370564E0,-1.6747247E-1,1.8584136E0,-6.730714E-1,-2.8580399E0,-1.5813133E0,4.9378726E-1,-2.2498438E0,9.7375995E-1,4.3091125E0,-1.9701325E0,1.164896E0,-1.9898987E0,1.5820631E0,2.0180476E0,6.2906218E0,1.1070239E1,3.0882459E0],"categories":[],"categories_nodes":[],"categories_segments":[],"categories_sizes":[],"default_left":[0,0,0,0,0,0,0,0,0,0,0,0,0,0,0,0,0,0,0,0,0,0,0,0,0,0,0,0,0,0,0,0,0,0,0,0,0,0,0,0,0,0,0,0,0,0,0,0,0,0,0,0,0,0,0,0,0,0,0,0,0,0,0,0,0,0,0,0,0,0,0,0,0,0,0],"id":0,"left_children":[1,3,5,7,9,11,13,-1,15,17,19,21,23,25,27,-1,29,-1,31,-1,33,35,37,-1,39,41,43,45,47,49,51,53,55,57,59,-1,-1,61,63,-1,65,67,69,71,73,-1,-1,-1,-1,-1,-1,-1,-1,-1,-1,-1,-1,-1,-1,-1,-1,-1,-1,-1,-1,-1,-1,-1,-1,-1,-1,-1,-1,-1,-1],"loss_changes":[1.7601903E5,2.6168531E4,9.016958E4,4.2025312E3,1.1205049E4,2.217223E4,4.462711E4,0E0,2.2356177E3,1.6098262E3,3.4364504E3,5.06926E3,7.9062446E3,2.7346625E4,2.9388523E4,0E0,1.030658E3,0E0,1.1421904E3,0E0,4.1992085E3,6.453328E3,3.075957E3,0E0,6.509999E3,5.4213687E3,3.300971E4,9.2858606E2,7.3581797E3,2.2276294E2,8.98497E0,1.5867285E2,3.1156611E3,6.6954297E2,4.8671597E3,0E0,0E0,1.3084219E3,1.5687285E3,0E0,5.1379434E3,1.4542759E3,4.867425E3,2.493086E4,8.827734E1,0E0,0E0,0E0,0E0,0E0,0E0,0E0,0E0,0E0,0E0,0E0,0E0,0E0,0E0,0E0,0E0,0E0,0E0,0E0,0E0,0E0,0E0,0E0,0E0,0E0,0E0,0E0,0E0,0E0,0E0],"parents":[2147483647,0,0,1,1,2,2,3,3,4,4,5,5,6,6,8,8,9,9,10,10,11,11,12,12,13,13,14,14,16,16,18,18,20,20,21,21,22,22,24,24,25,25,26,26,27,27,28,28,29,29,30,30,31,31,32,32,33,33,34,34,37,37,38,38,40,40,41,41,42,42,43,43,44,44],"right_children":[2,4,6,8,10,12,14,-1,16,18,20,22,24,26,28,-1,30,-1,32,-1,34,36,38,-1,40,42,44,46,48,50,52,54,56,58,60,-1,-1,62,64,-1,66,68,70,72,74,-1,-1,-1,-1,-1,-1,-1,-1,-1,-1,-1,-1,-1,-1,-1,-1,-1,-1,-1,-1,-1,-1,-1,-1,-1,-1,-1,-1,-1,-1],"split_conditions":[2.7792E2,1.996E2,3.2206783E1,7.2E0,3.7718872E1,7.07E0,7.092E2,-4.1955323E0,1.108E1,1.8958559E1,1.31E1,8.91386E0,9.22285E0,1.714E1,6.5E0,-3.4087949E0,7.93E0,-4.0808864E0,2.2668E2,-3.3180459E0,6.16E0,3.5488E2,3.1219301E1,-3.5100827E0,1.693E1,1.218E1,7.61E0,7.7884E2,3.3884163E1,1.4644E2,9.876E1,6.52E0,1.999414E1,1.79E1,6.6E0,5.720797E0,-2.5220187E0,6.59E0,3.2094173E1,-1.8594153E0,7.24E0,5.1104E2,3.798503E1,4.9354763E1,5.2144E2,1.7172339E0,-8.041393E-1,1.1837605E0,1.1533923E1,-1.9282687E0,-5.562317E-1,2.1396561E-1,9.4958115E-1,-7.738558E-1,-3.3175962E0,2.4232183E0,-1.865166E0,-2.370564E0,-1.6747247E-1,1.8584136E0,-6.730714E-1,-2.8580399E0,-1.5813133E0,4.9378726E-1,-2.2498438E0,9.7375995E-1,4.3091125E0,-1.9701325E0,1.164896E0,-1.9898987E0,1.5820631E0,2.0180476E0,6.2906218E0,1.1070239E1,3.0882459E0],"split_indices":[0,0,4,1,4,1,0,0,2,4,2,4,4,2,1,0,1,0,0,0,1,0,4,0,2,2,1,0,4,0,0,1,4,2,1,0,0,1,4,0,1,0,4,4,0,0,0,0,0,0,0,0,0,0,0,0,0,0,0,0,0,0,0,0,0,0,0,0,0,0,0,0,0,0,0],"split_type":[0,0,0,0,0,0,0,0,0,0,0,0,0,0,0,0,0,0,0,0,0,0,0,0,0,0,0,0,0,0,0,0,0,0,0,0,0,0,0,0,0,0,0,0,0,0,0,0,0,0,0,0,0,0,0,0,0,0,0,0,0,0,0,0,0,0,0,0,0,0,0,0,0,0,0],"sum_hessian":[4.27E2,1.59E2,2.68E2,8.7E1,7.2E1,8.8E1,1.8E2,7.1E1,1.6E1,3.4E1,3.8E1,6.4E1,2.4E1,1.66E2,1.4E1,7E0,9E0,6E0,2.8E1,2E0,3.6E1,2E0,6.2E1,2E0,2.2E1,3.4E1,1.32E2,4E0,1E1,7E0,2E0,8E0,2E1,7E0,2.9E1,1E0,1E0,5.4E1,8E0,3E0,1.9E1,1.4E1,2E1,1.27E2,5E0,2E0,2E0,1E0,9E0,4E0,3E0,1E0,1E0,1E0,7E0,1E0,1.9E1,5E0,2E0,1.6E1,1.3E1,3.8E1,1.6E1,6E0,2E0,1E1,9E0,1.3E1,1E0,4E0,1.6E1,1.12E2,1.5E1,4E0,1E0],"tree_param":{"num_deleted":"0","num_feature":"6","num_nodes":"75","size_leaf_vector":"1"}},{"base_weights":[-2.1314142E0,-2.2745846E1,1.3380809E1,-3.423806E1,-1.2322379E1,4.7789024E1,1.2635963E0,-3.9394897E1,-2.7617268E1,-2.7361706E1,-8.228412E-1,6.564044E1,1.8029253E1,-1.9049078E1,1.4363017E1,-2.7087448E1,-4.294202E0,-3.776871E1,-2.3124262E1,-3.550197E0,-1.7530874E1,-6.5149407E0,3.9952562E0,1.9691162E1,8.785773E1,2.8613567E1,-8.039108E0,-2.1113115E1,6.271679E0,2.0034733E1,-2.5959803E1,-3.0068865E1,-7.1264344E-1,-2.0134182E-1,-4.1142898E0,-2.6162031E1,-8.971618E0,-1.2191706E1,-2.646754E0,-9.34677E0,2.0840878E1,-1.1433475E0,2.9219107E1,4.668561E1,1.0690852E1,3.9033566E1,1.637421E1,-2.355312E0,5.9799223E0,-8.173037E0,-2.8573776E1,1.2889298E1,5.0679176E1,-3.420895E0,3.2152996E0,-3.1395977E0,-8.398886E-1,-3.1680133E0,-1.7544078E0,-6.6392235E-2,-1.503641E0,-3.3421394E-1,-1.9517307E0,4.1523665E-2,-2.0015106E0,3.3676574E0,1.0582238E-1,3.4248102E0,-1.0535421E0,6.3904543E0,3.0176852E0,5.4717174E0,-1.0572696E0,5.5033255E-1,3.130471E0,1.3298537E0,-1.1647266E0,4.4407627E-1,-1.4726646E0,-3.3708293E0,-2.190706E0,3.227499E0,-4.541993E-1,2.0207517E0,6.8233185E0,1.7853577E0,-2.0349767E0],"categories":[],"categories_nodes":[],"categories_segments":[],"categories_sizes":[],"default_left":[0,0,0,0,0,0,0,0,0,0,0,0,0,0,0,0,0,0,0,0,0,0,0,0,0,0,0,0,0,0,0,0,0,0,0,0,0,0,0,0,0,0,0,0,0,0,0,0,0,0,0,0,0,0,0,0,0,0,0,0,0,0,0,0,0,0,0,0,0,0,0,0,0,0,0,0,0,0,0,0,0,0,0,0,0,0,0],"id":1,"left_children":[1,3,5,7,9,11,13,15,17,19,21,23,25,27,29,31,-1,33,35,-1,37,39,-1,41,43,45,47,49,-1,51,53,55,-1,-1,-1,57,59,61,-1,63,65,-1,67,69,-1,71,73,-1,75,77,79,81,83,-1,85,-1,-1,-1,-1,-1,-1,-1,-1,-1,-1,-1,-1,-1,-1,-1,-1,-1,-1,-1,-1,-1,-1,-1,-1,-1,-1,-1,-1,-1,-1,-1,-1],"loss_changes":[1.3556947E5,2.1379656E4,1.0083709E5,1.8482656E3,1.675318E4,3.2285547E4,4.816877E4,8.449844E2,9.9665625E2,2.7386973E3,1.3257757E4,3.8083844E4,7.1279204E3,1.3306666E4,2.5677053E4,5.59374E2,0E0,1.2442559E3,1.0980508E3,0E0,6.793174E2,4.0681458E3,0E0,4.4858286E3,1.54023125E4,1.6564707E3,1.8807771E3,6.524371E3,0E0,2.0586664E4,3.4793682E3,5.2651367E1,0E0,0E0,0E0,6.3307227E2,3.4270807E2,9.0719653E2,0E0,4.798951E3,1.2339832E3,0E0,2.559997E3,9.141914E2,0E0,7.5805527E3,1.4507974E3,0E0,7.9992456E2,2.2973767E3,7.676836E2,2.7180004E4,8.249375E3,0E0,1.7431239E3,0E0,0E0,0E0,0E0,0E0,0E0,0E0,0E0,0E0,0E0,0E0,0E0,0E0,0E0,0E0,0E0,0E0,0E0,0E0,0E0,0E0,0E0,0E0,0E0,0E0,0E0,0E0,0E0,0E0,0E0,0E0,0E0],"parents":[2147483647,0,0,1,1,2,2,3,3,4,4,5,5,6,6,7,7,8,8,9,9,10,10,11,11,12,12,13,13,14,14,15,15,17,17,18,18,20,20,21,21,23,23,24,24,25,25,26,26,27,27,29,29,30,30,31,31,35,35,36,36,37,37,39,39,40,40,42,42,43,43,45,45,46,46,48,48,49,49,50,50,51,51,52,52,54,54],"right_children":[2,4,6,8,10,12,14,16,18,20,22,24,26,28,30,32,-1,34,36,-1,38,40,-1,42,44,46,48,50,-1,52,54,56,-1,-1,-1,58,60,62,-1,64,66,-1,68,70,-1,72,74,-1,76,78,80,82,84,-1,86,-1,-1,-1,-1,-1,-1,-1,-1,-1,-1,-1,-1,-1,-1,-1,-1,-1,-1,-1,-1,-1,-1,-1,-1,-1,-1,-1,-1,-1,-1,-1,-1],"split_conditions":[3.1612E2,1.996E2,2.4939E1,1.3308E2,3.764214E1,4.5229267E1,3.3063786E1,1.3596666E1,3.1103247E1,3.2433334E1,4.2271E1,1.5178667E1,2.7289785E1,7.7396E2,2.889914E1,8.848E1,-4.294202E0,1.4148E2,3.6985485E1,-3.550197E0,3.3432537E1,4.0106236E1,3.9952562E0,3.4532E2,3.7592E2,4.8036E2,5.0776E2,5.0179333E1,6.271679E0,6.0036E2,3.4365E1,1.2760333E1,-7.1264344E-1,-2.0134182E-1,-4.1142898E0,1.5816E2,1.5388E2,2.7072E2,-2.646754E0,2.3892E2,2.9252E2,-1.1433475E0,3.674456E1,3.3236E2,1.0690852E1,6.1917564E1,5.870067E1,-2.355312E0,2.0182333E1,2.9311193E1,1.7434086E1,1.7473333E1,1.8393549E1,-3.420895E0,3.7208E2,-3.1395977E0,-8.398886E-1,-3.1680133E0,-1.7544078E0,-6.6392235E-2,-1.503641E0,-3.3421394E-1,-1.9517307E0,4.1523665E-2,-2.0015106E0,3.3676574E0,1.0582238E-1,3.4248102E0,-1.0535421E0,6.3904543E0,3.0176852E0,5.4717174E0,-1.0572696E0,5.5033255E-1,3.130471E0,1.3298537E0,-1.1647266E0,4.4407627E-1,-1.4726646E0,-3.3708293E0,-2.190706E0,3.227499E0,-4.541993E-1,2.0207517E0,6.8233185E0,1.7853577E0,-2.0349767E0],"split_indices":[0,0,3,0,4,4,4,3,4,5,3,3,5,0,5,0,0,0,5,0,4,5,0,0,0,0,0,3,0,0,3,3,0,0,0,0,0,0,0,0,0,0,4,0,0,4,4,0,3,4,5,5,5,0,0,0,0,0,0,0,0,0,0,0,0,0,0,0,0,0,0,0,0,0,0,0,0,0,0,0,0,0,0,0,0,0,0],"split_type":[0,0,0,0,0,0,0,0,0,0,0,0,0,0,0,0,0,0,0,0,0,0,0,0,0,0,0,0,0,0,0,0,0,0,0,0,0,0,0,0,0,0,0,0,0,0,0,0,0,0,0,0,0,0,0,0,0,0,0,0,0,0,0,0,0,0,0,0,0,0,0,0,0,0,0,0,0,0,0,0,0,0,0,0,0,0,0],"sum_hessian":[4.22E2,1.81E2,2.41E2,8.5E1,9.6E1,6.2E1,1.79E2,4.5E1,4E1,4.1E1,5.5E1,3.8E1,2.4E1,7E1,1.09E2,1.2E1,3.3E1,1E1,3E1,2.1E1,2E1,4.9E1,6E0,1.3E1,2.5E1,1.7E1,7E0,6.9E1,1E0,9.6E1,1.3E1,1E1,2E0,1E0,9E0,2.4E1,6E0,1.4E1,6E0,4.5E1,4E0,3E0,1E1,9E0,1.6E1,8E0,9E0,3E0,4E0,2.6E1,4.3E1,7.9E1,1.7E1,1E1,3E0,9E0,1E0,1.3E1,1.1E1,3E0,3E0,7E0,7E0,2.4E1,2.1E1,2E0,2E0,9E0,1E0,3E0,6E0,6E0,2E0,6E0,3E0,3E0,1E0,9E0,1.7E1,2.2E1,2.1E1,3.7E1,4.2E1,7E0,1E1,2E0,1E0],"tree_param":{"num_deleted":"0","num_feature":"6","num_nodes":"87","size_leaf_vector":"1"}},{"base_weights":[2.3757285E-1,-2.1764359E1,1.2774565E1,-3.0467194E1,-1.0181803E1,-9.839497E0,2.4387527E1,-3.3374546E1,-2.0228111E1,-1.9754177E1,-2.9872859E0,-1.8049791E1,4.7084145E1,1.78996E1,5.896844E1,-3.8631115E0,-2.6417953E1,-2.4606674E0,-4.450829E0,-3.228817E1,-1.0300728E1,9.469165E0,-1.4708321E1,-2.0070475E1,4.1851673E1,1.2703852E1,6.268631E1,-1.8888468E0,2.3148518E1,2.2940508E1,7.4826904E1,-3.2326267E1,-1.529609E1,9.643249E-1,-1.390868E1,-4.1362038E-1,-3.4471421E0,2.318768E0,-1.3634616E1,3.8230948E0,3.1097672E0,3.8648474E0,-2.2395245E1,-2.3217985E1,-3.5737798E0,5.958095E0,3.1965598E-1,2.1509058E1,-1.1258488E0,-2.9597208E-1,7.248713E1,-1.3088216E1,7.052173E0,2.8921816E1,4.672116E0,4.524233E1,-2.1822805E1,5.260428E1,1.4501068E1,-3.420089E0,-1.6277552E0,-1.6612875E0,2.526684E-2,-1.5765035E0,-4.1698074E-1,-9.33217E-2,-1.8849096E0,-2.1811388E0,6.788462E-1,-1.1178168E0,2.7648256E0,-2.308893E0,-6.3418335E-1,-2.5169213E0,-5.681534E-1,7.169135E-1,-3.222335E0,1.000558E0,2.8009746E0,1.0849642E1,3.6384132E0,-1.5380414E0,9.501278E-1,1.529589E0,-1.3358529E0,3.057721E0,-1.5141104E0,-1.8111088E0,2.3159924E0,4.410225E-1,7.4763856E0,-5.0707114E-1,-2.57166E0,6.779719E0,-9.9237436E-1],"categories":[],"categories_nodes":[],"categories_segments":[],"categories_sizes":[],"default_left":[0,0,0,0,0,0,0,0,0,0,0,0,0,0,0,0,0,0,0,0,0,0,0,0,0,0,0,0,0,0,0,0,0,0,0,0,0,0,0,0,0,0,0,0,0,0,0,0,0,0,0,0,0,0,0,0,0,0,0,0,0,0,0,0,0,0,0,0,0,0,0,0,0,0,0,0,0,0,0,0,0,0,0,0,0,0,0,0,0,0,0,0,0,0,0],"id":2,"left_children":[1,3,5,7,9,11,13,15,17,19,21,23,25,27,29,-1,31,-1,33,35,37,39,41,43,45,47,49,51,53,55,57,59,61,-1,63,-1,-1,-1,65,67,-1,69,71,73,75,-1,-1,77,-1,-1,79,81,83,85,87,89,91,93,-1,-1,-1,-1,-1,-1,-1,-1,-1,-1,-1,-1,-1,-1,-1,-1,-1,-1,-1,-1,-1,-1,-1,-1,-1,-1,-1,-1,-1,-1,-1,-1,-1,-1,-1,-1,-1],"loss_changes":[1.1778504E5,1.5313953E4,7.167158E4,1.9445312E3,4.6240537E3,4.431433E4,3.9329016E4,1.4294922E3,1.4102812E3,3.1036035E3,5.979375E3,1.0765412E4,5.6405254E3,1.5935516E4,1.4281172E4,0E0,1.6083008E3,0E0,9.33923E2,5.949717E2,2.3257935E3,2.323432E3,3.0847349E3,4.0709043E3,1.8655278E3,1.2971262E3,5.361621E3,3.396715E3,1.2771914E4,1.0970349E4,2.2005516E4,4.5E1,2.703645E2,0E0,6.578003E0,0E0,0E0,0E0,1.1083406E3,1.4403315E3,0E0,2.8134763E3,2.0613281E1,2.149582E3,4.539932E3,0E0,0E0,1.8868286E1,0E0,0E0,5.152758E3,9.228274E2,3.4012715E3,7.173586E3,1.3055796E4,8.108256E3,1.3051526E2,1.587252E4,0E0,0E0,0E0,0E0,0E0,0E0,0E0,0E0,0E0,0E0,0E0,0E0,0E0,0E0,0E0,0E0,0E0,0E0,0E0,0E0,0E0,0E0,0E0,0E0,0E0,0E0,0E0,0E0,0E0,0E0,0E0,0E0,0E0,0E0,0E0,0E0,0E0],"parents":[2147483647,0,0,1,1,2,2,3,3,4,4,5,5,6,6,7,7,8,8,9,9,10,10,11,11,12,12,13,13,14,14,16,16,18,18,19,19,20,20,21,21,22,22,23,23,24,24,25,25,26,26,27,27,28,28,29,29,30,30,31,31,32,32,34,34,38,38,39,39,41,41,42,42,43,43,44,44,47,47,50,50,51,51,52,52,53,53,54,54,55,55,56,56,57,57],"right_children":[2,4,6,8,10,12,14,16,18,20,22,24,26,28,30,-1,32,-1,34,36,38,40,42,44,46,48,50,52,54,56,58,60,62,-1,64,-1,-1,-1,66,68,-1,70,72,74,76,-1,-1,78,-1,-1,80,82,84,86,88,90,92,94,-1,-1,-1,-1,-1,-1,-1,-1,-1,-1,-1,-1,-1,-1,-1,-1,-1,-1,-1,-1,-1,-1,-1,-1,-1,-1,-1,-1,-1,-1,-1,-1,-1,-1,-1,-1,-1],"split_conditions":[2.7792E2,1.996E2,3.3063786E1,4.353011E1,3.524242E1,5.521574E1,6.0036E2,1.3716E2,3.1648344E1,2.5877956E1,2.1785162E1,7.7396E2,3.5488E2,1.714E1,3.7017033E1,-3.8631115E0,4.6512226E1,-2.4606674E0,1.3924E2,1.295E1,1.999414E1,2.5008E2,3.8608765E1,1.79E1,8.1692E2,3.055198E1,2.0666033E1,1.218E1,4.8524E2,1.9785376E1,3.1163334E1,1.871E1,5.712789E1,9.643249E-1,3.605918E1,-4.1362038E-1,-3.4471421E0,2.318768E0,4.100301E1,5.05E0,3.1097672E0,3.7718872E1,4.0106236E1,3.1219301E1,3.65E1,5.958095E0,3.1965598E-1,5.9834194E1,-1.1258488E0,-2.9597208E-1,3.9736E2,5.1104E2,1.455E1,5.045742E1,5.3444E2,1.8393549E1,6.56E2,2.6146236E1,1.4501068E1,-3.420089E0,-1.6277552E0,-1.6612875E0,2.526684E-2,-1.5765035E0,-4.1698074E-1,-9.33217E-2,-1.8849096E0,-2.1811388E0,6.788462E-1,-1.1178168E0,2.7648256E0,-2.308893E0,-6.3418335E-1,-2.5169213E0,-5.681534E-1,7.169135E-1,-3.222335E0,1.000558E0,2.8009746E0,1.0849642E1,3.6384132E0,-1.5380414E0,9.501278E-1,1.529589E0,-1.3358529E0,3.057721E0,-1.5141104E0,-1.8111088E0,2.3159924E0,4.410225E-1,7.4763856E0,-5.0707114E-1,-2.57166E0,6.779719E0,-9.9237436E-1],"split_indices":[0,0,4,5,4,5,0,0,4,5,5,0,0,2,4,0,4,0,0,2,4,0,4,2,0,4,4,2,0,5,5,2,4,0,4,0,0,0,5,2,0,4,5,4,2,0,0,5,0,0,0,0,2,5,0,5,0,5,0,0,0,0,0,0,0,0,0,0,0,0,0,0,0,0,0,0,0,0,0,0,0,0,0,0,0,0,0,0,0,0,0,0,0,0,0],"split_type":[0,0,0,0,0,0,0,0,0,0,0,0,0,0,0,0,0,0,0,0,0,0,0,0,0,0,0,0,0,0,0,0,0,0,0,0,0,0,0,0,0,0,0,0,0,0,0,0,0,0,0,0,0,0,0,0,0,0,0,0,0,0,0,0,0,0,0,0,0,0,0,0,0,0,0,0,0,0,0,0,0,0,0,0,0,0,0,0,0,0,0,0,0,0,0],"sum_hessian":[4.25E2,1.54E2,2.71E2,8.7E1,6.7E1,9.2E1,1.79E2,6.6E1,2.1E1,2.8E1,3.9E1,8.1E1,1.1E1,1.52E2,2.7E1,3.5E1,3.1E1,1.6E1,5E0,1.1E1,1.7E1,1.9E1,2E1,7.9E1,2E0,4E0,7E0,3.2E1,1.2E2,9E0,1.8E1,1.9E1,1.2E1,2E0,3E0,1E0,1E1,1E0,1.6E1,1.6E1,3E0,6E0,1.4E1,6.6E1,1.3E1,1E0,1E0,3E0,1E0,1E0,6E0,1.4E1,1.8E1,9.1E1,2.9E1,6E0,3E0,1.5E1,3E0,1.6E1,3E0,1.1E1,1E0,2E0,1E0,5E0,1.1E1,1E0,1.5E1,4E0,2E0,1.3E1,1E0,5.9E1,7E0,1E1,3E0,2E0,1E0,2E0,4E0,1.3E1,1E0,1.3E1,5E0,8.8E1,3E0,1.3E1,1.6E1,3E0,3E0,1E0,2E0,1.2E1,3E0],"tree_param":{"num_deleted":"0","num_feature":"6","num_nodes":"95","size_leaf_vector":"1"}},{"base_weights":[1.1096948E0,-2.0091578E1,1.2586522E1,-2.7989746E1,-9.041073E0,3.6921494E1,3.3684797E0,-3.20551E1,-2.2164309E1,-1.6469719E1,4.9173703E0,3.1770798E1,9.171783E1,-1.4401017E1,1.513865E1,-2.3841745E1,-3.435876E1,-2.4910044E1,-1.0244082E1,-1.8277422E0,-2.6353151E1,-9.5979804E-1,1.8488012E1,2.5931772E1,7.451165E1,2.1811583E1,1.2121806E1,-1.5996078E1,5.66019E0,-2.6319222E0,3.237843E1,-2.6963859E0,-9.295496E0,-9.4904035E-1,-3.479813E0,-4.6714196E0,-2.691163E1,3.307237E-1,-1.458835E1,2.7591727E0,-9.5510845E0,5.902012E-1,-2.7943033E1,1.963897E0,-2.386946E0,-4.6400318E-1,2.3116026E1,3.7670765E1,3.367885E0,8.783736E1,2.3023016E0,2.968064E0,3.0367318E-1,-2.4421064E1,-1.0452665E1,-1.0931349E1,4.6534916E1,3.5854618E1,7.9236894E0,-1.2690373E-1,-1.154797E0,-1.358892E0,2.8307202E-1,-3.4454587E0,-2.1525254E0,-1.7099752E0,2.400341E-2,-1.3519698E0,2.3004754E0,-3.1769674E0,-1.4111238E0,-8.3758783E-1,9.0053505E-1,4.7262287E-1,2.584874E0,7.689797E-1,4.806112E0,-1.900985E0,1.2384136E0,1.4748261E0,9.950553E0,-3.0103447E0,-1.42375E0,-1.3643295E0,1.109596E0,3.1859634E0,-1.9246626E0,-2.4002159E0,7.011724E0,3.8723953E0,6.4459395E-1,-2.2796297E0,1.9957441E0],"categories":[],"categories_nodes":[],"categories_segments":[],"categories_sizes":[],"default_left":[0,0,0,0,0,0,0,0,0,0,0,0,0,0,0,0,0,0,0,0,0,0,0,0,0,0,0,0,0,0,0,0,0,0,0,0,0,0,0,0,0,0,0,0,0,0,0,0,0,0,0,0,0,0,0,0,0,0,0,0,0,0,0,0,0,0,0,0,0,0,0,0,0,0,0,0,0,0,0,0,0,0,0,0,0,0,0,0,0,0,0,0,0],"id":3,"left_children":[1,3,5,7,9,11,13,15,17,19,21,23,25,27,29,31,33,35,37,39,41,43,45,47,49,51,-1,53,-1,55,57,-1,59,-1,-1,61,63,-1,65,-1,67,-1,69,71,-1,-1,73,75,77,79,-1,-1,-1,81,83,85,87,89,91,-1,-1,-1,-1,-1,-1,-1,-1,-1,-1,-1,-1,-1,-1,-1,-1,-1,-1,-1,-1,-1,-1,-1,-1,-1,-1,-1,-1,-1,-1,-1,-1,-1,-1],"loss_changes":[1.0390862E5,1.2838758E4,6.2012496E4,1.3498906E3,6.7172964E3,1.8536242E4,4.2466312E4,1.0794531E2,1.0212793E3,6.0297783E3,1.8521545E3,1.5786883E4,9.729543E3,1.0078979E4,3.7461227E4,3.8516797E2,6.310547E1,1.1300762E3,5.7808215E2,4.35343E3,1.4469688E3,1.1855518E3,8.5651733E2,1.6825281E4,3.4667031E3,3.530891E2,0E0,3.4809902E3,0E0,2.5400139E4,4.9864688E3,0E0,5.766275E1,0E0,0E0,3.0606778E2,3.959746E2,0E0,2.647849E2,0E0,2.2490405E3,0E0,8.2199414E2,1.2403405E3,0E0,0E0,1.7935718E2,1.2713949E4,4.8759756E3,3.6493633E3,0E0,0E0,0E0,1.3652734E3,3.5890693E3,1.947159E4,1.6653824E4,4.3071016E3,3.7820461E3,0E0,0E0,0E0,0E0,0E0,0E0,0E0,0E0,0E0,0E0,0E0,0E0,0E0,0E0,0E0,0E0,0E0,0E0,0E0,0E0,0E0,0E0,0E0,0E0,0E0,0E0,0E0,0E0,0E0,0E0,0E0,0E0,0E0,0E0],"parents":[2147483647,0,0,1,1,2,2,3,3,4,4,5,5,6,6,7,7,8,8,9,9,10,10,11,11,12,12,13,13,14,14,15,15,16,16,17,17,18,18,19,19,20,20,21,21,22,22,23,23,24,24,25,25,27,27,29,29,30,30,32,32,35,35,36,36,38,38,40,40,42,42,43,43,46,46,47,47,48,48,49,49,53,53,54,54,55,55,56,56,57,57,58,58],"right_children":[2,4,6,8,10,12,14,16,18,20,22,24,26,28,30,32,34,36,38,40,42,44,46,48,50,52,-1,54,-1,56,58,-1,60,-1,-1,62,64,-1,66,-1,68,-1,70,72,-1,-1,74,76,78,80,-1,-1,-1,82,84,86,88,90,92,-1,-1,-1,-1,-1,-1,-1,-1,-1,-1,-1,-1,-1,-1,-1,-1,-1,-1,-1,-1,-1,-1,-1,-1,-1,-1,-1,-1,-1,-1,-1,-1,-1,-1],"split_conditions":[2.7792E2,1.996E2,2.4939E1,1.3716E2,4.356486E1,7.7884E2,3.3063786E1,1.5397667E1,4.972149E1,2.895E1,2.4188E2,2.3283833E1,1.5229667E1,7.7396E2,3.896E1,8.848E1,5.9682794E0,1.4148E2,5.0416107E1,3.8072044E1,2.0252E2,2.3892E2,1.6780666E1,4.294999E1,5.5732227E1,1.08396E3,1.2121806E1,4.3144E2,5.66019E0,5.774E2,2.1227203E1,-2.6963859E0,9.876E1,-9.4904035E-1,-3.479813E0,1.3768E2,3.1648344E1,3.307237E-1,5.712789E1,2.7591727E0,2.7515333E1,5.902012E-1,2.5977634E1,2.7138334E1,-2.386946E0,-4.6400318E-1,2.4412E2,3.2612E2,1.7033333E1,3.2728E2,2.3023016E0,2.968064E0,3.0367318E-1,2.49253E1,2.872043E1,1.7473333E1,3.6530796E1,4.8248753E1,4.1736E2,-1.2690373E-1,-1.154797E0,-1.358892E0,2.8307202E-1,-3.4454587E0,-2.1525254E0,-1.7099752E0,2.400341E-2,-1.3519698E0,2.3004754E0,-3.1769674E0,-1.4111238E0,-8.3758783E-1,9.0053505E-1,4.7262287E-1,2.584874E0,7.689797E-1,4.806112E0,-1.900985E0,1.2384136E0,1.4748261E0,9.950553E0,-3.0103447E0,-1.42375E0,-1.3643295E0,1.109596E0,3.1859634E0,-1.9246626E0,-2.4002159E0,7.011724E0,3.8723953E0,6.4459395E-1,-2.2796297E0,1.9957441E0],"split_indices":[0,0,3,0,4,0,4,3,4,3,0,3,3,0,3,0,5,0,4,5,0,0,3,4,4,0,0,0,0,0,5,0,0,0,0,0,4,0,4,0,3,0,5,3,0,0,0,0,3,0,0,0,0,4,5,5,4,4,0,0,0,0,0,0,0,0,0,0,0,0,0,0,0,0,0,0,0,0,0,0,0,0,0,0,0,0,0,0,0,0,0,0,0],"split_type":[0,0,0,0,0,0,0,0,0,0,0,0,0,0,0,0,0,0,0,0,0,0,0,0,0,0,0,0,0,0,0,0,0,0,0,0,0,0,0,0,0,0,0,0,0,0,0,0,0,0,0,0,0,0,0,0,0,0,0,0,0,0,0,0,0,0,0,0,0,0,0,0,0,0,0,0,0,0,0,0,0,0,0,0,0,0,0,0,0,0,0,0,0],"sum_hessian":[4.25E2,1.49E2,2.76E2,8.6E1,6.3E1,7.5E1,2.01E2,4.8E1,3.8E1,4.1E1,2.2E1,7E1,5E0,8E1,1.21E2,1.3E1,3.5E1,3E1,8E0,1.7E1,2.4E1,1.6E1,6E0,6.3E1,7E0,2E0,3E0,7.9E1,1E0,6E1,6.1E1,1E1,3E0,1E0,3.4E1,3E0,2.7E1,2E0,6E0,3E0,1.4E1,1E0,2.3E1,1.5E1,1E0,1E0,5E0,4.1E1,2.2E1,5E0,2E0,1E0,1E0,3E1,4.9E1,5.2E1,8E0,5.3E1,8E0,1E0,2E0,1E0,2E0,9E0,1.8E1,5E0,1E0,1.3E1,1E0,1.7E1,6E0,6E0,9E0,1E0,4E0,1.1E1,3E1,6E0,1.6E1,1E0,4E0,1.8E1,1.2E1,4.3E1,6E0,8E0,4.4E1,2E0,6E0,4.8E1,5E0,2E0,6E0],"tree_param":{"num_deleted":"0","num_feature":"6","num_nodes":"93","size_leaf_vector":"1"}},{"base_weights":[4.499785E-1,-1.6192053E1,1.316645E1,-2.599429E1,-8.1960535E0,-5.7696624E0,2.5744211E1,-1.9174513E1,-3.1478662E0,-3.606745E0,-3.0177336E0,2.8108395E1,-1.2153939E1,2.1144966E1,7.187906E1,-2.0472197E1,-2.3773208E0,-6.3629804E0,2.1293873E1,-1.8983929E0,3.6191864E1,-2.5712002E1,-5.973201E0,3.77284E1,8.702128E0,8.41502E0,4.3537697E1,-2.418126E1,-1.1764598E1,-8.927312E-1,2.7817802E0,2.2659614E0,-1.5048571E1,2.4586916E0,3.030168E0,2.1630043E1,4.766368E0,-1.5497901E1,-3.8231418E0,-1.9265709E1,1.4214444E1,5.5516968E1,-1.7069135E0,-6.3918314E0,2.6908575E1,-1.0373173E0,5.639451E1,-7.3608786E-1,-2.7034624E0,-1.7070534E0,-4.7780037E-1,2.2803307E-2,3.9446375E-1,-3.0821118E-1,2.4712026E0,-1.907182E0,6.6427225E-1,-2.34091E-1,4.838862E-1,2.5047693E0,-1.1467514E-1,2.4864106E0,-2.6724832E0,-1.0247357E0,-2.282389E0,6.9374424E-1,6.284098E0,4.46481E0,9.341144E0,-7.602857E-1,2.2303588E0,-1.3754952E0,1.4389402E0,5.546076E0,1.2127185E0,8.07864E-1,6.6453815E0],"categories":[],"categories_nodes":[],"categories_segments":[],"categories_sizes":[],"default_left":[0,0,0,0,0,0,0,0,0,0,0,0,0,0,0,0,0,0,0,0,0,0,0,0,0,0,0,0,0,0,0,0,0,0,0,0,0,0,0,0,0,0,0,0,0,0,0,0,0,0,0,0,0,0,0,0,0,0,0,0,0,0,0,0,0,0,0,0,0,0,0,0,0,0,0,0,0],"id":4,"left_children":[1,3,5,7,9,11,13,15,-1,17,-1,19,21,23,25,27,29,31,33,-1,35,37,39,41,43,-1,45,47,49,-1,51,53,55,57,-1,59,-1,61,-1,63,65,67,69,71,73,-1,75,-1,-1,-1,-1,-1,-1,-1,-1,-1,-1,-1,-1,-1,-1,-1,-1,-1,-1,-1,-1,-1,-1,-1,-1,-1,-1,-1,-1,-1,-1],"loss_changes":[9.184808E4,1.4522141E4,5.873931E4,2.5381992E3,1.0483439E4,2.175403E4,2.9883578E4,8.2322754E2,0E0,6.1751045E3,0E0,6.7777734E3,6.8855195E3,2.773461E4,8.574375E2,9.105078E2,1.6000209E2,6.029895E3,1.452471E3,0E0,1.3077383E3,2.7322324E3,1.6106174E4,4.0781617E4,2.188178E4,0E0,4.7437188E3,1.00086816E3,4.0035242E2,0E0,8.00942E0,4.9979365E3,3.6174678E3,5.702282E1,0E0,6.51468E2,0E0,7.914754E3,0E0,9.213174E2,8.0565737E3,1.2304164E4,2.8592974E3,6.9305723E3,1.4520889E4,0E0,1.8932656E3,0E0,0E0,0E0,0E0,0E0,0E0,0E0,0E0,0E0,0E0,0E0,0E0,0E0,0E0,0E0,0E0,0E0,0E0,0E0,0E0,0E0,0E0,0E0,0E0,0E0,0E0,0E0,0E0,0E0,0E0],"parents":[2147483647,0,0,1,1,2,2,3,3,4,4,5,5,6,6,7,7,9,9,11,11,12,12,13,13,14,14,15,15,16,16,17,17,18,18,20,20,21,21,22,22,23,23,24,24,26,26,27,27,28,28,30,30,31,31,32,32,33,33,35,35,37,37,39,39,40,40,41,41,42,42,43,43,44,44,46,46],"right_children":[2,4,6,8,10,12,14,16,-1,18,-1,20,22,24,26,28,30,32,34,-1,36,38,40,42,44,-1,46,48,50,-1,52,54,56,58,-1,60,-1,62,-1,64,66,68,70,72,74,-1,76,-1,-1,-1,-1,-1,-1,-1,-1,-1,-1,-1,-1,-1,-1,-1,-1,-1,-1,-1,-1,-1,-1,-1,-1,-1,-1,-1,-1,-1,-1],"split_conditions":[3.2292E2,1.996E2,6.6E0,3.0509666E1,5.265E1,3.4912E2,6.7948E2,4.972149E1,-3.1478662E0,4.4606335E1,-3.0177336E0,2.2399902E1,3.7449E1,2.4939E1,4.5279667E1,7.16E0,1.3768E2,2.895E1,6.13E0,-1.8983929E0,3.9157364E1,3.2876E1,3.1219301E1,7.91E0,3.7219364E1,8.41502E0,4.6458E1,6.07E0,1.1148334E1,-8.927312E-1,1.4228E2,2.6997667E1,4.9354763E1,2.3616E2,3.030168E0,6.1E0,4.766368E0,4.5724E2,-3.8231418E0,2.347614E1,6.53E0,7.54E0,5.6956E2,7.25E0,6.86E0,-1.0373173E0,7.06E0,-7.3608786E-1,-2.7034624E0,-1.7070534E0,-4.7780037E-1,2.2803307E-2,3.9446375E-1,-3.0821118E-1,2.4712026E0,-1.907182E0,6.6427225E-1,-2.34091E-1,4.838862E-1,2.5047693E0,-1.1467514E-1,2.4864106E0,-2.6724832E0,-1.0247357E0,-2.282389E0,6.9374424E-1,6.284098E0,4.46481E0,9.341144E0,-7.602857E-1,2.2303588E0,-1.3754952E0,1.4389402E0,5.546076E0,1.2127185E0,8.07864E-1,6.6453815E0],"split_indices":[0,0,1,3,3,0,0,4,0,3,0,4,3,3,3,1,0,3,1,0,4,3,4,1,4,0,3,1,3,0,0,3,4,0,0,1,0,0,0,4,1,1,0,1,1,0,1,0,0,0,0,0,0,0,0,0,0,0,0,0,0,0,0,0,0,0,0,0,0,0,0,0,0,0,0,0,0],"split_type":[0,0,0,0,0,0,0,0,0,0,0,0,0,0,0,0,0,0,0,0,0,0,0,0,0,0,0,0,0,0,0,0,0,0,0,0,0,0,0,0,0,0,0,0,0,0,0,0,0,0,0,0,0,0,0,0,0,0,0,0,0,0,0,0,0,0,0,0,0,0,0,0,0,0,0,0,0],"sum_hessian":[4.32E2,1.87E2,2.45E2,8.3E1,1.04E2,9.8E1,1.47E2,3.9E1,4.4E1,8.7E1,1.7E1,1.5E1,8.3E1,1.35E2,1.2E1,3.6E1,3E0,7.9E1,8E0,2E0,1.3E1,2.5E1,5.8E1,5.7E1,7.8E1,7E0,5E0,2.4E1,1.2E1,1E0,2E0,4E1,3.9E1,3E0,5E0,7E0,6E0,1.5E1,1E1,3.5E1,2.3E1,3.9E1,1.8E1,4.3E1,3.5E1,1E0,4E0,4E0,2E1,6E0,6E0,1E0,1E0,3.3E1,7E0,3.3E1,6E0,1E0,2E0,6E0,1E0,3E0,1.2E1,1.1E1,2.4E1,2.1E1,2E0,3.2E1,7E0,1.5E1,3E0,3.2E1,1.1E1,1.1E1,2.4E1,1E0,3E0],"tree_param":{"num_deleted":"0","num_feature":"6","num_nodes":"77","size_leaf_vector":"1"}},{"base_weights":[1.7971988E0,-2.317724E1,4.9554462E0,-2.421391E1,4.4410196E-1,-1.7459136E-1,2.5751528E1,-2.6683E1,-1.393198E1,2.907791E-1,-2.2416382E-1,-1.8492346E1,5.6688933E0,1.2440552E0,3.2376537E1,-1.22264805E1,-2.8620295E1,-1.17473796E-1,-1.5090231E0,-1.9913172E1,2.1771587E1,-3.4808884E0,1.1815732E1,-1.7807705E1,1.32548065E1,-1.3108704E1,3.7773144E1,-1.4359006E0,-7.819271E-2,-3.0076144E0,-1.5034662E1,-2.1047161E1,-8.210354E0,4.6599216E0,-1.3941835E0,8.4943905E0,-1.1403339E1,1.3161579E0,2.0010063E1,-2.0490364E1,-8.55875E-2,2.5364814E0,5.542953E0,-2.6539574E0,3.5993414E0,2.9265282E1,6.1699997E1,-2.3978271E0,-1.07949965E-1,-1.5540807E0,-2.3321996E0,8.1166977E-1,-1.9629925E0,2.1288445E0,-1.0427963E0,-1.7320827E0,-4.342727E-2,4.1745934E0,-6.3369346E-1,2.8966944E0,7.5668377E-1,-2.2351491E0,-5.592367E-1,-1.8229972E-1,1.0327123E0,-6.2473934E-2,8.135792E-1,6.113068E0,1.7014164E0,9.25865E-1,8.397853E0],"categories":[],"categories_nodes":[],"categories_segments":[],"categories_sizes":[],"default_left":[0,0,0,0,0,0,0,0,0,0,0,0,0,0,0,0,0,0,0,0,0,0,0,0,0,0,0,0,0,0,0,0,0,0,0,0,0,0,0,0,0,0,0,0,0,0,0,0,0,0,0,0,0,0,0,0,0,0,0,0,0,0,0,0,0,0,0,0,0,0,0],"id":5,"left_children":[1,3,5,7,9,11,13,15,17,-1,-1,19,21,23,25,27,29,-1,-1,31,33,35,37,39,41,43,45,-1,-1,-1,47,49,51,-1,-1,53,55,57,59,61,-1,-1,63,-1,65,67,69,-1,-1,-1,-1,-1,-1,-1,-1,-1,-1,-1,-1,-1,-1,-1,-1,-1,-1,-1,-1,-1,-1,-1,-1],"loss_changes":[3.3715797E4,1.1861543E3,4.043799E4,7.9605664E2,2.63687E1,3.2751883E4,1.2136887E4,6.5831055E2,1.4481006E2,0E0,0E0,4.6669355E3,1.3089326E4,4.126079E3,1.4977648E4,1.3520709E2,1.6095312E2,0E0,0E0,7.826992E2,3.3097173E3,9.014978E3,1.1932805E4,3.0079468E2,8.8670056E2,1.66635E3,8.983344E3,0E0,0E0,0E0,5.981632E2,4.5175E2,1.6509136E3,0E0,0E0,9.421553E3,3.6923096E3,1.9448135E4,8.474107E3,4.1364746E1,0E0,0E0,3.0074597E2,0E0,8.1732086E1,1.496577E4,1.4410586E4,0E0,0E0,0E0,0E0,0E0,0E0,0E0,0E0,0E0,0E0,0E0,0E0,0E0,0E0,0E0,0E0,0E0,0E0,0E0,0E0,0E0,0E0,0E0,0E0],"parents":[2147483647,0,0,1,1,2,2,3,3,4,4,5,5,6,6,7,7,8,8,11,11,12,12,13,13,14,14,15,15,16,16,19,19,20,20,21,21,22,22,23,23,24,24,25,25,26,26,30,30,31,31,32,32,35,35,36,36,37,37,38,38,39,39,42,42,44,44,45,45,46,46],"right_children":[2,4,6,8,10,12,14,16,18,-1,-1,20,22,24,26,28,30,-1,-1,32,34,36,38,40,42,44,46,-1,-1,-1,48,50,52,-1,-1,54,56,58,60,62,-1,-1,64,-1,66,68,70,-1,-1,-1,-1,-1,-1,-1,-1,-1,-1,-1,-1,-1,-1,-1,-1,-1,-1,-1,-1,-1,-1,-1,-1],"split_conditions":[1.26E1,8.53E0,7.28E0,1.169E1,8.63E0,2.8642828E1,1.713E1,2.9257334E1,5.87E0,2.907791E-1,-2.2416382E-1,7.625118E1,6.43E0,3.8108818E1,2.1065172E1,2.7902666E1,5.8049805E1,-1.17473796E-1,-1.5090231E0,5.5320324E1,6.75E0,1.5410322E1,3.746869E1,1.431E1,7.66E0,1.6804516E1,7.56E0,-1.4359006E0,-7.819271E-2,-3.0076144E0,6.8E0,5.82E0,6.3499676E1,4.6599216E0,-1.3941835E0,4.5667194E1,2.8408602E1,2.1004301E1,4.5986614E1,7.79E0,-8.55875E-2,2.5364814E0,8.35E0,-2.6539574E0,7.54E0,2.0227097E1,4.0106236E1,-2.3978271E0,-1.07949965E-1,-1.5540807E0,-2.3321996E0,8.1166977E-1,-1.9629925E0,2.1288445E0,-1.0427963E0,-1.7320827E0,-4.342727E-2,4.1745934E0,-6.3369346E-1,2.8966944E0,7.5668377E-1,-2.2351491E0,-5.592367E-1,-1.8229972E-1,1.0327123E0,-6.2473934E-2,8.135792E-1,6.113068E0,1.7014164E0,9.25865E-1,8.397853E0],"split_indices":[2,1,1,2,1,4,2,4,1,0,0,5,1,4,4,4,4,0,0,5,1,5,4,2,1,4,1,0,0,0,1,1,5,0,0,4,5,5,4,1,0,0,1,0,1,5,5,0,0,0,0,0,0,0,0,0,0,0,0,0,0,0,0,0,0,0,0,0,0,0,0],"split_type":[0,0,0,0,0,0,0,0,0,0,0,0,0,0,0,0,0,0,0,0,0,0,0,0,0,0,0,0,0,0,0,0,0,0,0,0,0,0,0,0,0,0,0,0,0,0,0,0,0,0,0,0,0,0,0,0,0,0,0,0,0,0,0,0,0,0,0,0,0,0,0],"sum_hessian":[4.25E2,4.7E1,3.78E2,4.5E1,2E0,3.04E2,7.4E1,3.5E1,1E1,1E0,1E0,7.3E1,2.31E2,1.6E1,5.8E1,5E0,3E1,1E0,9E0,7.1E1,2E0,9.3E1,1.38E2,6E0,1E1,6E0,5.2E1,4E0,1E0,2.6E1,4E0,6.4E1,7E0,1E0,1E0,3.7E1,5.6E1,6.1E1,7.7E1,5E0,1E0,3E0,7E0,3E0,3E0,4E1,1.2E1,2E0,2E0,2.1E1,4.3E1,3E0,4E0,2.2E1,1.5E1,3.6E1,2E1,9E0,5.2E1,4.4E1,3.3E1,4E0,1E0,3E0,4E0,2E0,1E0,1E1,3E1,4E0,8E0],"tree_param":{"num_deleted":"0","num_feature":"6","num_nodes":"71","size_leaf_vector":"1"}},{"base_weights":[-9.12432E-1,-1.5162875E1,9.664157E0,-2.2334686E1,-8.058644E0,3.1339325E1,2.2706094E0,-2.4254871E1,-1.1817888E1,-5.284468E0,-2.4937396E0,4.1709743E1,-4.626657E0,7.037101E0,-1.8494457E1,-2.600737E1,-1.8426552E1,-1.974912E0,-6.4174085E0,3.4036427E0,-1.2865192E1,1.711328E1,5.8082706E1,-1.2222742E1,5.800689E0,-5.597982E0,1.115098E1,-2.1465504E1,-3.543768E0,-5.938144E-1,-2.6264298E0,-6.0996857E0,-1.9403082E1,-9.320224E0,1.1305373E0,-7.1074753E0,1.3744578E1,-1.4026437E1,1.8534157E0,-9.2023E0,2.8252996E1,-4.025014E0,6.818095E1,-2.1295567E-1,-1.3218196E1,-5.31275E-1,8.538387E0,-3.1293273E0,4.696524E0,8.886119E0,4.4825104E1,-1.4675878E1,-2.4799395E1,1.8545763E0,-1.6088732E1,4.6134472E-1,-1.3762976E0,-2.12672E0,-9.930113E-1,-1.254156E0,-3.590577E-1,2.157118E0,-1.1492392E0,-1.4231385E0,2.1628032E0,-9.780985E-1,-2.2121944E0,2.597304E0,-1.9393698E0,-1.0796179E-1,3.2848756E0,6.2126297E-1,-2.2487793E0,4.9708934E0,1.1839084E1,-1.4969946E0,-5.30863E-1,1.7265435E-1,9.5554477E-1,1.8686574E0,-1.2883269E0,-7.400589E-1,1.1976061E0,-1.5621008E0,7.2127748E0,-2.4019945E0,2.1362967E0,-2.7067099E0,-1.3489941E0,-1.7712662E0,-4.796507E-1],"categories":[],"categories_nodes":[],"categories_segments":[],"categories_sizes":[],"default_left":[0,0,0,0,0,0,0,0,0,0,0,0,0,0,0,0,0,0,0,0,0,0,0,0,0,0,0,0,0,0,0,0,0,0,0,0,0,0,0,0,0,0,0,0,0,0,0,0,0,0,0,0,0,0,0,0,0,0,0,0,0,0,0,0,0,0,0,0,0,0,0,0,0,0,0,0,0,0,0,0,0,0,0,0,0,0,0,0,0,0,0],"id":6,"left_children":[1,3,5,7,9,11,13,15,17,19,-1,21,23,25,27,29,31,-1,33,35,37,39,41,43,45,47,49,51,53,-1,-1,55,57,59,-1,61,63,65,-1,67,69,71,73,-1,75,-1,77,-1,79,81,83,85,87,-1,89,-1,-1,-1,-1,-1,-1,-1,-1,-1,-1,-1,-1,-1,-1,-1,-1,-1,-1,-1,-1,-1,-1,-1,-1,-1,-1,-1,-1,-1,-1,-1,-1,-1,-1,-1,-1],"loss_changes":[6.510732E4,9.194852E3,3.967242E4,1.5510312E3,4.269734E3,2.3690855E4,1.8539781E4,2.9704688E2,5.585813E2,5.4444863E3,0E0,1.873914E4,1.2590055E3,7.9632607E3,1.4786035E3,1.3279688E2,1.3443604E2,0E0,6.712741E2,4.336786E3,1.86431E3,6.416104E3,1.8462602E4,6.2276855E1,2.58339E2,1.0198742E4,8.372408E3,2.924873E2,2.2381646E3,0E0,0E0,3.0978827E2,1.2432959E2,1.3953973E2,0E0,2.7629746E3,4.71874E3,1.2614971E3,0E0,3.0131143E3,2.0575479E3,1.084785E3,1.7301867E4,0E0,3.1374756E1,0E0,2.5070435E1,0E0,7.127125E3,5.5740527E3,1.2679077E4,4.5541294E3,9.650391E1,0E0,6.7299805E0,0E0,0E0,0E0,0E0,0E0,0E0,0E0,0E0,0E0,0E0,0E0,0E0,0E0,0E0,0E0,0E0,0E0,0E0,0E0,0E0,0E0,0E0,0E0,0E0,0E0,0E0,0E0,0E0,0E0,0E0,0E0,0E0,0E0,0E0,0E0,0E0],"parents":[2147483647,0,0,1,1,2,2,3,3,4,4,5,5,6,6,7,7,8,8,9,9,11,11,12,12,13,13,14,14,15,15,16,16,18,18,19,19,20,20,21,21,22,22,23,23,24,24,25,25,26,26,27,27,28,28,31,31,32,32,33,33,35,35,36,36,37,37,39,39,40,40,41,41,42,42,44,44,46,46,48,48,49,49,50,50,51,51,52,52,54,54],"right_children":[2,4,6,8,10,12,14,16,18,20,-1,22,24,26,28,30,32,-1,34,36,38,40,42,44,46,48,50,52,54,-1,-1,56,58,60,-1,62,64,66,-1,68,70,72,74,-1,76,-1,78,-1,80,82,84,86,88,-1,90,-1,-1,-1,-1,-1,-1,-1,-1,-1,-1,-1,-1,-1,-1,-1,-1,-1,-1,-1,-1,-1,-1,-1,-1,-1,-1,-1,-1,-1,-1,-1,-1,-1,-1,-1,-1],"split_conditions":[3.0472E2,1.996E2,2.4939E1,7.16E0,5.265E1,7.91E0,5.4769E1,1.5816E2,1.108E1,6.6E0,-2.4937396E0,1.7821667E1,5.1104E2,6.14E0,5.2004E2,5.16E0,1.5924E2,-1.974912E0,7.93E0,6.32E0,4.4779667E1,3.4168E2,6.59E0,3.4532E2,1.0886666E1,3.7449E1,7.092E2,5.7317665E1,5.7152E2,-5.938144E-1,-2.6264298E0,6.32E0,1.79E1,7.42E0,1.1305373E0,1.3946E1,1.592E1,2.7032E2,1.8534157E0,9.22E0,5.44E0,6.52E0,5.628E2,-2.1295567E-1,4.4716E2,-5.31275E-1,7.98E0,-3.1293273E0,4.4124E2,1.714E1,6.27E0,5.6772E1,4.3824E2,1.8545763E0,5.19E0,4.6134472E-1,-1.3762976E0,-2.12672E0,-9.930113E-1,-1.254156E0,-3.590577E-1,2.157118E0,-1.1492392E0,-1.4231385E0,2.1628032E0,-9.780985E-1,-2.2121944E0,2.597304E0,-1.9393698E0,-1.0796179E-1,3.2848756E0,6.2126297E-1,-2.2487793E0,4.9708934E0,1.1839084E1,-1.4969946E0,-5.30863E-1,1.7265435E-1,9.5554477E-1,1.8686574E0,-1.2883269E0,-7.400589E-1,1.1976061E0,-1.5621008E0,7.2127748E0,-2.4019945E0,2.1362967E0,-2.7067099E0,-1.3489941E0,-1.7712662E0,-4.796507E-1],"split_indices":[0,0,3,1,3,1,3,0,2,1,0,3,0,1,0,2,0,0,1,1,3,0,1,0,3,3,0,3,0,0,0,1,2,1,0,3,2,0,0,3,1,1,0,0,0,0,1,0,0,2,1,3,0,0,1,0,0,0,0,0,0,0,0,0,0,0,0,0,0,0,0,0,0,0,0,0,0,0,0,0,0,0,0,0,0,0,0,0,0,0,0],"split_type":[0,0,0,0,0,0,0,0,0,0,0,0,0,0,0,0,0,0,0,0,0,0,0,0,0,0,0,0,0,0,0,0,0,0,0,0,0,0,0,0,0,0,0,0,0,0,0,0,0,0,0,0,0,0,0,0,0,0,0,0,0,0,0,0,0,0,0,0,0,0,0,0,0,0,0,0,0,0,0,0,0,0,0,0,0,0,0,0,0,0,0],"sum_hessian":[4.3E2,1.83E2,2.47E2,9E1,9.3E1,6.2E1,1.85E2,7.5E1,1.5E1,8.1E1,1.2E1,4.8E1,1.4E1,1.51E2,3.4E1,5.5E1,2E1,5E0,1E1,3.8E1,4.3E1,2E1,2.8E1,8E0,6E0,3.7E1,1.14E2,2.8E1,6E0,1E0,5.4E1,2E0,1.8E1,9E0,1E0,1.9E1,1.9E1,4.2E1,1E0,6E0,1.4E1,4E0,2.4E1,1E0,7E0,1E0,5E0,1E1,2.7E1,1.08E2,6E0,1.1E1,1.7E1,2E0,4E0,1E0,1E0,1.4E1,4E0,5E0,4E0,2E0,1.7E1,4E0,1.5E1,2.9E1,1.3E1,1E0,5E0,2E0,1.2E1,3E0,1E0,1.9E1,5E0,5E0,2E0,1E0,4E0,1.5E1,1.2E1,1.7E1,9.1E1,2E0,4E0,9E0,2E0,1.3E1,4E0,3E0,1E0],"tree_param":{"num_deleted":"0","num_feature":"6","num_nodes":"91","size_leaf_vector":"1"}},{"base_weights":[-2.084586E-1,8.186532E0,-5.378725E0,-1.2546321E1,1.2426039E1,-2.441468E0,-3.5396972E0,-1.6694563E1,-6.47569E0,-6.511313E0,1.7220667E1,-1.0252532E1,5.2526646E0,-1.9441107E1,1.6874975E0,9.5006675E-1,-1.024418E1,4.262682E0,-9.910015E0,1.50941305E1,5.800849E1,-1.9492985E1,-5.96209E0,-8.879465E0,2.2881239E1,-1.0600943E1,-2.4746113E0,8.3633536E-1,-5.8321077E-1,4.110922E-1,-1.2090781E1,-2.28629E1,-4.2333603E0,2.3315247E1,8.916699E0,8.319232E0,-2.1363404E0,2.2560501E-2,-1.9967846E1,-6.2830734E-1,-1.3604744E1,-1.1980608E1,1.5869108E1,-6.882081E0,2.8261871E1,-3.6527914E-1,-1.2649645E0,-1.7620938E0,-5.467189E-1,-5.0471133E-1,-2.4686997E0,-1.5581573E0,1.1367964E0,1.677009E0,6.19729E0,6.633315E-1,5.085103E0,-2.5378037E-2,-2.0442486E0,3.1673687E0,-5.7840604E-1,-2.319487E0,-5.1398796E-1,8.2915306E-1,-1.2938173E0,3.7654932E0,-3.7620623E-2,-2.3544848E0,7.824549E-1,3.056172E0,-1.029013E0],"categories":[],"categories_nodes":[],"categories_segments":[],"categories_sizes":[],"default_left":[0,0,0,0,0,0,0,0,0,0,0,0,0,0,0,0,0,0,0,0,0,0,0,0,0,0,0,0,0,0,0,0,0,0,0,0,0,0,0,0,0,0,0,0,0,0,0,0,0,0,0,0,0,0,0,0,0,0,0,0,0,0,0,0,0,0,0,0,0,0,0],"id":7,"left_children":[1,3,5,7,9,-1,11,13,15,17,19,21,23,25,27,-1,29,-1,31,33,35,37,39,41,43,45,-1,-1,-1,-1,47,49,51,53,55,-1,-1,-1,57,59,61,63,65,67,69,-1,-1,-1,-1,-1,-1,-1,-1,-1,-1,-1,-1,-1,-1,-1,-1,-1,-1,-1,-1,-1,-1,-1,-1,-1,-1],"loss_changes":[1.8447473E4,1.4395225E4,9.120594E3,5.969995E2,1.2369799E4,0E0,1.4278076E4,8.4060156E2,8.8001404E2,5.0985967E3,8.491984E3,5.3152305E3,2.636175E4,3.9422705E2,1.993754E2,0E0,3.4129407E2,0E0,1.8884973E3,5.073783E3,1.1771707E4,4.0713965E2,3.864057E3,4.718303E3,7.72134E3,5.343628E1,0E0,0E0,0E0,0E0,2.69958E2,1.3538379E2,3.7180737E3,1.0093607E4,5.5035728E3,0E0,0E0,0E0,3.8781055E2,9.676045E3,3.0467656E3,1.1361064E3,2.4915884E3,2.144653E3,3.8610293E3,0E0,0E0,0E0,0E0,0E0,0E0,0E0,0E0,0E0,0E0,0E0,0E0,0E0,0E0,0E0,0E0,0E0,0E0,0E0,0E0,0E0,0E0,0E0,0E0,0E0,0E0],"parents":[2147483647,0,0,1,1,2,2,3,3,4,4,6,6,7,7,8,8,9,9,10,10,11,11,12,12,13,13,14,14,16,16,18,18,19,19,20,20,21,21,22,22,23,23,24,24,25,25,30,30,31,31,32,32,33,33,34,34,38,38,39,39,40,40,41,41,42,42,43,43,44,44],"right_children":[2,4,6,8,10,-1,12,14,16,18,20,22,24,26,28,-1,30,-1,32,34,36,38,40,42,44,46,-1,-1,-1,-1,48,50,52,54,56,-1,-1,-1,58,60,62,64,66,68,70,-1,-1,-1,-1,-1,-1,-1,-1,-1,-1,-1,-1,-1,-1,-1,-1,-1,-1,-1,-1,-1,-1,-1,-1,-1,-1],"split_conditions":[2.9277666E1,1.264E1,1.8958559E1,1.062E1,1.39016E1,-2.441468E0,4.3033E1,5.9659058E1,1.171E1,8.91386E0,2.677E1,1.7865524E1,3.2206783E1,1.5178667E1,9.55E0,9.5006675E-1,1.2239667E1,4.262682E0,5.4129482E1,1.9543E1,5.183E1,2.9846666E1,2.4638172E1,1.79E1,1.412E1,6.69E0,-2.4746113E0,8.3633536E-1,-5.8321077E-1,4.110922E-1,2.0419333E1,1.399E1,2.4199505E1,1.8791334E1,5.8919926E1,8.319232E0,-2.1363404E0,2.2560501E-2,2.9257334E1,3.4365E1,3.4432335E1,2.1065172E1,1.8723549E1,3.764214E1,3.463E1,-3.6527914E-1,-1.2649645E0,-1.7620938E0,-5.467189E-1,-5.0471133E-1,-2.4686997E0,-1.5581573E0,1.1367964E0,1.677009E0,6.19729E0,6.633315E-1,5.085103E0,-2.5378037E-2,-2.0442486E0,3.1673687E0,-5.7840604E-1,-2.319487E0,-5.1398796E-1,8.2915306E-1,-1.2938173E0,3.7654932E0,-3.7620623E-2,-2.3544848E0,7.824549E-1,3.056172E0,-1.029013E0],"split_indices":[3,2,4,2,3,0,3,4,2,4,2,2,4,3,2,0,3,0,5,3,2,3,5,2,2,2,0,0,0,0,3,2,4,3,4,0,0,0,4,3,3,4,5,4,2,0,0,0,0,0,0,0,0,0,0,0,0,0,0,0,0,0,0,0,0,0,0,0,0,0,0],"split_type":[0,0,0,0,0,0,0,0,0,0,0,0,0,0,0,0,0,0,0,0,0,0,0,0,0,0,0,0,0,0,0,0,0,0,0,0,0,0,0,0,0,0,0,0,0,0,0,0,0,0,0,0,0,0,0,0,0,0,0,0,0,0,0,0,0,0,0,0,0,0,0],"sum_hessian":[4.23E2,1.61E2,2.62E2,2.7E1,1.34E2,2.2E1,2.4E2,1.5E1,1.2E1,2.7E1,1.07E2,1.36E2,1.04E2,1.3E1,2E0,2E0,1E1,1E0,2.6E1,1.03E2,4E0,4.2E1,9.4E1,5.8E1,4.6E1,6E0,7E0,1E0,1E0,1E0,9E0,7E0,1.9E1,4.3E1,6E1,3E0,1E0,1E0,4.1E1,5.6E1,3.8E1,5.2E1,6E0,7E0,3.9E1,2E0,4E0,4E0,5E0,1E0,6E0,1.1E1,8E0,3.8E1,5E0,5.8E1,2E0,1E0,4E1,7E0,4.9E1,1.7E1,2.1E1,2E0,5E1,2E0,4E0,3E0,4E0,3.7E1,2E0],"tree_param":{"num_deleted":"0","num_feature":"6","num_nodes":"71","size_leaf_vector":"1"}},{"base_weights":[6.005079E-1,2.8489835E0,-1.7078342E1,-5.7742035E-1,1.2753316E1,-1.8113731E1,4.835552E0,-3.6346848E0,8.271661E0,1.9227526E1,-6.16379E0,-2.3944583E0,-1.5430452E1,-3.2127764E-2,7.574606E-1,-9.495587E0,6.142427E-1,3.0441965E1,1.125395E0,3.724298E1,1.4016088E1,-1.0821612E1,1.1165885E1,-1.6346025E1,7.849518E-1,-1.3521411E1,5.2708635E0,5.3175842E1,-1.5628005E0,1.8801867E1,5.0588517E0,1.4859627E1,-6.132764E0,6.0613186E1,1.7159536E1,-4.3165076E-1,3.0027214E1,3.7522316E-3,-1.2626048E1,1.7148323E1,-5.3266144E-1,-1.2671942E1,-2.130632E0,4.049548E0,-1.4871588E0,4.688759E0,6.1274197E-2,6.258742E0,7.7647704E-1,8.6389667E-1,-1.109203E0,9.5789766E-1,3.7158628E0,-8.543628E-2,3.4160545E0,1.3380884E-2,-1.3881695E0,2.157707E0,7.1912227E0,2.0877378E0,6.363427E-1,9.820201E-1,-7.9629284E-1,9.0736024E-2,4.6154504E0,-8.940501E-1,5.965337E-1,-1.386536E0,-4.8221207E-1,2.159714E0,1.900938E-1,1.0414467E-1,-1.8404388E-1,-1.5560386E0,4.2161503E-1],"categories":[],"categories_nodes":[],"categories_segments":[],"categories_sizes":[],"default_left":[0,0,0,0,0,0,0,0,0,0,0,0,0,0,0,0,0,0,0,0,0,0,0,0,0,0,0,0,0,0,0,0,0,0,0,0,0,0,0,0,0,0,0,0,0,0,0,0,0,0,0,0,0,0,0,0,0,0,0,0,0,0,0,0,0,0,0,0,0,0,0,0,0,0,0],"id":8,"left_children":[1,3,5,7,9,11,13,15,17,19,21,-1,23,-1,-1,25,27,29,31,33,35,37,39,41,-1,43,45,47,49,51,-1,53,55,57,59,61,63,65,67,69,71,73,-1,-1,-1,-1,-1,-1,-1,-1,-1,-1,-1,-1,-1,-1,-1,-1,-1,-1,-1,-1,-1,-1,-1,-1,-1,-1,-1,-1,-1,-1,-1,-1,-1],"loss_changes":[1.7260605E4,1.3072818E4,1.199373E3,7.794558E3,1.2243371E4,3.6587598E2,4.4808052E1,5.3349775E3,1.1689922E4,6.4255957E3,2.2195151E3,0E0,8.743164E2,0E0,0E0,5.42151E3,1.4386711E4,3.2699824E3,5.773189E3,6.4695723E3,1.3661111E4,4.102544E2,4.2904926E2,3.496416E2,0E0,5.7804297E3,3.8483857E3,1.6509717E3,1.1858836E4,1.8449893E3,0E0,6.0950737E3,1.8471085E3,1.5358379E3,2.6853076E2,2.5489026E3,1.31076E4,2.666208E2,1.0722656E2,2.3027661E2,8.092468E0,1.1387717E3,0E0,0E0,0E0,0E0,0E0,0E0,0E0,0E0,0E0,0E0,0E0,0E0,0E0,0E0,0E0,0E0,0E0,0E0,0E0,0E0,0E0,0E0,0E0,0E0,0E0,0E0,0E0,0E0,0E0,0E0,0E0,0E0,0E0],"parents":[2147483647,0,0,1,1,2,2,3,3,4,4,5,5,6,6,7,7,8,8,9,9,10,10,12,12,15,15,16,16,17,17,18,18,19,19,20,20,21,21,22,22,23,23,25,25,26,26,27,27,28,28,29,29,31,31,32,32,33,33,34,34,35,35,36,36,37,37,38,38,39,39,40,40,41,41],"right_children":[2,4,6,8,10,12,14,16,18,20,22,-1,24,-1,-1,26,28,30,32,34,36,38,40,42,-1,44,46,48,50,52,-1,54,56,58,60,62,64,66,68,70,72,74,-1,-1,-1,-1,-1,-1,-1,-1,-1,-1,-1,-1,-1,-1,-1,-1,-1,-1,-1,-1,-1,-1,-1,-1,-1,-1,-1,-1,-1,-1,-1,-1,-1],"split_conditions":[5.4769E1,7.32E0,2.9311193E1,4.2071E1,8E0,1.4039947E1,6.14E0,3.805986E1,1.28513975E1,2.0227097E1,8.53E0,-2.3944583E0,6.863033E1,-3.2127764E-2,7.574606E-1,7.1E0,3.8608765E1,6.43E0,4.6027332E1,7.48E0,4.100301E1,8.23E0,8.56E0,2.5818356E1,7.849518E-1,9.22E0,7.12E0,6.84E0,3.4365E1,5.2028667E1,5.0588517E0,3.535831E1,1.9461613E1,1.2690376E1,1.4687097E1,7.53E0,7.49E0,8.412E0,5.9659058E1,5.3351795E1,8.65E0,2.4539806E1,-2.130632E0,4.049548E0,-1.4871588E0,4.688759E0,6.1274197E-2,6.258742E0,7.7647704E-1,8.6389667E-1,-1.109203E0,9.5789766E-1,3.7158628E0,-8.543628E-2,3.4160545E0,1.3380884E-2,-1.3881695E0,2.157707E0,7.1912227E0,2.0877378E0,6.363427E-1,9.820201E-1,-7.9629284E-1,9.0736024E-2,4.6154504E0,-8.940501E-1,5.965337E-1,-1.386536E0,-4.8221207E-1,2.159714E0,1.900938E-1,1.0414467E-1,-1.8404388E-1,-1.5560386E0,4.2161503E-1],"split_indices":[3,1,4,3,1,4,1,4,5,5,1,0,3,0,0,1,4,1,3,1,5,1,1,4,0,3,1,1,3,3,0,4,5,5,5,1,1,3,4,4,1,4,0,0,0,0,0,0,0,0,0,0,0,0,0,0,0,0,0,0,0,0,0,0,0,0,0,0,0,0,0,0,0,0,0],"split_type":[0,0,0,0,0,0,0,0,0,0,0,0,0,0,0,0,0,0,0,0,0,0,0,0,0,0,0,0,0,0,0,0,0,0,0,0,0,0,0,0,0,0,0,0,0,0,0,0,0,0,0,0,0,0,0,0,0,0,0,0,0,0,0,0,0,0,0,0,0,0,0,0,0,0,0],"sum_hessian":[4.32E2,3.84E2,4.8E1,2.86E2,9.8E1,4.6E1,2E0,2.13E2,7.3E1,7.3E1,2.5E1,1.2E1,3.4E1,1E0,1E0,8.9E1,1.24E2,1.7E1,5.6E1,1.5E1,5.8E1,2E1,5E0,3.3E1,1E0,7E1,1.9E1,4E0,1.2E2,1.2E1,5E0,1.9E1,3.7E1,6E0,9E0,3.1E1,2.7E1,3E0,1.7E1,3E0,2E0,2.1E1,1.2E1,1E0,6.9E1,1E0,1.8E1,3E0,1E0,5.8E1,6.2E1,9E0,3E0,1.1E1,8E0,2.1E1,1.6E1,2E0,4E0,6E0,3E0,1.3E1,1.8E1,1E1,1.7E1,1E0,2E0,1.4E1,3E0,2E0,1E0,1E0,1E0,1.8E1,3E0],"tree_param":{"num_deleted":"0","num_feature":"6","num_nodes":"75","size_leaf_vector":"1"}},{"base_weights":[-5.3720128E-2,8.272583E0,-5.123042E0,-1.1263014E1,1.2007752E1,-1.3838716E1,-1.4648294E0,-2.1842713E0,-7.8656864E0,8.290526E0,3.3710724E1,-8.232725E0,-2.8243927E1,3.2399526E0,-1.4891209E1,-9.427771E0,1.5206337E0,-3.1199327E0,1.6485424E1,3.5237577E0,6.354531E1,6.949554E-2,-2.1230528E1,-2.9812605E1,2.349144E-1,7.1829867E0,-1.2507941E1,-4.5022774E0,-1.7375885E1,2.36246E0,-1.0953825E1,3.193123E-1,-1.7484169E-1,-1.652229E1,5.5191725E-1,5.3052723E1,1.0220532E1,8.9384764E-1,-8.472928E-1,7.7986217E0,2.23874E1,-1.6878532E0,7.88899E0,-2.3454357E1,1.3846868E0,-3.23953E1,-1.5068915E1,-8.661221E0,1.040904E1,-1.640172E1,-2.3655558E-1,1.4711073E1,-1.7582916E0,-8.264651E0,-1.8441357E1,-4.4136545E-1,7.957344E-1,-1.3332729E-1,-1.2920138E0,-2.1656067E0,1.7407753E0,2.8737106E0,-1.6303259E-1,2.9493472E-1,6.52099E0,2.1506643E0,-3.8490504E-1,4.1762087E-1,-5.658971E-1,2.2916451E-1,2.8322103E0,-1.6136143E0,1.946328E0,-2.4586189E0,1.570549E-2,-1.8371413E0,-3.5297158E0,-4.614702E-1,-2.050016E0,-2.1939273E0,6.810757E-1,2.6074687E-1,1.6960229E0,-2.209243E0,-8.7026083E-1,1.1943146E0,-3.6826766E-1,-3.0521393E-2,1.8541449E0,-1.2305404E0,5.969555E-1,-1.5104995E0,-2.188284E0],"categories":[],"categories_nodes":[],"categories_segments":[],"categories_sizes":[],"default_left":[0,0,0,0,0,0,0,0,0,0,0,0,0,0,0,0,0,0,0,0,0,0,0,0,0,0,0,0,0,0,0,0,0,0,0,0,0,0,0,0,0,0,0,0,0,0,0,0,0,0,0,0,0,0,0,0,0,0,0,0,0,0,0,0,0,0,0,0,0,0,0,0,0,0,0,0,0,0,0,0,0,0,0,0,0,0,0,0,0,0,0,0,0],"id":9,"left_children":[1,3,5,7,9,11,13,-1,15,17,19,21,23,25,27,29,31,33,35,37,39,41,43,45,-1,47,49,51,53,55,57,-1,-1,59,61,63,65,-1,67,-1,69,-1,71,73,-1,75,77,79,81,83,85,87,-1,89,91,-1,-1,-1,-1,-1,-1,-1,-1,-1,-1,-1,-1,-1,-1,-1,-1,-1,-1,-1,-1,-1,-1,-1,-1,-1,-1,-1,-1,-1,-1,-1,-1,-1,-1,-1,-1,-1,-1],"loss_changes":[1.840317E4,1.217509E4,8.620234E3,7.9864453E2,1.0934324E4,6.227914E3,1.2176538E4,0E0,3.3690503E2,1.1272339E4,1.7788396E4,6.3682026E3,1.1258281E3,8.969355E3,1.2124258E3,3.6773596E2,2.7452719E1,2.5189023E3,1.549409E4,2.679216E2,4.197664E3,5.03658E3,2.118912E3,3.1148633E2,0E0,5.968296E3,1.3817998E3,3.0232156E3,2.3589941E2,1.4885568E2,3.043629E2,0E0,0E0,2.293066E3,2.5686355E3,5.89883E3,9.769021E3,0E0,1.9283334E2,0E0,4.1214502E2,0E0,7.543982E3,5.9179297E2,0E0,4.336133E1,1.8929468E2,4.2581772E3,4.862294E3,7.716338E2,3.7976456E2,2.9324915E2,0E0,4.185592E2,7.1331055E1,0E0,0E0,0E0,0E0,0E0,0E0,0E0,0E0,0E0,0E0,0E0,0E0,0E0,0E0,0E0,0E0,0E0,0E0,0E0,0E0,0E0,0E0,0E0,0E0,0E0,0E0,0E0,0E0,0E0,0E0,0E0,0E0,0E0,0E0,0E0,0E0,0E0,0E0],"parents":[2147483647,0,0,1,1,2,2,3,3,4,4,5,5,6,6,8,8,9,9,10,10,11,11,12,12,13,13,14,14,15,15,16,16,17,17,18,18,19,19,20,20,21,21,22,22,23,23,25,25,26,26,27,27,28,28,29,29,30,30,33,33,34,34,35,35,36,36,38,38,40,40,42,42,43,43,45,45,46,46,47,47,48,48,49,49,50,50,51,51,53,53,54,54],"right_children":[2,4,6,8,10,12,14,-1,16,18,20,22,24,26,28,30,32,34,36,38,40,42,44,46,-1,48,50,52,54,56,58,-1,-1,60,62,64,66,-1,68,-1,70,-1,72,74,-1,76,78,80,82,84,86,88,-1,90,92,-1,-1,-1,-1,-1,-1,-1,-1,-1,-1,-1,-1,-1,-1,-1,-1,-1,-1,-1,-1,-1,-1,-1,-1,-1,-1,-1,-1,-1,-1,-1,-1,-1,-1,-1,-1,-1,-1],"split_conditions":[2.9277666E1,1.237E1,3.7449E1,7.14E0,7.54E0,3.5724667E1,5.4716E1,-2.1842713E0,8.53E0,1.7821667E1,1.713E1,2.9494194E1,2.6146236E1,2.4191399E1,1.0450215E1,8E0,8.63E0,4.0738815E1,1.938E1,1.343E1,2.0708666E1,6.16E0,7.09E1,3.6885334E1,2.349144E-1,1.693E1,7.1E0,8.2138336E1,5.36E0,7.93E0,1.7280539E1,3.193123E-1,-1.7484169E-1,1.79E1,4.495817E1,3.5066666E1,3.5066666E1,8.9384764E-1,2.1480644E1,7.7986217E0,7.64E0,-1.6878532E0,1.508E1,3.975075E1,1.3846868E0,1.777E1,3.6997665E1,4.4779667E1,6.42E0,2.6414408E1,2.4496775E1,6.14E0,-1.7582916E0,5.29E0,6.0796665E1,-4.4136545E-1,7.957344E-1,-1.3332729E-1,-1.2920138E0,-2.1656067E0,1.7407753E0,2.8737106E0,-1.6303259E-1,2.9493472E-1,6.52099E0,2.1506643E0,-3.8490504E-1,4.1762087E-1,-5.658971E-1,2.2916451E-1,2.8322103E0,-1.6136143E0,1.946328E0,-2.4586189E0,1.570549E-2,-1.8371413E0,-3.5297158E0,-4.614702E-1,-2.050016E0,-2.1939273E0,6.810757E-1,2.6074687E-1,1.6960229E0,-2.209243E0,-8.7026083E-1,1.1943146E0,-3.6826766E-1,-3.0521393E-2,1.8541449E0,-1.2305404E0,5.969555E-1,-1.5104995E0,-2.188284E0],"split_indices":[3,2,3,1,1,3,3,0,1,3,2,5,5,5,5,1,1,5,3,2,3,1,2,3,0,2,1,3,1,1,5,0,0,2,5,5,5,0,5,0,1,0,2,5,0,2,3,3,1,5,5,1,0,1,3,0,0,0,0,0,0,0,0,0,0,0,0,0,0,0,0,0,0,0,0,0,0,0,0,0,0,0,0,0,0,0,0,0,0,0,0,0,0],"split_type":[0,0,0,0,0,0,0,0,0,0,0,0,0,0,0,0,0,0,0,0,0,0,0,0,0,0,0,0,0,0,0,0,0,0,0,0,0,0,0,0,0,0,0,0,0,0,0,0,0,0,0,0,0,0,0,0,0,0,0,0,0,0,0,0,0,0,0,0,0,0,0,0,0,0,0,0,0,0,0,0,0,0,0,0,0,0,0,0,0,0,0,0,0],"sum_hessian":[4.34E2,1.64E2,2.7E2,2.6E1,1.38E2,7.9E1,1.91E2,5E0,2.1E1,1.19E2,1.9E1,5.8E1,2.1E1,1.42E2,4.9E1,1.8E1,3E0,5E1,6.9E1,1E1,9E0,3.6E1,2.2E1,2E1,1E0,1.14E2,2.8E1,1E1,3.9E1,2E0,1.6E1,2E0,1E0,1E1,4E1,9E0,6E1,4E0,6E0,6E0,3E0,1.1E1,2.5E1,2.1E1,1E0,1.6E1,4E0,1.9E1,9.5E1,2.1E1,7E0,4E0,6E0,5E0,3.4E1,1E0,1E0,3E0,1.3E1,9E0,1E0,2E0,3.8E1,2E0,7E0,3.3E1,2.7E1,3E0,3E0,1E0,2E0,8E0,1.7E1,2E1,1E0,4E0,1.2E1,2E0,2E0,1E1,9E0,4.4E1,5.1E1,1.1E1,1E1,1E0,6E0,1E0,3E0,4E0,1E0,2E1,1.4E1],"tree_param":{"num_deleted":"0","num_feature":"6","num_nodes":"93","size_leaf_vector":"1"}},{"base_weights":[-5.4019713E-1,-1.2907159E1,6.790374E0,-1.7857908E1,-5.9464693E0,-6.9431906E0,1.3695729E1,-1.9119308E1,-8.624739E0,-7.8017845E0,1.1335814E1,5.183031E0,-1.1120928E1,7.5777364E0,5.5128212E1,-1.3235143E1,-2.095818E1,-3.5193403E0,-1.2498032E0,-2.3803637E0,-1.8273111E1,9.5304996E-2,1.5298312E0,-2.637472E0,9.250768E0,2.2922554E0,-1.675751E1,2.9831698E0,2.1520563E1,2.8971724E1,6.987369E1,-1.5104769E1,-1.0456324E0,-2.1545307E1,-1.2083146E1,-6.665294E-1,5.0644875E-1,-1.3663992E1,3.7494504E0,-9.726959E0,-2.3872147E1,-7.444178E0,1.5976634E1,-1.6611874E1,1.7854673E1,-1.2809809E1,-2.7533128E0,-1.0927711E1,7.5363917E0,-1.1854775E1,2.919188E1,8.796213E0,7.3115845E0,3.0220661E1,8.854529E0,-1.7171444E0,-3.0618754E-1,-4.054686E-1,3.9907646E-1,-6.23744E-1,-2.1713278E0,-1.4397267E0,-4.9699363E-1,-1.4315249E-1,3.160185E-1,1.8204499E-2,-1.7140671E0,-5.2921647E-1,1.3169078E0,-1.4365802E0,-2.2149567E-1,-2.6149466E0,5.8918383E-2,7.7683944E-1,-1.127434E0,1.8018554E0,-7.326088E-1,-1.7557408E0,-4.051032E-1,3.808389E-1,3.126623E0,-1.5405524E0,4.031796E0,-1.7473685E0,-7.2902125E-1,2.2370145E0,3.5723135E-1,3.9051554E-1,-1.7758945E0,3.3880322E0,-2.9017648E-1,2.709048E0,-7.598443E-1,-2.8615305E0,4.7710915E0],"categories":[],"categories_nodes":[],"categories_segments":[],"categories_sizes":[],"default_left":[0,0,0,0,0,0,0,0,0,0,0,0,0,0,0,0,0,0,0,0,0,0,0,0,0,0,0,0,0,0,0,0,0,0,0,0,0,0,0,0,0,0,0,0,0,0,0,0,0,0,0,0,0,0,0,0,0,0,0,0,0,0,0,0,0,0,0,0,0,0,0,0,0,0,0,0,0,0,0,0,0,0,0,0,0,0,0,0,0,0,0,0,0,0,0],"id":10,"left_children":[1,3,5,7,9,11,13,15,17,19,21,23,25,27,29,31,33,35,-1,37,39,-1,-1,-1,41,43,45,47,49,51,53,55,57,59,61,-1,63,65,67,69,71,73,75,77,79,81,-1,83,85,87,89,91,-1,93,-1,-1,-1,-1,-1,-1,-1,-1,-1,-1,-1,-1,-1,-1,-1,-1,-1,-1,-1,-1,-1,-1,-1,-1,-1,-1,-1,-1,-1,-1,-1,-1,-1,-1,-1,-1,-1,-1,-1,-1,-1],"loss_changes":[3.897945E4,5.40751E3,2.5700582E4,9.182461E2,2.2687966E3,4.6677153E3,4.5209305E4,5.990547E2,2.1308643E2,3.4762112E3,2.7341162E2,3.3248335E3,5.1795186E3,1.0057479E4,6.846508E3,4.8558203E2,5.2310547E1,9.203025E1,0E0,2.9562273E3,7.726504E2,0E0,0E0,0E0,2.5892686E3,6.4746724E3,1.6891729E3,7.683075E3,1.0331342E4,8.263158E3,7.6895E3,4.2031006E2,7.680045E1,5.984375E0,2.7211548E1,0E0,2.5095367E1,7.2519385E2,2.4544146E3,3.1665045E2,6.8388184E2,4.954498E2,8.9332227E2,4.7641357E1,2.1415166E3,5.723587E3,0E0,5.8694214E2,5.271083E3,8.1374585E2,4.913324E3,2.6052712E3,0E0,7.539598E3,0E0,0E0,0E0,0E0,0E0,0E0,0E0,0E0,0E0,0E0,0E0,0E0,0E0,0E0,0E0,0E0,0E0,0E0,0E0,0E0,0E0,0E0,0E0,0E0,0E0,0E0,0E0,0E0,0E0,0E0,0E0,0E0,0E0,0E0,0E0,0E0,0E0,0E0,0E0,0E0,0E0],"parents":[2147483647,0,0,1,1,2,2,3,3,4,4,5,5,6,6,7,7,8,8,9,9,10,10,11,11,12,12,13,13,14,14,15,15,16,16,17,17,19,19,20,20,24,24,25,25,26,26,27,27,28,28,29,29,30,30,31,31,32,32,33,33,34,34,36,36,37,37,38,38,39,39,40,40,41,41,42,42,43,43,44,44,45,45,47,47,48,48,49,49,50,50,51,51,53,53],"right_children":[2,4,6,8,10,12,14,16,18,20,22,24,26,28,30,32,34,36,-1,38,40,-1,-1,-1,42,44,46,48,50,52,54,56,58,60,62,-1,64,66,68,70,72,74,76,78,80,82,-1,84,86,88,90,92,-1,94,-1,-1,-1,-1,-1,-1,-1,-1,-1,-1,-1,-1,-1,-1,-1,-1,-1,-1,-1,-1,-1,-1,-1,-1,-1,-1,-1,-1,-1,-1,-1,-1,-1,-1,-1,-1,-1,-1,-1,-1,-1],"split_conditions":[2.7948E2,1.996E2,6.43E0,7.42E0,7.54E0,3.4912E2,6.136E2,6.15E0,2.7902666E1,6.86E0,3.396872E1,5.64E0,1.4592258E1,4.0141613E1,3.738029E1,1.8448E2,7.2E0,8.048E1,-1.2498032E0,6.23E0,3.4830097E1,9.5304996E-2,1.5298312E0,-2.637472E0,3.0942387E1,2.86053E1,6.2E0,3.2850376E1,3.2612E2,7.9376E2,2.2763119E1,5.2540646E1,5.87E0,5.863333E0,1.4644E2,-6.665294E-1,7.54E0,2.3188E2,4.0988194E1,3.321817E1,4.7923485E1,2.876E2,4.495817E1,5.2004E2,6.14E0,6.14E0,-2.7533128E0,2.2956055E1,1.4546667E1,2.876E2,7.91E0,6.524E2,7.3115845E0,7.16E0,8.854529E0,-1.7171444E0,-3.0618754E-1,-4.054686E-1,3.9907646E-1,-6.23744E-1,-2.1713278E0,-1.4397267E0,-4.9699363E-1,-1.4315249E-1,3.160185E-1,1.8204499E-2,-1.7140671E0,-5.2921647E-1,1.3169078E0,-1.4365802E0,-2.2149567E-1,-2.6149466E0,5.8918383E-2,7.7683944E-1,-1.127434E0,1.8018554E0,-7.326088E-1,-1.7557408E0,-4.051032E-1,3.808389E-1,3.126623E0,-1.5405524E0,4.031796E0,-1.7473685E0,-7.2902125E-1,2.2370145E0,3.5723135E-1,3.9051554E-1,-1.7758945E0,3.3880322E0,-2.9017648E-1,2.709048E0,-7.598443E-1,-2.8615305E0,4.7710915E0],"split_indices":[0,0,1,1,1,0,0,1,4,1,4,1,5,5,4,0,1,0,0,1,4,0,0,0,4,4,1,4,0,0,5,5,1,5,0,0,1,0,4,4,4,0,5,0,1,1,0,4,5,0,1,0,0,1,0,0,0,0,0,0,0,0,0,0,0,0,0,0,0,0,0,0,0,0,0,0,0,0,0,0,0,0,0,0,0,0,0,0,0,0,0,0,0,0,0],"split_type":[0,0,0,0,0,0,0,0,0,0,0,0,0,0,0,0,0,0,0,0,0,0,0,0,0,0,0,0,0,0,0,0,0,0,0,0,0,0,0,0,0,0,0,0,0,0,0,0,0,0,0,0,0,0,0,0,0,0,0,0,0,0,0,0,0,0,0,0,0,0,0,0,0,0,0,0,0,0,0,0,0,0,0,0,0,0,0,0,0,0,0,0,0,0,0],"sum_hessian":[4.28E2,1.59E2,2.69E2,9.2E1,6.7E1,9E1,1.79E2,8E1,1.2E1,6.1E1,6E0,2.3E1,6.7E1,1.57E2,2.2E1,2.1E1,5.9E1,6E0,6E0,4.1E1,2E1,2E0,4E0,2E0,2.1E1,2E1,4.7E1,1.19E2,3.8E1,9E0,1.3E1,1.8E1,3E0,5.4E1,5E0,3E0,3E0,1.4E1,2.7E1,9E0,1.1E1,6E0,1.5E1,9E0,1.1E1,3.6E1,1.1E1,2.9E1,9E1,7E0,3.1E1,7E0,2E0,5E0,8E0,1.5E1,3E0,2E0,1E0,1E0,5.3E1,3E0,2E0,2E0,1E0,3E0,1.1E1,1.4E1,1.3E1,5E0,4E0,1E1,1E0,1E0,5E0,1.4E1,1E0,8E0,1E0,6E0,5E0,3.5E1,1E0,9E0,2E1,1.8E1,7.2E1,2E0,5E0,2.7E1,4E0,3E0,4E0,1E0,4E0],"tree_param":{"num_deleted":"0","num_feature":"6","num_nodes":"95","size_leaf_vector":"1"}},{"base_weights":[2.4726103E-1,-1.180958E1,7.3232064E0,-1.5419327E1,-7.5219803E0,-2.8141072E0,1.2243488E1,-1.6370693E1,-3.9782462E0,-3.2674167E0,-1.3592559E1,9.533552E0,-7.1307206E0,7.4945965E0,2.9389576E1,-1.2246608E1,-1.8240574E1,8.1843776E-1,-6.8849607E0,-1.3606509E1,3.8650892E0,-1.749798E1,5.5963573E0,-2.7297595E0,1.7073523E1,6.0556483E0,-1.1998926E1,2.4030585E0,2.2036034E1,-3.1257656E0,3.1746113E1,-1.4301493E1,-2.3284485E0,-1.9407373E1,-1.2021219E1,-3.7314465E0,-9.845831E-1,-1.5845905E1,-1.2472944E0,-3.7628853E0,1.0726859E1,-2.7943685E0,-1.4328593E1,1.2755336E1,-1.5099268E0,1.2157711E0,-1.0846919E1,6.899953E0,3.1183887E1,-1.2365508E1,2.057699E1,-4.046949E0,-1.9789026E1,2.0917667E1,-4.4838715E0,7.6097326E0,3.9409126E1,5.310587E1,2.145814E1,-8.1270754E-1,-1.7690257E0,-7.2030324E-1,4.947146E-1,-2.0253985E0,-1.2159946E0,-7.616219E-1,-1.7825917E0,-6.1653966E-1,3.0021763E-1,-1.7460188E0,-8.8024485E-1,-6.156892E-1,6.7407495E-1,-1.431029E0,8.828845E-1,6.069811E-1,1.4043051E0,-2.0069538E-1,-1.9944896E0,1.2327194E-1,1.532781E0,-1.1734824E0,-2.7597436E-1,-1.4838593E0,1.0964079E0,1.2670101E0,3.7273254E0,-1.568354E0,-5.015971E-2,2.88553E-1,3.027418E0,-1.3989118E0,2.0394413E-1,-2.6374035E0,-1.045743E0,2.7334561E0,-9.305663E-1,-1.3199604E0,-8.000536E-2,-5.050236E-2,2.5070643E0,-2.4459934E-2,4.7923827E0,6.059465E0,-1.4635351E0,-4.338766E-1,3.6030796E0],"categories":[],"categories_nodes":[],"categories_segments":[],"categories_sizes":[],"default_left":[0,0,0,0,0,0,0,0,0,0,0,0,0,0,0,0,0,0,0,0,0,0,0,0,0,0,0,0,0,0,0,0,0,0,0,0,0,0,0,0,0,0,0,0,0,0,0,0,0,0,0,0,0,0,0,0,0,0,0,0,0,0,0,0,0,0,0,0,0,0,0,0,0,0,0,0,0,0,0,0,0,0,0,0,0,0,0,0,0,0,0,0,0,0,0,0,0,0,0,0,0,0,0,0,0,0,0],"id":11,"left_children":[1,3,5,7,9,11,13,15,17,19,21,23,25,27,29,31,33,-1,35,37,39,41,43,45,47,49,51,53,55,-1,57,59,61,63,65,67,-1,69,71,73,75,-1,77,79,-1,-1,81,83,85,87,89,91,93,95,97,99,101,103,105,-1,-1,-1,-1,-1,-1,-1,-1,-1,-1,-1,-1,-1,-1,-1,-1,-1,-1,-1,-1,-1,-1,-1,-1,-1,-1,-1,-1,-1,-1,-1,-1,-1,-1,-1,-1,-1,-1,-1,-1,-1,-1,-1,-1,-1,-1,-1,-1],"loss_changes":[3.7368504E4,2.3913164E3,1.3800901E4,8.818379E2,1.9184897E3,4.9182876E3,1.492477E4,3.9353906E2,3.3917532E2,3.4447974E3,2.4210898E3,2.2657668E3,4.4378506E3,1.0830674E4,6.709008E3,5.373589E2,1.5130664E2,0E0,2.862085E1,5.0610205E2,1.5059233E3,4.603745E2,1.0815535E3,1.3403134E3,1.938124E3,5.336944E3,3.017249E3,1.4119763E4,9.224027E3,0E0,7.4306367E3,3.3747363E2,2.4842746E2,1.7550781E1,1.4550061E2,1.0045611E2,0E0,2.8229736E1,1.9837439E2,1.9856843E3,1.4641638E2,0E0,1.482417E3,1.293133E2,0E0,0E0,1.7879456E1,1.0461736E3,2.0416748E2,3.4641675E2,1.7997739E3,1.6018398E3,1.2604111E3,6.0725605E3,2.59012E3,3.1298638E3,5.7515938E3,6.974414E3,1.06823545E4,0E0,0E0,0E0,0E0,0E0,0E0,0E0,0E0,0E0,0E0,0E0,0E0,0E0,0E0,0E0,0E0,0E0,0E0,0E0,0E0,0E0,0E0,0E0,0E0,0E0,0E0,0E0,0E0,0E0,0E0,0E0,0E0,0E0,0E0,0E0,0E0,0E0,0E0,0E0,0E0,0E0,0E0,0E0,0E0,0E0,0E0,0E0,0E0],"parents":[2147483647,0,0,1,1,2,2,3,3,4,4,5,5,6,6,7,7,8,8,9,9,10,10,11,11,12,12,13,13,14,14,15,15,16,16,18,18,19,19,20,20,21,21,22,22,23,23,24,24,25,25,26,26,27,27,28,28,30,30,31,31,32,32,33,33,34,34,35,35,37,37,38,38,39,39,40,40,42,42,43,43,46,46,47,47,48,48,49,49,50,50,51,51,52,52,53,53,54,54,55,55,56,56,57,57,58,58],"right_children":[2,4,6,8,10,12,14,16,18,20,22,24,26,28,30,32,34,-1,36,38,40,42,44,46,48,50,52,54,56,-1,58,60,62,64,66,68,-1,70,72,74,76,-1,78,80,-1,-1,82,84,86,88,90,92,94,96,98,100,102,104,106,-1,-1,-1,-1,-1,-1,-1,-1,-1,-1,-1,-1,-1,-1,-1,-1,-1,-1,-1,-1,-1,-1,-1,-1,-1,-1,-1,-1,-1,-1,-1,-1,-1,-1,-1,-1,-1,-1,-1,-1,-1,-1,-1,-1,-1,-1,-1,-1],"split_conditions":[2.7792E2,1.996E2,6.43E0,7.79E0,6.86E0,3.4912E2,5.7448E2,6.33E0,8E0,6.3E0,7.61E0,3.38491E1,1.4592258E1,4.0141613E1,8.584193E0,4.972149E1,7.2E0,8.1843776E-1,9.876E1,4.732869E1,4.0988194E1,7E0,7.89E0,5.85E0,1.5779463E1,2.6822279E1,3.2576653E1,1.7929678E1,7.42E0,-3.1257656E0,6.84E0,1.4644E2,1.5816E2,1.5924E2,7.54E0,8.048E1,-9.845831E-1,6.2E0,2.1856E2,3.2433334E1,2.2156E2,-2.7943685E0,7.17E0,3.396872E1,-1.5099268E0,1.2157711E0,3.2292E2,2.9252E2,4.0835915E1,5.76E0,6.14E0,1.8514408E1,2.687871E1,7.55E0,3.6224E2,5.683656E1,3.4532E2,3.1956182E1,7.16E0,-8.1270754E-1,-1.7690257E0,-7.2030324E-1,4.947146E-1,-2.0253985E0,-1.2159946E0,-7.616219E-1,-1.7825917E0,-6.1653966E-1,3.0021763E-1,-1.7460188E0,-8.8024485E-1,-6.156892E-1,6.7407495E-1,-1.431029E0,8.828845E-1,6.069811E-1,1.4043051E0,-2.0069538E-1,-1.9944896E0,1.2327194E-1,1.532781E0,-1.1734824E0,-2.7597436E-1,-1.4838593E0,1.0964079E0,1.2670101E0,3.7273254E0,-1.568354E0,-5.015971E-2,2.88553E-1,3.027418E0,-1.3989118E0,2.0394413E-1,-2.6374035E0,-1.045743E0,2.7334561E0,-9.305663E-1,-1.3199604E0,-8.000536E-2,-5.050236E-2,2.5070643E0,-2.4459934E-2,4.7923827E0,6.059465E0,-1.4635351E0,-4.338766E-1,3.6030796E0],"split_indices":[0,0,1,1,1,0,0,1,1,1,1,4,5,5,5,4,1,0,0,4,4,1,1,1,5,4,4,5,1,0,1,0,0,0,1,0,0,1,0,5,0,0,1,4,0,0,0,0,4,1,1,5,5,1,0,5,0,5,1,0,0,0,0,0,0,0,0,0,0,0,0,0,0,0,0,0,0,0,0,0,0,0,0,0,0,0,0,0,0,0,0,0,0,0,0,0,0,0,0,0,0,0,0,0,0,0,0],"split_type":[0,0,0,0,0,0,0,0,0,0,0,0,0,0,0,0,0,0,0,0,0,0,0,0,0,0,0,0,0,0,0,0,0,0,0,0,0,0,0,0,0,0,0,0,0,0,0,0,0,0,0,0,0,0,0,0,0,0,0,0,0,0,0,0,0,0,0,0,0,0,0,0,0,0,0,0,0,0,0,0,0,0,0,0,0,0,0,0,0,0,0,0,0,0,0,0,0,0,0,0,0,0,0,0,0,0,0],"sum_hessian":[4.36E2,1.61E2,2.75E2,8.6E1,7.5E1,9E1,1.85E2,7.9E1,7E0,4.5E1,3E1,2.3E1,6.7E1,1.46E2,3.9E1,2.7E1,5.2E1,1E0,6E0,1.8E1,2.7E1,2.5E1,5E0,9E0,1.4E1,1.8E1,4.9E1,1.09E2,3.7E1,1E0,3.8E1,2.2E1,5E0,4.2E1,1E1,4E0,2E0,1.5E1,3E0,1.3E1,1.4E1,4E0,2.1E1,4E0,1E0,3E0,6E0,9E0,5E0,8E0,1E1,2.5E1,2.4E1,2.9E1,8E1,2.1E1,1.6E1,1.1E1,2.7E1,9E0,1.3E1,3E0,2E0,3.6E1,6E0,7E0,3E0,3E0,1E0,1.1E1,4E0,2E0,1E0,7E0,6E0,7E0,7E0,7E0,1.4E1,1E0,3E0,5E0,1E0,1E0,8E0,2E0,3E0,6E0,2E0,4E0,6E0,9E0,1.6E1,1.3E1,1.1E1,2.4E1,5E0,2.3E1,5.7E1,1.5E1,6E0,3E0,1.3E1,1E1,1E0,1E1,1.7E1],"tree_param":{"num_deleted":"0","num_feature":"6","num_nodes":"107","size_leaf_vector":"1"}},{"base_weights":[3.7439764E-1,-8.306131E-1,6.585006E1,-1.35878935E1,4.072439E0,3.217369E0,8.61914E0,-1.06656E1,-1.5783986E1,3.1399412E0,4.4653793E1,1.5714699E0,-1.0888646E0,-1.273066E1,8.320839E0,-1.2793751E1,-1.9492037E1,-2.6420436E0,1.1228308E1,7.7583504E0,2.6234926E1,-9.671881E0,-1.7212254E1,3.3536925E0,1.6578286E0,-1.6269274E1,-3.3284237E0,-7.205178E-1,-2.0160058E0,-5.8459272E0,6.1081305E0,4.6381407E0,2.2252586E1,3.8272583E0,1.4397379E0,-1.0800161E0,1.2652406E0,-9.239912E-1,-1.9399525E0,-2.0197411E-1,5.2019864E-1,-5.5343914E-1,-1.6859474E0,-1.1442887E0,2.1591686E-1,-2.403275E0,-4.009142E-1,-3.8175085E-1,1.36887E0,1.6493129E0,-5.475808E-1,1.660181E0,5.2978306E0,-1.0225728E0,1.2385334E0],"categories":[],"categories_nodes":[],"categories_segments":[],"categories_sizes":[],"default_left":[0,0,0,0,0,0,0,0,0,0,0,0,0,0,0,0,0,0,0,0,0,0,0,0,0,0,0,0,0,0,0,0,0,0,0,0,0,0,0,0,0,0,0,0,0,0,0,0,0,0,0,0,0,0,0],"id":12,"left_children":[1,3,5,7,9,11,-1,13,15,17,19,-1,-1,21,23,25,27,29,31,-1,33,35,37,39,-1,41,43,-1,-1,45,47,49,51,-1,53,-1,-1,-1,-1,-1,-1,-1,-1,-1,-1,-1,-1,-1,-1,-1,-1,-1,-1,-1,-1],"loss_changes":[3.4927996E4,2.7264416E4,9.914949E3,6.0818945E2,1.1780032E4,6.999743E2,0E0,2.262378E3,4.9351562E2,1.4480613E4,2.2102988E3,0E0,0E0,5.1893506E2,1.9049716E2,1.2617275E3,8.456445E1,5.109959E3,9.268874E3,0E0,1.7357539E3,9.426658E2,1.5206592E2,6.0165077E1,0E0,9.042871E1,5.5905347E2,0E0,0E0,4.3465527E3,3.7391143E3,9.922173E3,7.454426E3,0E0,5.097054E2,0E0,0E0,0E0,0E0,0E0,0E0,0E0,0E0,0E0,0E0,0E0,0E0,0E0,0E0,0E0,0E0,0E0,0E0,0E0,0E0],"parents":[2147483647,0,0,1,1,2,2,3,3,4,4,5,5,7,7,8,8,9,9,10,10,13,13,14,14,15,15,16,16,17,17,18,18,20,20,21,21,22,22,23,23,25,25,26,26,29,29,30,30,31,31,32,32,34,34],"right_children":[2,4,6,8,10,12,-1,14,16,18,20,-1,-1,22,24,26,28,30,32,-1,34,36,38,40,-1,42,44,-1,-1,46,48,50,52,-1,54,-1,-1,-1,-1,-1,-1,-1,-1,-1,-1,-1,-1,-1,-1,-1,-1,-1,-1,-1,-1],"split_conditions":[7.7884E2,2.2932E2,1.4652904E1,2.8377666E1,5.9834194E1,1.08396E3,8.61914E0,2.5838E1,2.0050753E1,3.8252193E1,6.0198387E1,1.5714699E0,-1.0888646E0,4.116525E1,2.174E2,1.8256E2,2.9277666E1,3.3262257E1,4.4716E2,7.7583504E0,3.5488E2,3.8798023E1,3.1956182E1,4.8977783E1,1.6578286E0,5.9682794E0,3.7906E1,-7.205178E-1,-2.0160058E0,3.4432335E1,3.0732E2,1.807699E1,3.134301E1,3.8272583E0,3.9656E2,-1.0800161E0,1.2652406E0,-9.239912E-1,-1.9399525E0,-2.0197411E-1,5.2019864E-1,-5.5343914E-1,-1.6859474E0,-1.1442887E0,2.1591686E-1,-2.403275E0,-4.009142E-1,-3.8175085E-1,1.36887E0,1.6493129E0,-5.475808E-1,1.660181E0,5.2978306E0,-1.0225728E0,1.2385334E0],"split_indices":[0,0,5,3,5,0,0,3,5,4,5,0,0,4,0,0,3,5,0,0,0,4,5,4,0,5,3,0,0,3,0,5,5,0,0,0,0,0,0,0,0,0,0,0,0,0,0,0,0,0,0,0,0,0,0],"split_type":[0,0,0,0,0,0,0,0,0,0,0,0,0,0,0,0,0,0,0,0,0,0,0,0,0,0,0,0,0,0,0,0,0,0,0,0,0,0,0,0,0,0,0,0,0,0,0,0,0,0,0,0,0,0,0],"sum_hessian":[4.41E2,4.34E2,7E0,1.2E2,3.14E2,2E0,5E0,5.4E1,6.6E1,3.08E2,6E0,1E0,1E0,4.9E1,5E0,3.9E1,2.7E1,1.8E2,1.28E2,1E0,5E0,3.1E1,1.8E1,4E0,1E0,2.8E1,1.1E1,2E0,2.5E1,1.32E2,4.8E1,8.1E1,4.7E1,3E0,2E0,3E1,1E0,5E0,1.3E1,1E0,3E0,2E0,2.6E1,4E0,7E0,1.1E1,1.21E2,2.1E1,2.7E1,3.7E1,4.4E1,4.1E1,6E0,1E0,1E0],"tree_param":{"num_deleted":"0","num_feature":"6","num_nodes":"55","size_leaf_vector":"1"}},{"base_weights":[-7.3327863E-1,7.640591E0,-4.3705053E0,4.6977615E0,3.6922646E1,-9.707969E0,-1.6541857E0,-5.1515408E0,8.561714E0,6.2321278E1,1.6433168E1,-7.6415634E0,-1.4970072E1,-4.785231E0,1.21494665E1,-1.3276989E1,2.5335988E-1,7.4775577E0,6.9411454E0,1.2325566E0,7.1738815E0,-7.7128553E-1,2.0984438E1,-5.1163096E0,-1.25884285E1,-8.462944E-2,-1.546183E0,-1.5900061E1,-2.4318838E0,8.617286E0,5.0485816E0,1.523558E0,-1.6642231E1,3.7155488E0,-9.598402E0,1.0795005E1,-5.685031E0,2.886014E0,7.862625E0,6.263119E0,-6.7367377E0,1.9402809E0,-1.631762E1,-2.7128174E0,-1.8534369E1,-9.482493E0,1.5121427E0,2.6175598E1,3.4764652E0,-1.2403002E0,-2.3079746E0,1.2934146E0,8.162676E-2,4.6601295E-1,-1.3382134E0,2.4389255E-1,2.7776124E0,-8.041999E-1,3.4656653E-1,-5.3261824E-2,1.6524178E0,1.0828971E0,2.2709846E-1,-7.8980803E-1,2.3218934E-1,-1.4043202E0,2.2604833E0,-1.7529529E0,3.3543396E-1,1.985994E0,-1.1199358E0,-1.9185892E0,-7.578401E-1,2.76873E0,-1.0806108E0,4.0497184E0,-2.7851442E-1,4.649124E-1,3.2576237E0,-4.8944026E-1,1.5743062E0],"categories":[],"categories_nodes":[],"categories_segments":[],"categories_sizes":[],"default_left":[0,0,0,0,0,0,0,0,0,0,0,0,0,0,0,0,0,0,0,0,0,0,0,0,0,0,0,0,0,0,0,0,0,0,0,0,0,0,0,0,0,0,0,0,0,0,0,0,0,0,0,0,0,0,0,0,0,0,0,0,0,0,0,0,0,0,0,0,0,0,0,0,0,0,0,0,0,0,0,0,0],"id":13,"left_children":[1,3,5,7,9,11,13,15,17,19,21,23,25,27,29,31,33,-1,35,-1,-1,-1,37,39,41,-1,-1,43,45,47,-1,-1,49,51,53,55,57,-1,59,61,63,65,67,69,71,73,75,77,79,-1,-1,-1,-1,-1,-1,-1,-1,-1,-1,-1,-1,-1,-1,-1,-1,-1,-1,-1,-1,-1,-1,-1,-1,-1,-1,-1,-1,-1,-1,-1,-1],"loss_changes":[1.337385E4,1.1287436E4,4.4204077E3,4.687089E3,5.2207197E3,1.00558984E3,8.87499E3,1.5404673E3,8.9237295E3,1.4699629E3,1.0410103E3,8.849927E2,1.8138818E2,4.3295615E3,4.710564E3,1.5968779E3,7.8605383E2,0E0,4.2947466E3,0E0,0E0,0E0,4.964878E2,1.00104944E3,1.3861692E3,0E0,0E0,9.571582E2,3.879622E3,3.1585103E3,0E0,0E0,6.851318E1,4.4380652E2,3.8606525E2,9.439262E3,4.807967E2,0E0,2.9966443E2,1.0300003E2,5.022666E2,2.299193E3,5.356133E2,1.3718062E3,2.5916016E1,2.7591157E3,1.5190482E4,9.5081494E2,3.0548325E3,0E0,0E0,0E0,0E0,0E0,0E0,0E0,0E0,0E0,0E0,0E0,0E0,0E0,0E0,0E0,0E0,0E0,0E0,0E0,0E0,0E0,0E0,0E0,0E0,0E0,0E0,0E0,0E0,0E0,0E0,0E0,0E0],"parents":[2147483647,0,0,1,1,2,2,3,3,4,4,5,5,6,6,7,7,8,8,9,9,10,10,11,11,12,12,13,13,14,14,15,15,16,16,18,18,22,22,23,23,24,24,27,27,28,28,29,29,32,32,33,33,34,34,35,35,36,36,38,38,39,39,40,40,41,41,42,42,43,43,44,44,45,45,46,46,47,47,48,48],"right_children":[2,4,6,8,10,12,14,16,18,20,22,24,26,28,30,32,34,-1,36,-1,-1,-1,38,40,42,-1,-1,44,46,48,-1,-1,50,52,54,56,58,-1,60,62,64,66,68,70,72,74,76,78,80,-1,-1,-1,-1,-1,-1,-1,-1,-1,-1,-1,-1,-1,-1,-1,-1,-1,-1,-1,-1,-1,-1,-1,-1,-1,-1,-1,-1,-1,-1,-1,-1],"split_conditions":[2.4939E1,2.3349333E1,3.321817E1,6.87E0,4.4728085E1,6.0796665E1,4.4779667E1,3.0942387E1,6.88E0,6.52E0,2.3425E1,2.9856634E1,5.29E0,6.12E0,1.8514408E1,1.999414E1,6.62E0,7.4775577E0,8E0,1.2325566E0,7.1738815E0,-7.7128553E-1,7E0,4.5279667E1,6.04E0,-8.462944E-2,-1.546183E0,1.4340968E1,3.8108818E1,3.4947838E1,5.0485816E0,1.523558E0,1.6212334E1,2.9494194E1,3.698302E1,7.48E0,8.53E0,2.886014E0,8.35E0,3.4985806E1,7.17E0,5.56E0,5.4769E1,4.5667194E1,4.7403397E1,2.7138334E1,4.0326828E1,4.8975334E1,6.53E0,-1.2403002E0,-2.3079746E0,1.2934146E0,8.162676E-2,4.6601295E-1,-1.3382134E0,2.4389255E-1,2.7776124E0,-8.041999E-1,3.4656653E-1,-5.3261824E-2,1.6524178E0,1.0828971E0,2.2709846E-1,-7.8980803E-1,2.3218934E-1,-1.4043202E0,2.2604833E0,-1.7529529E0,3.3543396E-1,1.985994E0,-1.1199358E0,-1.9185892E0,-7.578401E-1,2.76873E0,-1.0806108E0,4.0497184E0,-2.7851442E-1,4.649124E-1,3.2576237E0,-4.8944026E-1,1.5743062E0],"split_indices":[3,3,4,1,4,3,3,4,1,1,3,4,1,1,5,4,1,0,1,0,0,0,1,3,1,0,0,5,4,4,0,0,3,5,4,1,1,0,1,5,1,1,3,4,4,3,4,3,1,0,0,0,0,0,0,0,0,0,0,0,0,0,0,0,0,0,0,0,0,0,0,0,0,0,0,0,0,0,0,0,0],"split_type":[0,0,0,0,0,0,0,0,0,0,0,0,0,0,0,0,0,0,0,0,0,0,0,0,0,0,0,0,0,0,0,0,0,0,0,0,0,0,0,0,0,0,0,0,0,0,0,0,0,0,0,0,0,0,0,0,0,0,0,0,0,0,0,0,0,0,0,0,0,0,0,0,0,0,0,0,0,0,0,0,0],"sum_hessian":[4.37E2,1.32E2,3.05E2,1.21E2,1.1E1,1.02E2,2.03E2,3.4E1,8.7E1,4E0,7E0,7.5E1,2.7E1,1.66E2,3.7E1,1.3E1,2.1E1,1E0,8.6E1,1E0,3E0,1E0,6E0,5.1E1,2.4E1,1E0,2.6E1,2.8E1,1.38E2,3.5E1,2E0,1E0,1.2E1,1.6E1,5E0,6.6E1,2E1,3E0,3E0,6E0,4.5E1,5E0,1.9E1,5E0,2.3E1,4.9E1,8.9E1,7E0,2.8E1,9E0,3E0,3E0,1.3E1,1E0,4E0,4.5E1,2.1E1,1.6E1,4E0,2E0,1E0,2E0,4E0,4E1,5E0,3E0,2E0,1.8E1,1E0,1E0,4E0,2.1E1,2E0,1E0,4.8E1,8E0,8.1E1,2E0,5E0,1.7E1,1.1E1],"tree_param":{"num_deleted":"0","num_feature":"6","num_nodes":"81","size_leaf_vector":"1"}},{"base_weights":[-2.1718225E-1,-9.721653E0,6.349027E0,-6.164199E0,-1.3375127E1,2.3579046E1,7.544232E-1,-7.971354E0,1.0785108E1,-1.5660067E1,-6.6341953E0,3.2327953E1,-9.668293E-1,-7.420194E0,4.999189E0,-1.2997957E1,-4.42341E0,-8.932692E-1,2.213279E1,-7.552556E0,-1.8555069E1,-9.258197E0,-1.5237266E0,1.2092521E1,4.1076454E1,-4.038521E0,1.4713906E0,-8.634448E0,3.5146039E0,-1.7228507E0,1.6987766E1,7.8052694E-1,-1.3891973E1,-1.0294159E1,3.2495165E0,-1.4542398E0,3.2376305E1,-1.4848423E0,2.1695084E1,-2.0031254E1,-1.2171297E1,-5.865689E0,-1.4870075E0,2.018558E0,-1.4931002E0,3.2432384E0,4.304856E0,3.8484945E0,4.492772E1,-9.048465E0,3.068267E-1,1.5541282E1,-9.664976E0,-5.9987803E0,1.3576169E1,1.1605523E1,2.2586258E1,-1.4419211E0,1.2262116E-1,-1.2546401E0,5.5127144E-3,-8.5693485E-1,5.5666715E-1,8.435734E-1,3.6252518E0,2.4929E0,5.996672E-1,-1.4508424E0,-2.5682838E0,-1.7093678E0,-2.8457054E-1,-1.9394423E-1,-1.5689199E0,-3.899865E-1,8.9119476E-1,-1.4937238E0,1.5793056E0,-5.2538055E-1,8.633863E-1,3.3069637E0,8.289574E0,-1.4031696E-1,-1.0088819E0,-4.4605157E-1,5.0128037E-1,7.378902E-2,2.2574031E0,-7.9762554E-1,-1.6769389E0,-1.2060041E0,1.0161113E0,3.5416563E0,-1.2199398E0,1.4612432E0,-3.0280142E0,-1.0935866E0,2.8780828E0],"categories":[],"categories_nodes":[],"categories_segments":[],"categories_sizes":[],"default_left":[0,0,0,0,0,0,0,0,0,0,0,0,0,0,0,0,0,0,0,0,0,0,0,0,0,0,0,0,0,0,0,0,0,0,0,0,0,0,0,0,0,0,0,0,0,0,0,0,0,0,0,0,0,0,0,0,0,0,0,0,0,0,0,0,0,0,0,0,0,0,0,0,0,0,0,0,0,0,0,0,0,0,0,0,0,0,0,0,0,0,0,0,0,0,0,0,0],"id":14,"left_children":[1,3,5,7,9,11,13,15,17,19,21,23,25,27,29,31,33,-1,35,37,39,41,43,45,47,49,-1,51,-1,53,55,-1,57,59,61,-1,63,-1,65,67,69,71,-1,73,-1,-1,75,77,79,81,83,85,87,89,91,93,95,-1,-1,-1,-1,-1,-1,-1,-1,-1,-1,-1,-1,-1,-1,-1,-1,-1,-1,-1,-1,-1,-1,-1,-1,-1,-1,-1,-1,-1,-1,-1,-1,-1,-1,-1,-1,-1,-1,-1,-1],"loss_changes":[2.6273229E4,2.1530488E3,2.3984602E4,2.812044E3,1.1899287E3,1.3130977E4,6.5952686E3,1.3870669E3,2.2114673E3,1.315081E3,2.9432007E2,7.469621E3,8.7825085E2,3.6630718E3,1.01027295E4,7.221782E2,2.2406965E3,0E0,2.7249268E3,4.163102E3,1.8025488E2,1.9835193E2,4.5757056E2,2.236384E3,4.271711E3,3.293255E2,0E0,1.7446875E3,0E0,5.3802607E3,1.093834E3,0E0,2.727495E2,6.5334644E2,6.501978E2,0E0,1.5817676E2,0E0,5.3578247E1,7.198291E2,4.5630164E2,3.938364E2,0E0,3.6113934E2,0E0,0E0,2.8885889E3,2.1959206E2,9.865051E3,4.1520386E1,2.2427472E2,2.9566852E2,6.100796E2,6.391301E3,1.0565135E4,3.591126E3,4.675502E3,0E0,0E0,0E0,0E0,0E0,0E0,0E0,0E0,0E0,0E0,0E0,0E0,0E0,0E0,0E0,0E0,0E0,0E0,0E0,0E0,0E0,0E0,0E0,0E0,0E0,0E0,0E0,0E0,0E0,0E0,0E0,0E0,0E0,0E0,0E0,0E0,0E0,0E0,0E0,0E0],"parents":[2147483647,0,0,1,1,2,2,3,3,4,4,5,5,6,6,7,7,8,8,9,9,10,10,11,11,12,12,13,13,14,14,15,15,16,16,18,18,19,19,20,20,21,21,22,22,23,23,24,24,25,25,27,27,29,29,30,30,32,32,33,33,34,34,36,36,38,38,39,39,40,40,41,41,43,43,46,46,47,47,48,48,49,49,50,50,51,51,52,52,53,53,54,54,55,55,56,56],"right_children":[2,4,6,8,10,12,14,16,18,20,22,24,26,28,30,32,34,-1,36,38,40,42,44,46,48,50,-1,52,-1,54,56,-1,58,60,62,-1,64,-1,66,68,70,72,-1,74,-1,-1,76,78,80,82,84,86,88,90,92,94,96,-1,-1,-1,-1,-1,-1,-1,-1,-1,-1,-1,-1,-1,-1,-1,-1,-1,-1,-1,-1,-1,-1,-1,-1,-1,-1,-1,-1,-1,-1,-1,-1,-1,-1,-1,-1,-1,-1,-1,-1],"split_conditions":[3.0472E2,6.62E0,2.4939E1,2.7792E2,7.42E0,7.7E0,3.0986376E1,1.5012E2,3.38491E1,3.0725763E1,3.593671E1,1.5178667E1,5.9752E2,7.7396E2,4.2504665E1,1.1407666E1,6.3E0,-8.932692E-1,5.62E0,2.4412E2,4.7043076E1,3.396872E1,8E0,1.01238E1,6.21E0,5.5653957E1,1.4713906E0,3.0881332E1,3.5146039E0,4.8977783E1,6.53E0,7.8052694E-1,5.6458107E1,4.9147335E1,2.2764269E1,-1.4542398E0,4.0326828E1,-1.4848423E0,2.6516E2,3.698302E1,1.3768E2,2.876E2,-1.4870075E0,7.61E0,-1.4931002E0,3.2432384E0,3.9656E2,5.25E0,5.628E2,3.4532E2,5.1104E2,4.1872E2,2.9614817E1,5.4224E2,5.3728817E1,6.47E0,3.3884163E1,-1.4419211E0,1.2262116E-1,-1.2546401E0,5.5127144E-3,-8.5693485E-1,5.5666715E-1,8.435734E-1,3.6252518E0,2.4929E0,5.996672E-1,-1.4508424E0,-2.5682838E0,-1.7093678E0,-2.8457054E-1,-1.9394423E-1,-1.5689199E0,-3.899865E-1,8.9119476E-1,-1.4937238E0,1.5793056E0,-5.2538055E-1,8.633863E-1,3.3069637E0,8.289574E0,-1.4031696E-1,-1.0088819E0,-4.4605157E-1,5.0128037E-1,7.378902E-2,2.2574031E0,-7.9762554E-1,-1.6769389E0,-1.2060041E0,1.0161113E0,3.5416563E0,-1.2199398E0,1.4612432E0,-3.0280142E0,-1.0935866E0,2.8780828E0],"split_indices":[0,1,3,0,1,1,4,0,4,4,4,3,0,0,3,3,1,0,1,0,4,4,1,3,1,4,0,3,0,4,1,0,4,4,4,0,4,0,0,4,0,0,0,1,0,0,0,1,0,0,0,0,4,0,4,1,4,0,0,0,0,0,0,0,0,0,0,0,0,0,0,0,0,0,0,0,0,0,0,0,0,0,0,0,0,0,0,0,0,0,0,0,0,0,0,0,0],"split_type":[0,0,0,0,0,0,0,0,0,0,0,0,0,0,0,0,0,0,0,0,0,0,0,0,0,0,0,0,0,0,0,0,0,0,0,0,0,0,0,0,0,0,0,0,0,0,0,0,0,0,0,0,0,0,0,0,0,0,0,0,0,0,0,0,0,0,0,0,0,0,0,0,0,0,0,0,0,0,0,0,0,0,0,0,0,0,0,0,0,0,0,0,0,0,0,0,0],"sum_hessian":[4.19E2,1.71E2,2.48E2,8.8E1,8.3E1,6E1,1.88E2,8E1,8E0,6.1E1,2.2E1,4.4E1,1.6E1,6.4E1,1.24E2,3.2E1,4.8E1,3E0,5E0,1.7E1,4.4E1,1.4E1,8E0,1.4E1,3E1,1.4E1,2E0,6.3E1,1E0,8E1,4.4E1,1E0,3.1E1,2.7E1,2.1E1,1E0,4E0,1.4E1,3E0,3.4E1,1E1,1E1,4E0,7E0,1E0,3E0,1.1E1,3E0,2.7E1,6E0,8E0,2E0,6.1E1,6.3E1,1.7E1,2.4E1,2E1,3E1,1E0,2.2E1,5E0,3E0,1.8E1,1E0,3E0,2E0,1E0,1.9E1,1.5E1,6E0,4E0,8E0,2E0,4E0,3E0,4E0,7E0,1E0,2E0,2.2E1,5E0,1E0,5E0,4E0,4E0,1E0,1E0,5.1E1,1E1,4.6E1,1.7E1,9E0,8E0,2.3E1,1E0,3E0,1.7E1],"tree_param":{"num_deleted":"0","num_feature":"6","num_nodes":"97","size_leaf_vector":"1"}},{"base_weights":[9.549204E-1,-1.019577E1,5.782565E0,-1.106549E1,-5.0397366E-1,-1.0927893E0,1.1943177E1,-1.3055375E1,-6.9643908E0,-9.416587E0,9.978071E0,4.9298444E0,-8.073602E0,8.162651E0,4.173391E1,-1.38653E1,-6.204211E-1,-1.4072495E1,-2.048923E0,-1.4123514E0,-4.7091146E0,9.515419E-1,1.4253451E0,-1.060766E1,1.2752161E1,9.670285E0,-9.635344E0,-1.9240817E0,1.3655709E1,5.5775337E1,-5.9288726E0,-1.201588E1,-1.9577063E1,9.142289E-1,-1.3430561E0,-5.609286E-1,-1.5485377E0,-9.248075E0,2.3063967E0,-8.586185E-2,-6.989906E-1,3.8911477E-1,-2.4638347E-1,7.3761004E-1,-1.158304E1,-2.1367846E0,1.5226718E1,1.6759521E1,-1.2887949E0,-1.198171E1,5.774162E0,9.442387E0,-1.0574239E1,1.660321E1,-2.9746797E0,6.3097904E1,2.1694443E0,-2.2614195E0,1.2732742E0,-1.2616171E0,1.1700639E0,-4.2768136E-1,-2.0266027E0,-2.0287576E-1,-1.3722826E0,5.551349E-1,-1.4687161E0,-1.3508384E0,-2.91383E-1,1.8385762E0,-1.1003891E0,-5.948992E-1,2.39239E0,-1.7721695E0,-7.6180345E-1,4.441932E0,-1.1612929E0,1.8907778E0,-8.098691E-2,-6.843858E-1,-2.1853511E0,8.282078E-1,3.356702E0,-6.152645E-1,4.6117783E-1,8.4002703E-1,6.7727637E0],"categories":[],"categories_nodes":[],"categories_segments":[],"categories_sizes":[],"default_left":[0,0,0,0,0,0,0,0,0,0,0,0,0,0,0,0,0,0,0,0,0,0,0,0,0,0,0,0,0,0,0,0,0,0,0,0,0,0,0,0,0,0,0,0,0,0,0,0,0,0,0,0,0,0,0,0,0,0,0,0,0,0,0,0,0,0,0,0,0,0,0,0,0,0,0,0,0,0,0,0,0,0,0,0,0,0,0],"id":15,"left_children":[1,3,5,7,9,11,13,15,17,19,21,23,25,27,29,31,33,35,37,-1,39,41,-1,43,45,47,49,51,53,55,57,59,61,-1,-1,-1,-1,63,65,-1,-1,-1,-1,-1,67,-1,69,71,-1,73,75,77,79,81,83,85,-1,-1,-1,-1,-1,-1,-1,-1,-1,-1,-1,-1,-1,-1,-1,-1,-1,-1,-1,-1,-1,-1,-1,-1,-1,-1,-1,-1,-1,-1,-1],"loss_changes":[2.369102E4,1.115499E3,1.3016465E4,9.046846E2,1.2150283E3,6.1780615E3,1.7904535E4,8.0718066E2,1.4386322E3,8.859485E1,2.1798828E2,9.736873E3,1.9775493E3,8.06029E3,1.237725E4,5.675879E2,8.731562E2,1.1641577E2,8.3654944E2,0E0,3.790921E1,3.9706726E1,0E0,5.5904443E2,4.800254E3,1.1755199E3,2.3470352E3,5.212576E3,4.65709E3,2.124957E3,1.8448159E3,1.0018252E3,9.252832E1,0E0,0E0,0E0,0E0,2.9520636E2,1.01896924E3,0E0,0E0,0E0,0E0,0E0,3.946101E2,0E0,4.345495E3,9.5578467E2,0E0,1.242604E3,6.563181E3,2.2472695E3,1.112717E3,1.1014648E4,3.9001706E2,2.216664E3,0E0,0E0,0E0,0E0,0E0,0E0,0E0,0E0,0E0,0E0,0E0,0E0,0E0,0E0,0E0,0E0,0E0,0E0,0E0,0E0,0E0,0E0,0E0,0E0,0E0,0E0,0E0,0E0,0E0,0E0,0E0],"parents":[2147483647,0,0,1,1,2,2,3,3,4,4,5,5,6,6,7,7,8,8,9,9,10,10,11,11,12,12,13,13,14,14,15,15,16,16,17,17,18,18,20,20,21,21,23,23,24,24,25,25,26,26,27,27,28,28,29,29,30,30,31,31,32,32,37,37,38,38,44,44,46,46,47,47,49,49,50,50,51,51,52,52,53,53,54,54,55,55],"right_children":[2,4,6,8,10,12,14,16,18,20,22,24,26,28,30,32,34,36,38,-1,40,42,-1,44,46,48,50,52,54,56,58,60,62,-1,-1,-1,-1,64,66,-1,-1,-1,-1,-1,68,-1,70,72,-1,74,76,78,80,82,84,86,-1,-1,-1,-1,-1,-1,-1,-1,-1,-1,-1,-1,-1,-1,-1,-1,-1,-1,-1,-1,-1,-1,-1,-1,-1,-1,-1,-1,-1,-1,-1],"split_conditions":[2.494E2,7.68E0,6.74E0,4.664704E1,7.9E0,4.214E2,6.1636E2,1.886E1,1.4148E2,5.05E0,3.2850376E1,3.0942387E1,2.347614E1,3.7152E2,2.247E1,4.116525E1,3.063E1,6.15E0,6.23E0,-1.4123514E0,8.048E1,9.876E1,1.4253451E0,5.36E0,5.64E0,5.7152E2,1.79E1,7.28E0,7.95E0,4.4728085E1,7.16E0,4.059584E1,1.26E1,9.142289E-1,-1.3430561E0,-5.609286E-1,-1.5485377E0,1.9096E2,7.09E0,-8.586185E-2,-6.989906E-1,3.8911477E-1,-2.4638347E-1,7.3761004E-1,3.84E2,-2.1367846E0,1.79E1,5.35E0,-1.2887949E0,5.3444E2,2.069E1,3.396872E1,4.4089474E1,7.38E0,5.597056E1,2.8455807E1,2.1694443E0,-2.2614195E0,1.2732742E0,-1.2616171E0,1.1700639E0,-4.2768136E-1,-2.0266027E0,-2.0287576E-1,-1.3722826E0,5.551349E-1,-1.4687161E0,-1.3508384E0,-2.91383E-1,1.8385762E0,-1.1003891E0,-5.948992E-1,2.39239E0,-1.7721695E0,-7.6180345E-1,4.441932E0,-1.1612929E0,1.8907778E0,-8.098691E-2,-6.843858E-1,-2.1853511E0,8.282078E-1,3.356702E0,-6.152645E-1,4.6117783E-1,8.4002703E-1,6.7727637E0],"split_indices":[0,1,1,4,2,0,0,2,0,2,4,4,4,0,2,4,2,1,1,0,0,0,0,1,1,0,2,1,1,4,1,4,2,0,0,0,0,0,1,0,0,0,0,0,0,0,2,1,0,0,2,4,4,1,4,4,0,0,0,0,0,0,0,0,0,0,0,0,0,0,0,0,0,0,0,0,0,0,0,0,0,0,0,0,0,0,0],"split_type":[0,0,0,0,0,0,0,0,0,0,0,0,0,0,0,0,0,0,0,0,0,0,0,0,0,0,0,0,0,0,0,0,0,0,0,0,0,0,0,0,0,0,0,0,0,0,0,0,0,0,0,0,0,0,0,0,0,0,0,0,0,0,0,0,0,0,0,0,0,0,0,0,0,0,0,0,0,0,0,0,0,0,0,0,0,0,0],"sum_hessian":[4.38E2,1.32E2,3.06E2,1.21E2,1.1E1,1.45E2,1.61E2,8E1,4.1E1,6E0,5E0,7.8E1,6.7E1,1.44E2,1.7E1,7.5E1,5E0,1.6E1,2.5E1,2E0,4E0,2E0,3E0,2.6E1,5.2E1,5E0,6.2E1,5.1E1,9.3E1,1.3E1,4E0,5.9E1,1.6E1,3E0,2E0,3E0,1.3E1,9E0,1.6E1,2E0,2E0,1E0,1E0,1E0,2.5E1,3E0,4.9E1,4E0,1E0,5.4E1,8E0,2.2E1,2.9E1,7.9E1,1.4E1,1E1,3E0,2E0,2E0,5.8E1,1E0,1E0,1.5E1,4E0,5E0,1.4E1,2E0,2E1,5E0,4.4E1,5E0,1E0,3E0,2.2E1,3.2E1,2E0,6E0,1.1E1,1.1E1,2.3E1,6E0,5.4E1,2.5E1,1E1,4E0,1E0,9E0],"tree_param":{"num_deleted":"0","num_feature":"6","num_nodes":"87","size_leaf_vector":"1"}},{"base_weights":[2.842708E-1,-8.386193E0,5.309597E0,-1.0628517E1,-5.5682397E0,1.7224133E1,6.128965E-1,-5.091583E0,-1.1979563E1,-2.135081E0,-1.0703547E1,2.2204477E1,-6.1059964E-1,-1.9620934E0,1.2734623E1,-9.019977E0,-6.540307E-1,-8.753826E0,-1.3801448E1,-1.3417165E1,2.3740757E0,-1.6237068E1,-1.7259789E-1,2.0018673E0,3.2760803E1,-4.953057E0,8.899824E0,-1.1226294E0,-2.8600414E1,-1.0106677E1,2.3624664E1,-9.7428524E-1,-1.2570515E-1,3.7329674E0,-2.217401E0,-1.07012825E1,-3.4534972E0,-1.4112036E1,-4.9562594E-1,-7.1845913E0,-1.641445E1,4.5836916E0,-1.0916511E0,-1.846965E1,-3.247466E0,1.4362855E0,-4.9985714E0,-4.6685762E0,1.6962614E1,-1.2158869E1,3.8089622E1,5.415751E0,-7.3306355E0,2.4140842E0,1.1539173E0,-3.8459766E0,4.826668E0,-3.6959546E0,2.4180527E-1,-1.5867108E0,-6.423521E0,4.0090496E1,1.2886092E1,8.0458146E-1,-2.4463634E-1,-6.715757E-1,1.8247639E-1,-1.1352471E0,-5.2584165E-1,-6.2628525E-1,4.2528304E-1,-1.5161948E0,-1.0311253E0,-8.6914015E-1,1.747303E-2,-1.9001182E0,-5.7695025E-1,6.5618247E-1,-6.223714E-1,-1.9423922E0,-2.0777912E-1,3.5066807E-1,-1.1754954E0,-9.882828E-1,8.853989E-2,2.2715964E0,-1.0203222E0,1.6394149E-1,2.804516E0,-2.4230702E0,3.9659196E-1,2.39899E0,5.0856576E0,7.0910305E-1,1.0325966E-1,2.568264E-1,-8.5773516E-1,3.5981044E-1,2.3021698E-3,-1.4542656E-1,-1.795587E0,-1.3415111E0,1.0178535E0,7.518765E-1,-1.1481141E0,-1.2288793E0,4.8174005E0,-1.7749342E0,1.8530394E0],"categories":[],"categories_nodes":[],"categories_segments":[],"categories_sizes":[],"default_left":[0,0,0,0,0,0,0,0,0,0,0,0,0,0,0,0,0,0,0,0,0,0,0,0,0,0,0,0,0,0,0,0,0,0,0,0,0,0,0,0,0,0,0,0,0,0,0,0,0,0,0,0,0,0,0,0,0,0,0,0,0,0,0,0,0,0,0,0,0,0,0,0,0,0,0,0,0,0,0,0,0,0,0,0,0,0,0,0,0,0,0,0,0,0,0,0,0,0,0,0,0,0,0,0,0,0,0,0,0],"id":16,"left_children":[1,3,5,7,9,11,13,15,17,19,21,23,25,27,29,31,33,35,37,39,41,43,45,47,49,51,53,55,57,59,61,-1,-1,63,65,67,69,71,-1,73,75,77,-1,79,81,-1,83,85,87,89,91,93,95,97,-1,99,101,-1,-1,-1,103,105,107,-1,-1,-1,-1,-1,-1,-1,-1,-1,-1,-1,-1,-1,-1,-1,-1,-1,-1,-1,-1,-1,-1,-1,-1,-1,-1,-1,-1,-1,-1,-1,-1,-1,-1,-1,-1,-1,-1,-1,-1,-1,-1,-1,-1,-1,-1],"loss_changes":[1.8998309E4,9.518203E2,1.5434129E4,5.9730273E2,1.2641609E3,6.9417637E3,6.2364375E3,3.253173E2,2.9056934E2,2.3211243E3,1.6871206E3,1.2943598E4,7.8745624E2,3.6576074E3,8.944761E3,4.3868896E1,7.686251E1,2.5206372E2,4.8186523E1,1.2491943E2,1.0191517E3,4.9102783E2,8.434186E2,2.2746775E3,1.0037883E4,3.601854E2,7.4852234E1,2.6270854E3,1.3858066E3,1.5267603E2,3.7270596E3,0E0,0E0,9.963452E1,1.5771945E2,1.119043E1,2.2148315E2,7.2714844E0,0E0,6.805325E1,1.10657715E2,6.608152E2,0E0,2.0991699E2,2.7106415E2,0E0,2.673996E2,2.6567957E3,1.1427627E3,1.0693757E3,5.260336E3,1.4706848E1,1.5778125E2,8.410366E0,0E0,3.7197808E3,5.115552E3,0E0,0E0,0E0,7.2095703E2,4.402676E3,3.0955525E3,0E0,0E0,0E0,0E0,0E0,0E0,0E0,0E0,0E0,0E0,0E0,0E0,0E0,0E0,0E0,0E0,0E0,0E0,0E0,0E0,0E0,0E0,0E0,0E0,0E0,0E0,0E0,0E0,0E0,0E0,0E0,0E0,0E0,0E0,0E0,0E0,0E0,0E0,0E0,0E0,0E0,0E0,0E0,0E0,0E0,0E0],"parents":[2147483647,0,0,1,1,2,2,3,3,4,4,5,5,6,6,7,7,8,8,9,9,10,10,11,11,12,12,13,13,14,14,15,15,16,16,17,17,18,18,19,19,20,20,21,21,22,22,23,23,24,24,25,25,26,26,27,27,28,28,29,29,30,30,33,33,34,34,35,35,36,36,37,37,39,39,40,40,41,41,43,43,44,44,46,46,47,47,48,48,49,49,50,50,51,51,52,52,53,53,55,55,56,56,60,60,61,61,62,62],"right_children":[2,4,6,8,10,12,14,16,18,20,22,24,26,28,30,32,34,36,38,40,42,44,46,48,50,52,54,56,58,60,62,-1,-1,64,66,68,70,72,-1,74,76,78,-1,80,82,-1,84,86,88,90,92,94,96,98,-1,100,102,-1,-1,-1,104,106,108,-1,-1,-1,-1,-1,-1,-1,-1,-1,-1,-1,-1,-1,-1,-1,-1,-1,-1,-1,-1,-1,-1,-1,-1,-1,-1,-1,-1,-1,-1,-1,-1,-1,-1,-1,-1,-1,-1,-1,-1,-1,-1,-1,-1,-1,-1],"split_conditions":[2.7792E2,1.996E2,2.4939E1,1.5893276E1,6.86E0,7.91E0,6.0036E2,2.2813E1,6.33E0,6.22E0,7.51E0,3.4168E2,8.53E0,5.8584E2,6.19E0,8.848E1,5.93E0,4.972149E1,7.79E0,5.97E0,4.3114E1,4.7043076E1,2.1824E2,1.8227E1,6.59E0,8.23E0,5.1328E2,3.8871773E1,5.9752E2,6.394E2,6.84E0,-9.7428524E-1,-1.2570515E-1,1.3924E2,6.47E0,6.27E0,1.5816E2,1.5816E2,-4.9562594E-1,5.92E0,4.717057E1,2.6516E2,-1.0916511E0,2.738E2,7.09E0,1.4362855E0,2.4188E2,6.21E0,3.7865517E1,7.2712E2,1.7923E1,5.1496E2,3.9256E2,3.8564E2,1.1539173E0,3.6530796E1,6.12E0,-3.6959546E0,2.4180527E-1,-1.5867108E0,7.092E2,3.115E1,6.94E0,8.0458146E-1,-2.4463634E-1,-6.715757E-1,1.8247639E-1,-1.1352471E0,-5.2584165E-1,-6.2628525E-1,4.2528304E-1,-1.5161948E0,-1.0311253E0,-8.6914015E-1,1.747303E-2,-1.9001182E0,-5.7695025E-1,6.5618247E-1,-6.223714E-1,-1.9423922E0,-2.0777912E-1,3.5066807E-1,-1.1754954E0,-9.882828E-1,8.853989E-2,2.2715964E0,-1.0203222E0,1.6394149E-1,2.804516E0,-2.4230702E0,3.9659196E-1,2.39899E0,5.0856576E0,7.0910305E-1,1.0325966E-1,2.568264E-1,-8.5773516E-1,3.5981044E-1,2.3021698E-3,-1.4542656E-1,-1.795587E0,-1.3415111E0,1.0178535E0,7.518765E-1,-1.1481141E0,-1.2288793E0,4.8174005E0,-1.7749342E0,1.8530394E0],"split_indices":[0,0,3,3,1,1,0,4,1,1,1,0,1,0,1,0,1,4,1,1,3,4,0,3,1,1,0,4,0,0,1,0,0,0,1,1,0,0,0,1,4,0,0,0,1,0,0,1,4,0,3,0,0,0,0,4,1,0,0,0,0,3,1,0,0,0,0,0,0,0,0,0,0,0,0,0,0,0,0,0,0,0,0,0,0,0,0,0,0,0,0,0,0,0,0,0,0,0,0,0,0,0,0,0,0,0,0,0,0],"split_type":[0,0,0,0,0,0,0,0,0,0,0,0,0,0,0,0,0,0,0,0,0,0,0,0,0,0,0,0,0,0,0,0,0,0,0,0,0,0,0,0,0,0,0,0,0,0,0,0,0,0,0,0,0,0,0,0,0,0,0,0,0,0,0,0,0,0,0,0,0,0,0,0,0,0,0,0,0,0,0,0,0,0,0,0,0,0,0,0,0,0,0,0,0,0,0,0,0,0,0,0,0,0,0,0,0,0,0,0,0],"sum_hessian":[4.34E2,1.59E2,2.75E2,8.7E1,7.2E1,7.7E1,1.98E2,1.8E1,6.9E1,4.4E1,2.8E1,6E1,1.7E1,1.64E2,3.4E1,9E0,9E0,2.7E1,4.2E1,1.2E1,3.2E1,1.8E1,1E1,2.1E1,3.9E1,1.2E1,5E0,1.6E2,4E0,1.1E1,2.3E1,8E0,1E0,2E0,7E0,1.9E1,8E0,4E1,2E0,5E0,7E0,2.8E1,4E0,1.5E1,3E0,2E0,8E0,1.5E1,6E0,4E0,3.5E1,2E0,1E1,2E0,3E0,1.1E2,5E1,3E0,1E0,3E0,8E0,8E0,1.5E1,1E0,1E0,3E0,4E0,1.6E1,3E0,6E0,2E0,2.9E1,1.1E1,4E0,1E0,5E0,2E0,2.4E1,4E0,1.4E1,1E0,2E0,1E0,4E0,4E0,2E0,1.3E1,3E0,3E0,2E0,2E0,1.8E1,1.7E1,1E0,1E0,1E0,9E0,1E0,1E0,9.5E1,1.5E1,1.1E1,3.9E1,2E0,6E0,1E0,7E0,2E0,1.3E1],"tree_param":{"num_deleted":"0","num_feature":"6","num_nodes":"109","size_leaf_vector":"1"}},{"base_weights":[-3.134886E-1,-7.4453382E0,3.6581917E0,-9.569028E0,-4.6691947E0,1.3799878E1,-7.8771293E-1,-4.4946656E0,-1.09011755E1,1.160133E0,-5.57088E0,5.8276196E0,1.1490178E1,1.183152E1,-4.078164E0,-8.479925E0,1.31842E0,-1.2386838E1,-8.283355E0,-7.791769E0,4.498803E-1,8.241025E0,4.5589397E1,1.8716305E1,-4.4369617E0,-7.5871634E0,2.950573E0,-9.1959393E-1,-3.018856E-2,4.8903112E0,-1.2825774E0,-5.094685E-1,-1.2624079E0,-1.0941615E1,-3.180442E0,-1.2625916E1,-3.7152336E0,-3.0848398E0,1.0964065E1,-3.1128094E-1,1.3414529E1,6.7720156E0,1.2061293E1,1.1358498E0,2.9396812E1,-1.6233532E1,4.029612E0,-6.0742126E0,-1.8806345E1,-1.8294652E0,4.5911794E0,8.880249E-1,-3.5397512E-1,2.2076702E-1,-5.5087155E-1,-1.1510991E0,-6.3111685E-2,-1.4041603E-1,-1.047163E0,-1.4761218E0,-4.4715744E-1,-1.1387849E0,6.013772E-1,-7.6564215E-2,-1.7776804E0,-1.5400334E-1,1.4475098E0,1.025011E0,-1.7007542E0,8.171447E-1,3.0307493E0,1.5905454E0,2.644043E-2,-8.5487473E-1,9.2746687E-1,1.834017E0,3.4765573E0,-2.6384273E0,1.2242092E-1,-2.1237228E0,-4.799039E-1,2.1941948E-1,-2.0914958E0,2.181739E-1,3.175431E0],"categories":[],"categories_nodes":[],"categories_segments":[],"categories_sizes":[],"default_left":[0,0,0,0,0,0,0,0,0,0,0,0,0,0,0,0,0,0,0,0,0,0,0,0,0,0,0,0,0,0,0,0,0,0,0,0,0,0,0,0,0,0,0,0,0,0,0,0,0,0,0,0,0,0,0,0,0,0,0,0,0,0,0,0,0,0,0,0,0,0,0,0,0,0,0,0,0,0,0,0,0,0,0,0,0],"id":17,"left_children":[1,3,5,7,9,11,13,15,17,-1,19,-1,21,23,25,27,29,31,33,35,37,39,41,43,45,47,49,-1,-1,51,53,-1,-1,55,57,59,61,63,65,67,69,-1,71,73,75,77,-1,79,81,-1,83,-1,-1,-1,-1,-1,-1,-1,-1,-1,-1,-1,-1,-1,-1,-1,-1,-1,-1,-1,-1,-1,-1,-1,-1,-1,-1,-1,-1,-1,-1,-1,-1,-1,-1],"loss_changes":[1.2433773E4,8.809404E2,1.2725959E4,5.4586426E2,1.0915918E3,8.164916E3,8.228276E3,4.7451318E2,1.6575E2,0E0,8.9939185E2,0E0,8.820161E3,4.675247E3,3.8946077E3,6.7490906E1,8.988652E1,8.344238E0,3.450172E2,9.1871387E2,7.3995166E2,3.4110708E3,4.3772227E3,5.4118877E3,7.5142085E3,1.6680435E3,1.931312E3,0E0,0E0,1.6597556E2,1.00663025E2,0E0,0E0,9.8404785E1,1.277594E2,3.1705762E2,2.1585974E3,4.974929E2,2.4180365E2,5.4644014E3,4.0037617E3,0E0,1.7719116E2,1.025141E3,4.3088086E2,1.9815994E3,0E0,1.715617E3,5.772754E2,0E0,3.2031177E3,0E0,0E0,0E0,0E0,0E0,0E0,0E0,0E0,0E0,0E0,0E0,0E0,0E0,0E0,0E0,0E0,0E0,0E0,0E0,0E0,0E0,0E0,0E0,0E0,0E0,0E0,0E0,0E0,0E0,0E0,0E0,0E0,0E0,0E0],"parents":[2147483647,0,0,1,1,2,2,3,3,4,4,5,5,6,6,7,7,8,8,10,10,12,12,13,13,14,14,15,15,16,16,17,17,18,18,19,19,20,20,21,21,22,22,23,23,24,24,25,25,26,26,29,29,30,30,33,33,34,34,35,35,36,36,37,37,38,38,39,39,40,40,42,42,43,43,44,44,45,45,47,47,48,48,50,50],"right_children":[2,4,6,8,10,12,14,16,18,-1,20,-1,22,24,26,28,30,32,34,36,38,40,42,44,46,48,50,-1,-1,52,54,-1,-1,56,58,60,62,64,66,68,70,-1,72,74,76,78,-1,80,82,-1,84,-1,-1,-1,-1,-1,-1,-1,-1,-1,-1,-1,-1,-1,-1,-1,-1,-1,-1,-1,-1,-1,-1,-1,-1,-1,-1,-1,-1,-1,-1,-1,-1,-1,-1],"split_conditions":[2.7792E2,1.996E2,2.8281334E1,1.5699E1,2.0252E2,2.5939936E1,1.3715806E1,8.848E1,4.6512226E1,1.160133E0,4.5112E1,5.8276196E0,7.2712E2,4.2668E2,5.3728E2,1.2760333E1,5.4209568E1,1.1513226E1,1.4148E2,2.5977634E1,2.4688E2,3.7152E2,8.1692E2,3.64484E1,1.2429462E1,5.1056E2,1.4652904E1,-9.1959393E-1,-3.018856E-2,3.764214E1,2.4199505E1,-5.094685E-1,-1.2624079E0,4.0333E1,1.9376E2,4.2118786E1,2.5229666E1,3.9769665E1,1.6780666E1,3.3236E2,2.3892E1,6.7720156E0,1.08396E3,2.8350914E1,3.248E2,5.0734E1,4.029612E0,1.4483548E1,2.8079172E1,-1.8294652E0,7.9376E2,8.880249E-1,-3.5397512E-1,2.2076702E-1,-5.5087155E-1,-1.1510991E0,-6.3111685E-2,-1.4041603E-1,-1.047163E0,-1.4761218E0,-4.4715744E-1,-1.1387849E0,6.013772E-1,-7.6564215E-2,-1.7776804E0,-1.5400334E-1,1.4475098E0,1.025011E0,-1.7007542E0,8.171447E-1,3.0307493E0,1.5905454E0,2.644043E-2,-8.5487473E-1,9.2746687E-1,1.834017E0,3.4765573E0,-2.6384273E0,1.2242092E-1,-2.1237228E0,-4.799039E-1,2.1941948E-1,-2.0914958E0,2.181739E-1,3.175431E0],"split_indices":[0,0,3,3,0,4,5,0,4,0,4,0,0,0,0,3,5,5,0,5,0,0,0,4,5,0,5,0,0,4,4,0,0,3,0,4,3,3,3,0,3,0,0,4,0,3,0,5,4,0,0,0,0,0,0,0,0,0,0,0,0,0,0,0,0,0,0,0,0,0,0,0,0,0,0,0,0,0,0,0,0,0,0,0,0],"split_type":[0,0,0,0,0,0,0,0,0,0,0,0,0,0,0,0,0,0,0,0,0,0,0,0,0,0,0,0,0,0,0,0,0,0,0,0,0,0,0,0,0,0,0,0,0,0,0,0,0,0,0,0,0,0,0,0,0,0,0,0,0,0,0,0,0,0,0,0,0,0,0,0,0,0,0,0,0,0,0,0,0,0,0,0,0],"sum_hessian":[4.37E2,1.56E2,2.81E2,8.7E1,6.9E1,8.5E1,1.96E2,1.9E1,6.8E1,3E0,6.6E1,3E0,8.2E1,4E1,1.56E2,1.1E1,8E0,4.1E1,2.7E1,4.8E1,1.8E1,7.6E1,6E0,2.8E1,1.2E1,1.04E2,5.2E1,1E1,1E0,3E0,5E0,2E0,3.9E1,1.7E1,1E1,2.1E1,2.7E1,1.4E1,4E0,2.9E1,4.7E1,3E0,3E0,1.1E1,1.7E1,1E1,2E0,9.3E1,1.1E1,3E0,4.9E1,2E0,1E0,3E0,2E0,1.6E1,1E0,9E0,1E0,1.6E1,5E0,1.5E1,1.2E1,1.3E1,1E0,1E0,3E0,1.8E1,1.1E1,3.7E1,1E1,2E0,1E0,5E0,6E0,7E0,1E1,6E0,4E0,6E0,8.7E1,1E0,1E1,4.6E1,3E0],"tree_param":{"num_deleted":"0","num_feature":"6","num_nodes":"85","size_leaf_vector":"1"}},{"base_weights":[5.6385165E-1,-4.372744E0,2.980904E0,-8.863399E0,-2.1735027E0,3.9977427E0,-1.0718891E1,-4.374544E0,-9.78712E0,-5.3191733E0,1.2452285E1,3.3349073E0,2.9371904E1,-6.138759E0,-1.5143161E0,6.3500924E0,-7.849465E-1,-6.2182755E0,-1.1332378E1,5.4413214E0,-7.7728314E0,-1.1112479E0,1.4492123E1,-4.491616E0,4.46238E0,1.0082936E0,4.1317897E0,-9.390535E-1,1.4815384E0,1.6689034E-1,7.8562355E-1,-9.299821E0,8.180665E0,-1.2070826E0,-1.6473356E0,1.7200432E0,2.0993514E0,2.3362992E0,-8.5862465E0,1.6628881E1,-1.022377E0,1.8006756E0,-1.2076254E1,1.32281275E1,2.6430898E0,-1.0339895E0,1.07050136E-1,-4.070451E-1,1.6341448E0,-9.171342E-1,6.700339E-1,1.1222254E0,-4.8058796E-1,-1.2120607E0,-3.5370645E-1,1.7781674E0,2.4489213E-2,2.0117532E-1,-3.5453185E-1,-4.1485783E-1,1.3441944E0,-1.3752804E0,6.5359956E-1,7.148841E-1,5.5569224E0,-7.029706E-1,4.8818818E-1],"categories":[],"categories_nodes":[],"categories_segments":[],"categories_sizes":[],"default_left":[0,0,0,0,0,0,0,0,0,0,0,0,0,0,0,0,0,0,0,0,0,0,0,0,0,0,0,0,0,0,0,0,0,0,0,0,0,0,0,0,0,0,0,0,0,0,0,0,0,0,0,0,0,0,0,0,0,0,0,0,0,0,0,0,0,0,0],"id":18,"left_children":[1,3,5,7,9,11,13,15,17,19,21,23,25,27,-1,29,-1,31,33,35,37,-1,39,41,43,-1,-1,-1,-1,-1,-1,45,47,-1,49,51,-1,-1,53,55,57,59,61,63,65,-1,-1,-1,-1,-1,-1,-1,-1,-1,-1,-1,-1,-1,-1,-1,-1,-1,-1,-1,-1,-1,-1],"loss_changes":[5.3347114E3,1.4325127E3,4.221996E3,1.5621558E2,4.667027E3,4.611336E3,3.3257837E2,4.2251743E2,1.446084E2,2.2337078E3,1.0262725E3,2.437871E3,1.1963755E3,9.567822E2,0E0,8.040321E0,0E0,6.9727246E2,1.660647E2,8.8987476E2,1.9227925E3,0E0,5.805637E2,1.6921118E3,3.7924219E3,0E0,0E0,0E0,0E0,0E0,0E0,1.4049988E2,3.6645312E2,0E0,2.4987494E2,9.220825E2,0E0,0E0,1.1527856E3,2.7895557E2,3.0097107E1,1.4409022E3,5.8915796E2,1.0156293E4,4.3653936E3,0E0,0E0,0E0,0E0,0E0,0E0,0E0,0E0,0E0,0E0,0E0,0E0,0E0,0E0,0E0,0E0,0E0,0E0,0E0,0E0,0E0,0E0],"parents":[2147483647,0,0,1,1,2,2,3,3,4,4,5,5,6,6,7,7,8,8,9,9,10,10,11,11,12,12,13,13,15,15,17,17,18,18,19,19,20,20,22,22,23,23,24,24,31,31,32,32,34,34,35,35,38,38,39,39,40,40,41,41,42,42,43,43,44,44],"right_children":[2,4,6,8,10,12,14,16,18,20,22,24,26,28,-1,30,-1,32,34,36,38,-1,40,42,44,-1,-1,-1,-1,-1,-1,46,48,-1,50,52,-1,-1,54,56,58,60,62,64,66,-1,-1,-1,-1,-1,-1,-1,-1,-1,-1,-1,-1,-1,-1,-1,-1,-1,-1,-1,-1,-1,-1],"split_conditions":[6.42E0,3.0986376E1,5.265E1,4.276889E1,4.8975334E1,5.1612E1,6.93E0,5.78E0,5.69E0,2.6779E1,5.56E0,1.4259666E1,2.8455807E1,6.85E0,-1.5143161E0,5.52E0,-7.849465E-1,2.0815054E1,2.9311193E1,5.079428E1,3.1395657E1,-1.1112479E0,4.0326828E1,3.0820076E1,1.9543E1,1.0082936E0,4.1317897E0,-9.390535E-1,1.4815384E0,1.6689034E-1,7.8562355E-1,5.68E0,5.61E0,-1.2070826E0,6.19E0,5.93E0,2.0993514E0,2.3362992E0,4.664704E1,6.39E0,5.76E0,2.400862E1,5.8111614E1,1.9325E1,3.321817E1,-1.0339895E0,1.07050136E-1,-4.070451E-1,1.6341448E0,-9.171342E-1,6.700339E-1,1.1222254E0,-4.8058796E-1,-1.2120607E0,-3.5370645E-1,1.7781674E0,2.4489213E-2,2.0117532E-1,-3.5453185E-1,-4.1485783E-1,1.3441944E0,-1.3752804E0,6.5359956E-1,7.148841E-1,5.5569224E0,-7.029706E-1,4.8818818E-1],"split_indices":[1,4,3,3,3,3,1,1,1,3,1,3,4,1,0,1,0,5,4,4,4,0,4,4,3,0,0,0,0,0,0,1,1,0,1,1,0,0,4,1,1,4,5,3,4,0,0,0,0,0,0,0,0,0,0,0,0,0,0,0,0,0,0,0,0,0,0],"split_type":[0,0,0,0,0,0,0,0,0,0,0,0,0,0,0,0,0,0,0,0,0,0,0,0,0,0,0,0,0,0,0,0,0,0,0,0,0,0,0,0,0,0,0,0,0,0,0,0,0,0,0,0,0,0,0,0,0,0,0,0,0,0,0,0,0,0,0],"sum_hessian":[4.45E2,1.46E2,2.99E2,4.7E1,9.9E1,2.79E2,2E1,9E0,3.8E1,8.2E1,1.7E1,2.73E2,6E0,1.1E1,9E0,2E0,7E0,1.3E1,2.5E1,1.5E1,6.7E1,1E0,1.6E1,3.4E1,2.39E2,3E0,3E0,1E1,1E0,1E0,1E0,1.1E1,2E0,2.3E1,2E0,1.3E1,2E0,1E0,6.6E1,1.4E1,2E0,1.9E1,1.5E1,4E1,1.99E2,1E1,1E0,1E0,1E0,1E0,1E0,5E0,8E0,3.8E1,2.8E1,1.3E1,1E0,1E0,1E0,1.3E1,6E0,1.4E1,1E0,3.6E1,4E0,3.7E1,1.62E2],"tree_param":{"num_deleted":"0","num_feature":"6","num_nodes":"67","size_leaf_vector":"1"}},{"base_weights":[-3.3253696E-2,-7.6948013E0,1.9615672E0,-1.1379158E1,-5.6909795E0,-6.2904686E-1,1.2851824E1,-4.430421E0,-1.6432285E0,2.0450566E0,-6.494292E0,-2.2801798E-2,-2.3749708E1,-1.1616793E1,1.4646763E1,8.274514E-1,-7.4434E-1,-9.500794E0,-2.933725E0,-8.077136E-1,1.838902E1,-3.0495224E0,8.3616906E-1,-1.3972415E0,-1.0971546E-1,1.2740444E1,6.451294E0,-2.527174E-1,3.1365576E0,-1.4629699E1,-7.684669E0,-9.712976E0,4.5393105E0,-2.321693E0,6.4100485E0,6.663434E0,3.7242944E0,9.614422E0,2.9386303E1,1.497078E-3,4.1720963E-1,-1.6950206E-1,-1.6502975E0,-5.0020397E-1,-1.1898006E0,-1.2670969E0,-1.262799E-1,9.4844735E-1,-3.5512116E-2,-7.712263E-2,-1.3031547E0,3.2697499E0,1.5274279E-1,1.1883647E0,-1.493903E0,1.4539732E0,-6.2799484E-1,6.154002E-1,3.5144963E0],"categories":[],"categories_nodes":[],"categories_segments":[],"categories_sizes":[],"default_left":[0,0,0,0,0,0,0,0,0,0,0,0,0,0,0,0,0,0,0,0,0,0,0,0,0,0,0,0,0,0,0,0,0,0,0,0,0,0,0,0,0,0,0,0,0,0,0,0,0,0,0,0,0,0,0,0,0,0,0],"id":19,"left_children":[1,3,5,7,9,11,13,15,-1,-1,17,19,21,23,25,27,-1,29,31,33,35,-1,-1,-1,-1,37,-1,-1,39,41,43,45,47,49,51,53,-1,55,57,-1,-1,-1,-1,-1,-1,-1,-1,-1,-1,-1,-1,-1,-1,-1,-1,-1,-1,-1,-1],"loss_changes":[6.5105454E3,5.8492773E2,9.543894E3,9.8058374E2,1.3718014E3,3.840058E3,3.0249268E3,2.279451E2,0E0,0E0,5.930088E2,3.8878975E3,1.7712473E3,1.0857147E2,4.976785E3,5.4403748E1,0E0,1.7633203E2,1.4626146E3,2.8341882E3,2.1836401E3,0E0,0E0,0E0,0E0,2.839588E3,0E0,0E0,1.2867638E1,1.4163867E2,2.2305627E2,3.589325E2,3.422208E2,3.5434775E3,5.7258813E3,1.0796859E3,0E0,4.1621123E3,9.877998E2,0E0,0E0,0E0,0E0,0E0,0E0,0E0,0E0,0E0,0E0,0E0,0E0,0E0,0E0,0E0,0E0,0E0,0E0,0E0,0E0],"parents":[2147483647,0,0,1,1,2,2,3,3,4,4,5,5,6,6,7,7,10,10,11,11,12,12,13,13,14,14,15,15,17,17,18,18,19,19,20,20,25,25,28,28,29,29,30,30,31,31,32,32,33,33,34,34,35,35,37,37,38,38],"right_children":[2,4,6,8,10,12,14,16,-1,-1,18,20,22,24,26,28,-1,30,32,34,36,-1,-1,-1,-1,38,-1,-1,40,42,44,46,48,50,52,54,-1,56,58,-1,-1,-1,-1,-1,-1,-1,-1,-1,-1,-1,-1,-1,-1,-1,-1,-1,-1,-1,-1],"split_conditions":[1.714E1,6.79E0,7.24E0,6.38E0,6.81E0,3.706E1,1.8958559E1,1.4687097E1,-1.6432285E0,2.0450566E0,4.059584E1,2.679E1,7.16E0,1.5490355E1,5.8645267E1,5.9682794E0,-7.4434E-1,2.4496775E1,1.217E1,3.6985485E1,3.6279278E1,-3.0495224E0,8.3616906E-1,-1.3972415E0,-1.0971546E-1,7.64E0,6.451294E0,-2.527174E-1,3.321817E1,3.1812902E1,1.294E1,5.9659058E1,5.4142647E1,6.96E0,3.84857E1,3.5149323E1,3.7242944E0,7.53E0,2.347614E1,1.497078E-3,4.1720963E-1,-1.6950206E-1,-1.6502975E0,-5.0020397E-1,-1.1898006E0,-1.2670969E0,-1.262799E-1,9.4844735E-1,-3.5512116E-2,-7.712263E-2,-1.3031547E0,3.2697499E0,1.5274279E-1,1.1883647E0,-1.493903E0,1.4539732E0,-6.2799484E-1,6.154002E-1,3.5144963E0],"split_indices":[2,1,1,1,1,2,4,5,0,0,4,2,1,4,5,5,0,5,2,5,4,0,0,0,0,1,0,0,4,4,2,4,4,1,5,4,0,1,4,0,0,0,0,0,0,0,0,0,0,0,0,0,0,0,0,0,0,0,0],"split_type":[0,0,0,0,0,0,0,0,0,0,0,0,0,0,0,0,0,0,0,0,0,0,0,0,0,0,0,0,0,0,0,0,0,0,0,0,0,0,0,0,0,0,0,0,0,0,0,0,0,0,0,0,0,0,0,0,0,0,0],"sum_hessian":[4.24E2,8.7E1,3.37E2,2.9E1,5.8E1,2.73E2,6.4E1,1.3E1,1.6E1,1E0,5.7E1,2.67E2,6E0,4E0,6E1,5E0,8E0,3E1,2.7E1,2.57E2,1E1,5E0,1E0,3E0,1E0,5.9E1,1E0,2E0,3E0,6E0,2.4E1,1.4E1,1.3E1,2.13E2,4.4E1,7E0,3E0,5.1E1,8E0,1E0,2E0,1E0,5E0,1.6E1,8E0,1E1,4E0,6E0,7E0,1.87E2,2.6E1,6E0,3.8E1,6E0,1E0,3.9E1,1.2E1,2E0,6E0],"tree_param":{"num_deleted":"0","num_feature":"6","num_nodes":"59","size_leaf_vector":"1"}},{"base_weights":[4.456175E-1,-7.21954E0,3.787983E0,-1.0497989E1,-5.4784913E0,2.8480508E0,3.3653793E1,-5.03589E0,-1.1227901E1,-3.4524667E0,-8.000142E0,-2.661681E0,5.674173E0,1.7841011E0,5.8792725E1,-6.61184E0,2.2099037E-1,-7.9743785E-1,-1.242282E1,-5.1660037E0,4.927645E0,-1.4957292E1,-4.9812565E0,1.6229921E1,-5.7061086E0,7.1803203E0,-9.284158E0,-1.0806773E1,2.60738E0,6.6511188E0,1.3959435E0,-9.0755457E-1,-3.1111007E0,-3.317779E-1,-1.2654312E0,-7.0875697E0,-1.9232548E0,-7.350261E-1,9.485656E0,-1.738283E1,-2.6949102E-1,-1.491926E1,-3.191926E0,5.945665E0,5.1956973E0,8.524111E0,-6.504218E0,6.144262E0,3.533858E1,-1.9681084E1,-3.771411E0,-3.8629916E-2,-1.4151498E0,-2.9634858E-2,-3.9505684E-1,6.5620273E-1,-7.896035E-1,-6.7023826E-1,3.0695677E-1,1.1546283E0,2.8893918E-1,-2.1590512E0,-6.7256E-1,-3.570183E-1,-1.7512225E0,-4.884226E-1,1.0147398E-1,2.9878607E0,-1.8287838E-1,-6.80481E-1,2.1011662E0,-1.2083275E0,-3.9873105E-1,4.7040063E-1,2.3176277E0,7.365341E-1,3.946016E0,-2.3398998E0,-5.457535E-2,-2.8466954E0,6.5879695E-2],"categories":[],"categories_nodes":[],"categories_segments":[],"categories_sizes":[],"default_left":[0,0,0,0,0,0,0,0,0,0,0,0,0,0,0,0,0,0,0,0,0,0,0,0,0,0,0,0,0,0,0,0,0,0,0,0,0,0,0,0,0,0,0,0,0,0,0,0,0,0,0,0,0,0,0,0,0,0,0,0,0,0,0,0,0,0,0,0,0,0,0,0,0,0,0,0,0,0,0,0,0],"id":20,"left_children":[1,3,5,7,9,11,13,15,17,19,21,23,25,27,29,31,-1,-1,33,35,37,39,41,43,45,47,49,51,-1,-1,-1,-1,53,-1,-1,55,57,-1,59,61,-1,63,65,67,-1,69,71,73,75,77,79,-1,-1,-1,-1,-1,-1,-1,-1,-1,-1,-1,-1,-1,-1,-1,-1,-1,-1,-1,-1,-1,-1,-1,-1,-1,-1,-1,-1,-1,-1],"loss_changes":[1.0966984E4,6.8451904E2,8.269557E3,1.18879395E2,4.168562E2,4.5307437E3,7.1056387E3,9.454457E1,4.8668457E1,7.434377E2,7.2360156E2,5.786507E3,4.3923174E3,1.8109164E3,8.017637E2,2.3513824E1,0E0,0E0,1.2816895E1,2.480774E2,5.7338745E2,2.8032666E2,4.5028528E2,4.835048E3,1.0321682E3,4.88825E3,9.5745557E2,1.3394781E2,0E0,0E0,0E0,0E0,8.280827E0,0E0,0E0,3.387296E2,4.2621613E2,0E0,6.17854E1,2.583711E2,0E0,5.518921E1,1.8292973E2,2.2874268E3,0E0,1.1000836E3,1.103262E3,4.0611567E3,4.011255E2,4.1409106E2,1.441037E3,0E0,0E0,0E0,0E0,0E0,0E0,0E0,0E0,0E0,0E0,0E0,0E0,0E0,0E0,0E0,0E0,0E0,0E0,0E0,0E0,0E0,0E0,0E0,0E0,0E0,0E0,0E0,0E0,0E0,0E0],"parents":[2147483647,0,0,1,1,2,2,3,3,4,4,5,5,6,6,7,7,8,8,9,9,10,10,11,11,12,12,13,13,14,14,15,15,18,18,19,19,20,20,21,21,22,22,23,23,24,24,25,25,26,26,27,27,32,32,35,35,36,36,38,38,39,39,41,41,42,42,43,43,45,45,46,46,47,47,48,48,49,49,50,50],"right_children":[2,4,6,8,10,12,14,16,18,20,22,24,26,28,30,32,-1,-1,34,36,38,40,42,44,46,48,50,52,-1,-1,-1,-1,54,-1,-1,56,58,-1,60,62,-1,64,66,68,-1,70,72,74,76,78,80,-1,-1,-1,-1,-1,-1,-1,-1,-1,-1,-1,-1,-1,-1,-1,-1,-1,-1,-1,-1,-1,-1,-1,-1,-1,-1,-1,-1,-1,-1],"split_conditions":[2.494E2,1.3308E2,7.7884E2,6.11E0,6.62E0,3.2206783E1,3.535831E1,1.0768E2,1.5959333E1,6.48E0,6.97E0,1.7487E1,5.3728817E1,7.06E0,7.08E0,9.644E1,2.2099037E-1,-7.9743785E-1,6.25E0,6.27E0,2.901872E1,4.5903564E1,1.4906667E1,7.42E0,2.6516E2,5.2273895E1,3.8196E2,5.44E0,2.60738E0,6.6511188E0,1.3959435E0,-9.0755457E-1,5.89E0,-3.317779E-1,-1.2654312E0,1.3924E2,4.664704E1,-7.350261E-1,4.708528E1,3.8395E1,-2.6949102E-1,1.6988E2,7.56E0,9.22E0,5.1956973E0,5.89E0,3.9656E2,5.1555E1,2.6997667E1,2.6997667E1,6.8E0,-3.8629916E-2,-1.4151498E0,-2.9634858E-2,-3.9505684E-1,6.5620273E-1,-7.896035E-1,-6.7023826E-1,3.0695677E-1,1.1546283E0,2.8893918E-1,-2.1590512E0,-6.7256E-1,-3.570183E-1,-1.7512225E0,-4.884226E-1,1.0147398E-1,2.9878607E0,-1.8287838E-1,-6.80481E-1,2.1011662E0,-1.2083275E0,-3.9873105E-1,4.7040063E-1,2.3176277E0,7.365341E-1,3.946016E0,-2.3398998E0,-5.457535E-2,-2.8466954E0,6.5879695E-2],"split_indices":[0,0,0,1,1,4,4,0,3,1,1,3,4,1,1,0,0,0,1,1,4,4,3,1,0,4,0,1,0,0,0,0,1,0,0,0,4,0,4,3,0,0,1,3,0,1,0,3,3,3,1,0,0,0,0,0,0,0,0,0,0,0,0,0,0,0,0,0,0,0,0,0,0,0,0,0,0,0,0,0,0],"split_type":[0,0,0,0,0,0,0,0,0,0,0,0,0,0,0,0,0,0,0,0,0,0,0,0,0,0,0,0,0,0,0,0,0,0,0,0,0,0,0,0,0,0,0,0,0,0,0,0,0,0,0,0,0,0,0,0,0,0,0,0,0,0,0,0,0,0,0,0,0,0,0,0,0,0,0,0,0,0,0,0,0],"sum_hessian":[4.26E2,1.29E2,2.97E2,4.3E1,8.6E1,2.89E2,8E0,6E0,3.7E1,4.9E1,3.7E1,9.8E1,1.91E2,4E0,4E0,5E0,1E0,1.2E1,2.5E1,4.1E1,8E0,1E1,2.7E1,1.3E1,8.5E1,1.74E2,1.7E1,3E0,1E0,3E0,1E0,2E0,3E0,1E0,2.4E1,2.5E1,1.6E1,2E0,6E0,8E0,2E0,3E0,2.4E1,1.1E1,2E0,4E0,8.1E1,1.69E2,5E0,5E0,1.2E1,1E0,2E0,1E0,2E0,1E0,2.4E1,8E0,8E0,4E0,2E0,5E0,3E0,1E0,2E0,1.7E1,7E0,2E0,9E0,2E0,2E0,2.4E1,5.7E1,1.57E2,1.2E1,1E0,4E0,4E0,1E0,1E0,1.1E1],"tree_param":{"num_deleted":"0","num_feature":"6","num_nodes":"81","size_leaf_vector":"1"}},{"base_weights":[6.633118E-1,-3.813484E0,2.9383948E0,1.0388392E1,-4.390773E0,-5.2436104E0,5.8055873E0,2.2700226E0,2.549012E0,-5.7827387E0,2.636006E0,-1.5946572E0,-8.948085E0,-1.8115193E0,1.0131534E1,-1.772185E-1,5.555556E-1,-4.847159E0,-1.4442727E1,1.9243052E0,2.5159043E-1,4.086427E0,-5.315603E0,-1.0988065E1,-1.7965102E-1,-4.584085E0,9.218678E0,1.8995E1,4.589983E0,-5.3129835E0,2.2498043E0,-1.7944674E1,8.7735367E-1,1.8219379E0,-1.471608E0,1.2369931E0,1.0107783E1,-7.4723535E0,2.4000416E0,1.05091095E-1,-1.143944E1,1.0523977E0,-8.706623E0,1.7704355E1,-5.99358E0,2.352472E1,-1.7174177E0,1.0541622E1,3.9143894E1,1.9999444E0,2.6239202E1,-4.5365116E-1,-1.4354763E0,-3.1831867E-1,-1.939196E0,1.2965015E0,-1.1648985E0,4.6217594E-1,-2.7439338E-1,-2.1077876E-1,6.341244E-1,-3.069376E-1,1.4169418E0,-1.994876E-1,-8.3747005E-1,4.0785417E-1,-6.379726E-2,-1.2227411E0,-3.4577695E-1,-1.0177828E0,-1.410904E-1,-6.421337E-1,2.7886698E0,-4.6365625E-1,-2.383268E0,3.8386986E-1,4.849318E0,2.8653026E-1,-1.3365533E0,5.6295242E-2,2.0490663E0,4.276453E0,-5.7725126E-1,1.0452495E0,-6.950107E-1,-1.0710647E0,3.8326397E0],"categories":[],"categories_nodes":[],"categories_segments":[],"categories_sizes":[],"default_left":[0,0,0,0,0,0,0,0,0,0,0,0,0,0,0,0,0,0,0,0,0,0,0,0,0,0,0,0,0,0,0,0,0,0,0,0,0,0,0,0,0,0,0,0,0,0,0,0,0,0,0,0,0,0,0,0,0,0,0,0,0,0,0,0,0,0,0,0,0,0,0,0,0,0,0,0,0,0,0,0,0,0,0,0,0,0,0],"id":21,"left_children":[1,3,5,7,9,11,13,15,-1,17,19,21,23,25,27,-1,-1,29,31,-1,33,35,37,39,41,43,45,47,49,51,-1,53,55,-1,57,59,61,63,65,-1,67,-1,69,71,73,75,77,79,81,83,85,-1,-1,-1,-1,-1,-1,-1,-1,-1,-1,-1,-1,-1,-1,-1,-1,-1,-1,-1,-1,-1,-1,-1,-1,-1,-1,-1,-1,-1,-1,-1,-1,-1,-1,-1,-1],"loss_changes":[4.411161E3,1.2426072E3,6.763286E3,6.777453E2,1.3943691E3,9.9954004E2,7.036958E3,7.624953E1,0E0,8.860425E2,9.4551306E2,8.46143E2,6.598611E2,2.4276514E3,6.5927734E3,0E0,0E0,1.4952434E3,6.05895E2,0E0,7.0797723E2,2.6201605E2,4.1731116E2,1.7504468E2,8.2178467E2,2.0852852E3,2.5436372E3,8.444322E3,4.71367E3,6.860935E2,0E0,1.3054883E2,6.0527167E2,0E0,1.754895E2,2.1823718E2,3.1109528E2,7.720276E1,3.3197834E1,0E0,1.401106E2,0E0,3.9307526E1,1.1616942E3,1.3419761E3,3.2545571E3,5.7209686E2,3.7610361E3,2.68625E3,5.8977544E3,4.4300806E3,0E0,0E0,0E0,0E0,0E0,0E0,0E0,0E0,0E0,0E0,0E0,0E0,0E0,